tree
version=v4
num_class=1
num_tree_per_iteration=1
label_index=0
max_feature_idx=22
objective=regression
feature_names=SP.POP.0014.TO.ZS inequality_x_safety health_risk_compound ER.FSH.AQUA.MT SP.DYN.TFRT.IN SP.POP.1564.MA.ZS SP.POP.1564.TO.ZS SP.POP.AG00.FE.IN SP.POP.0014.MA.ZS SP.POP.AG00.MA.IN SH.DTH.MORT SP.POP.65UP.FE.IN EN.GHG.N2O.PI.MT.CE.AR5 SP.POP.DPND.YG SP.POP.0014.TO.ZS_ma3 SP.POP.0014.TO.ZS_ma5 SP.POP.0014.TO.ZS_accel inequality_x_safety_ma3 inequality_x_safety_ma5 inequality_x_safety_accel health_risk_compound_ma3 health_risk_compound_ma5 health_risk_compound_accel
feature_infos=[-3.00240816951312:2.6189825814523267] [0:1] [0:1] [-2.207308301610976:5] [-2.8909146739371878:2.4965925985620192] [-2.6971023600317419:2.790260086368193] [-2.6970815090829943:2.8175832413514161] [-2.6393453722789846:2.5714997105742281] [-2.9065720730264371:2.6987581050839027] [-2.654843084589773:2.6482385411361151] [-3.2054997854275031:3.8828833834187217] [-1.642965247363934:2.9606518336837739] [-2.1922758250067527:5] [-2.8341972974609528:2.795565606482632] [-3.0005987131828675:2.2223696151620791] [-2.7581881099293639:1.9306013017639905] [-97.671297451693306:99.504079287503714] [0.00023718366894339999:0.98961026253575624] [0.0016117444645027:0.97577510042901361] [-3714.4202642583559:3714.6972495269401] [3.3526129584766668e-05:1] [0.0001767024602419:1] [-169.10008024766208:169.09025448237205]
tree_sizes=1973 2048 2052 2045 2250 2154 2037 2271 2035 2259 2065 2178 2252 1953 2298 1967 1942 2180 1876 2180 1232 2170 2192 1850 2174 1975 2200 2165 2191 2090

Tree=0
num_leaves=18
num_cat=0
split_feature=17 17 17 17 17 17 19 14 9 17 8 9 4 17 13 10 10
split_gain=77.4472 11.4437 10.2347 1.65217 1.3272 1.25779 0.955463 0.776404 0.755892 0.520489 0.474449 0.372692 0.359521 0.337023 0.28039 0.119192 0.0393132
threshold=0.36801007760463894 0.16106999844640907 0.52464705342799867 0.26585417714956544 0.069637207768234011 0.78400140858498035 0.067908833701340168 -0.063342455752838575 0.28915204479652939 0.62133698669271353 -0.039007266564059895 -0.050463075175930149 -0.83039546318662971 0.45365754840339145 -0.46399033881591328 -0.54761511176497268 -0.63182725589402855
decision_type=2 2 2 2 2 2 2 2 2 2 2 2 2 2 2 2 2
left_child=1 4 6 7 14 9 13 11 16 -4 12 -3 -6 -2 -1 -11 -5
right_child=2 3 5 8 10 -7 -8 -9 -10 15 -12 -13 -14 -15 -16 -17 -18
leaf_value=0.43434326844759957 0.46541053548175793 0.4442043018476064 0.48334051094415575 0.45409404833971789 0.44199725635317844 0.49857842498462512 0.47833936689068512 0.45567519002567775 0.46411174090656671 0.48791659685488831 0.44562361017984714 0.45140408040263558 0.4353549311883444 0.47169591094878732 0.42774645118534399 0.4922082065755809 0.45669116810515825
leaf_weight=96.899999439716339 139.39999955892563 119.39999967813492 110.09999942779541 85.699999868869781 99.899999558925629 95.899999558925629 79.79999965429306 109.49999904632568 110.19999945163727 72.499999821186066 83.199999153614044 80.599999666213989 120.0999995470047 96.699999630451202 77.699999272823334 107.59999924898148 71.599999606609344
leaf_count=111 167 128 147 90 111 110 111 160 147 77 119 89 133 123 97 145 98
internal_value=0.460466 0.446453 0.481521 0.454207 0.437089 0.490456 0.470601 0.450138 0.458916 0.487772 0.440361 0.447106 0.438371 0.467985 0.431408 0.490481 0.455276
internal_weight=1756.8 1054.8 702 577 477.8 386.1 315.9 309.5 267.5 290.2 303.2 200 220 236.1 174.6 180.1 157.3
internal_count=2163 1283 880 712 571 479 401 377 335 369 363 217 244 290 208 222 188
is_linear=0
shrinkage=1


Tree=1
num_leaves=18
num_cat=0
split_feature=17 17 17 21 17 17 21 19 17 17 9 17 21 11 13 17 9
split_gain=65.2939 9.64789 8.62863 1.94712 1.14722 1.07107 0.905224 0.807024 0.757544 0.740241 0.613561 0.436254 0.307167 0.316029 0.221218 0.195132 0.0602133
threshold=0.36801007760463894 0.16106999844640907 0.52464705342799867 0.81851414380584642 0.084423318522145768 0.64074683994546811 0.69970571838000672 0.052993973751332156 0.22669791070756803 0.26585417714956544 0.28915204479652939 0.78400140858498035 0.77429096836775524 -0.46054676618445939 -0.46399033881591328 0.20314775823551459 0.32409925635887704
decision_type=2 2 2 2 2 2 2 2 2 2 2 2 2 2 2 2 2
left_child=1 4 7 9 14 -4 -6 12 -5 15 -11 16 13 -2 -1 -3 -7
right_child=2 3 5 8 6 11 -8 -9 -10 10 -12 -13 -14 -15 -16 -17 -18
leaf_value=-0.023300991380828875 0.0048193682513234465 -0.0081627004941416149 0.021839449785064621 -0.018011015973679038 -0.012428592974634925 0.02665776117340064 -0.022014599133179789 0.016443717966376118 -0.0077985269027594983 -0.0026817698512434504 0.0070017216482222092 0.035279159102032401 0.0035796280256880147 0.012888439400275675 -0.028613869760115498 -0.0030321635708310348 0.029849742077472617
leaf_weight=118.19999933242798 54.599999606609344 91.699999332427979 131.89999932050705 81.899999797344208 122.39999902248383 77.499999523162842 142.89999949932098 84.29999965429306 119.59999978542328 92.699999570846558 82.999999523162842 95.899999558925629 96.799999952316284 80.199999630451202 94.299999117851257 108.09999930858612 80.79999965429306
leaf_count=135 95 117 175 87 160 98 157 116 125 121 118 110 98 92 119 144 96
internal_value=0.000284644 -0.0125817 0.0196172 -0.00546198 -0.0211796 0.0278211 -0.017592 0.00959008 -0.0119494 -0.00198071 0.00189267 0.0309249 0.00709543 0.00962011 -0.0256587 -0.00538687 0.028287
internal_weight=1756.8 1054.8 702 577 477.8 386.1 265.3 315.9 201.5 375.5 175.7 254.2 231.6 134.8 212.5 199.8 158.3
internal_count=2163 1283 880 712 571 479 317 401 212 500 239 304 285 187 254 261 194
is_linear=0
shrinkage=0.0818081


Tree=2
num_leaves=18
num_cat=0
split_feature=18 18 18 2 2 18 18 2 18 18 18 6 12 16 16 16 10
split_gain=55.5805 8.4765 6.26907 1.66374 1.28074 0.907386 0.793098 0.562629 0.487477 0.476133 0.402025 0.3848 0.274086 0.217866 0.255517 0.214016 0.16512
threshold=0.36550007268206119 0.16869941295825977 0.6026502820358377 0.83836719430518791 0.8078123719246938 0.068043877042921863 0.43984843472574781 0.92442631310555867 0.20438618991415755 0.22613182640651971 0.79128483302751673 -0.56434385373959717 0.013914185828007001 -0.00076152522064319988 -0.067098502954186942 -0.027659443095436099 -0.093493514088464735
decision_type=2 2 2 2 2 2 2 2 2 2 2 2 2 2 2 2 2
left_child=1 5 4 8 6 -1 -2 12 -3 -5 15 -8 -7 14 -10 -4 -16
right_child=2 3 10 9 -6 7 11 -9 13 -11 -12 -13 -14 -15 16 -17 -18
leaf_value=-0.025337882752817287 0.0094302094974124794 -0.0072583230514197813 0.028974496427778895 -0.015645783076839961 0.0052254669030534313 -0.018273186577775605 0.013998175484494828 -0.022737331194720226 -0.00305194560846725 -0.0075616850143944104 0.032550961119231225 0.021622981061357856 -0.012810781127970695 -0.0041051323558671544 0.00070356490264245064 0.023506151698792121 0.0061568668143363627
leaf_weight=136.39999902248383 112.09999942779541 81.499999403953552 77.699999690055847 83.599999785423279 136.59999990463257 115.99999898672104 80.299999475479126 96.799999713897705 66.599999606609344 116.99999976158142 76.899999618530273 98.799999356269836 130.79999929666519 68.79999965429306 87.29999965429306 124.89999932050705 64.699999511241913
leaf_count=162 164 106 91 90 139 151 131 104 80 123 87 125 152 92 102 155 109
internal_value=0.000261358 -0.0116842 0.0179863 -0.00493447 0.0117609 -0.0196925 0.0148267 -0.0174514 -0.00167383 -0.0109307 0.0275149 0.0182044 -0.0153782 -9.01917e-05 0.00117343 0.0256033 0.00302481
internal_weight=1756.8 1049.5 707.3 569.5 427.8 480 291.2 343.6 368.9 200.6 279.5 179.1 246.8 287.4 218.6 202.6 152
internal_count=2163 1271 892 702 559 569 420 407 489 213 333 256 303 383 291 246 211
is_linear=0
shrinkage=0.0818081


Tree=3
num_leaves=18
num_cat=0
split_feature=18 18 18 2 2 18 18 7 7 2 22 18 18 18 16 16 7
split_gain=46.8586 7.14633 5.28531 1.40266 1.08831 0.799603 0.764995 0.610651 0.484631 0.483879 0.418447 0.401416 0.339084 0.319863 0.173368 0.170698 0.128687
threshold=0.36550007268206119 0.16869941295825977 0.6026502820358377 0.83836719430518791 0.83836719430518791 0.48413377666925006 0.068043877042921863 0.15226340794881829 0.57064275453132862 0.88961534576322276 0.0041177120239960507 0.22613182640651971 0.78588626816750595 0.13400038081685223 -0.023591469539505847 -0.029755499828911545 0.27248360284706413
decision_type=2 2 2 2 2 2 2 2 2 2 2 2 2 2 2 2 2
left_child=1 6 4 7 5 8 -1 15 -2 13 -9 -5 14 -8 -4 -3 -7
right_child=2 3 12 11 -6 16 9 10 -10 -11 -12 -13 -14 -15 -16 -17 -18
leaf_value=-0.023265037940693303 0.0066432162285823375 -0.0079394039757501068 0.026392388367024736 -0.014365830991320033 0.0039855479257165346 0.015547132407581817 -0.016137349511592621 -0.0012804326787812248 0.015478503049315055 -0.020169243202194456 0.006688416320114101 -0.0069430777680637512 0.029644545595171438 -0.0097088483775985279 0.021429176793781219 -0.0028350583912549912 0.020666528456160661
leaf_weight=136.39999902248383 117.09999942779541 74.09999942779541 78.399999678134918 83.599999785423279 114.79999995231628 64.499999463558197 139.49999892711639 116.39999938011169 64.399999618530273 121.6999996304512 70.999999642372131 116.99999976158142 83.099999606609344 82.399999439716339 117.99999934434891 107.39999938011169 66.999999701976776
leaf_count=162 168 91 92 90 116 99 171 158 90 131 100 123 94 105 147 140 86
internal_value=0.000239976 -0.0107284 0.0165149 -0.00453079 0.0107988 0.0132977 -0.0180815 -0.0015369 0.00977817 -0.0160238 0.00173871 -0.0100365 0.0252639 -0.0137502 0.0234104 -0.00491899 0.0181555
internal_weight=1756.8 1049.5 707.3 569.5 427.8 313 480 368.9 181.5 343.6 187.4 200.6 279.5 221.9 196.4 181.5 131.5
internal_count=2163 1271 892 702 559 443 569 489 258 407 258 213 333 276 239 231 185
is_linear=0
shrinkage=0.0818081


Tree=4
num_leaves=20
num_cat=0
split_feature=1 1 1 18 2 1 2 2 2 1 4 19 1 19 1 19 19 4 0
split_gain=42.1211 6.47477 5.77418 1.21318 1.04302 0.841967 0.711897 0.534202 0.435888 0.370605 0.280049 0.261067 0.245292 0.211723 0.205245 0.200263 0.188446 0.11551 0.0826917
threshold=0.36879985274070082 0.52006949618837328 0.1782361776957134 0.13577259222695301 0.83836719430518791 0.78415556030340261 0.89105467097230073 0.78582187146030114 0.70853299542731951 0.33333505504524014 -0.29536877467751288 -0.18311426423853877 0.075781373086476519 -0.078241137840682776 0.64041774400965024 -0.057669909297814341 0.10404650856112681 -0.62619024136212176 -0.30594827795041679
decision_type=2 2 2 2 2 2 2 2 2 2 2 2 2 2 2 2 2 2 2
left_child=2 7 3 12 9 8 11 15 10 13 -3 -5 18 -4 -12 -2 -15 -14 -1
right_child=1 5 4 6 -6 -7 -8 -9 -10 -11 14 -13 17 16 -16 -17 -18 -19 -20
leaf_value=-0.01942930267406685 0.01270059787352245 0.025588602551290036 0.0005810489368408006 -0.0047921734204391586 -0.0088409080637993475 0.028093989978113281 -0.018016123898945979 0.0025789996011127548 0.015199629461331986 0.0046897242152885866 0.015745936133868384 -0.011520057799355592 -0.014350030427195749 -0.0071977567918619688 0.022706875793697397 0.0071806350468686837 -0.0011074251143982493 -0.018848714720954365 -0.022881442547988341
leaf_weight=113.09999936819077 74.499999523162842 84.699999630451202 101.39999932050705 79.199999392032623 164.29999971389771 117.09999942779541 69.999999761581421 130.29999989271164 91.399999976158142 65.699999749660492 54.399999558925629 75.299999475479126 81.499999701976776 72.799999594688416 59.199999392032623 107.39999949932098 63.799999535083771 71.899999439716339 78.799999237060547
leaf_count=129 106 94 138 112 172 140 76 133 93 87 92 98 89 89 92 143 91 89 100
internal_value=0.000220344 0.0154391 -0.0103234 -0.0158536 -0.00359012 0.02224 -0.0111721 0.00657732 0.0198738 -0.000749477 0.0220282 -0.00807121 -0.0188974 -0.00225098 0.0193735 0.00944143 -0.00435323 -0.0164586 -0.0208469
internal_weight=1756.8 719 1037.8 569.8 468 406.8 224.5 312.2 289.7 303.7 198.3 154.5 345.3 238 113.6 181.9 136.6 153.4 191.9
internal_count=2163 893 1270 693 577 511 286 382 371 405 278 210 407 318 184 249 180 178 229
is_linear=0
shrinkage=0.0818081


Tree=5
num_leaves=19
num_cat=0
split_feature=17 17 17 20 17 20 19 19 17 17 9 20 5 19 13 17 20 20
split_gain=33.3191 4.87725 4.515 1.02466 0.717044 0.734037 0.602835 0.570633 0.561379 0.463136 0.446706 0.33316 0.311714 0.236164 0.15275 0.111112 0.108308 0.0765058
threshold=0.36801007760463894 0.16106999844640907 0.52464705342799867 0.82094186369928701 0.11318472086074541 0.82677250156065796 0.19147221168955597 0.052993973751332156 0.72685422774800568 0.24906869527641309 1.0000000180025095e-35 0.64071641031548021 -0.42314718949612434 -0.051387813521779145 -0.33053327553475137 0.80192736815560328 0.48681800331370734 0.862007519003122
decision_type=2 2 2 2 2 2 2 2 2 2 2 2 2 2 2 2 2 2
left_child=1 4 7 6 14 -6 10 13 11 -5 -3 12 -4 -2 17 -10 -12 -1
right_child=2 3 8 9 5 -7 -8 -9 15 -11 16 -13 -14 -15 -16 -17 -18 -19
leaf_value=-0.014649375565272824 0.0072920029585428047 -0.0066538871889466524 0.016144805698496221 -0.012768520843137648 -0.0063321625624466272 -0.016833310603579902 0.0044347219989992878 0.012522334130823105 0.021569055804921151 -0.0048981710720734286 -0.0025946857794543953 0.012776824339863543 0.023495915238892075 0.0020671268844794054 -0.019950482912849916 0.025911626347745253 0.0018073307957722892 -0.017996385364668986
leaf_weight=103.59999930858612 114.9999994635582 135.49999916553497 84.899999260902405 95.599999785423279 99.599999189376831 80.599999845027924 89.899999439716339 84.29999965429306 80.399999618530273 104.99999976158142 68.299999594688416 72.599999904632568 70.79999965429306 116.59999972581863 112.19999891519547 77.399999618530273 82.699999570846558 81.799999713897705
leaf_count=121 158 168 136 101 131 85 129 116 94 111 98 75 86 127 145 88 105 89
internal_value=0.000202318 -0.00898874 0.0140125 -0.0039266 -0.0151019 -0.0110291 -0.00140986 0.00675923 0.019947 -0.00864895 -0.00324381 0.0173535 0.0194875 0.00466152 -0.017568 0.0236991 -0.000183773 -0.0161261
internal_weight=1756.8 1054.8 702 577 477.8 180.2 376.4 315.9 386.1 200.6 286.5 228.3 155.7 231.6 297.6 157.8 151 185.4
internal_count=2163 1283 880 712 571 216 500 401 479 212 371 297 222 285 355 182 203 210
is_linear=0
shrinkage=0.0818081


Tree=6
num_leaves=18
num_cat=0
split_feature=1 1 1 20 17 20 20 1 21 17 6 1 21 1 20 1 1
split_gain=28.0308 4.38867 3.59414 1.07055 0.717346 0.61077 0.421786 0.359684 0.378325 0.259321 0.254464 0.198428 0.173979 0.12938 0.129075 0.100598 0.0490548
threshold=0.38391550963890803 0.17041088048491579 0.58115559155894536 0.87852436892472296 0.063860248175852605 0.93643179760153272 0.79291459039099987 0.80914364951277573 0.71150781826710441 0.26307673321116359 -0.36790322562415095 0.099101548854337015 0.22580729638838287 0.21277464242216801 0.69277991373303172 0.024586648052853554 0.12768700295780827
decision_type=2 2 2 2 2 2 2 2 2 2 2 2 2 2 2 2 2
left_child=1 4 6 9 15 11 10 8 12 13 -2 -6 -4 -3 -11 -1 -13
right_child=2 3 7 -5 5 -7 -8 -9 -10 14 -12 16 -14 -15 -16 -17 -18
leaf_value=-0.019859380530048289 0.0066542145137435151 -0.0051208558720232675 0.017222421611605913 -0.0082519820823907832 -0.0071841891320309501 -0.017360808358079332 0.0035776520979078153 0.024285673962069126 0.013763754525404943 0.0033451960353354402 0.012226630265843181 -0.013023629030871271 0.022887141776629625 -0.00060130609456146577 -0.00092777919140871439 -0.015712264785311895 -0.0101698449356625
leaf_weight=78.799999356269836 100.79999923706055 76.0999995470047 61.699999451637268 160.99999988079071 135.79999905824661 84.799999713897705 114.99999994039536 84.399999558925629 86.699999928474426 124.79999929666519 120.29999947547913 71.399999499320984 88.09999942779541 95.699999392032623 76.199999809265137 77.799999475479126 92.599999368190765
leaf_count=96 164 94 96 164 168 92 117 101 89 175 142 91 108 123 84 91 119
internal_value=0.000195877 -0.00794027 0.0135085 -0.00267709 -0.0131315 -0.011231 0.00759607 0.0197009 0.0180647 -0.000269473 0.00968616 -0.0094971 0.020554 -0.00260328 0.00172529 -0.0177991 -0.0114123
internal_weight=1732 1075 657 533.8 541.2 384.6 336.1 320.9 236.5 372.8 221.1 299.8 149.8 171.8 201 156.6 164
internal_count=2114 1297 817 640 657 470 423 394 293 476 306 378 204 217 259 187 210
is_linear=0
shrinkage=0.0818081


Tree=7
num_leaves=20
num_cat=0
split_feature=2 2 19 19 4 7 2 7 4 0 4 19 10 10 3 21 2 19 0
split_gain=3.35261 1.05214 0.782087 0.550225 0.533005 0.528798 0.450244 0.417429 0.865907 0.538231 0.305542 0.217576 0.171957 0.35205 0.165338 0.154776 0.192546 0.150641 0.083421
threshold=0.66341479550748284 0.97025681896122862 -0.12736397640189309 -0.32933096555111585 -0.91359201896893782 -0.07350390079723669 0.088528256083767007 -0.015864397201209246 -0.17728124677236207 -0.33032998363996241 -0.27880440532723055 0.036358289416542358 -0.82710080381704021 -0.64315661628693366 -0.091246978237390627 0.20766039120934235 0.43450641634599224 0.17462832628202155 -1.0967159318302855
decision_type=2 2 2 2 2 2 2 2 2 2 2 2 2 2 2 2 2 2 2
left_child=2 3 4 -2 -1 12 -4 8 -8 -9 -6 -7 -5 -14 17 -12 -17 -11 -3
right_child=1 18 6 5 10 11 7 9 -10 14 15 -13 13 -15 -16 16 -18 -19 -20
leaf_value=-0.0065447992379419045 -0.006190112063278917 -0.010353261067232923 0.012338845177904297 -0.0059437751916992373 0.0067676699285515694 0.0039930050700952204 -0.0038792187538580114 0.012618509688162813 0.0090532936407942358 0.0041994461497423426 0.0038969332452580135 -0.00075922924417316838 0.0021700068270141203 -0.0045541421118010118 0.0013706305915374888 -0.0046765453284397423 0.0020744872359111642 0.0093497799887598942 -0.006988093468057825
leaf_weight=55.699999749660492 147.79999911785126 86.699999749660492 64.299999356269836 89.399999976158142 72.699999570846558 158.6999996304512 85.199999451637268 77.499999821186066 58.399999439716339 99.499999046325684 57.299999594688416 108.5999995470047 91.299999892711639 121.39999967813492 68.59999942779541 56.899999499320984 56.199999511241913 61.499999463558197 114.29999989271164
leaf_count=62 174 93 97 90 84 170 99 82 98 135 98 123 94 135 86 93 88 96 117
internal_value=0.000179853 -0.00320862 0.00400302 -0.00174259 0.000673525 -0.00058814 0.00593478 0.00502113 0.00138024 0.00672361 0.00232742 0.00206224 -0.00293322 -0.00166784 0.00473381 0.000433011 -0.00132191 0.00616682 -0.00843964
internal_weight=1732 918.2 813.8 717.2 298.8 569.4 515 450.7 143.6 307.1 243.1 267.3 302.1 212.7 229.6 170.4 113.1 161 201
internal_count=2114 996 1118 786 425 612 693 596 197 399 363 293 319 229 317 279 181 231 210
is_linear=0
shrinkage=0.0818081


Tree=8
num_leaves=18
num_cat=0
split_feature=1 1 1 18 2 7 2 7 1 1 2 19 1 20 3 9 18
split_gain=22.801 3.63819 2.90927 0.874712 0.859582 0.558313 0.382693 0.372285 0.309533 0.307675 0.29251 0.264933 0.25968 0.219158 0.139952 0.0987497 0.0897436
threshold=0.38391550963890803 0.17041088048491579 0.58115559155894536 0.11569889362129691 0.90444165471066484 0.099375921361592817 0.91892701295404067 0.76355233327161132 0.77343828542361848 0.45161546996444674 0.58842259864442992 0.11422465880617812 0.11479765893783891 0.54733236614207703 -0.23810107633837643 0.024520176104615404 0.50146058265263649
decision_type=2 2 2 2 2 2 2 2 2 2 2 2 2 2 2 2 2
left_child=1 3 7 11 5 14 12 9 10 -2 -4 15 -5 -7 -3 -1 -11
right_child=2 4 8 6 -6 13 -8 -9 -10 16 -12 -13 -14 -15 -16 -17 -18
leaf_value=-0.01845470196646162 0.0016859322215972861 -0.0010162253462735217 0.01850198984082356 -0.0032532869540940063 -0.0078181662704216622 0.00017466840494596945 -0.013473840959105273 0.011748009895873206 0.021122169840524764 0.0058194016101691401 0.012255129018328174 -0.010723262847213989 -0.0094254176702740777 0.0057048181817962781 -0.0053901478734295679 -0.014910164543950111 0.0097191638860957118
leaf_weight=92.5999995470047 96.399999678134918 88.09999942779541 117.39999908208847 88.999999284744263 142.59999990463257 103.59999930858612 71.599999666213989 79.399999737739563 115.89999938011169 89.79999965429306 87.599999904632568 72.5999995470047 93.599999308586121 89.29999965429306 110.1999996304512 121.79999911785126 70.499999582767487
leaf_count=104 118 119 163 117 145 151 80 100 140 116 91 86 124 104 121 146 89
internal_value=0.000165139 -0.00717286 0.0121718 -0.0118994 -0.00238078 -0.000398739 -0.00840476 0.00685243 0.017743 0.00533817 0.0158326 -0.0149947 -0.0064171 0.00273477 -0.00344692 -0.0164411 0.00753453
internal_weight=1732 1075 657 541.2 533.8 391.2 254.2 336.1 320.9 256.7 205 287 182.6 192.9 198.3 214.4 160.3
internal_count=2114 1297 817 657 640 495 321 423 394 323 254 336 241 255 240 250 205
is_linear=0
shrinkage=0.0818081


Tree=9
num_leaves=20
num_cat=0
split_feature=18 18 17 20 21 7 10 18 12 18 17 18 17 9 9 12 12 21 14
split_gain=18.1879 3.04855 2.18125 0.972819 0.48741 0.411042 0.36351 0.352518 0.349061 0.345414 0.341265 0.325144 0.324442 0.258244 0.203044 0.161337 0.128754 0.125703 0.156377
threshold=0.3709461359561424 0.13728194987177347 0.64074683994546811 0.88820841215984381 0.76814751779352097 0.099375921361592817 -0.39240099247337351 0.079761869263741458 -0.48666591639963092 0.29126890181794379 0.23955371040597975 0.23157079223758842 0.487630096828087 0.37971616523977331 0.51485851890296908 -0.23716718580140631 0.21061966328186557 0.76814751779352097 0.53162569124411718
decision_type=2 2 2 2 2 2 2 2 2 2 2 2 2 2 2 2 2 2 2
left_child=1 7 4 5 8 9 -7 16 12 15 -8 -5 -2 -9 -10 -3 -1 18 -4
right_child=2 3 17 11 -6 6 10 13 14 -11 -12 -13 -14 -15 -16 -17 -18 -19 -20
leaf_value=-0.0174132231396457 0.0019988947954226663 -0.0035743417535666951 0.020445153609044052 -0.011190163912047571 0.0033565896098493157 0.0048094634475185014 -0.0056464911570982311 -0.012411549600247705 0.009017811513110251 0.00038793319897839005 0.0022688488238828543 -0.0044599860612639791 0.010318449359820918 -0.0063219040723201418 0.01505748257609537 -0.0087104771162434414 -0.012928624397187994 0.014407290237705827 0.015217329251609102
leaf_weight=86.399999380111694 64.699999630451202 90.39999932050705 92.199999570846558 107.89999979734421 145.49999988079071 99.999999523162842 71.199999511241913 124.19999927282333 78.499999463558197 90.499999761581421 74.699999511241913 86.599999904632568 60.899999558925629 74.599999487400055 70.899999618530273 74.799999475479126 84.999999523162842 87.499999940395355 65.499999284744263
leaf_count=103 105 112 105 113 149 112 106 144 104 108 114 89 99 93 84 89 98 89 98
internal_value=0.000151629 -0.00647227 0.0107616 -0.0032823 0.00718569 -0.0013779 0.00101016 -0.0124705 0.00921163 -0.00367445 -0.00159387 -0.0081936 0.00603283 -0.0101264 0.011884 -0.00589991 -0.0151892 0.016894 0.0182738
internal_weight=1732 1066.3 665.7 696.1 420.5 501.6 245.9 370.2 275 255.7 145.9 194.5 125.6 198.8 149.4 165.2 171.4 245.2 157.7
internal_count=2114 1281 833 843 541 641 332 438 392 309 220 202 204 237 188 201 201 292 203
is_linear=0
shrinkage=0.0818081


Tree=10
num_leaves=18
num_cat=0
split_feature=20 3 20 9 8 8 12 9 20 13 8 13 8 9 12 20 3
split_gain=2.15373 0.603314 0.589027 0.544828 1.04461 0.651231 0.361385 0.359559 0.307057 0.29083 0.494882 0.352316 0.235243 0.201162 0.176882 0.111021 0.143267
threshold=0.6622100390844442 0.89707798609305456 0.9347372072857979 1.0000000180025095e-35 0.71926141550605283 0.29984525455799577 0.033242571372907904 -0.90878326526096109 0.41303701383159186 -1.2254144098582322 -0.401761295750938 -0.25673373703719055 1.0944709859073039 -0.86648354797182414 0.36141822102415549 0.97899347359055744 1.020760151999399
decision_type=2 2 2 2 2 2 2 2 2 2 2 2 2 2 2 2 2
left_child=1 3 7 5 6 -1 8 -2 -5 -9 14 -12 -6 -7 -11 16 -4
right_child=2 -3 15 4 12 13 -8 9 -10 10 11 -13 -14 -15 -16 -17 -18
leaf_value=-0.0038945926691712797 -0.0054408239379969657 -0.0032085660265592886 -0.0060944368869409972 0.013048353587639755 -0.0028401048313992242 0.0082525821129789192 0.0046766380415338349 -0.0047642743294946926 0.0065515261148750637 0.00071577232050525931 -0.0059611875514044531 0.00093200565269423098 0.003660489542559135 0.002076399033181619 0.0055955399019404842 -0.0071099952709808689 -0.0016693471821964587
leaf_weight=107.89999938011169 101.29999971389771 87.699999511241913 107.39999985694885 118.99999916553497 84.399999260902405 57.299999475479126 117.19999939203262 74.899999797344208 82.39999932050705 83.99999988079071 88.599999666213989 112.79999911785126 66.699999392032623 91.899999022483826 121.79999971389771 136.69999986886978 89.99999988079071
leaf_count=128 110 105 111 151 128 96 144 80 111 87 98 147 108 148 129 140 93
internal_value=0.000139225 0.00320102 -0.00257885 0.00397444 0.00563158 0.000946976 0.00828846 -0.00101023 0.0103903 -7.92602e-05 0.000782494 -0.00210045 2.94422e-05 0.00444836 0.0036038 -0.00531794 -0.00407692
internal_weight=1732 814.5 917.5 726.8 469.7 257.1 318.6 583.4 201.4 482.1 407.2 201.4 151.1 149.2 205.8 334.1 197.4
internal_count=2114 1119 995 1014 642 372 406 651 262 541 461 245 236 244 216 344 204
is_linear=0
shrinkage=0.0818081


Tree=11
num_leaves=19
num_cat=0
split_feature=2 6 9 16 0 9 4 2 4 16 3 4 16 16 9 13 4 9
split_gain=1.80785 1.41675 0.595531 1.00072 0.642185 0.456724 0.595067 0.520745 0.412849 0.380512 0.289489 0.234614 0.206438 0.152475 0.144267 0.0620282 0.053871 0.0307353
threshold=0.93440064634094511 1.2590870188621412 -0.010103915136103947 -0.046396158160618595 0.57082652327497074 1.1726865060219906 -0.85815912760568369 0.69549538461568616 0.10405627502687106 -0.0050163793755904993 -0.37511713068918079 -1.0910584791529632 -0.0015448440973128998 -0.0054570923699671491 -0.41092486095467412 -0.94631522980229998 -0.73577882616179779 -0.82517999468388881
decision_type=2 2 2 2 2 2 2 2 2 2 2 2 2 2 2 2 2 2
left_child=1 2 3 14 5 6 -4 -8 9 -5 13 -3 16 -6 -1 -14 -2 -10
right_child=12 11 4 8 10 -7 7 -9 17 -11 -12 -13 15 -15 -16 -17 -18 -19
leaf_value=-0.0071495718488177283 -0.0017281846690656304 -0.0023578337896559007 0.012969351253640536 0.0039918042625368471 0.0042241981235517714 -1.3393127867807539e-05 0.0073177175511600348 0.00039690910670089728 0.0084621927821771567 -0.0031084585951659895 -0.0044165958232848974 -0.0083776669504326065 -0.0086152449436001678 -0.00098904342621938487 -0.0022793893787382718 -0.005513272786311375 -0.0045134929222739716 0.00572172419444247
leaf_weight=89.5999995470047 90.799999833106995 84.799999594688416 80.899999797344208 110.99999958276749 94.499999046325684 81.899999558925629 233.49999850988388 105.69999945163727 50.399999618530273 92.699999630451202 62.899999618530273 88.599999785423279 87.29999977350235 62.299999415874481 74.599999368190765 85.299999892711639 95.199999928474426 59.999999463558197
leaf_count=107 95 95 86 125 154 98 290 124 88 103 81 94 93 101 93 88 97 102
internal_value=0.000127835 0.00147838 0.00247718 0.00023853 0.00396083 0.00557523 0.00666475 0.00516109 0.00294408 0.000760604 0.000272022 -0.00543372 -0.00504462 0.00215286 -0.00493694 -0.00708224 -0.00315379 0.00697282
internal_weight=1732 1373.4 1200 478.3 721.7 502 420.1 339.2 314.1 203.7 219.7 173.4 358.6 156.8 164.2 172.6 186 110.4
internal_count=2114 1741 1552 618 934 598 500 414 418 228 336 189 373 255 200 181 192 190
is_linear=0
shrinkage=0.0818081


Tree=12
num_leaves=20
num_cat=0
split_feature=1 1 1 17 2 8 9 1 1 4 21 21 2 2 21 5 5 5 4
split_gain=15.6162 2.72713 1.90592 0.659308 0.593358 0.433801 0.364222 0.348131 0.325225 0.322263 0.256204 0.347775 0.211674 0.652396 0.18682 0.213595 0.106218 0.0617309 0.049399
threshold=0.38983558279864045 0.22140442754818213 0.54219171090022911 0.11858017950780061 0.82650167408713815 -0.28334776024615316 0.88459401399817406 0.80914364951277573 0.021242394670161955 -0.73060329873715479 0.73769298512915982 0.31172365831044335 0.35177638796484517 0.69227181441102392 0.69970571838000672 -0.48491672601207475 -0.2838285150648488 0.75606062024486398 -0.76209041176886483
decision_type=2 2 2 2 2 2 2 2 2 2 2 2 2 2 2 2 2 2 2
left_child=1 3 14 8 5 -5 12 10 -1 -10 11 -4 -3 -14 15 -2 -7 -6 -15
right_child=2 6 7 4 17 16 -8 -9 9 -11 -12 -13 13 18 -16 -17 -18 -19 -20
leaf_value=-0.016510426812928927 0.0036115900202264607 -0.0056680455611941242 0.010792689690525062 0.0012555839632718343 -0.011926371762589923 -0.0041716735323244171 0.0046442529547682182 0.018480377886967273 -0.0073662638383347511 -0.013364359046820892 0.0092171503764041981 0.017563664003552096 0.0059086996803179434 -0.0019490583071410843 0.0026206088915338259 0.0099629652072114813 -0.0088495054632404362 -0.0087294305224194721 -0.0047721659051415408
leaf_weight=73.099999308586121 67.999999463558197 67.599999606609344 100.39999902248383 74.999999642372131 80.799999713897705 63.699999511241913 77.699999809265137 83.699999630451202 123.49999934434891 116.49999910593033 103.59999990463257 102.69999945163727 73.899999499320984 84.699999868869781 128.99999988079071 73.999999582767487 66.299999356269836 80.899999678134918 81.29999977350235
leaf_count=92 113 104 152 84 88 102 98 97 140 145 106 124 100 88 135 94 88 89 90
internal_value=0.00027197 -0.00585959 0.0101451 -0.0089758 -0.00662163 -0.00369897 -0.000360101 0.013804 -0.011733 -0.0102778 0.0125278 0.0142165 -0.00162462 -0.000485241 0.0048742 0.00692147 -0.00655738 -0.0103269 -0.00333171
internal_weight=1726.4 1065 661.4 679.8 366.7 205 385.2 390.4 313.1 240 306.7 203.1 307.5 239.9 271 142 130 161.7 166
internal_count=2129 1308 821 828 451 274 480 479 377 285 382 276 382 278 342 207 190 177 178
is_linear=0
shrinkage=0.0818081


Tree=13
num_leaves=17
num_cat=0
split_feature=20 4 4 5 21 15 4 6 12 4 16 4 12 5 6 9
split_gain=1.71442 0.545647 0.449339 0.479794 0.491144 0.437789 0.504444 0.443323 0.391863 0.223615 0.215556 0.269794 0.186976 0.340451 0.163265 0.0775003
threshold=0.69563038605274119 -1.2538279202150633 -0.91359201896893782 1.1637993243135123 0.9189648324855223 -0.40884168921477998 -1.065213204809965 0.31745971498064601 0.99496625652046855 -0.67743757534243743 -0.07420243691320709 -0.32340460179114028 0.64850913879239924 0.22894271619817463 -0.27022302769260037 -0.28461031144807752
decision_type=2 2 2 2 2 2 2 2 2 2 2 2 2 2 2 2
left_child=5 -2 8 4 12 6 -1 9 -3 -7 -11 -12 13 -4 -13 -6
right_child=1 2 3 -5 15 7 -8 -9 -10 10 11 14 -14 -15 -16 -17
leaf_value=0.0010709529579294109 -0.0087314424139081342 -0.002045487471756321 0.0028829429321025127 -0.0084456500150895761 -0.0062062562365571639 -0.0020918759611491355 0.0089956590811003136 -0.00439004209862101 0.0051955993342991903 0.006999955457566133 -0.0030687690153352013 0.0037682324362312098 0.0033509227109946027 -0.0044627268809920443 -0.00091187196823933839 -0.0029885494945174982
leaf_weight=88.5999995470047 81.999999642372131 98.799999833106995 76.59999942779541 87.899999916553497 119.99999988079071 64.799999713897705 136.69999951124191 71.299999475479126 101.29999965429306 76.999999284744263 54.699999511241913 332.19999694824219 95.699999928474426 94.099999606609344 58.699999392032623 85.99999988079071
leaf_count=100 91 103 101 90 123 72 151 89 110 102 68 547 99 104 90 89
internal_value=0.00024972 -0.00239117 -0.00170745 -0.00289589 -0.00186323 0.00276634 0.00587925 0.00170161 0.00162028 0.00244103 0.00300309 0.00231242 0.000456359 -0.00116642 0.00306544 -0.00486295
internal_weight=1726.4 842.4 760.4 560.3 472.4 884 225.3 658.7 200.1 587.4 522.6 445.6 266.4 170.7 390.9 206
internal_count=2129 910 819 606 516 1219 251 968 213 879 807 705 304 205 637 212
is_linear=0
shrinkage=0.0818081


Tree=14
num_leaves=20
num_cat=0
split_feature=21 19 19 10 6 7 12 0 11 21 10 22 10 11 7 19 6 10 12
split_gain=1.46353 0.756713 0.481803 0.342106 0.393971 0.372273 0.308751 0.384829 0.228661 0.215828 0.250932 0.295426 0.20122 0.189915 0.203375 0.158194 0.139655 0.0904205 0.0847198
threshold=0.80452753055693937 -0.50595911816556993 0.0022490930703314505 -0.43263336161719412 -0.12119803752806378 -0.085762206789679343 -0.080599404387198786 0.55668524114774554 -0.13008354720205523 0.69970571838000672 -0.49713199348534454 -0.059373803164254141 -0.93126669682673269 1.1965466350228029 0.29223212622874611 -0.27439085560048604 0.59402138890902834 0.17600433630369583 -0.48312574018182536
decision_type=2 2 2 2 2 2 2 2 2 2 2 2 2 2 2 2 2 2 2
left_child=2 -2 3 5 6 -1 7 -5 -6 10 -4 18 -3 14 16 -9 -14 -13 -12
right_child=1 12 9 4 8 -7 -8 15 -10 -11 11 17 13 -15 -16 -17 -18 -19 -20
leaf_value=-0.00088081134676309871 -0.010722214999850283 0.0007209547609599295 0.008317385266951945 0.0078870107845824822 -0.0072755065696871301 0.0059171434652348399 -0.0043305417842918123 -0.0024042969794113972 -0.00095025745540756727 0.00041050211528637347 0.0046231733470416545 -0.0011596377017673747 -0.0007440363562914795 -0.0062023505957643508 0.00089578302046090471 0.0031792472627263746 -0.0050372190694944353 0.0028925642529145962 0.009056860992107783
leaf_weight=90.899999618530273 73.099999487400055 147.49999982118607 104.5999995470047 63.499999284744263 76.499999225139618 132.4999994635582 54.299999713897705 73.399999439716339 76.499999582767487 87.79999977350235 61.399999439716339 62.699999570846558 82.499999821186066 86.699999749660492 113.89999979734421 63.199999272823334 131.59999978542328 89.399999260902405 54.399999499320984
leaf_count=106 87 152 117 91 108 146 77 128 87 96 101 78 88 93 120 100 137 141 76
internal_value=0.000229291 -0.00289225 0.00204683 0.000578331 -0.000832455 0.0031511 0.00114044 0.00262508 -0.00411289 0.00405928 0.00491931 0.00359255 -0.00187416 -0.00279719 -0.00189711 0.000179004 -0.00338292 0.00122212 0.00670602
internal_weight=1726.4 635.3 1091.1 630.8 407.4 223.4 254.4 200.1 153 460.3 372.5 267.9 562.2 414.7 328 136.6 214.1 152.1 115.8
internal_count=2129 677 1452 843 591 252 396 319 195 609 513 396 590 438 345 228 225 219 177
is_linear=0
shrinkage=0.0818081


Tree=15
num_leaves=17
num_cat=0
split_feature=18 18 18 19 18 10 19 16 10 19 2 2 19 18 18 18
split_gain=11.3842 2.27354 1.17044 0.497404 0.441558 0.372362 0.340167 0.270797 0.325129 0.259368 0.55348 0.241175 0.208208 0.128288 0.0789055 0.067285
threshold=0.38619922363654674 0.19767660745289731 0.65534671538048195 0.19147221168955597 0.13577259222695301 -0.77893441117405871 0.13603313318897012 0.0018054743432526501 -0.79754597688680851 -0.064104591687119739 0.33293690057047254 0.69227181441102392 -0.18311426423853877 0.47939981512584479 0.090300343331976271 0.72023465497253381
decision_type=2 2 2 2 2 2 2 2 2 2 2 2 2 2 2 2
left_child=1 4 6 7 5 -1 9 8 -3 10 -2 -6 -10 -11 -7 -4
right_child=2 3 15 -5 11 14 -8 -9 12 13 -12 -13 -14 -15 -16 -17
leaf_value=-0.0072479371235020266 0.0015117580431276709 0.0029472216081489668 0.011487038452987309 0.0041435299210817386 -0.0026551201282993481 -0.014195089631278125 0.010116756202292226 -0.0059490341973648473 0.00025855086622560695 0.00041375296225762442 0.011452310487039723 -0.008126343181878817 -0.0050432906404575366 0.0048222776054257961 -0.010929088891073963 0.014446367655474275
leaf_weight=141.39999938011169 64.399999558925629 92.699999868869781 79.499999642372131 99.399999439716339 94.999999225139618 110.49999910593033 108.79999941587448 102.49999964237213 83.499999403953552 84.899999737739563 89.699999511241913 124.69999951124191 121.99999952316284 92.099999606609344 89.699999272823334 145.59999930858612
leaf_count=157 105 96 95 133 130 136 155 122 124 94 114 137 146 106 113 166
internal_value=0.000210533 -0.00504781 0.00860332 -0.00103658 -0.00862168 -0.0104618 0.00614821 -0.00232159 -0.00107472 0.00484413 0.00729806 -0.00576055 -0.00288901 0.00270769 -0.0127318 0.0134012
internal_weight=1726.4 1061.4 665 500.1 561.3 341.6 439.9 400.7 298.2 331.1 154.1 219.7 205.5 177 200.2 225.1
internal_count=2129 1294 835 621 673 406 574 488 366 419 219 267 270 200 249 261
is_linear=0
shrinkage=0.0818081


Tree=16
num_leaves=17
num_cat=0
split_feature=1 1 1 16 2 8 1 2 20 1 20 2 20 2 1 3
split_gain=10.6629 1.87621 1.36065 0.362319 0.285554 0.53809 0.251626 0.229542 0.512177 0.203084 0.138834 0.136556 0.132973 0.27698 0.108085 0.0965938
threshold=0.38983558279864045 0.22140442754818213 0.55528017384400929 0.0016842517526248501 0.94996009154996774 -0.89929888563739724 0.80914364951277573 0.8078123719246938 0.39093232947403761 0.15660949189466336 0.79291459039099987 0.35939991853478509 0.72353000784416921 0.23332375284506399 0.10727920919043711 -0.42314832934817553
decision_type=2 2 2 2 2 2 2 2 2 2 2 2 2 2 2 2
left_child=1 3 10 4 5 -1 12 8 -3 15 11 -2 13 -4 -5 -7
right_child=2 7 6 14 -6 9 -8 -9 -10 -11 -12 -13 -14 -15 -16 -17
leaf_value=-0.00083138331878752491 0.0029158087570273633 -0.0031892474878216677 0.0080877811947495885 -0.012882280250792565 -0.010995524169651128 -0.0065767932184876152 0.015535991001231876 -0.002777351644989792 0.0045842354797174835 -0.0041392518321862696 0.0015299512054455556 0.007326355788225338 0.0080812112031052197 0.014412410160739556 -0.0087964419861783719 -0.010093689380232277
leaf_weight=118.09999936819077 84.699999451637268 98.099999487400055 80.39999920129776 80.099999368190765 75.29999977350235 87.099998950958252 83.699999630451202 152.59999978542328 134.49999928474426 94.099999487400055 94.799999952316284 105.4999994635582 102.8999999165535 109.39999932050705 94.399999558925629 130.69999915361404
leaf_count=134 128 153 122 100 81 125 97 159 168 121 96 137 105 136 112 155
internal_value=0.00019331 -0.00487334 0.00835174 -0.00745807 -0.00634819 -0.00553437 0.0115805 -0.00031181 0.00130573 -0.00731513 0.00408751 0.00536225 0.0104494 0.0117333 -0.010672 -0.00868726
internal_weight=1726.4 1065 661.4 679.8 505.3 430 376.4 385.2 232.6 311.9 285 190.2 292.7 189.8 174.5 217.8
internal_count=2129 1308 821 828 616 535 460 480 321 401 361 265 363 258 212 280
is_linear=0
shrinkage=0.0818081


Tree=17
num_leaves=19
num_cat=0
split_feature=18 18 18 19 19 18 19 19 4 4 4 3 8 12 19 8 18 18
split_gain=8.1271 1.65774 0.843899 0.497934 0.421037 0.353157 0.27742 0.272673 0.389005 0.217105 0.204711 0.481761 0.133097 0.122614 0.106574 0.0986751 0.0539906 0.0397006
threshold=0.38619922363654674 0.13728194987177347 0.65534671538048195 0.19147221168955597 -0.15667966471212111 0.20788903319606652 0.055678471409667703 -0.064104591687119739 0.28197402030018526 -0.73060329873715479 -0.74717796682096183 -0.4269934711290766 0.36181661783156749 0.79191800038219162 0.0022490930703314505 -0.18218962593324578 0.72023465497253381 0.090300343331976271
decision_type=2 2 2 2 2 2 2 2 2 2 2 2 2 2 2 2 2 2
left_child=1 9 6 4 10 -6 7 8 -2 13 -3 -12 -8 -1 -7 -5 -4 -11
right_child=2 3 16 15 5 14 12 -9 -10 17 11 -13 -14 -15 -16 -17 -18 -19
leaf_value=-0.0050083228089164624 0.0095363227886274375 0.0027225008213161649 0.0096280628914108806 0.0043558982371558683 -0.0083592708097218246 -0.0043936110584220202 0.01076193052137819 0.0013885448865054962 0.00110161852407282 -0.012410212838346932 0.0023260269346985054 -0.0076052439383527742 0.0055722941889361343 -0.0093003832158964541 -0.00079512528098272498 4.6998036590181188e-05 0.012278966485700935 -0.0098693894043006547
leaf_weight=98.099999606609344 94.299999415874481 89.499999582767487 79.499999642372131 74.699999690055847 124.29999959468842 136.59999966621399 69.999999761581421 153.09999948740005 59.79999965429306 77.799999356269836 69.399999439716339 61.799999475479126 62.699999511241913 81.59999942779541 92.29999977350235 67.899999439716339 145.59999930858612 87.39999932050705
leaf_count=108 113 100 95 83 137 155 78 172 106 97 117 81 105 96 103 107 166 110
internal_value=0.000177495 -0.00426539 0.00726874 -0.00202226 -0.00309728 -0.00484886 0.00518404 0.00383379 0.00626316 -0.00892528 -0.000294118 -0.00235196 0.00830986 -0.00695731 -0.00294259 0.00230419 0.0113427 -0.011066
internal_weight=1726.4 1061.4 665 716.5 573.9 353.2 439.9 307.2 154.1 344.9 220.7 131.2 132.7 179.7 228.9 142.6 225.1 165.2
internal_count=2129 1294 835 883 693 395 574 391 219 411 298 198 183 204 258 190 261 207
is_linear=0
shrinkage=0.0818081


Tree=18
num_leaves=16
num_cat=0
split_feature=18 17 18 7 18 12 17 18 17 12 3 6 16 0 0
split_gain=7.50535 1.22314 0.999278 0.552436 0.371258 0.32194 0.236725 0.167346 0.139532 0.122443 0.0873693 0.0820538 0.0777573 0.106782 0.102954
threshold=0.33938710234478725 0.53447782087686357 0.19345219099340064 0.61891912674278504 0.068043877042921863 1.0000000180025095e-35 0.73142726779409373 0.12356728645368141 0.43459640955379913 -0.83637878066157401 -0.40763270386787959 -0.49639790561993014 -0.00015583193674369999 -0.91451439164198145 -0.24767493293610945
decision_type=2 2 2 2 2 2 2 2 2 2 2 2 2 2 2
left_child=2 3 4 8 -1 10 11 -7 -2 -4 -6 -3 13 -11 -15
right_child=1 6 9 -5 5 7 -8 -9 -10 12 -12 -13 -14 14 -16
leaf_value=-0.010595124636701075 -0.0015239061916593577 0.0057882180877588552 0.00139178892705497 0.0072719636117235991 -0.0060414458788625985 -0.0010478222226858397 0.012153297678479835 -0.0055481287032267228 0.0025290678545502481 -0.0053803941614042061 -0.0098212730409702916 0.0090104670402999121 -0.00040868752756185686 0.0002191631669892866 -0.0037342300767633854
leaf_weight=147.79999899864197 122.19999951124191 81.699999153614044 66.399999737739563 117.09999960660934 64.299999237060547 89.699999511241913 138.09999930858612 144.19999945163727 106.29999959468842 92.899999797344208 112.59999930858612 149.99999940395355 94.699999630451202 79.999999821186066 98.199999153614044
leaf_count=174 155 122 91 150 94 102 160 163 139 98 133 171 112 85 137
internal_value=-0.000183227 0.00620213 -0.00479373 0.00270303 -0.00707901 -0.00581396 0.00947226 -0.00382228 0.000361565 -0.00184011 -0.00844738 0.00787427 -0.00242677 -0.00313171 -0.00195941
internal_weight=1706.2 715.4 990.8 345.6 558.6 410.8 369.8 233.9 228.5 432.2 176.9 231.7 365.8 271.1 178.2
internal_count=2086 897 1189 444 666 492 453 265 294 523 227 293 432 320 222
is_linear=0
shrinkage=0.0818081


Tree=19
num_leaves=19
num_cat=0
split_feature=21 9 7 0 10 5 10 10 21 7 6 9 0 10 0 9 19 21
split_gain=0.471747 0.525763 0.610337 0.554418 0.326106 0.307256 0.232322 0.344521 0.204566 0.199832 0.145949 0.132403 0.125751 0.0962067 0.130342 0.0725481 0.0692408 0.0477525
threshold=0.81851414380584642 0.047319980215135803 1.1531282190889038 -0.5438531456478245 -0.032820178417858191 -0.476797338414996 -0.76248458056735491 -0.52312218278088174 0.19201649848544619 0.55358144264994047 -0.39863249035159898 1.3133103860949562 -1.2605119904846667 -0.59713301812676567 -0.70316756098334909 -0.47621633255750234 0.036358289416542358 0.95343587721311052
decision_type=2 2 2 2 2 2 2 2 2 2 2 2 2 2 2 2 2 2
left_child=1 5 3 -3 9 16 -7 -8 -6 -5 -10 -4 -2 14 17 -9 -1 -14
right_child=12 2 11 4 8 6 7 15 10 -11 -12 -13 13 -15 -16 -17 -18 -19
leaf_value=0.00045958752520712997 0.00030825669136688944 0.0083481972352618308 -0.0049636373298727028 0.0016899544417836379 0.0038036423192969698 -0.0063693358778894966 0.0028329631623430778 -0.0054576839819804115 0.00053846516232137684 0.007181267377433141 -0.0046952043315508733 -0.00023751809128380965 -0.001876454107692933 -0.005239948497432402 0.00068999785283310505 -0.0019833274572094882 0.0042835518729853351 -0.004004145880513634
leaf_weight=78.599999308586121 115.19999969005585 126.19999969005585 64.099999725818634 81.999999463558197 62.299999356269836 84.599999725818634 84.499999701976776 75.799999535083771 79.599999189376831 96.5999995470047 64.59999942779541 104.09999918937683 134.89999979734421 82.79999965429306 83.399999737739563 85.699999094009399 53.0999995470047 148.09999984502792
leaf_count=127 123 134 81 102 98 92 92 94 122 109 88 145 140 95 90 112 90 152
internal_value=-0.000168238 0.00078815 0.00223614 0.00364238 0.00210025 -0.00134013 -0.00267128 -0.0013995 -0.000113701 0.00466007 -0.00180615 -0.00203862 -0.00210304 -0.00272144 -0.0021523 -0.00361402 0.00200138 -0.00298992
internal_weight=1706.2 1141.8 679.5 511.3 385.1 462.3 330.6 246 206.5 178.6 144.2 168.2 564.4 449.2 366.4 161.5 131.7 283
internal_count=2086 1486 879 653 519 607 390 298 308 211 210 226 600 477 382 206 217 292
is_linear=0
shrinkage=0.0818081


Tree=20
num_leaves=10
num_cat=0
split_feature=2 11 10 6 0 6 2 14 10
split_gain=0.644424 0.24424 0.432512 0.284045 0.296282 0.199222 0.179119 0.0505972 0.0218429
threshold=0.93440064634094511 1.2822117989234956 -0.9689872282169264 1.1992135328979201 -0.75248957868968491 0.79399730707641092 0.10102080049330091 -1.1512623754127718 -0.7596086517698456
decision_type=2 2 2 2 2 2 2 2 2
left_child=1 2 -1 4 -4 6 -6 -2 -9
right_child=7 -3 3 -5 5 -7 -8 8 -10
leaf_value=0.0060993474274387569 -0.0047727946469287305 -0.0028317569264549622 0.0046439525745343904 -0.0034326872225849733 0.0042297500143175281 -0.0038061840282585069 0.00035470185068376688 -0.0019333902116979397 -0.003638964628696415
leaf_weight=100.79999977350235 119.19999969005585 124.99999928474426 126.29999977350235 110.49999970197678 89.199999153614044 69.099999785423279 760.19999426603317 118.79999995231628 87.099999845027924
leaf_count=108 127 143 132 118 138 75 1034 120 91
internal_value=-0.000154474 0.000616896 0.000960087 0.000511685 0.000928851 0.000417998 0.000761642 -0.00343144 -0.00265489
internal_weight=1706.2 1381.1 1256.1 1155.3 1044.8 918.5 849.4 325.1 205.9
internal_count=2086 1748 1605 1497 1379 1247 1172 338 211
is_linear=0
shrinkage=0.0818081


Tree=21
num_leaves=19
num_cat=0
split_feature=1 1 1 1 0 9 21 1 1 3 21 21 3 0 3 21 3 21
split_gain=6.69602 1.2089 0.808925 0.252615 0.243043 0.226126 0.211584 0.207614 0.203219 0.186495 0.142181 0.130805 0.116377 0.120694 0.0850535 0.0558317 0.0440989 0.0406554
threshold=0.32245557656379908 0.57764496656654074 0.21093849223253539 0.073439356381775164 -0.23135704849093056 0.64590760438480832 0.86356995270732051 0.82789327050561645 0.43866136560580088 -0.2789925977881475 0.71643573759304113 0.23816757356928128 0.35928977491155495 0.076779709328668608 -0.2789925977881475 0.59934096837808937 -0.4269934711290766 0.54707627237181289
decision_type=2 2 2 2 2 2 2 2 2 2 2 2 2 2 2 2 2 2
left_child=2 5 3 9 6 8 -5 11 14 -1 -11 -3 13 -4 -2 -13 -6 -10
right_child=1 7 12 4 16 -7 -8 -9 17 10 -12 15 -14 -15 -16 -17 -18 -19
leaf_value=-0.0048285444449266577 -0.0027381647244730158 0.005101835667819429 -0.0046562335187014907 -0.0011985408621637205 -0.006206464284652307 0.005415502353529532 -0.0059008790305837607 0.013151811058065543 0.0022144911772764915 -0.01251836381894833 -0.0078590677602561696 0.010836536190351949 0.00089890106310704641 -0.00014233927195737915 0.0010691263725465157 0.0079923590270596333 -0.0090060975562096419 0.0049662774890527348
leaf_weight=69.799999237060547 67.599999725818634 67.999999344348907 83.599999666213989 126.4999994635582 69.999999284744263 142.49999964237213 129.6999996304512 71.899999618530273 66.699999451637268 75.399999439716339 104.69999951124191 85.199999332427979 115.19999980926514 75.39999932050705 93.699999749660492 100.89999979734421 81.499999344348907 77.899999856948853
leaf_count=94 95 104 94 140 107 175 139 85 100 91 117 107 121 120 103 106 104 84
internal_value=-0.000141837 0.00547987 -0.00481393 -0.0063704 -0.00511507 0.00272384 -0.00357908 0.00927069 0.00146995 -0.00841842 -0.00980972 0.00817249 -0.00108111 -0.00251569 -0.000526483 0.00929448 -0.00771254 0.00369696
internal_weight=1706.2 774.4 931.8 657.6 407.7 448.4 256.2 326 305.9 249.9 180.1 254.1 274.2 159 161.3 186.1 151.5 144.6
internal_count=2086 959 1127 792 490 557 279 402 382 302 208 317 335 214 198 213 211 184
is_linear=0
shrinkage=0.0818081


Tree=22
num_leaves=19
num_cat=0
split_feature=1 1 1 1 18 4 20 6 22 20 22 22 20 16 1 16 18 22
split_gain=5.64526 1.01981 0.681985 0.264329 0.253948 0.225921 0.194759 0.188319 0.150533 0.144651 0.139349 0.122243 0.116695 0.0945834 0.067817 0.0663147 0.0469329 0.102653
threshold=0.32245557656379908 0.68850717366360736 0.21093849223253539 0.50958405635147974 0.068043877042921863 -1.0342644341230525 0.78149443773971961 -0.5556227408635207 0.0023535934812389503 0.55357058202040366 -0.020303794234275249 -0.0032327428787112997 0.37778934100905653 -0.028032067761427897 0.82095911484628881 -0.013481487558876197 0.18071587969022718 0.0061155835377722009
decision_type=2 2 2 2 2 2 2 2 2 2 2 2 2 2 2 2 2 2
left_child=2 3 4 5 -1 -2 9 -6 10 15 -4 13 -5 -9 -3 -7 17 -13
right_child=1 14 8 12 7 6 -8 11 -10 -11 -12 16 -14 -15 -16 -17 -18 -19
leaf_value=-0.0088349954704066477 0.0064233454646026172 0.0088037335615647489 -5.6392251984036886e-05 0.0031036958444598858 -0.0088671040709798667 0.0026575287901824452 -0.0019724244068542026 -0.0049561563292953121 0.0016357005380541157 0.005641487154039419 -0.0046226586399659205 -0.0042577498838415407 0.0070639697155369672 -0.0012799376551696506 0.011862553860081639 -0.00099892219392810509 -0.0039376937450948165 -0.0083424966374393474
leaf_weight=147.79999899864197 61.299999892711639 125.69999933242798 87.499999463558197 80.599999368190765 71.799999535083771 69.79999965429306 99.999999940395355 80.099999368190765 95.199999511241913 64.399999737739563 91.499999821186066 80.399999737739563 130.29999941587448 112.79999935626984 78.999999582767487 63.299999594688416 80.299999594688416 84.39999932050705
leaf_count=174 64 152 116 121 99 92 102 99 120 81 99 87 149 135 93 105 93 105
internal_value=-0.000130234 0.00503158 -0.00442011 0.00325203 -0.00584925 0.00190101 0.000969183 -0.00498363 -0.000992666 0.00245861 -0.00239055 -0.00434702 0.00555047 -0.00280646 0.00998423 0.000918577 -0.00555948 -0.0063497
internal_weight=1706.2 774.4 931.8 569.7 657.6 358.8 297.5 509.8 274.2 197.5 179 438 210.9 192.9 204.7 133.1 245.1 164.8
internal_count=2086 959 1127 714 792 444 380 618 335 278 215 519 270 234 245 197 285 192
is_linear=0
shrinkage=0.0818081


Tree=23
num_leaves=16
num_cat=0
split_feature=1 1 1 19 0 19 19 13 19 1 22 1 19 19 1
split_gain=4.7618 0.857069 0.595072 0.506018 0.236285 0.211691 0.293213 0.19891 0.196828 0.150198 0.149537 0.145672 0.122274 0.074819 0.0510807
threshold=0.32484717456628281 0.57764496656654074 0.18239714946337202 -0.10428425860384509 0.59107029317964033 -0.18776737979340172 0.055678471409667703 -0.51787604283876942 -0.21418782338248127 0.69878179507608107 -0.0023148449260782995 0.078297073095327518 0.019166912583413354 0.081471415927816565 0.82095911484628881
decision_type=2 2 2 2 2 2 2 2 2 2 2 2 2 2 2
left_child=2 5 4 -4 8 -2 7 -7 10 -3 -1 -10 -5 -13 -11
right_child=1 9 3 12 -6 6 -8 -9 11 14 -12 13 -14 -15 -16
leaf_value=-0.00062904577567640045 0.005640328927668076 0.0057174314218015002 0.0028870219445745302 -0.0056371349855177631 -0.0097406832626936897 0.0015511022900159331 0.0044426699447260194 -0.0035203036217313992 -0.0088425253740799584 0.0081872727513221562 -0.0050989300883012307 -0.0063150382961231028 -0.0019066254265552693 -0.0030461413875508291 0.010892100413761966
leaf_weight=94.099999248981476 99.0999995470047 132.59999912977219 121.29999935626984 108.19999969005585 81.299999237060547 128 128.29999947547913 86.899999439716339 101.19999951124191 114.39999938011169 107.09999912977219 118.29999965429306 128.79999935626984 77.599999487400055 78.999999582767487
leaf_count=118 133 170 158 118 115 128 173 115 114 139 132 128 159 93 93
internal_value=-0.00011958 0.00465549 -0.00403118 -0.00141031 -0.00565135 0.0023097 0.00134796 -0.000499638 -0.00498416 0.00783814 -0.0030084 -0.00632217 -0.00360976 -0.00502017 0.00929215
internal_weight=1706.2 768.3 937.9 358.3 579.6 442.3 343.2 214.9 498.3 326 201.2 297.1 237 195.9 193.4
internal_count=2086 951 1135 435 700 549 416 243 585 402 250 335 277 221 232
is_linear=0
shrinkage=0.0818081


Tree=24
num_leaves=19
num_cat=0
split_feature=1 1 18 1 7 7 22 18 12 1 0 20 7 6 16 1 18 16
split_gain=4.4099 0.754079 0.469608 0.200103 0.168358 0.15029 0.154259 0.134098 0.174276 0.0942427 0.097981 0.0928724 0.0875593 0.221621 0.184552 0.0764803 0.0623142 0.0498983
threshold=0.36539209746449647 0.65893837179731241 0.21439619464974038 0.1782361776957134 1.1531282190889038 0.45842420436718456 -0.0074119568731640488 0.11569889362129691 0.033242571372907904 0.48505763427338744 0.040082705336409806 0.92198476191188805 0.59065561916322962 -0.32861008050183388 -0.013096720887594098 0.82789327050561645 0.39971092629230653 -0.017483201429727448
decision_type=2 2 2 2 2 2 2 2 2 2 2 2 2 2 2 2 2 2
left_child=2 5 3 4 7 9 -7 8 -1 16 -11 -9 13 -4 -15 17 -2 -3
right_child=1 15 12 -5 -6 6 -8 11 -10 10 -12 -13 -14 14 -16 -17 -18 -19
leaf_value=-0.008626182932530287 0.0016931088311563755 0.0089792884643357905 -0.0063768393464626091 -0.0018437757402359157 -0.0084308961883901943 0.00680416553818092 0.0022027102090820183 -0.0019323195281957199 -0.0039996272313354182 0.001034070326866281 0.0055122373293368171 -0.0053981127354807172 0.00046581530032564902 -0.0032486247454025711 0.0014127158547422979 0.010326674157434766 -0.0017489194251173248 0.006228952566003026
leaf_weight=106.29999899864197 72.29999977350235 71.699999570846558 64.399999618530273 118.69999939203262 108.6999990940094 95.79999965429306 99.299999713897705 124.79999899864197 111.79999947547913 72.299999892711639 59.699999451637268 88.399999856948853 122.49999934434891 114.79999941587448 112.59999972581863 78.699999630451202 68.599999666213989 114.89999943971634
leaf_count=135 87 86 96 141 135 121 118 161 125 77 99 92 164 134 121 91 89 139
internal_value=-0.000186103 0.00470351 -0.00352772 -0.00488503 -0.00555354 0.00272831 0.00446217 -0.00482836 -0.00625457 0.00148875 0.00305943 -0.00336936 -0.00136972 -0.0021403 -0.000940498 0.00818784 1.72804e-05 0.00728576
internal_weight=1806.3 733.3 1073 658.7 540 468 195.1 431.3 218.1 272.9 132 213.2 414.3 291.8 227.4 265.3 140.9 186.6
internal_count=2211 907 1304 789 648 591 239 513 260 352 176 253 515 351 255 316 176 225
is_linear=0
shrinkage=0.0818081


Tree=25
num_leaves=17
num_cat=0
split_feature=17 17 17 22 9 4 0 9 17 20 22 22 22 9 3 5
split_gain=3.20844 0.704406 0.232729 0.228711 0.21971 0.183106 0.335507 0.271101 0.224457 0.156895 0.1148 0.25279 0.150975 0.104314 0.0877014 0.0573156
threshold=0.30879398608416447 0.6255770280290206 0.12219483569365151 0.0018546273073667002 0.3140841621541513 -0.90152453106406338 -0.50366236198958492 0.60548794394717775 0.45789530754395397 0.8331679678899867 -0.0029724740354310996 -0.026166382522833948 -0.10148104871609899 -0.14542841239659018 -0.025376960662164046 -0.24876374136851617
decision_type=2 2 2 2 2 2 2 2 2 2 2 2 2 2 2 2
left_child=2 5 9 10 -5 -2 -7 8 -8 14 11 12 -4 -3 -1 -15
right_child=1 13 3 4 -6 6 7 -9 -10 -11 -12 -13 -14 15 -16 -17
leaf_value=-0.0048994051289185259 0.0042900851512201995 0.004760964971805089 -0.0025389213206211316 -0.0021923364164810086 0.0035505719904019711 -0.002257178504669376 -0.0018849346585163163 0.0058862902570490172 0.0035112136903642727 -0.0029151923784834824 -0.0057624601792639462 0.00057638857362970921 -0.0077778338227349579 0.006112200026359242 -0.0081507363043377516 0.0091900027080030512
leaf_weight=111.19999867677689 147.29999977350235 108.19999951124191 84.89999932050705 137.39999908208847 65.999999582767487 146.29999995231628 104.69999933242798 104.59999942779541 101.69999915361404 126.69999945163727 124.89999979734421 95.399999678134918 64.999999642372131 65.799999296665192 110.8999992609024 105.29999977350235
leaf_count=148 153 128 118 167 93 148 155 153 155 142 131 106 80 92 131 111
internal_value=-0.000170878 0.00335126 -0.00354601 -0.00253268 -0.00032885 0.00178159 0.000973578 0.00249339 0.000773918 -0.00521241 -0.00374354 -0.00271556 -0.00481064 0.00674912 -0.00652288 0.00800638
internal_weight=1806.3 883.9 922.4 573.6 203.4 604.6 457.3 311 206.4 348.8 370.2 245.3 149.9 279.3 222.1 171.1
internal_count=2211 1095 1116 695 260 764 611 463 310 421 435 304 198 331 279 203
is_linear=0
shrinkage=0.0818081


Tree=26
num_leaves=19
num_cat=0
split_feature=17 17 17 19 10 19 19 17 4 19 19 16 10 16 4 19 7 10
split_gain=2.72456 0.437552 0.361223 0.348239 0.254345 0.249244 0.162528 0.155677 0.145262 0.145183 0.13742 0.114686 0.105566 0.0992472 0.0890469 0.0806172 0.0629009 0.0290321
threshold=0.39311958203160863 0.25369800843942542 0.7102390615113755 -0.040279507112365297 -1.0509707318390344 0.055678471409667703 -0.056020413911997489 0.51321894550461022 -0.022049806717978047 0.27771609452390772 -0.82365973987239549 -0.012724162345049949 -0.072871834775806346 -0.009066474785478949 -0.58836550306118929 -0.078241137840682776 0.41218620780434828 0.5008166870782137
decision_type=2 2 2 2 2 2 2 2 2 2 2 2 2 2 2 2 2 2
left_child=1 4 5 13 -1 6 8 -8 -2 10 -6 -7 15 -3 -5 -12 -4 -14
right_child=2 3 16 14 9 11 7 -9 -10 -11 12 -13 17 -15 -16 -17 -18 -19
leaf_value=0.00015607704980901533 0.0056231432500082699 0.0049552008242340654 0.005798002101684554 -0.00081054205985351205 -0.0014173420150643645 0.0080695665291635361 -0.0027591792082625006 0.0021910319073740999 0.00077681521666201183 -0.0016733115310657097 -0.0030071307657520011 0.0033142066511430784 -0.00835481313373709 0.00064542479727505513 -0.0041329838028544832 -0.0055313732285197292 0.008857646429502132 -0.0059713523215043631
leaf_weight=102.39999949932098 93.299999713897705 75.799999475479126 103.19999945163727 123.69999986886978 71.199999392032623 71.399999737739563 79.499999701976776 91.399999737739563 74.399999439716339 123.19999903440475 141.79999923706055 64.699999630451202 70.099999308586121 67.699999690055847 95.799999475479126 210.19999951124191 79.699999570846558 66.799999237060547
leaf_count=115 101 102 120 127 97 91 91 103 126 160 163 93 91 87 132 223 93 96
internal_value=-0.000156899 -0.00256086 0.00404235 -0.000211855 -0.00364612 0.0028522 0.00166374 -0.000111722 0.00347308 -0.00421592 -0.00477519 0.00580894 -0.0052642 0.00292196 -0.00226061 -0.00451451 0.00713127 -0.00719182
internal_weight=1806.3 1148.7 657.6 363 785.7 474.7 338.6 170.9 167.7 683.3 560.1 136.1 488.9 143.5 219.5 352 182.9 136.9
internal_count=2211 1393 818 448 945 605 421 194 227 830 670 184 573 189 259 386 213 187
is_linear=0
shrinkage=0.0818081


Tree=27
num_leaves=19
num_cat=0
split_feature=1 1 1 8 2 4 4 3 6 1 4 8 2 4 6 15 1 8
split_gain=2.78253 0.449877 0.329072 0.180308 0.220987 0.219369 0.364057 0.382495 0.28398 0.139279 0.112028 0.106161 0.205253 0.102082 0.170677 0.0699162 0.0576638 0.0380235
threshold=0.41710487967486293 0.29928176167741505 0.65893837179731241 0.70352001289517452 0.94020862455934451 -1.0481546719584454 -0.69322122553680654 0.57294170603966199 0.56968218082890731 0.12768700295780827 -0.77744163749565753 -0.052797995352588542 0.31387448827185954 -0.97649043154221016 0.43842551469422048 1.0260925311162981 0.82789327050561645 -0.57011020911874588
decision_type=2 2 2 2 2 2 2 2 2 2 2 2 2 2 2 2 2 2
left_child=1 3 10 4 5 -1 7 -7 -8 -6 -2 -12 -13 -3 -15 -5 17 -4
right_child=2 13 16 15 9 6 8 -9 -10 -11 11 12 -14 14 -16 -17 -18 -19
leaf_value=-0.004965624020637039 0.0052336080748843165 0.0031130295425375373 0.004271712282039518 -0.00828783248433217 -0.0077855719803546887 -0.0019193276634310089 -0.0014143936630617378 0.0058464907375271541 -0.0074774165384896936 -0.0035158339629939089 -1.5834503750943108e-05 0.00055860567546448978 0.006666594034740899 0.00161657106572737 -0.0029651398917400242 -0.0043559263052329348 0.0083479191558561081 0.0066573496492789187
leaf_weight=131.3999992609024 86.299999892711639 68.699999868869781 74.299999892711639 59.599999487400055 81.399999737739563 88.699999511241913 189.49999809265137 81.399999737739563 71.099999606609344 137.49999982118607 115.99999982118607 82.499999403953552 66.499999463558197 117.69999915361404 101.19999992847443 61.499999284744263 78.699999630451202 112.29999911785126
leaf_count=150 89 72 77 91 88 101 258 88 84 142 123 139 99 174 104 93 91 148
internal_value=-0.000144063 -0.00245562 0.00431598 -0.00335386 -0.00289843 -0.00203967 -0.001147 0.00179694 -0.00306858 -0.00510358 0.00267361 0.00183991 0.00328466 0.000361834 -0.000501602 -0.00629104 0.00649074 0.00570745
internal_weight=1806.3 1189.7 616.6 902.1 781 562.1 430.7 170.1 260.6 218.9 351.3 265 149 287.6 218.9 121.1 265.3 186.6
internal_count=2211 1445 766 1095 911 681 531 189 342 230 450 361 238 350 278 184 316 225
is_linear=0
shrinkage=0.0818081


Tree=28
num_leaves=19
num_cat=0
split_feature=18 18 18 5 18 11 5 11 18 11 22 2 11 6 9 14 6 9
split_gain=2.02815 0.342917 0.273035 0.186844 0.118339 0.107366 0.224478 0.143834 0.0880028 0.0813784 0.165597 0.101393 0.0875104 0.0727968 0.17386 0.142708 0.0710867 0.0664163
threshold=0.3709461359561424 0.21439619464974038 0.69661334019636112 -0.66959080863059961 0.039655597531963308 0.71546029853488602 0.67784253143584905 -0.32098191355457639 0.51393315577099485 -0.20031413245283816 -0.012037178916440298 0.94996009154996774 0.29736669935461074 0.37768375996562692 0.65416633174990635 -0.7357661551572573 -0.49639790561993014 -0.12422351432958868
decision_type=2 2 2 2 2 2 2 2 2 2 2 2 2 2 2 2 2 2
left_child=1 4 3 8 -1 6 7 -5 -2 16 -11 12 -12 14 -3 -15 -6 -4
right_child=2 13 17 5 9 -7 -8 -9 -10 10 11 -13 -14 15 -16 -17 -18 -19
leaf_value=-0.0065177070113322114 -0.0023496780126363347 -0.0011279787736951956 0.0041567095893015127 0.0012041371690964431 -0.0035153575087397988 0.005392777068546916 -0.0011468945762198833 0.0058158065897240298 0.0018296178572114851 -0.0061846421207455244 -0.0035813134708774039 -0.0043941394266014816 3.22769550978963e-05 -0.00011165213059532682 0.0040525747332106135 -0.0043068677360420188 0.00016741737579830128 0.0072906033942760151
leaf_weight=76.799999356269836 68.29999965429306 127.09999912977219 77.599999666213989 76.099999368190765 61.299999177455902 111.39999985694885 83.699999868869781 111.69999951124191 66.59999942779541 124.19999933242798 75.399999558925629 132.29999977350235 110.69999957084656 166.09999972581863 65.799999594688416 80.599999666213989 81.999999046325684 108.59999942779541
leaf_count=93 112 174 89 123 94 115 87 125 102 142 88 138 122 173 100 90 119 125
internal_value=-0.000132278 -0.002323 0.00329789 0.00233177 -0.00349821 0.00325417 0.00237667 0.00394708 -0.000286356 -0.00310241 -0.00365101 -0.0026627 -0.00143179 -0.00055138 0.000639151 -0.00148229 -0.00140797 0.00598454
internal_weight=1806.3 1102.3 704 517.8 662.7 382.9 271.5 187.8 134.9 585.9 442.6 318.4 186.1 439.6 192.9 246.7 143.3 186.2
internal_count=2211 1333 878 664 796 450 335 248 214 703 490 348 210 537 274 263 213 214
is_linear=0
shrinkage=0.0818081


Tree=29
num_leaves=18
num_cat=0
split_feature=1 1 1 19 10 19 19 17 19 10 19 22 10 19 22 19 19
split_gain=2.0296 0.326184 0.242206 0.198971 0.175591 0.149622 0.218281 0.138632 0.125194 0.12263 0.118561 0.112075 0.0699721 0.06591 0.0763157 0.0582391 0.0329029
threshold=0.41710487967486293 0.29928176167741505 0.65893837179731241 -0.082147873555535988 -0.98178039756853419 -0.049388101632744645 0.010802159646541852 0.10700694400736106 0.08895912847237826 -0.43263336161719412 -0.094606996757092679 0.041898184614979052 -0.4930504881191386 -0.20125007225583671 -0.015361726805578449 0.052993973751332156 -0.009665353982593548
decision_type=2 2 2 2 2 2 2 2 2 2 2 2 2 2 2 2 2
left_child=1 4 5 -3 10 -2 -7 12 -5 -8 -1 13 -6 -9 -15 16 -4
right_child=2 3 15 8 7 6 9 11 -10 -11 -12 -13 -14 14 -16 -17 -18
leaf_value=0.001907482765919184 0.0045730365029990235 0.0038588751838499963 0.0058376060140445177 -0.0024770126782733917 -0.0034483453381045077 -0.0024095074379595518 0.0052834493321150429 -0.0016125604340974141 0.0016939365766400645 0.00057329136518514067 -0.0025675680373180103 -8.7631679619868535e-05 -0.0063380270481935711 -0.0056458311885200316 -0.0029091192306933268 0.007603903183768179 0.0037175713907252918
leaf_weight=77.199999570846558 123.39999943971634 77.099999606609344 103.79999941587448 135.89999967813492 99.999999523162842 79.899999737739563 72.99999988079071 122.1999990940094 74.599999666213989 74.999999523162842 81.399999737739563 93.799999177455902 127.69999867677689 104.8999992609024 194.89999949932098 68.699999630451202 92.799999594688416
leaf_count=88 163 105 125 150 112 89 77 165 95 121 88 130 166 134 212 86 105
internal_value=-0.000121456 -0.00209565 0.00368766 0.000303411 -0.0028605 0.00227863 0.00103628 -0.00338765 -0.000998847 0.00289655 -0.000389289 -0.00264543 -0.00506896 -0.00321396 -0.0038667 0.00555343 0.0048369
internal_weight=1806.3 1189.7 616.6 287.6 902.1 351.3 227.9 743.5 210.5 148 158.6 515.8 227.7 422 299.8 265.3 196.6
internal_count=2211 1445 766 350 1095 450 287 919 245 198 176 641 278 511 346 316 230
is_linear=0
shrinkage=0.0818081


end of trees

feature_importances:
inequality_x_safety=62
inequality_x_safety_ma5=51
inequality_x_safety_accel=47
inequality_x_safety_ma3=42
health_risk_compound=33
SP.DYN.TFRT.IN=28
SP.POP.AG00.MA.IN=26
SH.DTH.MORT=24
health_risk_compound_ma3=24
health_risk_compound_ma5=22
SP.POP.0014.TO.ZS_accel=19
SP.POP.1564.TO.ZS=17
SP.POP.AG00.FE.IN=17
SP.POP.0014.TO.ZS=16
health_risk_compound_accel=15
ER.FSH.AQUA.MT=14
EN.GHG.N2O.PI.MT.CE.AR5=14
SP.POP.0014.MA.ZS=12
SP.POP.1564.MA.ZS=10
SP.POP.65UP.FE.IN=8
SP.POP.DPND.YG=7
SP.POP.0014.TO.ZS_ma3=4
SP.POP.0014.TO.ZS_ma5=2

parameters:
[boosting: gbdt]
[objective: regression]
[metric: rmse]
[tree_learner: serial]
[device_type: cpu]
[data_sample_strategy: bagging]
[data: ]
[valid: ]
[num_iterations: 1538]
[learning_rate: 0.0818081]
[num_leaves: 51]
[num_threads: -1]
[seed: 42]
[deterministic: 0]
[force_col_wise: 0]
[force_row_wise: 0]
[histogram_pool_size: -1]
[max_depth: 7]
[min_data_in_leaf: 88]
[min_sum_hessian_in_leaf: 5.05471]
[bagging_fraction: 0.439783]
[pos_bagging_fraction: 1]
[neg_bagging_fraction: 1]
[bagging_freq: 6]
[bagging_seed: 400]
[bagging_by_query: 0]
[feature_fraction: 0.415037]
[feature_fraction_bynode: 1]
[feature_fraction_seed: 30056]
[extra_trees: 0]
[extra_seed: 12879]
[early_stopping_round: 0]
[early_stopping_min_delta: 0]
[first_metric_only: 0]
[max_delta_step: 0]
[lambda_l1: 1.32639e-05]
[lambda_l2: 1.33151e-06]
[linear_lambda: 0]
[min_gain_to_split: 0]
[drop_rate: 0.1]
[max_drop: 50]
[skip_drop: 0.5]
[xgboost_dart_mode: 0]
[uniform_drop: 0]
[drop_seed: 17869]
[top_rate: 0.2]
[other_rate: 0.1]
[min_data_per_group: 100]
[max_cat_threshold: 32]
[cat_l2: 10]
[cat_smooth: 10]
[max_cat_to_onehot: 4]
[top_k: 20]
[monotone_constraints: ]
[monotone_constraints_method: basic]
[monotone_penalty: 0]
[feature_contri: ]
[forcedsplits_filename: ]
[refit_decay_rate: 0.9]
[cegb_tradeoff: 1]
[cegb_penalty_split: 0]
[cegb_penalty_feature_lazy: ]
[cegb_penalty_feature_coupled: ]
[path_smooth: 0]
[interaction_constraints: ]
[verbosity: -1]
[saved_feature_importance_type: 0]
[use_quantized_grad: 0]
[num_grad_quant_bins: 4]
[quant_train_renew_leaf: 0]
[stochastic_rounding: 1]
[linear_tree: 0]
[max_bin: 287]
[max_bin_by_feature: ]
[min_data_in_bin: 3]
[bin_construct_sample_cnt: 200000]
[data_random_seed: 175]
[is_enable_sparse: 1]
[enable_bundle: 1]
[use_missing: 1]
[zero_as_missing: 0]
[feature_pre_filter: 1]
[pre_partition: 0]
[two_round: 0]
[header: 0]
[label_column: ]
[weight_column: ]
[group_column: ]
[ignore_column: ]
[categorical_feature: ]
[forcedbins_filename: ]
[precise_float_parser: 0]
[parser_config_file: ]
[objective_seed: 16083]
[num_class: 1]
[is_unbalance: 0]
[scale_pos_weight: 1]
[sigmoid: 1]
[boost_from_average: 1]
[reg_sqrt: 0]
[alpha: 0.9]
[fair_c: 1]
[poisson_max_delta_step: 0.7]
[tweedie_variance_power: 1.5]
[lambdarank_truncation_level: 30]
[lambdarank_norm: 1]
[label_gain: ]
[lambdarank_position_bias_regularization: 0]
[eval_at: ]
[multi_error_top_k: 1]
[auc_mu_weights: ]
[num_machines: 1]
[local_listen_port: 12400]
[time_out: 120]
[machine_list_filename: ]
[machines: ]
[gpu_platform_id: -1]
[gpu_device_id: -1]
[gpu_use_dp: 0]
[num_gpu: 1]

end of parameters

pandas_categorical:[]
