tree
version=v4
num_class=1
num_tree_per_iteration=1
label_index=0
max_feature_idx=42
objective=regression
feature_names=SP.POP.AG12.FE.IN SP.POP.AG08.MA.IN SP.POP.AG11.MA.IN inequality_x_safety SP.POP.AG11.FE.IN SP.POP.AG09.FE.IN SP.POP.AG07.FE.IN SP.POP.AG10.FE.IN SP.POP.AG06.FE.IN SP.POP.DPND.OL SP.POP.AG05.FE.IN SP.POP.AG14.MA.IN SP.POP.AG10.MA.IN_lag1 SP.POP.AG16.FE.IN SP.POP.AG16.MA.IN SP.POP.AG12.MA.IN_lag1 SP.POP.0014.FE.IN_lag1 SP.POP.AG08.MA.IN_lag1 SP.POP.AG08.FE.IN SP.POP.AG07.MA.IN_lag1 SP.POP.65UP.FE.ZS SP.POP.AG07.FE.IN_lag1 SP.POP.AG16.MA.IN_lag1 SP.POP.65UP.MA.ZS SP.RUR.TOTL SP.POP.AG12.FE.IN_ma3 SP.POP.AG12.FE.IN_ma5 SP.POP.AG12.FE.IN_accel SP.POP.AG08.MA.IN_ma3 SP.POP.AG08.MA.IN_ma5 SP.POP.AG08.MA.IN_accel SP.POP.AG11.MA.IN_ma3 SP.POP.AG11.MA.IN_ma5 SP.POP.AG11.MA.IN_accel inequality_x_safety_ma3 inequality_x_safety_ma5 inequality_x_safety_accel SP.POP.AG11.FE.IN_ma3 SP.POP.AG11.FE.IN_ma5 SP.POP.AG11.FE.IN_accel SP.POP.AG09.FE.IN_ma3 SP.POP.AG09.FE.IN_ma5 SP.POP.AG09.FE.IN_accel
feature_infos=[-2.629484093763748:2.5139756200348056] [-2.498973390114521:2.5819847849228279] [-2.6101239862322263:2.5701990300007052] [0:1] [-2.6142784240452981:2.4443145433758691] [-2.4972865185931687:2.4940481599902879] [-2.5800772026227001:2.4897520742553789] [-2.5652103071732988:2.462052569737049] [-3.102924776362717:2.5240930441318024] [-2.421489225626789:4.1207333514859545] [-3.4620302139233248:2.5528188099505238] [-2.955833221764125:2.8056108574817644] [-2.8647540538083329:2.5347964608313678] [-2.7399952158660841:2.6985844451555057] [-2.8409730414857308:2.8166647597703585] [-3.2119613521404875:2.6085886037722932] [-2.8687489634035845:2.6302165516807974] [-2.6612783173992813:2.5188944491162566] [-2.5196580257856294:2.5095887772315155] [-2.7489473316066602:2.5738477969900311] [-2.8987467862375862:3.6909764782769137] [-2.7731124151232134:2.5359110396589211] [-3.0315931681402573:2.6120269362455777] [-2.6361851753498842:4.1107871221389809] [-4.1467594559893932:2.5935951249339122] [-2.6155283665801505:2.4831245144517529] [-2.5465479605230401:2.3918194970763311] [-255.89997707255159:739.42639905756471] [-2.4953302647780542:2.5224762200055184] [-2.4893800221541609:2.4422957202416118] [-10173.635860356626:10175.838832788217] [-2.5970255457013685:2.4187667201995282] [-2.5029361930877778:2.3599478074472571] [-543.73519471110001:545.20099001872291] [1.3926500437117466e-05:0.98961026253575624] [0.0016117444645027:0.97577510042901361] [-5361.1699278711767:5359.8620326338341] [-2.6031250594852411:2.4131571365336124] [-2.5258432524046102:2.3552329571092732] [-742.43765686120082:744.41203509732986] [-2.4865734040445195:2.3382314579695325] [-2.4481890357168195:2.2697600345544662] [-299.0027700830201:300.65673456969569]
tree_sizes=3963 4182 4177 4189 4190 4177 4200 4203 4201 4203 4204 4204 4198 4177 4200 4185 4190 4187 4193 4200 4197 4213 4208 4194 4213 4204 4197 4187 4202 4205 4203 4221 4182 4204 4192 4219 4230 4200 4218 4232 4214 4217 4215 4206 4214 4209 4186 4230 4208 4228 4211 4195 4210 4206 4227 4222 4204 4214 4206 4237 4206 4215 4202 4198 4193 4212 4219 4235 4213 4229 4225 4237 4217 4225 4197 4212 4220 4197 4213 4244 4253 4229 4249 4215 4226 4230 4227 4215 4234 4235 4225 4200 4214 4245 4227 4227 4201 4212 4205 4240 4235 4232 4225 4217 4229 4231 4240 4229 4215 4223 4209 4231 4245 4223 4250 4231 4199 4228 4236 4218 4221 4219 4226 4225 4220 4233 4219 4224 4200 4250 4235 4210 3590 4218 3919 4224 4231 2950 4004 4230 4240 4228 4229 4232 4240 4216 4256 4234 4256 4248 4222 4219 4223 4241 3482 4231 4223 4213 2511 4247 4242 3700 4225 4204 4246 4229 4227 4235 4246 4265 4224 4214 4240 4224 4216 4232 4215 4127 2719 4232 4218 4219 4229 4227 4246 4238 4265 4219 4162 4218 3997 4221 4231 3907 4246 3469 4232 3914 4249 4244 4227 4236 4239 4229 3378 2954 4241 3588 3044 4129 4231 4233 3784 4209 3488 3276 2516 4240 4245 4244 4228 4216 4246 4227 3393 3390 4255 4247 4250 4217 4235 4255 4223 4263 4246 4219 4258 4242 4253 4243 4244 4248 2742 4235 4259 4252 4043 4236 4252 2836 4274 4240 4239 4235 4207 4243 4221 2819 4230 4224 2619 4244 4245 4241 4137 4269 4226 3275 4255 4226 4251 4281 4237 3371 4153 4258 4246 4249 4240 2856 3299 4242 4277 3817 4253 3151 4260 3389 3260 4250 4235 4256 3599 4246 4258 2747 4228 4254 4263 4246 4247 4249 4248 4231 4267 4273 4250 3906 4255 4269 4254 3930 4250 4231 4230 4258 4240 4257 3720 4278 4254 4253 4257 3150 4207 4260 4276 3616 4286 2749 4259 4257 4257 4231 4268 4250 4278 4286 4260 4261 4240 4265 4264 4275 3176 4150 3948 4254 4275 4238 4254 3597 4269 4274 4275 4237 4277 4249 3278 4260 4257 4129 3166 4261 4253 4267 4251 3607 3059 2427 4279 4247 4252 2639 4255 3704 2528 4276 4268 4273 4275 4264 3955 4263 4246 4263 4057 4243 2642 3942 4258 4259 4251 4259 2111 4281 4235 4262 4272 4272 4277 4253 4267 4275 3200 4255 4264 4272 4056 4261 2750 4259 4285 4275 4275 4297 4235 4277 4264 4207 4248 4270 4045 4262 4302 4281 3724 4249 4284 4245 4287 4271 4244 4273 4266 4264 4240 4256 2962 4271 4122 2656 4254 3964 4171 4253 2642 4262 4266 4275 4285 4255 4273 4267 4172 4268 4277 3955 4287 4286 4265 4284 4270 4262 4276 4252 4244 4258 4278 4242 4291 4258 4272 4050 4230 4246 3319 4268 4287 4277 3829 4274 3953 3600 4256 4268 4288 4231 4259 4237 4289 4257 3829 4264 3645 4279 4290 3300 4266 4288 4162 4273 4281 4267 4291 4271 4288 4283 4275 4264 2776 2550 4282 4259 4167 4280 3738 4284 4272 4274 4282 4280 3528 4277 4280

Tree=0
num_leaves=38
num_cat=0
split_feature=3 16 3 26 36 9 2 9 36 3 3 3 35 3 35 14 3 20 34 42 20 20 10 25 16 36 9 7 9 27 30 3 15 36 14 33 14
split_gain=24.4661 8.53635 8.84871 2.73346 1.91439 1.72137 1.54618 1.80619 1.46812 1.21229 1.11074 1.08304 1.00167 0.992212 0.967321 1.12489 0.734921 0.600797 0.568261 0.561971 0.557984 0.527768 0.724239 0.509875 0.490243 0.482724 0.450441 0.444024 0.407565 0.401894 0.455886 0.388226 0.411972 0.518165 0.345066 0.334696 0.417029
threshold=0.05746100116302031 0.14484408977570892 0.29056923409992158 -0.64217017562616119 -0.15065747330666959 -0.99176908322112356 1.3575958781258322 -0.38488514636992904 0.090661303875663804 0.10473845311211132 0.67258842543792929 0.026170460771108805 0.095200780590312215 0.034349648407898455 0.20456862255770311 0.793696345286098 0.20337655754953068 0.95677281771174993 0.21564787369775743 -0.11981617022390859 -0.26484959506650868 0.34901686539843324 1.0374717832637412 0.59279531663000007 0.63100410939774343 -0.19119333642345501 0.96696823443528579 0.51300100213535604 -0.75892352275444119 -0.14655867916406881 -0.08985235092839379 0.31893477390521729 -0.70835934114107169 -0.5576605684245326 1.0000000180025095e-35 -0.01504628002162285 0.70132387178120437
decision_type=2 2 2 2 2 2 2 2 2 2 2 2 2 2 2 2 2 2 2 2 2 2 2 2 2 2 2 2 2 2 2 2 2 2 2 2 2
left_child=3 4 9 11 31 -5 7 13 20 12 17 -1 -3 23 15 28 18 24 -16 -9 -6 22 27 -7 -4 -17 -21 -18 -11 30 -10 32 33 -2 -22 36 -26
right_child=1 2 10 5 8 6 -8 19 29 14 -12 -13 -14 -15 16 25 21 -19 -20 26 34 -23 -24 -25 35 -27 -28 -29 -30 -31 -32 -33 -34 -35 -36 -37 -38
leaf_value=0.75609701540861318 0.75890928124919788 0.75717713499682915 0.76168008070392879 0.74869012757267706 0.762731892811774 0.75669907049215224 0.75820181677734888 0.7537199735454605 0.75858003647753725 0.75801090745419564 0.76320023521900715 0.76299584041840374 0.75211994296364693 0.75981673600804112 0.75101933905997253 0.75392652738717114 0.75565872669197653 0.7628139778181483 0.75627966735287255 0.74800884313207006 0.76458778506660041 0.76065147370325625 0.75328737956445757 0.75150299441449009 0.75945046233519697 0.75813055679242547 0.7520428387585536 0.75972547021353576 0.76134211299478072 0.76233615552571343 0.76262177274503407 0.76201015264644989 0.75908194515768068 0.76288577795007984 0.76309501825450865 0.75886361802074642 0.76232243843431069
leaf_weight=25.699999809265137 24.999999940395355 40.999999642372131 124.09999936819077 35.999999642372131 159.9999982714653 16.699999868869781 35.099999725818634 23.399999797344208 33.599999725818634 23.899999856948853 166.09999948740005 19.99999988079071 36.699999690055847 20.999999821186066 17.399999916553497 20.599999904632568 22.199999809265137 74.899999916553497 24.399999856948853 34.199999690055847 350.29999911785126 21.899999976158142 21.599999845027924 21.199999809265137 55.29999977350235 39.199999690055847 22.899999856948853 32.999999821186066 75.499999642372131 217.99999904632568 23.399999916553497 120.69999939203262 69.999999403953552 45.99999988079071 97.999999761581421 86.499999701976776 45.599999904632568
leaf_count=35 38 50 157 47 243 24 44 29 44 30 194 25 50 26 23 27 35 82 39 42 405 24 32 29 87 51 29 42 88 333 28 188 94 64 105 116 63
internal_value=0.760669 0.76147 0.759887 0.754187 0.762755 0.753117 0.754031 0.75298 0.76325 0.757263 0.76168 0.759116 0.754788 0.75594 0.757905 0.759091 0.75656 0.761026 0.754089 0.750815 0.763859 0.757607 0.756739 0.753792 0.760596 0.756682 0.749626 0.75809 0.760541 0.761902 0.760239 0.761085 0.760292 0.761486 0.764261 0.759878 0.760748
internal_weight=2331.1 2074.9 929.9 256.2 1145 210.5 174.5 139.4 883.3 377.4 552.5 45.7 77.7 58.9 299.7 159.2 140.5 386.4 41.8 80.5 608.3 98.7 76.8 37.9 311.5 59.8 57.1 55.2 99.4 275 57 261.7 141 71 448.3 187.4 100.9
internal_count=3062 2732 1190 330 1542 270 223 179 1158 491 699 60 100 79 391 196 195 505 62 100 753 133 109 53 423 78 71 77 118 405 72 384 196 102 510 266 150
is_linear=0
shrinkage=1


Tree=1
num_leaves=38
num_cat=0
split_feature=3 16 40 3 35 24 3 23 3 30 3 35 3 8 3 35 20 23 3 16 14 27 33 35 35 14 6 5 14 19 14 20 32 22 14 14 3
split_gain=24.3611 7.14184 6.60911 5.04343 2.11389 1.96312 1.85793 1.51353 1.18268 1.1601 1.14919 1.24014 0.934607 0.873797 0.823656 0.831794 0.799424 0.750558 0.726489 0.723913 0.667935 0.540052 0.531658 0.507179 0.486445 0.462186 0.455219 0.446212 0.425655 0.420568 0.412721 0.386571 0.360928 1.20401 0.581103 0.571052 0.335887
threshold=0.10473845311211132 -0.29940136654212052 0.20806446954147223 0.41156038518922161 0.11317010628994406 0.6082981422166519 0.020821772662017551 1.0273595672930476 0.0032901513286764006 -0.0069473626442853494 0.29056923409992158 0.19766616797254583 0.19650094754578773 0.63597905318142878 0.31524288059694844 0.3246862759329916 -0.41948803705879406 0.040185117995674105 0.72555317707955547 0.71401746480603345 0.86797737666661001 -0.016896696422736394 0.046925284047475403 0.050531677417645908 0.19231780662514922 -0.89078496333427604 0.90184880950611135 0.56583130092745948 0.84611667816117053 -0.49047800261999636 -1.1986281257071925 1.0449967109926965 1.0511528888314918 1.2486021960615974 0.75577173550595156 0.31998001964209916 0.73398727116944429
decision_type=2 2 2 2 2 2 2 2 2 2 2 2 2 2 2 2 2 2 2 2 2 2 2 2 2 2 2 2 2 2 2 2 2 2 2 2 2
left_child=1 5 14 7 8 6 -1 10 23 24 11 20 -13 -12 15 16 29 18 -5 27 -4 -11 32 -3 -6 -18 -15 -14 -9 -2 -8 -27 34 -34 35 -10 -16
right_child=2 4 3 17 9 -7 30 28 22 21 13 12 19 26 36 -17 25 -19 -20 -21 -22 -23 -24 -25 -26 31 -28 -29 -30 -31 -32 -33 33 -35 -36 -37 -38
leaf_value=-0.0047306592984438485 0.0010693714864161723 -0.0062277788966769989 -0.00045218063980998006 -0.00028919232374542193 -0.0096507350381198603 -0.0065264329812114259 0.0044033046702083136 0.0034144885084246303 -0.006366468996725657 -0.0034804913099879 0.0012359962072879536 -0.007788859175997722 -0.0040859939780798727 -0.0047215140177602833 0.0024392920488334516 -0.0019024230449186117 0.0031756470172000944 0.0026986286782623879 0.0026507521194483949 -0.0056126754339139145 -0.0039761461503097055 -0.0086189220652594691 -0.0011309822976207839 -0.011289504909829742 -0.013695523084879323 0.0019148043145554815 -0.0012317602153246272 0.00049311399949998223 -0.0003684650386594572 -0.0021543162265016775 0.0011266656836382907 -0.00083208971973060882 -0.00058058480898277203 -0.0073335644182716412 -0.0077913950986189615 -0.0015802392894791993 0.0037958965937043292
leaf_weight=21.199999809265137 48.79999965429306 19.29999977350235 67.899999618530273 138.79999935626984 43.399999618530273 20.199999809265137 36.799999952316284 24.099999964237213 27.399999737739563 18.799999892711639 52.699999868869781 41.299999713897705 19.599999845027924 28.199999928474426 498.19999784231186 34.199999809265137 137.89999979734421 144.39999967813492 59.29999977350235 48.299999713897705 43.699999690055847 21.899999856948853 20.299999833106995 19.899999797344208 22.299999833106995 165.49999916553497 53.599999725818634 22.699999928474426 37.699999868869781 33.899999678134918 39.299999713897705 29.899999797344208 29.999999821186066 23.099999725818634 40.899999797344208 22.399999916553497 110.19999933242798
leaf_count=31 83 25 82 188 58 25 41 26 34 27 62 61 26 36 724 54 167 156 79 65 56 27 25 26 31 200 77 26 42 49 51 39 35 30 46 25 146
internal_value=-0.000103726 -0.00488707 0.00100631 -0.000543409 -0.00665779 -0.00021983 0.0010897 -0.00211882 -0.00532867 -0.00919702 -0.00264621 -0.00355732 -0.00501683 -0.00099665 0.00215154 0.00143055 0.00170458 0.00147956 0.000590903 -0.00375286 -0.00183219 -0.00624607 -0.0044996 -0.00879842 -0.0110245 0.00219008 -0.00243503 -0.00162886 0.00110691 -0.000252113 0.00271134 0.00149447 -0.00497508 -0.00351871 -0.00582749 -0.00421398 0.00268504
internal_weight=2268.1 427.2 1840.9 782.3 309.7 117.5 97.3 439.8 203.3 106.4 378 243.5 131.9 134.5 1058.6 450.2 416 342.5 198.1 90.6 111.6 40.7 164.1 39.2 65.7 333.3 81.8 42.3 61.8 82.7 76.1 195.4 143.8 53.1 90.7 49.8 608.4
internal_count=2981 537 2444 982 389 148 123 559 246 143 491 316 178 175 1462 592 538 423 267 117 138 54 195 51 89 406 113 52 68 132 92 239 170 65 105 59 870
is_linear=0
shrinkage=0.022234


Tree=2
num_leaves=38
num_cat=0
split_feature=3 16 16 3 24 3 23 35 16 34 3 34 3 33 9 3 22 22 42 3 6 24 2 14 41 22 30 11 34 22 2 24 35 23 9 30 23
split_gain=25.2795 7.37681 5.41007 4.17714 3.17707 2.11005 2.0221 1.5902 1.31871 0.890555 0.878131 0.708149 1.04159 0.689253 0.665921 0.678734 0.626393 0.61406 0.532354 0.532326 0.481613 0.465058 0.459562 0.454526 0.628645 0.444934 0.44273 0.440195 0.432417 0.489138 0.42292 0.40823 0.401966 0.395934 0.377291 0.373249 0.369696
threshold=0.10473845311211132 -0.13898715389005872 0.17914677760460992 0.40789817317505689 0.4904182953501553 0.0014151545129939002 1.0732379801549248 0.11317010628994406 0.65701876506729029 0.059537067416063107 0.020821772662017551 0.11843372353372311 0.28927693324339554 -0.096509376107124831 -0.18944564893032118 0.35427145462897608 0.82348646078609311 0.84353672357153908 -0.037794589561081747 0.70917520747089813 -0.015630281230727145 1.0825202682691846 1.3281900033988274 -0.91413929627626789 -1.4993462194808473 0.93922532862573604 -0.021340537176371046 -1.2160860291311983 0.13381061038068828 0.93207564490301431 0.85488241686024968 0.5745679662237958 0.2441522055447736 -0.12613742668168901 -0.41554532092893076 -0.071792946920575626 -1.2478973095923587
decision_type=2 2 2 2 2 2 2 2 2 2 2 2 2 2 2 2 2 2 2 2 2 2 2 2 2 2 2 2 2 2 2 2 2 2 2 2 2
left_child=1 4 14 6 10 28 8 9 30 13 -1 -10 17 -7 15 20 -14 26 -11 36 -2 31 25 -16 -25 -15 32 -12 29 -3 -4 -9 -13 -18 -19 -29 -5
right_child=2 5 3 19 -6 7 -8 21 11 18 27 12 16 22 23 -17 33 34 -20 -21 -22 -23 -24 24 -26 -27 -28 35 -30 -31 -32 -33 -34 -35 -36 -37 -38
leaf_value=-0.0025871340064453413 0.0008613532650413975 -0.0063617166055970533 -0.0012610549256103544 -0.001693286194779613 -0.0077815428331623271 -0.0023235595577904351 0.0018636654584930374 -0.007934688915658206 0.00075420531506397771 -0.00070422747536473919 0.003888608554786452 -0.00083544841778434003 -0.0038870924763142489 -0.0060521439089249287 0.0032440134996191243 0.0020929506407793784 -0.0022950541739618106 -0.0053272610712197781 -0.0046677822148452298 0.0028123804514887407 -0.0022855308199954219 -0.0056293717163642737 -0.0041017114693202858 -0.0050620247142712169 0.0021863691606828469 -0.0099117264643179704 -0.0059385246533723334 0.0027188330017649709 -0.012913827993834791 -0.011140088514326976 0.0019932577830326145 -0.011909029128980262 -0.0050909507449835778 0.0021350573787871805 -0.0090991318930928565 -0.00081307450178932027 0.0012131620790633414
leaf_weight=28.899999678134918 98.499999344348907 18.999999821186066 123.29999929666519 23.899999856948853 25.79999977350235 21.099999785423279 65.299999892711639 29.699999690055847 18.199999868869781 34.79999977350235 33.499999940395355 29.699999809265137 36.099999845027924 31.699999868869781 280.29999959468842 235.6999979019165 18.099999904632568 33.199999868869781 32.299999713897705 106.49999976158142 31.79999965429306 19.599999845027924 22.199999809265137 5.9999999999999991 397.89999830722809 27.699999868869781 27.999999821186066 25.999999821186066 21.199999868869781 23.999999821186066 23.499999940395355 22.49999988079071 17.399999856948853 22.199999988079071 21.699999928474426 34.299999713897705 227.89999908208847
leaf_count=42 150 26 160 33 32 27 70 44 22 41 39 40 57 35 387 353 28 48 40 127 43 26 27 6 498 31 42 31 29 29 26 28 29 23 25 48 295
internal_value=-5.76255e-05 -0.00475584 0.00109911 -0.00028461 -0.000690105 -0.00673017 -0.00174444 -0.0057779 -0.00237884 -0.0046047 0.000801243 -0.00344992 -0.00382064 -0.00590623 0.00214659 0.00138106 -0.00176017 -0.00503146 -0.00261236 0.00149465 9.32941e-05 -0.00855193 -0.00683245 0.00255608 0.00207864 -0.00785262 -0.00372453 0.00184529 -0.0103131 -0.00902964 -0.000740051 -0.00964868 -0.0024079 0.000145317 -0.0068188 0.000709895 0.000937265
internal_weight=2299.5 454.3 1845.2 795 148.5 305.8 436.7 241.6 371.4 169.8 122.7 224.6 206.4 102.7 1050.2 366 76.4 130 67.1 358.3 130.3 71.8 81.6 684.2 403.9 59.4 75.1 93.8 64.2 43 146.8 52.2 47.1 40.3 54.9 60.3 251.8
internal_count=3037 575 2462 1025 192 383 570 299 500 201 160 314 292 120 1437 546 108 184 81 455 193 98 93 891 504 66 111 118 84 55 186 72 69 51 73 79 328
is_linear=0
shrinkage=0.022234


Tree=3
num_leaves=38
num_cat=0
split_feature=3 16 28 3 3 36 36 3 3 25 24 5 27 9 23 36 27 11 36 36 14 36 3 3 36 3 6 23 24 9 20 16 5 33 15 34 38
split_gain=23.517 6.11737 5.82308 4.25254 2.14906 1.90096 1.80659 1.75137 1.48503 1.34403 0.901289 1.01936 0.766311 0.729908 0.70295 0.700531 0.701279 0.817902 0.697646 1.19776 0.6922 0.7663 0.663913 0.660036 0.641234 0.63092 0.620617 0.571521 0.570284 0.425797 0.392194 0.353737 0.593699 0.45279 0.346686 0.305132 0.298691
threshold=0.097913720375988764 0.088790563079312462 -0.32502650769677494 0.29602020066863699 0.050042204535148509 -0.14703825222861169 0.11959745360470907 0.0014151545129939002 0.59934685301035107 0.50111804613658661 0.32928460684624566 -1.0675435905325876 -0.081827728805821884 1.0000000180025095e-35 0.098466487319165213 -0.42030545771100719 -0.0088243203218311989 1.1134269292256536 -0.062448108311569092 0.060098517943485606 0.20105156075771208 0.099964744451312468 0.25438597974062588 0.047847769131568955 -1.2677683703093938 0.20202412216203683 1.1112894625413208 0.10497183246977107 0.21206607827654281 -0.55446249131867675 -0.091343229786863225 0.97668668650680945 0.62313492646321744 -0.012921463807067298 0.69747596650453869 0.19352797228213095 0.18796587851404653
decision_type=2 2 2 2 2 2 2 2 2 2 2 2 2 2 2 2 2 2 2 2 2 2 2 2 2 2 2 2 2 2 2 2 2 2 2 2 2
left_child=2 5 4 9 10 22 30 28 18 14 11 -1 27 31 35 24 20 23 36 -20 -17 -22 -2 -18 -9 -8 -15 -11 -4 -30 -7 32 -14 -33 -26 -3 -5
right_child=1 3 7 8 -6 6 25 15 -10 12 -12 -13 13 26 -16 16 17 -19 19 -21 21 -23 -24 -25 34 -27 -28 -29 29 -31 -32 33 -34 -35 -36 -37 -38
leaf_value=0.0020083724392041861 -0.0011928362572470709 0.00011955337191861996 -0.0063668927788411885 0.0013238868111395995 0.0024600458360892288 0.0024055796551254098 -0.0014888930455895211 -0.0039470527615048153 0.0023720556556916226 -0.0028915043466935402 -0.0074846429654645344 -0.005572793951346482 -0.0049479826215213275 -0.0080621946382206724 0.0029944139147322765 -0.0028139122068591522 -0.0073069083815889453 0.00041618750527536169 0.0021929233387152176 -0.00098050855593836386 -0.0049182840127040143 -0.0097116731173568921 0.0013036811667485114 -0.0016623906876592094 -0.0064327283341685361 0.0015444468466091934 -0.0032150760028452508 0.0015157120984160099 -0.012070368936282634 -0.008164468218350476 0.0037285911705176771 -0.006535040356097665 -0.00017678704487951636 -0.0025047956665340651 -0.01014312124413282 -0.0028374830983573939 -0.0019625407952124545
leaf_weight=18.699999868869781 85.299999415874481 34.699999690055847 24.199999749660492 15.899999916553496 57.999999761581421 154.19999849796295 42.499999701976776 20.699999809265137 190.79999929666519 38.699999690055847 19.699999809265137 16.499999821186066 19.899999856948853 34.299999952316284 25.099999964237213 26.699999749660492 22.49999988079071 24.099999845027924 118.79999977350235 116.39999938011169 37.099999725818634 29.699999749660492 137.59999930858612 18.799999833106995 21.499999821186066 167.39999938011169 21.099999845027924 23.299999952316284 33.199999690055847 23.699999868869781 393.59999918937683 25.499999821186066 36.599999785423279 29.999999821186066 29.699999749660492 34.29999977350235 97.399999558925629
leaf_count=24 121 45 33 24 69 231 62 26 234 58 25 26 30 37 27 33 26 28 131 169 45 37 217 24 29 256 27 25 46 28 447 37 46 43 38 52 132
internal_value=-0.000135026 0.000951777 -0.00485112 -0.000413689 -0.00052433 0.00215321 0.00268417 -0.00641728 0.000795262 -0.00242909 -0.00367717 -0.00154556 -0.00334695 -0.004129 -0.000191445 -0.00542944 -0.00460519 -0.00283876 -6.80358e-05 0.00062241 -0.00584054 -0.00705001 0.000348301 -0.00473797 -0.00725063 0.000930244 -0.00621652 -0.00123525 -0.00922804 -0.0104443 0.0033562 -0.0030962 -0.00185753 -0.00435693 -0.00858578 -0.00135048 -0.0015013
internal_weight=2268.2 1843.4 424.8 862.8 112.9 980.6 757.7 311.9 539.3 323.5 54.9 35.2 229.4 167.4 94.1 230.8 158.9 65.4 348.5 235.2 93.5 66.8 222.9 41.3 71.9 209.9 55.4 62 81.1 56.9 547.8 112 56.5 55.5 51.2 69 113.3
internal_count=2988 2451 537 1117 144 1334 996 393 690 427 75 50 303 220 124 286 193 78 456 300 115 82 338 50 93 318 64 83 107 74 678 156 76 80 67 97 156
is_linear=0
shrinkage=0.022234


Tree=4
num_leaves=38
num_cat=0
split_feature=3 11 29 3 3 35 36 9 16 3 36 10 11 36 36 24 39 39 3 42 19 19 3 9 33 3 40 6 22 30 36 27 9 9 11 42 9
split_gain=22.5511 5.39988 5.26341 4.33264 2.67315 1.7013 1.65032 1.33961 1.2872 1.07962 1.00584 0.959956 0.779989 0.714439 0.89131 0.71057 0.710349 0.73162 0.701715 0.687147 0.597894 0.726407 0.573316 0.542559 0.540255 0.492339 0.490475 0.450706 0.417699 0.413901 0.397576 0.359274 0.344906 0.338532 0.422071 0.338204 0.310555
threshold=0.10473845311211132 -0.49184737233337139 -0.034937909556826095 0.45161546996444674 0.0032901513286764006 0.13517335503119679 -0.11617088098406093 1.1305942604141808 0.24951571565927133 0.020821772662017551 0.097777376899032806 -0.41476887487121089 1.3278844680823825 -0.44540502603481974 0.14339914860825834 0.88261773153282053 -0.004074057021358349 -0.017210698249008498 0.67258842543792929 -0.081545759087585032 1.0389219527521643 0.56803542057600354 0.26957359188811597 -0.3654816045344042 0.029308678804659202 0.26108212554021443 0.70064006815169688 -1.236321744453021 0.84353672357153908 -0.039435416613033798 -0.087383308426415743 -0.067017514014748439 -0.62041275733576984 -0.3698147454673229 0.82592297783897251 -0.0051245181066356992 -0.62041275733576984
decision_type=2 2 2 2 2 2 2 2 2 2 2 2 2 2 2 2 2 2 2 2 2 2 2 2 2 2 2 2 2 2 2 2 2 2 2 2 2
left_child=1 9 6 7 12 11 27 8 23 -1 -8 -6 15 22 19 -3 17 20 33 -15 21 -13 26 -4 30 31 -10 35 -18 -7 32 -16 -21 34 -5 -2 -32
right_child=2 4 3 18 5 29 10 -9 13 -11 -12 16 -14 14 25 -17 28 -19 -20 24 -22 -23 -24 -25 -26 -27 -28 -29 -30 -31 36 -33 -34 -35 -36 -37 -38
leaf_value=-0.003583484336409282 -0.0030666038997144754 -0.0090377484922062237 -0.0020888940870514351 0.00073906807058183026 -0.00029744918549385831 -0.006460071770907942 0.0033025485894421663 0.0017789358914625756 -0.0034627192092089309 0.0021242845409295912 0.0014106524476651641 -0.0054646009694281072 -0.0061948365796718795 0.00067275833489824171 -0.0076728750262941882 -0.014258097061193834 -0.004847534615520609 -0.00052369224142966269 0.0026339880384071371 -0.0010056824369327044 -0.0080397266300240976 -0.00093332271189381776 -0.0016967473990608033 0.0013095909048068839 -0.0050832625322077447 -0.0020313872085399322 -0.0078823044295763742 0.0011061857921949392 -0.0088580082553155609 -0.010175147088158433 -0.0018347589700400627 -0.0038210062645452447 -0.004465362188185139 0.0016178053267007927 -0.0024140558609013767 0.00049947414043140801 0.0013522127026024484
leaf_weight=23.099999845027924 25.099999904632568 33.499999701976776 32.79999965429306 71.499999523162842 30.499999821186066 31.599999666213989 461.29999804496765 57.799999892711639 24.299999833106995 56.299999713897705 198.79999911785126 44.299999713897705 23.399999797344208 73.199999570846558 16.899999856948853 20.99999988079071 26.899999797344208 28.399999856948853 178.99999940395355 28.99999988079071 19.699999749660492 28.899999797344208 26.99999988079071 79.499999642372131 23.199999868869781 56.79999977350235 25.399999856948853 204.99999898672104 24.599999785423279 27.999999761581421 28.099999785423279 41.099999725818634 27.99999988079071 104.49999970197678 29.699999928474426 27.599999904632568 32.699999928474426
leaf_count=33 33 47 45 98 35 46 572 68 37 69 306 52 31 89 26 26 34 32 212 37 26 34 44 92 29 83 36 310 31 37 37 54 33 123 40 48 35
internal_value=-0.000101999 -0.00475819 0.000939661 -0.000210859 -0.00597476 -0.00490271 0.0021437 -0.00143145 -0.00178968 0.000463598 0.00273279 -0.00393412 -0.00959226 -0.0023728 -0.00192225 -0.0110503 -0.00457598 -0.00364685 0.00161605 -0.00107499 -0.00460155 -0.00367579 -0.00430519 0.000316933 -0.00198233 -0.003503 -0.00572195 0.000634738 -0.00676385 -0.00820607 -0.00137144 -0.00494389 -0.0027054 0.000730204 -0.000186373 -0.0011991 -0.000120739
internal_weight=2298.5 420.2 1878.3 960.5 340.8 262.9 917.8 575.8 518 79.4 660.1 203.3 77.9 405.7 329 54.5 172.8 121.3 384.7 214.2 92.9 73.2 76.7 112.3 141 114.8 49.7 257.7 51.5 59.6 117.8 58 57 205.7 101.2 52.7 60.8
internal_count=3020 533 2487 1218 431 327 1269 745 677 102 878 244 104 540 423 73 209 144 473 260 112 86 117 137 171 163 73 391 65 83 142 80 70 261 138 81 72
is_linear=0
shrinkage=0.022234


Tree=5
num_leaves=38
num_cat=0
split_feature=3 26 3 32 3 32 20 0 9 30 3 20 3 39 35 24 20 40 9 23 35 39 10 23 3 35 11 23 3 8 41 22 3 16 15 27 3
split_gain=17.4155 6.46188 5.39542 1.8836 1.28675 1.22767 2.50019 1.22141 1.20591 1.07246 1.4013 1.03667 1.16608 0.787499 0.759931 0.729335 1.38222 0.86589 0.909801 0.904364 0.763431 0.652164 0.554486 0.578329 0.626938 0.573594 0.535224 0.500007 0.487275 0.476579 0.803202 0.472995 0.462727 0.449289 0.410742 0.407319 0.403773
threshold=0.05746100116302031 -0.028887710615915097 0.29056923409992158 -0.48667150501039669 0.67258842543792929 1.3745950364180024 0.29739809369741438 0.52833839099655278 -0.21558268040631476 0.024576788372262102 0.0091146671625123524 -0.23956568442301868 0.35288128911871047 -0.11508987735573804 0.097144257025848016 0.07581572118995801 -0.60569459281185745 1.1805153863324478 0.41638026899031966 0.26107289997792743 0.14440644920942888 -0.052333654326439744 0.36022035457681517 0.79915924031238739 0.42633034570156908 0.43187395139235002 -0.54147021957161179 -0.40649091454646097 0.030705540384901153 0.99487130110811217 0.62147490770052338 0.20028933106178406 0.50194296838231456 -1.3544502038937758 1.1380154688808044 -0.12910257303923731 0.15812702106311696
decision_type=2 2 2 2 2 2 2 2 2 2 2 2 2 2 2 2 2 2 2 2 2 2 2 2 2 2 2 2 2 2 2 2 2 2 2 2 2
left_child=3 11 7 28 22 9 -7 8 13 10 21 12 -2 31 27 16 -9 18 29 20 -19 -5 25 24 34 -4 33 -12 -1 30 -17 -3 -27 -13 35 -24 -18
right_child=1 2 4 5 -6 6 -8 15 -10 -11 14 26 -14 -15 -16 17 36 19 -20 -21 -22 -23 23 -25 -26 32 -28 -29 -30 -31 -32 -33 -34 -35 -36 -37 -38
leaf_value=-0.0035497342259049151 -0.00057901491654064523 -0.0065472598484514798 0.00227770925942904 -0.0086757385737965022 0.0025380749424272005 -0.0084678476123090599 0.0020480128707456714 -0.0060347348206277879 0.0017495713711706466 -0.0038775326963711473 -0.0025443045998659736 0.0011765751520138093 0.0020778739104613309 -0.00041535170873110234 -0.010070776141675045 -0.0054257512425134611 -0.0013994416422265404 -0.00023685415394831535 -0.0079839757749207065 0.0020131437227002948 -0.0056964802899831541 -0.014342425856811499 -1.9892054932927512e-05 0.0015436864095763766 0.00015815215218486071 -0.0025876907021204366 0.0015970795059444345 -0.0068103756201955039 0.0012239915321568967 -0.006521726836534532 -0.0013309372420706102 -0.0018928761742439903 0.0013144496481711453 0.0032852119159424899 0.00084993371763308087 -0.0037243740636789665 0.0026282136495244576
leaf_weight=22.79999977350235 138.19999897480011 24.499999701976776 101.39999961853027 18.599999785423279 159.99999952316284 22.399999737739563 22.299999892711639 20.799999892711639 58.399999737739563 33.899999737739563 20.199999809265137 58.199999868869781 199.59999817609787 50.0999995470047 24.099999785423279 42.299999713897705 22.599999845027924 21.799999833106995 33.699999868869781 21.49999988079071 30.199999749660492 21.899999797344208 19.099999904632568 61.199999868869781 124.79999965429306 27.499999821186066 205.59999889135361 41.499999821186066 19.699999868869781 26.099999785423279 53.79999965429306 19.299999892711639 33.099999845027924 352.79999929666519 17.899999916553497 63.29999965429306 26.99999988079071
leaf_count=33 222 33 119 25 190 31 26 33 66 43 25 79 327 70 32 58 28 28 38 25 44 30 32 68 160 34 246 46 25 36 66 27 41 453 25 87 31
internal_value=-2.99078e-05 0.0006537 -0.000540869 -0.00559705 0.000826398 -0.00648059 -0.00322201 -0.00238051 -0.000759056 -0.0073897 -0.00833222 0.00198094 0.0009909 -0.00231928 -0.0067225 -0.0032042 -0.0012245 -0.00381171 -0.00474964 -0.0018221 -0.00340787 -0.0117413 0.000215473 -0.000372727 -0.000893781 0.00125497 0.00252331 -0.005414 -0.00133708 -0.00385741 -0.00313351 -0.00449678 -0.000456385 0.00298663 -0.00220261 -0.00286574 0.000793071
internal_weight=2262.2 2014.8 1060.4 247.4 608.3 204.9 44.7 452.1 152.3 160.2 126.3 954.4 337.8 93.9 85.8 299.8 70.4 229.4 155.9 73.5 52 40.5 448.3 286.3 225.1 162 616.6 61.7 42.5 122.2 96.1 43.8 60.6 411 100.3 82.4 49.6
internal_count=2982 2666 1339 316 756 258 57 583 196 201 158 1327 549 130 103 387 92 295 198 97 72 55 566 372 304 194 778 71 58 160 124 60 75 532 144 119 59
is_linear=0
shrinkage=0.022234


Tree=6
num_leaves=38
num_cat=0
split_feature=3 40 3 9 32 36 36 36 36 2 20 27 3 20 36 36 22 20 3 8 20 10 3 13 19 3 5 22 3 35 34 20 17 36 23 0 22
split_gain=20.024 6.52914 5.4028 2.50914 2.53503 1.5236 1.87499 1.35851 1.60954 1.16406 2.03865 1.00963 0.946051 0.696499 0.874541 0.68857 0.677391 0.660713 0.643561 0.65009 0.589388 0.543001 0.539482 0.497409 0.491097 0.431255 0.411681 0.403223 0.558836 0.395573 0.383006 0.372609 0.367864 0.363628 0.718267 0.346704 0.334627
threshold=0.05746100116302031 0.23972534354744687 0.29056923409992158 -0.99176908322112356 -0.48667150501039669 -0.14167744051405201 0.18873161475915837 -0.19119333642345501 0.10404650856112681 1.2542636990879654 -0.10931406912099333 -0.20141870690880651 0.58937525288719084 -0.7046183456891949 -0.064576929631660993 -0.5153930660879914 0.88653490862344031 -0.29901946511500083 0.30597151666925826 -0.18090218107571562 -0.14265623332971797 0.6085462407488148 0.0065796168299877009 0.77726802128993999 1.0606853854647793 0.17431264218964534 1.1748993639598424 -0.66342320011392208 0.28584541982725092 0.21051051231850501 0.16579629328423354 -0.43498008571770658 0.76036482747018008 -0.7536765681863038 -0.0085103972548980986 0.45203389045171544 1.2344927299418664
decision_type=2 2 2 2 2 2 2 2 2 2 2 2 2 2 2 2 2 2 2 2 2 2 2 2 2 2 2 2 2 2 2 2 2 2 2 2 2
left_child=3 5 7 22 15 27 17 21 16 11 -11 -6 13 35 32 -5 20 30 19 -8 -9 29 -1 -23 -16 36 -25 -2 31 -3 -7 -29 -15 -13 -35 -4 -10
right_child=1 2 12 4 9 6 18 8 25 10 -12 33 -14 14 24 -17 -18 -19 -20 -21 -22 23 -24 26 -26 -27 -28 28 -30 -31 -32 -33 -34 34 -36 -37 -38
leaf_value=-0.013549258607791693 0.0013394413209689459 -0.0010180222442611525 0.00084100482577491244 -0.0036815008598625317 -0.0032354868185796594 -0.00092324627216809987 6.8655328376718543e-05 -0.00082273233766724276 -0.0037826928483090205 -0.0092263890717451929 -1.2510123788339968e-05 -0.010400069365724119 0.0021116529130677086 -0.0030357755302294017 0.00079214063830470335 0.0018858439771983542 -0.0026617947682285458 0.0032625478825211575 0.0015009101437760126 -0.0043544757279929177 0.0028561320913889549 -0.003789948676113054 -0.0085278797364803389 -0.0091801084733186492 0.0034865778841420671 -0.0023765104257421638 -0.0049797295759211879 -0.0042406385782946506 0.0009652239512922549 -0.0052011646407550917 0.0020926711231886055 -0.00078016248704677567 0.0004232950499025082 -0.0043238845768095611 -0.0092227124728848295 -0.0023839094855705083 -0.0074646213154721027
leaf_weight=19.099999845027924 120.59999966621399 28.699999809265137 21.799999892711639 17.899999916553497 23.499999761581421 23.799999713897705 72.899999558925629 41.099999666213989 35.899999737739563 18.599999785423279 32.79999977350235 30.199999749660492 173.19999945163727 34.599999904632568 111.29999983310699 28.399999797344208 32.499999761581421 483.79999870061874 126.29999953508377 21.199999749660492 45.199999928474426 39.599999725818634 23.79999977350235 24.299999892711639 47.799999833106995 67.699999570846558 21.999999821186066 20.599999845027924 79.399999439716339 18.299999892711639 165.89999836683273 60.699999451637268 27.099999845027924 23.29999977350235 40.599999845027924 67.499999701976776 18.499999821186066
leaf_count=25 194 35 37 27 30 33 106 53 47 28 39 43 210 42 122 37 40 561 200 31 47 59 31 29 56 87 31 32 108 27 251 78 35 31 45 112 25
internal_value=-2.23724e-05 0.000718622 -0.000757054 -0.00585467 -0.00487609 0.00179487 0.00224396 -0.00276428 -0.00176865 -0.00613886 -0.00334725 -0.00735882 0.000795411 6.02307e-05 0.000730352 -0.000266694 7.38304e-05 0.00282647 0.000463883 -0.000928007 0.00110414 -0.00456887 -0.0107647 -0.00562014 0.00160174 -0.00356127 -0.00718495 0.000367749 -0.00036149 -0.00264713 0.00171428 -0.00165718 -0.00151656 -0.00838835 -0.00743689 -0.00159664 -0.00503535
internal_weight=2290.5 2032.3 857.1 258.2 215.3 1175.2 893.9 373.8 240.9 169 51.4 117.6 483.3 310.1 220.8 46.3 118.8 673.5 220.4 94.1 86.3 132.9 42.9 85.9 159.1 122.1 46.3 281.3 160.7 47 189.7 81.3 61.7 94.1 63.9 89.3 54.4
internal_count=3024 2688 1094 336 280 1594 1182 480 299 216 67 149 614 404 255 64 140 845 337 137 100 181 56 119 178 159 60 412 218 62 284 110 77 119 76 149 72
is_linear=0
shrinkage=0.022234


Tree=7
num_leaves=38
num_cat=0
split_feature=3 29 16 3 35 3 35 42 36 36 36 36 30 33 3 20 3 35 35 24 42 34 3 33 12 23 24 24 3 35 42 42 33 8 3 35 3
split_gain=17.7619 4.58519 4.5189 2.90794 2.49417 1.56633 1.52284 1.16125 1.08146 1.06778 1.20157 1.02095 0.916583 0.878157 1.10383 0.93402 0.753192 0.710281 0.602664 0.601271 0.579139 0.488167 0.463285 0.461398 0.635572 0.444375 0.519513 0.430825 0.422742 0.459546 0.376403 0.480145 0.353895 0.447307 0.314829 0.313551 0.454886
threshold=0.10473845311211132 -0.40475190809350603 -0.011257334099232248 0.29056923409992158 0.21051051231850501 0.030705540384901153 0.19766616797254583 0.11709317800712672 -0.10051304611881288 -0.14703825222861169 0.085357364600447364 0.088027322084715767 -0.14339400503733421 0.012099416317720801 0.034349648407898455 0.89291984344767528 0.19798222968226953 0.095200780590312215 0.28277449723987225 0.72990570548157641 -0.10411132966791939 0.10159800796601957 0.28273727050507852 -0.023385897287128896 0.59482305057041762 -0.096154892973354333 0.50130400259820374 0.40508125368850884 0.50947481857982835 0.39096047327067834 -0.099920626632866646 -0.014959753259713897 -0.050486602992891094 1.0782520366299659 0.31674825450387861 0.15549296892753886 0.17616394951022177
decision_type=2 2 2 2 2 2 2 2 2 2 2 2 2 2 2 2 2 2 2 2 2 2 2 2 2 2 2 2 2 2 2 2 2 2 2 2 2
left_child=1 5 9 6 7 -1 12 13 28 22 -11 -10 -4 14 15 30 27 23 -6 -15 -14 -7 35 24 -16 -18 -27 -8 29 -5 -3 -32 -22 -34 -12 -2 -37
right_child=2 4 3 8 18 21 16 -9 11 10 34 -13 20 19 17 -17 25 -19 -20 -21 32 -23 -24 -25 -26 26 -28 -29 -30 -31 31 -33 33 -35 -36 36 -38
leaf_value=-0.0044832401431519611 0.0016276080513113874 -0.0062247195008740255 0.0023693397836375917 -0.00010172121787503317 -0.013494526986625791 0.002400399151758153 -0.0028950954017767008 -0.00063325042562420723 0.0021401420015300489 0.0029982842780908571 7.3692927702036486e-05 -8.6174575180409546e-05 0.0013921010751890618 0.0002463984105901405 -0.0042960698979005087 -0.0038414749730101066 -0.0033402420885702746 -0.0068289349096519701 -0.0077485895280056958 -0.0047871377313021676 6.3691563223800156e-05 -0.0017532517676784379 0.0014509940607882958 -0.0056493844609019654 0.00042660977780676685 0.0017612452856763108 -0.0028748400722439743 -0.0069760275736242394 0.00062656878638619594 -0.0030167377461648207 -0.012722354775560921 -0.0081911028854890003 -0.0045495491510377231 -0.00079700805515176291 0.0017706761782248365 -0.0044101294221729039 -0.00023506081023644574
leaf_weight=29.899999737739563 21.399999856948853 17.099999785423279 46.699999749660492 52.199999809265137 19.699999868869781 62.699999690055847 20.699999868869781 31.199999749660492 283.49999922513962 512.899997651577 95.499999463558197 158.89999932050705 29.699999809265137 22.099999785423279 30.599999785423279 22.99999988079071 74.799999356269836 41.199999570846558 16.699999868869781 24.99999988079071 24.999999821186066 17.999999940395355 127.19999945163727 27.099999845027924 26.099999845027924 23.499999940395355 24.299999952316284 33.499999821186066 70.099999666213989 54.799999594688416 19.79999977350235 27.899999797344208 39.199999749660492 26.199999868869781 124.49999958276749 18.49999988079071 42.599999785423279
leaf_count=41 29 25 55 72 26 76 31 38 318 641 131 222 36 28 36 26 110 56 25 29 30 25 199 31 30 25 26 46 94 77 26 35 49 31 203 28 62
internal_value=-1.40432e-05 -0.00405087 0.000913988 -0.000157124 -0.00537271 -0.000136706 -0.00179758 -0.00468643 0.000752747 0.00200839 0.00240868 0.00134051 -0.000273643 -0.00517298 -0.00578102 -0.0076918 -0.00323528 -0.00443865 -0.0108597 -0.00242554 -0.0013014 0.00147389 0.000609375 -0.00326316 -0.00212228 -0.00227023 -0.000595641 -0.00541783 -0.000715488 -0.00159471 -0.00905805 -0.0100731 -0.00218635 -0.0030464 0.00103405 -0.000688255 -0.00149944
internal_weight=2343.8 438.1 1905.7 963.1 327.5 110.6 343.6 291.1 619.5 942.6 732.9 442.4 166.8 259.9 212.8 87.8 176.8 125 36.4 47.1 120.1 80.7 209.7 83.8 56.7 122.6 47.8 54.2 177.1 107 64.8 47.7 90.4 65.4 220 82.5 61.1
internal_count=3068 553 2515 1222 411 142 439 360 783 1293 975 540 201 322 265 112 238 153 51 57 146 101 318 97 66 161 51 77 243 149 86 61 110 80 334 119 90
is_linear=0
shrinkage=0.022234


Tree=8
num_leaves=38
num_cat=0
split_feature=3 25 25 3 35 24 3 3 9 36 36 3 9 5 24 24 24 42 15 36 36 24 9 3 11 41 25 42 3 20 20 39 35 3 3 20 30
split_gain=17.5676 5.11429 5.06622 3.99124 2.34918 1.72379 1.57485 1.27072 1.15149 0.953663 1.89062 0.947306 0.922112 1.11661 1.55357 0.770064 0.765509 0.763844 0.754658 0.741512 1.35092 0.601141 0.564116 0.558744 0.558526 0.554847 0.52348 0.450035 0.443648 0.380112 0.37939 0.319591 0.308256 0.946466 0.30437 0.273444 0.232593
threshold=0.10473845311211132 1.0000000180025095e-35 -0.45535081169489888 0.26957359188811597 0.11626088859137167 0.63618789136731324 0.0014151545129939002 0.67258842543792929 -0.71023965273445844 -0.068738301366251336 0.12925347978959736 0.030705540384901153 -0.75370450977809 1.1233383544496094 0.72990570548157641 -0.37607729257471817 0.67372628473215557 -0.061457087258368945 0.68046424201950251 0.093131321642815304 -0.15065747330666959 1.0825202682691846 -0.63597594356971232 0.31674825450387861 1.3119486928294839 0.12724304393414693 1.1419385249555882 -0.018197766568403197 0.053209969228044808 -0.22303625658763673 -0.3566507936507522 -0.040188861860416744 0.19231780662514922 0.20877134789853805 0.40529529731790909 -0.82431608861541283 -0.042959025939385741
decision_type=2 2 2 2 2 2 2 2 2 2 2 2 2 2 2 2 2 2 2 2 2 2 2 2 2 2 2 2 2 2 2 2 2 2 2 2 2
left_child=2 19 11 5 6 8 16 9 -3 34 35 -1 26 14 25 29 -4 -6 31 20 -2 22 -20 27 -23 -14 -8 36 -19 -10 -22 -7 -17 -34 -5 -11 -21
right_child=1 3 4 7 17 18 12 -9 15 10 -12 -13 13 -15 -16 32 -18 28 21 23 30 24 -24 -25 -26 -27 -28 -29 -30 -31 -32 -33 33 -35 -36 -37 -38
leaf_value=-0.0025166253835391056 0.0010140784033567363 -0.0045341435834849262 -0.004867975691299692 -0.0022934728911116471 -0.0053828803106830327 -0.0038857170534081936 -0.0041837020069601522 0.0024948556936305309 -0.00025479161923782067 -0.00039608510259017958 -0.0012075480429390576 0.0022023976540948521 0.0011363014039007747 0.001915237265194466 -0.0067602729191111989 0.00023324285349795917 -0.01089742665012545 -0.011177063682907089 -0.0041750883018217199 -0.00058661681687534914 0.0020271827007869387 -0.00078264743333848774 -0.0092743090015616463 0.0018905213289525495 -0.0061246872756430433 -0.002929723746163293 -0.008678618193839898 0.001164392870753434 -0.0074582271138344744 0.0037746597959547978 0.0034439957081048504 -2.7161758331159643e-05 -0.0060973436470989966 -0.00025065168463942177 -0.00025943296823020693 0.0025483117806402045 -0.0039063086899195389
leaf_weight=32.399999678134918 222.79999881982803 35.29999977350235 19.699999809265137 71.699999630451202 30.799999713897705 19.999999761581421 40.699999630451202 166.29999935626984 18.799999833106995 17.099999904632568 126.29999935626984 59.899999797344208 28.599999725818634 25.499999821186066 39.599999845027924 46.699999690055847 22.099999785423279 38.199999630451202 17.899999916553497 23.599999845027924 124.09999871253967 19.399999916553497 26.799999892711639 129.89999961853027 19.299999892711639 39.499999701976776 18.699999809265137 43.599999785423279 27.199999809265137 30.099999964237213 378.39999902248383 22.599999845027924 20.299999833106995 41.999999761581421 73.799999594688416 176.69999969005585 18.699999868869781
leaf_count=48 344 49 25 102 46 27 51 197 26 24 178 75 36 30 44 56 28 54 24 31 196 25 30 216 25 47 24 68 34 32 437 31 28 49 102 189 26
internal_value=3.70647e-05 0.000952707 -0.0040598 -0.000197118 -0.00534563 -0.00222362 -0.00414479 0.000826565 -0.00090408 0.000230677 0.000909092 0.000545838 -0.00329562 -0.00226813 -0.00325866 -9.24352e-05 -0.00805666 -0.00827125 -0.00424681 0.00211474 0.00245517 -0.00547656 -0.00723299 0.000970541 -0.00344719 -0.00122215 -0.00559934 -0.000420701 -0.00963104 0.00222563 0.00309411 -0.00183892 -0.00113242 -0.00215607 -0.00126182 0.00228851 -0.00205446
internal_weight=2315.1 1892.2 422.9 951.1 330.6 319.2 234.4 631.9 193.2 465.6 320.1 92.3 192.6 133.2 107.7 157.9 41.8 96.2 126 941.1 725.3 83.4 44.7 215.8 38.7 68.1 59.4 85.9 65.4 48.9 502.5 42.6 109 62.3 145.5 193.8 42.3
internal_count=3054 2512 542 1194 419 402 285 792 240 595 391 123 232 157 127 191 53 134 162 1318 977 104 54 341 50 83 75 125 88 58 633 58 133 77 204 213 57
is_linear=0
shrinkage=0.022234


Tree=9
num_leaves=38
num_cat=0
split_feature=3 16 3 35 24 36 0 15 36 3 3 36 36 36 38 23 35 20 3 20 35 2 35 3 35 32 24 16 39 3 19 30 9 20 20 13 39
split_gain=15.6526 6.43592 4.38839 2.53358 2.09424 1.60704 1.34863 1.18299 1.15218 1.0894 0.789711 0.758116 0.981934 0.735033 0.705159 0.678536 0.562562 0.554413 0.549083 0.534933 0.453585 0.438121 0.428351 0.404814 0.403607 0.388337 0.382654 0.301712 0.300729 0.28725 0.283176 0.252873 0.25051 0.306306 0.237954 0.219707 0.196796
threshold=0.053209969228044808 0.11966431868444401 0.27822796092282764 0.078847471874810615 0.50842804555216647 -0.14703825222861169 0.49409057769827652 0.68751040237257866 0.05073905409792636 0.66142172642800157 0.17260701725863192 -0.062448108311569092 0.10895016053852306 -0.18282417994372102 -0.16774248173694342 0.098466487319165213 0.14300431349581896 -0.51857439485049683 0.020821772662017551 0.95677281771174993 0.25786532652549482 -0.3577393129728485 0.15114711375538448 0.18993423531951947 0.16785563458351468 0.33082046540258886 0.71101765673731621 0.85530613172054715 -0.028713989740752194 0.19650094754578773 -0.12339459476383434 -0.060607670859385093 -0.77565018408628283 0.36163397910023637 -0.41948803705879406 0.55195855438483599 0.097745363372830754
decision_type=2 2 2 2 2 2 2 2 2 2 2 2 2 2 2 2 2 2 2 2 2 2 2 2 2 2 2 2 2 2 2 2 2 2 2 2 2
left_child=3 5 6 4 17 10 15 -6 34 11 21 28 31 16 -5 25 -8 -1 27 -9 23 22 -2 24 32 -3 30 -16 -4 -18 36 -13 -15 -34 -7 -36 -10
right_child=1 2 9 14 7 8 13 19 26 -11 -12 12 -14 20 18 -17 29 -19 -20 -21 -22 -23 -24 -25 -26 -27 -28 -29 -30 -31 -32 -33 33 -35 35 -37 -38
leaf_value=-0.0029860947368587297 0.0018318619902036185 -0.0030951204404392825 -0.00030698234179042118 -0.0045578636727900386 -0.0087254348326650643 0.0020476196967298015 -0.0026008063686849617 -0.0053973225307096936 0.0015961772167392707 0.0021441326974218789 0.00099770862318698523 0.0031011723569850636 -0.0010301507525350127 -0.0038618854564793493 -0.01290067812675732 0.0025937312971497325 -0.0074691233303712749 0.0019820635737385901 -0.00658368788047713 -0.00095436073480972361 -0.0055647068482568554 -0.004100127965565809 -0.0029882371932036474 -0.00010562709413714304 -0.0051989199555348958 0.00025031531289925179 -0.00095867262065837977 -0.0093033400122289403 -0.0023897577694717825 -0.0046107358310402491 -0.00032016848940418055 0.0011577572063973765 0.0003918839097019263 -0.0030241065046409939 0.0033609259702558104 0.0016624789009097526 0.0040241212298635018
leaf_weight=17.79999977350235 20.199999868869781 36.699999690055847 65.399999678134918 17.299999892711639 36.899999678134918 116.99999886751175 35.899999678134918 32.899999737739563 211.29999923706055 152.99999952316284 172.59999924898148 49.699999868869781 101.39999949932098 23.599999785423279 21.099999845027924 27.599999964237213 34.499999761581421 29.499999821186066 20.799999833106995 22.599999904632568 20.49999988079071 26.299999713897705 16.599999904632568 39.199999868869781 25.29999977350235 32.199999749660492 35.599999845027924 25.599999725818634 71.999999701976776 35.099999904632568 36.599999606609344 99.099999904632568 29.599999785423279 23.099999904632568 364.79999899864197 41.999999940395355 17.899999976158142
leaf_count=26 26 53 96 26 46 183 47 40 324 180 266 57 150 30 27 30 48 36 27 25 27 36 27 47 35 42 46 36 98 48 48 107 36 26 421 44 22
internal_value=2.86555e-05 0.000664147 -0.000714459 -0.005533 -0.00369255 0.00183873 -0.00260424 -0.00564019 0.00230121 0.000555545 0.000219554 -7.15471e-05 0.000657141 -0.00341894 -0.00856459 -0.000351742 -0.00486196 0.000112327 -0.00959112 -0.00358835 -0.002475 -0.00190888 -0.000342522 -0.00202498 -0.00276547 -0.00153174 0.00120594 -0.0109298 -0.00139844 -0.00602802 0.00149588 0.00180695 -0.00195831 -0.00110558 0.00293143 0.00318559 0.00178587
internal_weight=2189.3 1964.8 903.9 224.5 139.7 1060.9 363.3 92.4 825.2 540.6 235.7 387.6 250.2 266.8 84.8 96.5 105.5 47.3 67.5 55.5 161.3 63.1 36.8 140.8 101.6 68.9 301.4 46.7 137.4 69.6 265.8 148.8 76.3 52.7 523.8 406.8 229.2
internal_count=2889 2600 1157 289 173 1443 469 111 1088 688 355 508 314 344 116 125 143 62 90 65 201 89 53 174 127 95 440 63 194 96 394 164 92 62 648 465 346
is_linear=0
shrinkage=0.022234


Tree=10
num_leaves=38
num_cat=0
split_feature=36 34 24 34 8 36 18 23 34 34 2 24 24 18 23 9 8 35 34 0 22 20 35 30 24 17 20 36 35 25 2 13 24 34 5 22 9
split_gain=10.512 4.29115 3.37413 3.28607 2.87072 2.47017 1.13759 0.900444 0.898736 0.860335 0.826145 0.713757 0.698821 0.698793 0.667526 0.608107 0.561387 0.551643 0.546062 0.458275 0.413614 0.406577 0.39881 0.408847 0.398251 0.385274 0.378997 0.372774 0.35181 0.320744 0.289768 0.352552 0.284624 0.282573 0.303223 0.293926 0.277242
threshold=-0.20153998055302522 0.094343886755336212 0.057796827384098658 0.23207329461712223 -0.30766075219200234 0.14339914860825834 -0.081434170415921894 1.1058146590664049 0.20669940702544118 0.41105501897107316 -0.60405425545034264 0.025643048741864054 0.79454195817853202 0.0083405394722977522 -0.70943573700916251 0.50641148338054676 0.78968039493820108 0.095200780590312215 0.49039003085497518 0.51336411688943828 0.63970707803567339 -0.27086036446854572 0.46476496839048081 -0.033515460437032789 -0.046415640256284044 0.86269530712329623 -0.020412639629816296 -0.080494826764068036 0.16340932919139423 0.97332227515013969 1.4182859178007923 0.75948398225827973 0.7189858549049134 0.18581198819010472 0.078904252072946976 -0.022076157419743198 1.1305942604141808
decision_type=2 2 2 2 2 2 2 2 2 2 2 2 2 2 2 2 2 2 2 2 2 2 2 2 2 2 2 2 2 2 2 2 2 2 2 2 2
left_child=2 4 10 12 26 6 27 9 11 15 -1 -7 13 -4 -15 21 32 19 20 -6 33 24 23 -18 -8 -10 -2 -3 -23 -21 31 -14 -5 34 -12 -35 -29
right_child=1 5 3 16 17 8 7 -9 25 -11 18 -13 30 14 -16 -17 22 -19 -20 29 -22 28 -24 -25 -26 -27 -28 36 -30 -31 -32 -33 -34 35 -36 -37 -38
leaf_value=0.00092130289995292136 -0.00077826365182338841 0.0011356173225623863 -0.0012946977380056404 -0.0016150679230369177 -0.0012356488635065484 7.644565280136741e-05 -0.0037051400666879264 0.0032304179488499632 0.00086182559150772668 0.0016585431623647592 -0.0061835801667452141 -0.0034023440260122113 -0.0061073345095679181 -0.002627602232208523 -0.007604777525356576 -0.0033260514278609619 -0.0014943709241093284 -0.0074535614713887935 0.0016007813761836364 -0.0061866642966247705 -0.00016690321022816497 0.0035704585900592336 -0.00066954288190069567 -0.005736425152185815 -8.8953818433077983e-05 -0.001499883906038888 0.0029431050543346879 0.0025115658963181385 0.00037740392327234844 -0.0031127929437192751 -0.0049292056134830195 -0.009207484762080274 0.00090231075805078645 -0.00041836774312593584 -0.002421374526876813 -0.003621304791224167 0.0037320132656839095
leaf_weight=106.69999969005585 20.599999785423279 75.099999666213989 23.599999904632568 48.699999690055847 28.999999761581421 54.79999965429306 19.499999761581421 85.899999916553497 247.79999905824661 232.1999990940094 20.699999749660492 62.299999594688416 30.499999761581421 20.699999809265137 37.399999737739563 28.699999988079071 17.399999856948853 22.29999977350235 22.599999845027924 32.099999845027924 38.399999678134918 23.499999940395355 22.699999928474426 31.699999809265137 65.999999582767487 39.599999845027924 39.399999916553497 366.49999821186066 62.199999809265137 35.199999749660492 19.79999977350235 44.899999737739563 40.799999833106995 31.399999737739563 21.699999749660492 25.799999833106995 122.89999967813492
leaf_count=182 28 107 28 62 35 78 29 88 384 273 30 83 41 31 45 30 26 28 36 36 53 25 28 42 83 59 45 476 68 42 26 55 54 51 29 38 144
internal_value=4.6711e-05 0.000958751 -0.0024621 -0.00393764 -0.00229758 0.00134987 0.00190382 0.00115137 -0.000132583 0.000738034 -0.000595152 -0.00177441 -0.00603038 -0.00452139 -0.00583185 -0.000331225 -0.00164239 -0.00430248 -0.00160266 -0.00357247 -0.00212732 0.000170905 -0.0031068 -0.00423342 -0.000913857 0.000536393 0.00166547 0.00259426 0.00125313 -0.00457926 -0.00732509 -0.0079539 -0.000467492 -0.00288309 -0.00425859 -0.00186323 0.00281808
internal_weight=2271.1 1665.6 605.5 338.2 178.6 1487 1082.5 518 404.5 432.1 267.3 117.1 176.9 81.7 58.1 199.9 161.3 118.6 160.6 96.3 138 171.2 71.8 49.1 85.5 287.4 60 564.5 85.7 67.3 95.2 75.4 89.5 99.6 42.4 57.2 489.4
internal_count=2998 2141 857 438 214 1927 1323 596 604 508 419 161 226 104 76 235 212 141 237 113 201 205 96 68 112 443 73 727 93 78 122 96 116 148 59 89 620
is_linear=0
shrinkage=0.022234


Tree=11
num_leaves=38
num_cat=0
split_feature=36 7 34 34 10 34 36 34 14 22 40 6 8 20 27 20 42 10 28 20 23 20 36 36 34 11 23 35 34 21 19 23 39 19 35 22 31
split_gain=9.93682 5.16929 4.504 4.43237 2.41181 1.71473 1.13877 0.898198 0.896996 0.797864 0.766263 0.737971 0.846354 0.897715 0.711116 0.91159 0.710222 0.707561 0.697754 0.603657 0.601195 0.812865 0.572545 0.736279 0.537477 0.52145 0.517849 0.515004 0.50999 0.490304 0.43469 0.405645 0.391312 0.377368 0.3752 0.357345 0.352265
threshold=-0.23088324018157377 0.24959114639625349 0.29035394992812863 0.29572840342703682 0.58769866171795948 0.058250307483655957 0.14339914860825834 0.67170919527035122 -0.47054496669829032 0.87318385511689922 0.16376372591414967 0.42474581489978952 1.0937064469156634 0.66424813184892628 -0.026171481347745346 -0.62291467845807158 -0.0072874380450689991 0.75650221329056044 0.6006030601212512 -0.23220492751455193 0.057824528872324955 -0.41948803705879406 0.10895016053852306 -0.076634832543808137 0.55627611796539 0.36894662040456644 -0.48158501386966385 0.12861059847566111 0.20197781328353337 -0.17975088628368177 0.73718059491159771 -0.78810522582964115 0.0099428699927398018 1.1105333213775557 0.17124051372626228 0.33656897404065567 0.36031183051634502
decision_type=2 2 2 2 2 2 2 2 2 2 2 2 2 2 2 2 2 2 2 2 2 2 2 2 2 2 2 2 2 2 2 2 2 2 2 2 2
left_child=3 5 9 4 8 -2 19 22 32 18 -5 -11 17 -14 16 -16 -6 -13 36 -7 21 34 23 -4 30 -23 27 -20 29 -8 -12 -32 -1 -17 -10 -28 -3
right_child=1 2 7 10 14 6 28 -9 20 11 24 12 13 -15 15 33 -18 -19 26 -21 -22 25 -24 -25 -26 -27 35 -29 -30 -31 31 -33 -34 -35 -36 -37 -38
leaf_value=0.00040288190382906807 -0.0035300497895064771 -0.0059620463354749598 -0.0016277459477761446 0.0010463064944114474 -0.002487205310292315 0.0014595713118156796 0.00023144025041621976 0.0027180685514771193 -0.0068901464238599755 -0.00032603076760820448 -0.004311261362365427 -0.0045647886143234378 -0.0055490687548948236 -0.00020230604255734108 -0.0050728059715418466 -0.011989897393632098 -0.0076968189447891361 -0.0095475881733865509 0.00075017027069295122 0.0028493653500213409 -0.0053462345499751323 -0.0029899503587776446 -0.0010966602916285372 0.0016793347420447097 0.00076130399211649178 0.0017813870606047787 0.0030994743398712085 -0.0038131291677930656 0.0013356388713206793 -0.0038625202210124804 -0.0035385213577199628 0.00056898250586841844 -0.0035448136267057432 -0.0079757194260637425 -0.0025934001762697575 -0.00057127981945677582 -0.0023517903332252212
leaf_weight=51.999999761581421 28.699999690055847 18.399999856948853 42.099999845027924 119.69999945163727 34.499999761581421 222.1999979019165 53.599999785423279 103.09999972581863 20.099999845027924 25.099999845027924 35.499999821186066 38.899999737739563 28.999999761581421 33.399999856948853 36.899999678134918 20.699999928474426 20.699999809265137 22.099999964237213 20.099999725818634 507.19999879598618 59.499999582767487 20.899999737739563 96.599999606609344 158.79999965429306 37.499999821186066 24.699999809265137 24.199999928474426 31.199999749660492 174.59999924898148 19.79999977350235 19.899999916553497 29.49999988079071 16.299999892711639 26.399999737739563 20.099999845027924 28.599999904632568 48.799999713897705
leaf_count=82 38 22 51 186 46 333 69 113 26 32 50 48 36 39 54 23 29 25 27 585 74 28 142 176 53 31 27 46 278 28 33 41 23 35 27 32 61
internal_value=-5.71912e-05 0.000796705 -0.000641042 -0.00253533 -0.00412513 0.00182618 0.00198347 0.000929728 -0.002641 -0.00260866 -0.000218562 -0.00380143 -0.0045083 -0.00268741 -0.00640233 -0.00769069 -0.0044413 -0.00637063 -0.00157458 0.002426 -0.00362882 -0.00243762 0.000309937 0.000986291 -0.00145552 -0.000405556 -0.000434418 -0.00202526 0.000681919 -0.000873099 -0.00243468 -0.00108584 -0.000539424 -0.00974093 -0.00474233 0.00111127 -0.00334066
internal_weight=2321.4 1726.5 720.4 594.9 352.8 1006.1 977.4 400.6 213.6 319.8 242.1 148.5 123.4 62.4 139.2 84 55.2 61 171.3 729.4 145.3 85.8 297.5 200.9 122.4 45.6 104.1 51.3 248 73.4 84.9 49.4 68.3 47.1 40.2 52.8 67.2
internal_count=3049 2208 877 841 478 1331 1293 482 291 395 363 180 148 75 187 112 75 73 215 918 186 112 369 227 177 59 132 73 375 97 124 74 105 58 53 59 83
is_linear=0
shrinkage=0.022234


Tree=12
num_leaves=38
num_cat=0
split_feature=3 16 15 3 24 23 26 35 20 36 3 33 36 36 3 20 39 36 20 24 20 20 16 20 36 42 14 24 35 3 24 6 2 41 28 24 23
split_gain=18.289 4.93897 4.37081 3.39128 2.14541 1.22847 1.33446 1.22351 1.10079 0.983194 0.844638 0.742299 0.721425 1.2687 0.704439 0.717705 0.667192 0.661129 0.638273 0.602423 0.513917 0.678327 0.511347 0.730395 0.489581 0.464539 0.444581 0.439618 0.388351 0.617254 0.376789 0.373333 0.367047 0.375144 0.585549 0.313255 0.30051
threshold=0.080083518773007512 -0.17524735264663036 -0.041771241469084196 0.29056923409992158 0.3447475938051644 1.2872701978111978 0.51947568478557615 0.19231780662514922 -0.26484959506650868 -0.14703825222861169 0.67258842543792929 0.05504978667619536 -0.076634832543808137 0.054959788791640353 0.027985753921825902 0.89291984344767528 -0.004074057021358349 0.148552536129855 -0.41948803705879406 0.67954962107905426 0.65129644925335539 -0.12387012888013184 0.5914983677236566 -0.15990572909624226 -0.88878920757863666 -0.015883518563173746 -0.10229837403061588 0.23823548406525188 0.42870730070956692 0.45161546996444674 0.30551891792696267 0.44637344360037201 1.473464139851371 0.63592153511318084 0.82180130974392396 -1.0649810658970733 1.1827902386534255
decision_type=2 2 2 2 2 2 2 2 2 2 2 2 2 2 2 2 2 2 2 2 2 2 2 2 2 2 2 2 2 2 2 2 2 2 2 2 2
left_child=1 4 9 5 8 6 18 11 -1 26 12 14 28 -14 15 19 22 36 31 -3 21 32 23 -16 -9 -24 35 -23 -5 -30 -20 -4 33 -8 -35 -2 -11
right_child=2 7 3 10 -6 -7 20 24 -10 17 -12 -13 13 -15 16 -17 -18 -19 30 -21 -22 27 25 -25 -26 -27 -28 -29 29 -31 -32 -33 -34 34 -36 -37 -38
leaf_value=-0.003568729017000324 -0.00037940744513062871 -0.0071075303904702168 -0.0034727969286099374 0.00018823703236159529 -0.0070733936939781595 0.0020200286984508242 -0.0057767649727860429 -0.0070313034646063092 0.0024385632692833052 0.0023804960216566658 0.0021958390348056842 -0.0019526500370510643 0.0020904989496040821 -0.00068861294760210595 -0.0027127718729017861 -0.0046497504098794527 -0.0082260361021728786 0.0010992219456338328 0.0018586901649929306 -0.011901951521136194 -0.0062241260866265575 0.001338408800170888 -3.3314034903330389e-05 -0.0086931737452991802 -0.011813241163926 -0.0046554762895893668 -0.0019536439931653561 -0.0025941481575494554 -0.0051635631150089931 -0.00077057783376891355 -0.0013198893328659389 0.00019846814081346875 -0.0065407196350985141 0.00073886098912246106 -0.0036887364495622101 0.0015373978732006173 0.0036309990279467862
leaf_weight=19.899999737739563 59.299999833106995 28.79999965429306 42.499999582767487 66.699999690055847 20.399999856948853 36.299999892711639 24.099999845027924 18.299999892711639 62.199999690055847 392.19999772310257 154.0999995470047 23.199999749660492 184.39999961853027 145.09999942779541 19.199999809265137 24.399999856948853 24.699999868869781 173.99999916553497 50.899999797344208 23.599999845027924 27.599999964237213 23.799999892711639 21.199999868869781 21.299999892711639 25.199999809265137 21.799999833106995 29.099999845027924 34.29999977350235 23.099999904632568 50.099999785423279 28.899999797344208 20.199999868869781 21.399999856948853 19.49999988079071 60.799999535083771 145.69999915361404 125.39999979734421
leaf_count=31 103 38 60 94 25 41 36 25 79 519 181 31 203 193 25 28 29 282 59 28 30 27 25 25 35 26 37 40 29 65 34 31 33 26 85 223 143
internal_value=-8.96776e-05 -0.00473548 0.000758769 -0.000249816 -0.000621187 -0.00187514 -0.00227458 -0.00641091 0.00098235 0.00186334 0.000767613 -0.00570209 0.000298721 0.000866685 -0.00617222 -0.00780093 -0.00501589 0.00228491 -0.000611453 -0.00926772 -0.00339508 -0.00297035 -0.00406589 -0.00585866 -0.0098025 -0.0023769 0.000617865 -0.000983241 -0.00103896 -0.00215713 0.000707539 -0.0022901 -0.00388801 -0.00334399 -0.00261356 0.00098293 0.00268349
internal_weight=2293.7 354.2 1939.5 1013.8 102.5 390.3 354 251.7 82.1 925.7 623.5 208.2 469.4 329.5 185 76.8 108.2 691.6 142.5 52.4 211.5 183.9 83.5 40.5 43.5 43 234.1 58.1 139.9 73.2 79.8 62.7 125.8 104.4 80.3 205 517.6
internal_count=3024 450 2574 1267 135 502 461 315 110 1307 765 255 584 396 224 94 130 944 184 66 277 247 101 50 60 51 363 67 188 94 93 91 180 147 111 326 662
is_linear=0
shrinkage=0.022234


Tree=13
num_leaves=38
num_cat=0
split_feature=3 13 16 3 9 34 9 24 36 36 36 34 3 7 23 36 36 10 14 20 3 36 3 5 3 24 22 24 39 1 13 17 2 3 3 35 3
split_gain=13.0425 3.42879 2.96905 2.508 2.41418 1.67853 1.08171 1.05762 1.06646 0.959281 1.5429 0.845518 0.74338 0.645417 1.40191 0.634098 0.616926 0.56377 0.583529 0.562531 0.552162 0.550683 0.545574 0.487055 0.479222 0.458608 0.446712 0.401991 0.3329 0.315904 0.33853 0.286645 0.281159 0.275189 0.264943 0.25296 0.483928
threshold=0.10473845311211132 -0.80332748992313097 0.17193568478670576 0.40789817317505689 -0.98412851737027451 0.13381061038068828 1.3821042017143632 0.46599611933926099 -0.50636187880997341 0.16547946544768097 -0.14167744051405201 0.20197781328353337 0.0014151545129939002 1.1990288288104012 -0.51846343377594117 -0.3036820274411518 0.10895016053852306 -0.77846585783086886 0.4961685322174591 -1.015362668113891 0.034349648407898455 -0.034222429346644441 0.71395926047485425 0.47881528980571214 0.20494783617462434 -0.52040526047629998 0.5200445536080619 -0.041063887971407143 -0.0035370108418120998 0.72465323728782938 0.94125267230315279 0.35608850343638448 0.78399315665873892 0.066680753160711911 0.57764496656654074 0.15549296892753886 0.25262859452349129
decision_type=2 2 2 2 2 2 2 2 2 2 2 2 2 2 2 2 2 2 2 2 2 2 2 2 2 2 2 2 2 2 2 2 2 2 2 2 2
left_child=1 20 9 6 12 7 15 17 -9 10 34 25 -3 14 -10 35 21 -6 33 -14 -1 26 27 -7 32 -11 -17 -5 -28 -26 -31 -29 -18 -19 -2 -4 -37
right_child=2 4 3 22 5 23 -8 8 13 11 -12 -13 19 -15 -16 16 24 18 -20 -21 -22 -23 -24 -25 29 -27 28 31 -30 30 -32 -33 -34 -35 -36 36 -38
leaf_value=-0.0019336094174890325 0.0001578773436311202 -0.01174548294094056 -0.00097175529881307621 0.0023108454414427302 0.0017046221073848636 -0.010333322651541856 0.0025178641811918431 -0.0077302309954721 0.0007124890073645589 0.00050799590314129744 0.0025335667588159234 0.00099210130815742818 -0.0048384447867223313 -3.8765323353306342e-05 -0.0062156065701746421 0.00015645937296099018 -0.0025208804376045677 -0.0051764140104410272 0.00055579913614578101 -0.0095714753062157449 0.0022474990440076083 0.00081810406772179264 0.0025226142822403238 -0.0055780841677302148 0.00028193263205812061 -0.0042457663274821636 -0.004164617916602999 0.0018845760130093887 -0.00063444841179822466 -0.0044408035441359612 -0.00045346415682273958 -0.00031732191611836782 -0.0063841364623798249 -0.0018687403090481855 0.0021502155130917614 -0.0052975339426356563 -0.0017996389952198645
leaf_weight=22.999999821186066 214.19999873638153 19.699999868869781 20.49999988079071 53.599999785423279 26.899999797344208 17.399999856948853 33.599999904632568 30.299999833106995 20.799999833106995 15.599999904632567 601.79999721050262 140.4999994635582 31.999999761581421 27.099999785423279 47.199999809265137 43.399999737739563 18.099999845027924 24.099999785423279 27.699999749660492 20.299999833106995 48.599999785423279 96.199999630451202 108.29999965429306 27.499999761581421 31.199999868869781 28.099999725818634 35.299999892711639 36.49999988079071 21.099999904632568 23.599999845027924 18.999999940395355 146.59999942779541 19.199999809265137 25.699999749660492 38.999999761581421 43.999999761581421 35.199999749660492
leaf_count=34 320 25 25 75 33 24 38 37 26 25 755 225 40 33 52 56 26 31 35 25 59 112 130 40 43 40 42 44 26 35 25 188 28 35 60 67 55
internal_value=1.58518e-05 -0.00352518 0.000827661 -0.000204023 -0.00443997 -0.00348999 -0.00131606 -0.00272164 -0.0040979 0.00160738 0.00192092 0.000151984 -0.00806392 -0.00294027 -0.00409652 -0.00163275 -0.00113256 -0.00106844 -0.00203101 -0.00667624 0.000904366 -0.000382255 0.00121551 -0.00742176 -0.00245615 -0.0025489 -0.0015393 0.000617424 -0.0028441 -0.00141785 -0.00266266 0.000121651 -0.00451003 -0.00346978 0.000464788 -0.00317335 -0.00374311
internal_weight=2242.9 418.3 1824.6 785.4 346.7 274.7 440.4 229.8 125.4 1039.2 855 184.2 72 95.1 68 406.8 307.1 104.4 77.5 52.3 71.6 196 345 44.9 111.1 43.7 99.8 236.7 56.4 73.8 42.6 183.1 37.3 49.8 253.2 99.7 79.2
internal_count=2969 529 2440 1015 436 346 578 282 148 1425 1135 290 90 111 78 540 393 134 101 65 93 236 437 64 157 65 124 307 68 103 60 232 54 66 380 147 122
is_linear=0
shrinkage=0.022234


Tree=14
num_leaves=38
num_cat=0
split_feature=3 7 11 3 34 36 9 9 27 24 36 16 3 3 24 3 36 9 8 36 36 10 24 35 3 35 21 5 3 11 22 10 21 36 42 16 14
split_gain=13.0752 3.65763 3.33261 2.94801 2.45405 1.64836 1.38669 1.08546 0.886996 0.775733 0.763756 0.691497 0.591501 0.572689 0.557832 0.548598 0.525626 0.470866 0.589774 0.463425 0.484962 0.458701 0.454533 0.377599 0.482378 0.787544 0.448338 0.377331 0.375081 0.335191 0.324209 0.313989 0.492372 0.272987 0.265229 0.252968 0.307681
threshold=0.10473845311211132 0.16291808840849872 -0.44516183122289349 0.37025116282722653 0.11309592968231057 -0.17839179029134325 1.2400886970096312 -1.069452611552449 0.069089172991138606 -0.41212283869119798 0.088027322084715767 0.24951571565927133 0.7510272344412634 0.061620787062767558 0.1825939140091434 0.45579335007573085 -0.45290697856270523 0.029367609015000153 1.0492978475386037 -0.066194600159307088 0.054959788791640353 0.87349048171961252 0.37020960383895335 0.093762509022980015 0.034349648407898455 0.037876623976595712 0.51970300980348261 0.46199453808790414 0.18036345712019022 -1.0404174812552116 0.84353672357153908 1.0499219360034797 1.3409097104532843 -0.99960992267874837 -0.052741991590064291 -1.2927757666976947 -0.49729354349340049
decision_type=2 2 2 2 2 2 2 2 2 2 2 2 2 2 2 2 2 2 2 2 2 2 2 2 2 2 2 2 2 2 2 2 2 2 2 2 2
left_child=2 5 13 6 7 15 11 -4 9 -9 -7 14 19 29 -3 35 33 21 22 -5 -21 27 -19 24 25 -11 -26 34 -29 -1 -25 -23 -33 -6 -13 -2 -37
right_child=1 3 4 12 16 10 -8 8 -10 23 -12 17 -14 -15 -16 -17 -18 18 -20 20 -22 31 -24 30 26 -27 -28 28 -30 -31 -32 32 -34 -35 -36 36 -38
leaf_value=0.00024065151470787483 -0.0025479938784132837 0.0019590321780236426 -0.0071129763244280461 -0.00053857375761949316 -0.0075980681867811022 0.0026417483858488418 0.0019111843036286413 0.00061058134248382473 0.00051525015991063527 -0.0025796567705969583 0.0011714115337930094 -0.00087843495887636913 0.0026175247160070518 0.0021896911210976815 -0.0025167511677051777 0.0018325544171272174 -0.0050687882783869778 -0.0027036074128609735 -0.00097240462225267577 0.0021461548277815178 9.2962107580023606e-05 -0.0050822082283164278 -0.0069581626214829167 -0.0040037613186571629 -0.0037547219300908615 -0.0077506599526086274 1.7482528996372632e-07 -0.0021271408621329796 0.00088643073361379537 -0.0036203976245261283 -0.0079609855617156708 -0.00084757462700460668 -0.0044490809038124279 -0.010909956906848669 -0.0045953423036338668 0.00096696675448367485 -0.0011703075680656804
leaf_weight=26.199999868869781 27.699999928474426 35.199999809265137 35.79999965429306 110.59999960660934 21.999999761581421 595.69999718666077 50.49999988079071 19.999999821186066 31.499999761581421 33.099999725818634 247.09999877214432 17.599999904632568 96.29999965429306 42.599999845027924 22.599999904632568 62.899999618530273 18.49999988079071 20.49999988079071 22.49999988079071 125.19999969005585 104.1999996304512 27.299999892711639 31.499999940395355 21.699999809265137 34.899999737739563 25.999999761581421 28.599999785423279 32.499999701976776 54.899999678134918 19.299999833106995 19.399999797344208 46.199999690055847 31.599999785423279 28.099999785423279 20.599999845027924 60.199999868869781 74.499999344348907
leaf_count=35 45 41 45 153 33 752 57 25 39 40 376 26 111 52 26 100 25 26 26 140 141 38 33 29 42 33 34 45 75 29 25 64 48 38 27 102 104
internal_value=0.000124337 0.000892994 -0.00349155 -0.000195566 -0.00454695 0.00175907 -0.00154073 -0.00352828 -0.0029318 -0.00352289 0.00221067 -0.00202098 0.00107931 0.000337175 0.000208922 6.9716e-05 -0.00827364 -0.00244328 -0.00398009 0.0006436 0.00121356 -0.00194693 -0.00528128 -0.0040279 -0.00340937 -0.00485498 -0.00206366 -0.00103995 -0.000234229 -0.00139731 -0.00587234 -0.00303071 -0.00231058 -0.00945648 -0.00288316 -0.000613091 -0.000215118
internal_weight=2325.6 1917.9 407.7 849.8 319.6 1068.1 413.5 251 215.2 183.7 842.8 363 436.3 88.1 57.8 225.3 68.6 305.2 74.5 340 229.4 230.7 52 163.7 122.6 59.1 63.5 125.6 87.4 45.5 41.1 105.1 77.8 50.1 38.2 162.4 134.7
internal_count=3080 2556 524 1077 408 1479 532 312 267 228 1128 475 545 116 67 351 96 408 85 434 281 323 59 203 149 73 76 173 120 64 54 150 112 71 53 251 206
is_linear=0
shrinkage=0.022234


Tree=15
num_leaves=38
num_cat=0
split_feature=3 5 3 21 3 35 36 33 9 3 36 36 36 36 3 16 9 39 19 41 35 24 1 2 3 23 9 9 23 9 13 34 23 28 5 17 42
split_gain=14.4919 5.40311 4.1988 2.58664 1.38749 1.28825 1.22375 1.57403 1.15725 1.13413 0.818111 0.794375 0.74588 1.29381 0.698727 0.604986 0.555974 0.536368 0.542499 0.45028 0.425942 0.425069 0.40391 0.40227 0.49216 0.394391 0.564556 0.337471 0.318623 0.296197 0.293393 0.354165 0.338502 0.285243 0.338143 0.281915 0.316251
threshold=0.05746100116302031 -0.17418486461362637 0.20202412216203683 -0.78825778345662478 0.60349466428135956 0.19687025864197696 -0.082645944844172689 0.016605794364875054 1.2400886970096312 0.0091146671625123524 -0.11972433940420128 0.077264782195666765 -0.12736397640189309 0.16547946544768097 0.14242323299048701 0.65701876506729029 0.57073468097485114 -0.099564488458517578 0.93053027466982996 0.70624733795791161 0.05354281064315216 0.3447475938051644 0.14415233763120019 1.220874502308879 0.29602020066863699 -0.12613742668168901 -0.81778476538575107 -0.75370450977809 -0.75330457526325356 0.04250580810028446 -0.55284217232101618 0.20768528973070077 1.4094276574800735 0.32130180971233907 0.26607130868902434 1.0659704345079664 -0.060350321068393047
decision_type=2 2 2 2 2 2 2 2 2 2 2 2 2 2 2 2 2 2 2 2 2 2 2 2 2 2 2 2 2 2 2 2 2 2 2 2 2
left_child=3 10 5 16 8 12 7 9 15 29 30 -12 25 27 -7 19 -1 -8 -19 22 -11 -13 -4 24 -17 26 -3 -14 -25 -5 32 -32 -2 34 -24 36 -15
right_child=1 2 4 6 -6 14 17 -9 -10 20 11 21 13 35 -16 23 -18 18 -20 -21 -22 -23 33 28 -26 -27 -28 -29 -30 -31 31 -33 -34 -35 -36 -37 -38
leaf_value=-0.0030131618326104891 0.0016786216109927253 -0.0051312739664261956 0.0009134492341056745 -0.011614616131331973 0.0017440627933975161 -0.0084807046693979767 -0.00054159057734122485 -0.002749151103803975 0.0028183833465182735 -0.0040748462803974293 0.0027068307885966402 0.0015041425678746941 -0.0016697279863174862 -0.0044329244180116786 -0.0036554519382026086 -0.0037249478884545579 0.0019924360194718245 -0.0070196732009464406 -0.0024066479311637299 0.002942978823411946 -0.0079537188508801929 -0.0011769933325046975 -0.0007771546505269929 -0.0019571304302417832 -0.001188881623315791 -0.0054984814084683177 -0.00051999336334400187 0.0014444447048794495 0.001646847056531561 -0.0082534568648368525 -0.002379651033945961 0.00057236290957416044 -0.0020212937584858193 -0.00014588440695258764 -0.004443553469490602 -0.0054385995804930153 -0.00092539538358746428
leaf_weight=19.299999833106995 120.49999976158142 22.599999845027924 97.699999272823334 40.29999965429306 240.79999881982803 24.599999845027924 19.899999797344208 30.999999761581421 53.799999952316284 26.499999821186066 453.09999805688858 201.09999924898148 22.999999821186066 22.099999785423279 37.399999678134918 52.199999749660492 25.399999916553497 26.799999833106995 23.799999833106995 25.499999940395355 29.699999690055847 34.199999868869781 30.699999749660492 19.199999928474426 137.39999955892563 34.499999821186066 31.299999713897705 68.199999570846558 32.899999797344208 19.199999868869781 28.599999785423279 67.499999582767487 13.599999964237211 80.699999570846558 20.899999797344208 21.599999785423279 29.899999737739563
leaf_count=26 207 31 125 55 296 38 25 41 60 31 568 312 29 30 52 71 32 31 28 28 43 43 41 29 186 40 41 80 44 25 36 87 21 104 30 29 38
internal_value=-0.00011808 0.000518266 -0.000527782 -0.00503966 0.000336177 -0.00269807 -0.00604204 -0.00719902 -0.000279111 -0.00839114 0.00177885 0.00216255 -0.00199462 -0.00111074 -0.00557048 -0.000614302 -0.000168904 -0.00363423 -0.00485033 0.00014004 -0.00612521 0.00111443 -0.000170773 -0.0014117 -0.00188718 -0.00364226 -0.00245376 0.000659026 0.000318643 -0.0105307 0.000631397 -0.000306248 0.00130333 -0.000971448 -0.00226246 -0.00330361 -0.00241636
internal_weight=2287.5 2025.6 1107 261.9 791.8 315.2 217.2 146.7 551 115.7 918.6 688.4 253.2 164.8 62 497.2 44.7 70.5 50.6 255.5 56.2 235.3 230 241.7 189.6 88.4 53.9 91.2 52.1 59.5 230.2 96.1 134.1 132.3 51.6 73.6 52
internal_count=3033 2696 1422 337 1014 408 279 195 718 154 1274 923 318 206 90 658 58 84 59 328 74 355 300 330 257 112 72 109 73 80 351 123 228 175 71 97 68
is_linear=0
shrinkage=0.022234


Tree=16
num_leaves=38
num_cat=0
split_feature=3 15 3 3 11 24 24 20 35 39 3 36 20 36 36 36 9 15 18 3 42 6 23 18 30 13 35 3 22 6 12 40 13 39 22 35 24
split_gain=15.3647 2.70068 2.60711 2.32203 2.20498 1.34511 1.22487 1.66755 1.10597 0.869369 0.827155 0.80801 0.764265 0.604654 0.778818 0.577615 0.543077 1.02062 0.934731 0.800329 0.525871 0.454904 0.453184 0.429905 0.425222 0.421556 0.391328 0.389829 0.380097 0.499641 0.668493 0.353813 0.341482 0.333273 0.309382 0.288192 0.287616
threshold=0.10473845311211132 -0.060095568921558144 0.0032901513286764006 0.29602020066863699 -0.43531559837137163 0.21206607827654281 0.19151860495703291 -0.43498008571770658 0.13517335503119679 -0.11289380516712129 0.67258842543792929 -0.14167744051405201 -0.21266862653493721 -0.080494826764068036 0.05073905409792636 0.14339914860825834 -0.74898314535687915 1.1671104861054855 -0.049204996120158842 0.05746100116302031 -0.0072874380450689991 0.20418467549702843 1.1211729705352902 0.69994068529642317 -0.038462809757010344 0.86474568931722862 0.33443339769144725 0.31674825450387861 1.3549269380179714 1.1614637492858482 0.94504426028036137 -0.5539155375985817 0.98017761232093292 -0.011087110158334048 0.77383757160250732 0.19766616797254583 1.1498137156699235
decision_type=2 2 2 2 2 2 2 2 2 2 2 2 2 2 2 2 2 2 2 2 2 2 2 2 2 2 2 2 2 2 2 2 2 2 2 2 2
left_child=2 11 5 6 12 21 7 -3 16 -8 13 22 -4 33 32 -13 20 18 -18 25 24 -1 31 -7 -6 -20 -16 -17 29 30 35 -2 -15 -5 -10 -11 -31
right_child=1 3 4 10 8 23 9 -9 34 28 -12 15 -14 14 26 27 17 -19 19 -21 -22 -23 -24 -25 -26 -27 -28 -29 -30 36 -32 -33 -34 -35 -36 -37 -38
leaf_value=-0.0013062842628116186 0.0017808601001491474 -0.0035771394809207993 -0.0031147474392280178 0.00012327901767080182 -0.0054189793950432654 -0.011661414655244605 -5.9307260265972082e-06 0.0020102538217713901 -0.0054039180049090026 -0.0010817636632940192 0.0022017691888910626 0.0024177540778786209 0.0021463835959387319 0.0010896838660368112 0.0012305916331777301 -0.00030266860420229624 0.00024498514038955396 0.0013284921450820815 -0.0042889180959161223 -0.0022439943045278639 -0.0067684930770813704 -0.0061815571878851439 -0.0020066630335517201 -0.00765685771738343 -0.0010741615445121944 -0.0084451697089392395 -0.0012982567889913391 0.001804031031891314 -0.0060342077542698295 -0.002477417784531203 -0.0065120169595883678 -0.00012191524467180869 0.0030943119985584779 -0.0020412729148285972 -0.0090820580634327509 -0.0039123373794837076 0.0011975393364662
leaf_weight=17.799999833106995 105.79999977350235 38.099999606609344 18.899999737739563 76.5999995470047 20.699999809265137 22.99999988079071 53.399999678134918 85.999999642372131 27.999999761581421 34.499999761581421 158.19999957084656 528.79999738931656 49.099999845027924 113.19999969005585 46.599999845027924 72.29999965429306 28.699999749660492 29.599999785423279 24.499999821186066 46.199999809265137 33.399999737739563 20.199999809265137 30.399999916553497 31.399999678134918 24.099999845027924 23.799999952316284 86.199999690055847 108.6999996304512 21.399999916553497 23.599999725818634 29.699999868869781 88.899999141693115 66.799999892711639 64.999999761581421 18.99999988079071 36.699999809265137 18.999999940395355
leaf_count=25 178 60 29 106 27 28 67 100 39 42 182 673 58 129 65 104 35 35 29 52 41 28 48 45 29 25 115 184 28 33 38 132 70 82 26 51 23
internal_value=-4.08117e-05 0.000829104 -0.0037909 -2.49912e-06 -0.00290478 -0.00710876 -0.00146895 0.000294795 -0.0037826 -0.0024716 0.000817149 0.00167858 0.000683984 0.000335073 0.000880765 0.00204668 -0.00314991 -0.00237855 -0.00326923 -0.00433647 -0.00465688 -0.00389832 0.000517858 -0.00935082 -0.00308206 -0.00633755 -0.000410862 0.000962528 -0.00327004 -0.00285764 -0.00371008 0.00091207 0.00183369 -0.00087037 -0.00689158 -0.00254094 -0.000838398
internal_weight=2328.3 1889.9 438.4 955 346 92.4 342.4 124.1 278 218.3 612.6 934.9 68 454.4 312.8 709.8 231 152.8 123.2 94.5 78.2 38 225.1 54.4 44.8 48.3 132.8 181 164.9 143.5 100.9 194.7 180 141.6 47 71.2 42.6
internal_count=3061 2510 551 1191 425 126 442 160 338 282 749 1319 87 567 379 961 273 176 141 106 97 53 358 73 56 54 180 288 215 187 131 310 199 188 65 93 56
is_linear=0
shrinkage=0.022234


Tree=17
num_leaves=38
num_cat=0
split_feature=3 4 3 25 6 9 20 3 35 3 9 20 3 30 35 23 22 23 34 16 20 9 10 35 33 5 22 22 5 3 35 17 16 20 13 2 3
split_gain=10.8793 3.68815 3.70198 1.06065 0.857909 1.01548 0.799535 0.776014 0.759561 1.19207 1.10932 0.756123 0.833703 0.733036 0.796597 0.812788 0.643128 0.555104 0.537371 0.600284 0.590054 0.517381 0.452584 0.428786 0.423926 0.383904 0.326795 0.835011 0.57737 0.301242 0.464496 0.287377 0.262206 0.562166 0.423695 0.225796 0.201465
threshold=0.05746100116302031 1.0000000180025095e-35 0.26306880993220416 -0.46908378932238332 1.2656989013189139 -0.65850429404523825 1.1772021700387867 0.71395926047485425 0.14440644920942888 0.14242323299048701 -0.89843684609579721 -0.33257647663621931 0.37572877862146026 0.036431726797164957 0.072980441164837914 0.019673879614381953 -0.19022782710603173 -0.043169623071299193 0.24839545883437278 0.30562058829441352 -0.067918607678326789 0.38655543998814373 0.95372858328782362 0.28083973965712822 -0.026209725911762547 -1.1920856514176952 1.0902887299787964 0.77383757160250732 0.70190167908545653 0.10963575522049221 0.080637380853528576 0.36365932830015751 -1.3879288604770657 0.82256436751006901 -0.98842471924780162 0.6923450342940124 0.37748415564763799
decision_type=2 2 2 2 2 2 2 2 2 2 2 2 2 2 2 2 2 2 2 2 2 2 2 2 2 2 2 2 2 2 2 2 2 2 2 2 2
left_child=3 11 6 25 13 -6 8 17 10 24 -3 12 16 14 15 -5 -2 18 -4 -20 -21 22 23 31 -10 -1 27 -19 -29 30 -12 -11 33 -13 -34 -16 -36
right_child=1 2 7 4 5 -7 -8 -9 9 21 29 32 -14 -15 35 -17 -18 26 19 20 -22 -23 -24 -25 -26 -27 -28 28 -30 -31 -32 -33 34 -35 36 -37 -38
leaf_value=0.00080777294141102184 0.000184771730991463 -0.0045121248791334225 -0.0042198252758406628 -0.0021679030678784092 -0.0055570399382215002 0.00032793960625263888 0.00078828639763144797 0.002224892472869527 -0.0093024162558616556 -0.0019442422114315995 0.00094180334371407267 0.0026202932231056903 0.0016021239524596155 -0.0030327553004577601 -0.010174260139780969 -0.0073770720690733071 -0.0033530120089250411 0.0018265414343364452 0.0017307682309247302 -0.00029166917395791501 -0.0040508763826343835 -0.0054245066194320542 -0.0044298306962523171 -0.0043189797643467627 -0.0047476923142969465 -0.0032993066553775072 0.0026020720030502883 -0.0034882134913253684 0.00067855863185804506 0.0014261063164411607 -0.0032075606056643732 0.00058850945373396964 0.0028941113673672022 -0.0014594472536659511 0.001269612690209414 -0.0072546438495709187 0.0022804570863133905
leaf_weight=22.299999833106995 108.09999930858612 35.999999642372131 16.799999892711639 26.79999977350235 30.399999678134918 27.699999809265137 41.499999761581421 124.39999961853027 17.799999892711639 42.699999630451202 27.599999845027924 33.99999988079071 192.59999829530716 32.999999761581421 27.799999713897705 33.099999845027924 33.199999809265137 108.49999976158142 65.899999618530273 193.59999918937683 23.099999904632568 24.899999916553497 28.499999761581421 18.899999856948853 23.399999856948853 22.699999809265137 54.399999976158142 32 33.799999952316284 43.699999630451202 25.79999977350235 45.999999761581421 210.39999973773956 32.799999952316284 248.49999886751175 24.899999797344208 160.39999938011169
leaf_count=30 185 47 27 33 41 33 49 146 26 52 32 48 312 42 38 37 48 118 83 288 26 28 40 29 33 34 60 32 35 56 34 58 257 42 315 32 205
internal_value=3.78385e-05 0.000570783 -0.000368179 -0.00435358 -0.00503603 -0.00275149 -0.00212285 0.000645098 -0.00248316 -0.00334173 -0.00117879 0.0015183 0.000650532 -0.00594753 -0.0068016 -0.00504678 -0.000646552 0.000272943 -0.000357075 -0.000127376 -0.000692476 -0.002478 -0.00193876 -0.00127878 -0.00671634 -0.00126415 0.00109772 0.000628139 -0.00134794 5.72128e-05 -0.00106305 -0.000630789 0.00194061 0.000617104 0.00208336 -0.00879555 0.00166616
internal_weight=2298 2049.3 1029.3 248.7 203.7 58.1 376.8 652.5 335.3 202.2 133.1 1020 333.9 145.6 112.6 59.9 141.3 528.1 299.4 282.6 216.7 161 136.1 107.6 41.2 45 228.7 174.3 65.8 97.1 53.4 88.7 686.1 66.8 619.3 52.7 408.9
internal_count=3031 2711 1299 320 256 74 484 815 435 266 169 1412 545 182 140 70 233 669 424 397 314 207 179 139 59 64 245 185 67 122 66 110 867 90 777 70 520
is_linear=0
shrinkage=0.022234


Tree=18
num_leaves=38
num_cat=0
split_feature=3 16 3 40 36 38 3 36 36 23 20 6 3 3 35 20 35 23 3 20 9 5 20 3 13 35 36 9 3 35 3 27 3 22 6 20 35
split_gain=12.314 4.57081 3.75852 1.8651 1.28718 0.851503 0.824301 0.748385 1.05941 0.699652 0.671284 0.662213 0.88455 0.646201 1.0416 0.706238 0.681692 0.598859 0.595647 0.584558 0.526007 0.520752 0.496774 0.44438 0.438029 0.387451 0.379484 0.360525 0.358334 0.351415 0.443526 0.3329 0.320734 0.326457 0.314407 0.291745 0.387588
threshold=0.056054403991105756 0.1027617729898546 0.28446593034094309 -1.1877370499415825 -0.42030545771100719 0.45612743194877109 0.70917520747089813 -0.11264230057676473 0.14339914860825834 0.019673879614381953 0.95677281771174993 0.14684159573520464 0.034349648407898455 0.13738779097411849 0.12527611529956012 1.1078005302563265 0.19316700969556136 -0.27358426338133163 0.18581385131027009 -0.54550485185564479 -0.52683226940240091 0.47881528980571214 -0.027355034417914498 0.18036345712019022 0.40840865764927375 0.12198680247267367 -0.093005081210693785 -0.6972069181268562 0.10473845311211132 0.35502009855223132 0.41156038518922161 -9.0132620760774049 0.20337655754953068 -0.43649501566987575 0.85567811148399564 -0.36569070234349893 0.39423357121318653
decision_type=2 2 2 2 2 2 2 2 2 2 2 2 2 2 2 2 2 2 2 2 2 2 2 2 2 2 2 2 2 2 2 2 2 2 2 2 2
left_child=3 7 5 -1 19 20 9 31 -9 22 11 -6 -13 14 17 16 -15 27 -18 25 23 -21 -4 -3 -22 -5 -11 -7 -16 -28 -31 -2 33 -10 -20 36 -33
right_child=1 2 6 4 10 13 -8 8 32 26 -12 12 -14 15 28 -17 18 -19 34 21 24 -23 -24 -25 -26 -27 29 -29 -30 30 -32 35 -34 -35 -36 -37 -38
leaf_value=0.0011805346379320338 -0.0091693048886896562 -0.00033833011138261642 -0.00018623959535427444 -0.0073884216233573259 -0.0015186174900551439 -0.0025633352341745243 0.0022345427213607406 0.0024037451098633642 0.00074599744941096838 -0.00068470343023725039 -0.00028356850782245465 -0.0078190518765894612 -0.002665549852464717 -0.00064607061420604084 -0.0087871704142515987 0.0017595526317961932 -0.0070667042290876421 -0.0051130604920659149 -0.0013488592764057806 -0.0082922609596800621 -0.00076631698609855628 -0.0042783180509328974 -0.0030482524714449469 -0.0050446257021712114 0.0033498032224353667 -0.011961294238024068 0.0034325368716320191 0.0013656395581822629 -0.0049555779418170662 -0.0015395837615936724 0.0019051859560793771 -0.0014537551897675814 0.0011454266359154403 -0.0023951040797044096 -0.0043955345212491181 0.0011706311967187714 0.0012321893951269512
leaf_weight=23.899999856948853 1.6999999880790699 23.999999761581421 259.09999859333038 20.999999761581421 25.499999701976776 27.299999713897705 117.49999958276749 577.79999738931656 34.999999821186066 39.599999845027924 22.299999892711639 40.399999678134918 27.799999833106995 58.199999690055847 20.799999833106995 21.999999940395355 20.499999940395355 25.799999892711639 36.699999809265137 26.899999737739563 28.299999833106995 39.399999737739563 33.899999916553497 16.899999856948853 23.299999952316284 16.299999892711639 43.799999952316284 19.999999821186066 28.799999833106995 24.699999988079071 73.299999892711639 59.599999606609344 147.69999933242798 30.699999749660492 30.79999977350235 207.09999918937683 47.899999737739563
leaf_count=31 2 34 381 29 35 35 139 715 52 47 25 49 32 72 29 24 28 29 49 37 37 48 37 25 26 27 48 25 41 25 78 94 232 38 46 280 86
internal_value=1.33254e-05 0.000566438 -0.000543484 -0.00471769 -0.00535964 -0.00225843 0.000567374 0.00154387 0.00190931 0.000154429 -0.00375069 -0.00457579 -0.00571869 -0.00284928 -0.00407622 -0.00195416 -0.00251304 -0.00238853 -0.00374768 -0.0071609 -0.000400235 -0.00590737 -0.000517417 -0.00228334 0.00109245 -0.009388 0.00123959 -0.000902062 -0.00656305 0.00177699 0.00103693 0.000629739 0.000570547 -0.000721827 -0.00273926 0.000682826 -0.000256946
internal_weight=2326.3 2082.8 975.3 243.5 219.6 383.4 591.9 1107.5 791.2 474.4 116 93.7 68.2 290.9 122.7 168.2 146.2 73.1 88 103.6 92.5 66.3 293 40.9 51.6 37.3 181.4 47.3 49.6 141.8 98 316.3 213.4 65.7 67.5 314.6 107.5
internal_count=3067 2754 1255 313 282 500 755 1499 1037 616 141 116 81 378 159 219 195 89 123 141 122 85 418 59 63 56 198 60 70 151 103 462 322 90 95 460 180
is_linear=0
shrinkage=0.022234


Tree=19
num_leaves=38
num_cat=0
split_feature=3 12 3 34 20 25 9 32 20 3 28 22 3 20 22 9 9 20 8 20 16 2 16 35 14 3 23 35 4 40 9 3 34 24 8 14 9
split_gain=13.2152 3.93838 2.72393 1.27912 1.21818 1.23611 1.27674 0.873679 0.821253 0.731893 0.983565 0.690537 0.681895 0.602 0.542938 0.53543 0.464935 0.535576 0.422022 0.421623 0.418147 0.409617 0.666731 0.434473 0.40058 0.391086 0.498112 0.374049 0.369556 0.361204 0.355366 0.317719 0.312332 0.302337 0.301625 0.34414 0.367151
threshold=0.053209969228044808 -0.13644529171464484 0.30977118961394107 0.080009288460939118 1.1078005302563265 0.52418628999712191 0.30329833504522213 -0.48667150501039669 -0.56122457794791114 0.0032901513286764006 0.63742047022241999 0.6462311644632226 0.76536535364117053 -0.54550485185564479 0.87919992749204923 1.0000000180025095e-35 -0.77565018408628283 -1.1659583483040195 1.0852004338917547 -0.3977144492657308 0.73990010582300914 0.51267648621648043 0.91932488222248143 0.19907974689066438 -0.71073259508174702 0.36898605377467486 -0.47510480788586879 0.13667186935228207 0.12794576662387444 -1.5933713599521864 -0.71434766678414985 0.11094119280051816 0.15639932581701979 1.2920934377799351 1.1209726646358216 0.081979323954302755 0.38655543998814373
decision_type=2 2 2 2 2 2 2 2 2 2 2 2 2 2 2 2 2 2 2 2 2 2 2 2 2 2 2 2 2 2 2 2 2 2 2 2 2
left_child=3 19 4 7 5 8 16 -1 28 14 -11 27 15 -5 -9 33 17 -7 -6 25 -19 -18 -23 -24 -21 26 -2 -10 -3 -26 -12 -31 -15 -4 35 -17 -37
right_child=1 2 12 13 18 6 -8 9 11 10 30 -13 -14 32 -16 34 21 20 -20 24 -22 22 23 -25 29 -27 -28 -29 -30 31 -32 -33 -34 -35 -36 36 -38
leaf_value=-0.00059601961884335963 0.00062997142431874432 -0.0049577856605027143 3.3529437239392442e-05 -0.010749434022965869 -0.00052364231628265322 -0.00087376333817615142 -0.006496255310409817 -0.0044238483939397048 0.0018419600204970937 -0.0063999515240753769 -0.0038235145191984005 0.0032955869324559992 0.0024248365091593649 -0.0083124382651516299 -0.0095084497768047355 0.002955305577607167 -0.0046840715933629878 -0.0070568572711765462 0.0028434631191413375 0.0024438795427745891 -0.0032545108021586719 0.00032797615326998975 -0.0011277601581112014 -0.0055162164097533675 -0.0028647022155927275 0.0015799442237893601 -0.0031483713366508609 -0.0014102891515679582 -0.0013243342720324132 -0.0011604549413415045 -0.00029948644133879929 0.0016993962534559304 -0.004612133064883262 -0.0021579652459742115 0.0032304129201521392 0.0020000517718611658 -0.00030720946990484129
leaf_weight=31.399999678134918 90.599999368190765 21.29999977350235 274.19999861717224 20.499999821186066 36.699999809265137 27.299999833106995 40.899999856948853 19.29999977350235 24.499999821186066 38.299999713897705 24.699999749660492 33.299999952316284 95.199999690055847 19.499999821186066 22.499999821186066 32.699999868869781 16.599999904632568 22.199999868869781 36.899999856948853 366.99999928474426 40.199999749660492 74.899999618530273 24.899999797344208 20.199999809265137 9.7999999523162824 182.59999841451645 21.299999833106995 60.999999523162842 39.499999701976776 20.79999977350235 33.099999845027924 249.79999893903732 26.79999977350235 35.099999964237213 31.599999964237213 50.599999904632568 104.49999988079071
leaf_count=44 151 34 367 33 46 37 45 26 29 46 31 36 110 28 27 38 21 30 41 483 59 90 32 27 11 302 35 74 56 28 37 300 35 50 38 54 112
internal_value=1.41338e-05 0.00057838 -0.000298077 -0.00497151 -0.00148585 -0.00192245 -0.00288123 -0.00394333 -0.000495981 -0.00470548 -0.00363688 0.000579614 0.000692655 -0.00757689 -0.00716153 0.000380732 -0.00222775 -0.00347139 0.00116456 0.00164317 -0.0046077 -0.00141101 -0.00095807 -0.00309369 0.00196045 0.000945685 -8.9331e-05 -0.000478307 -0.00259752 0.00132768 -0.00180562 0.00147955 -0.00617126 -0.000215194 0.00122083 0.000882616 0.000445551
internal_weight=2322.3 2086.2 1144.3 236.1 520.4 446.8 267.2 169.3 179.6 137.9 96.1 118.8 623.9 66.8 41.8 528.7 226.3 89.7 73.6 941.9 62.4 136.6 120 45.1 647.4 294.5 111.9 85.5 60.8 280.4 57.8 270.6 46.3 309.3 219.4 187.8 155.1
internal_count=3043 2736 1426 307 657 570 341 211 229 167 114 139 769 96 53 659 296 126 87 1310 89 170 149 59 822 488 186 103 90 339 68 328 63 417 242 204 166
is_linear=0
shrinkage=0.022234


Tree=20
num_leaves=38
num_cat=0
split_feature=3 36 36 24 3 36 36 14 24 20 8 3 24 10 12 14 22 15 21 3 35 31 2 24 0 9 11 11 13 3 3 36 9 20 3 7 27
split_gain=11.3415 3.50947 3.28957 1.87701 1.7939 1.10022 1.05143 1.02067 0.899261 0.663499 0.647724 0.619393 0.589798 0.574214 0.488492 0.470854 0.437336 0.464251 0.432602 0.372743 0.488781 0.387801 0.728598 0.380374 0.371613 0.357461 0.309601 0.308334 0.296211 0.329876 0.278071 0.255391 0.289572 0.254319 0.265816 0.236726 0.334333
threshold=0.038896959679297759 -0.19465157725034463 0.14339914860825834 -0.64888714468712794 0.23671002489932644 -0.5153930660879914 -0.064576929631660993 -0.10955210892882823 -0.43552222586313255 -0.13291574330964304 0.35170335184082041 0.10963575522049221 0.1825939140091434 0.81657491932807047 1.3357516258612749 0.6677438567804409 0.8312916820425128 0.37008944932229909 0.39707331201781415 0.4918893942882549 0.43758809844505547 0.77889218971474394 1.0229549597608882 0.75173209113768802 0.010887413800237852 0.69683303626305271 0.59623472993764748 0.87337297601103236 0.79190300285851911 0.36493642623989703 0.36388643007002081 0.63188134237869031 -0.46066860682890226 0.82256436751006901 0.61463667552173795 1.0546578169244889 -0.046618419290148448
decision_type=2 2 2 2 2 2 2 2 2 2 2 2 2 2 2 2 2 2 2 2 2 2 2 2 2 2 2 2 2 2 2 2 2 2 2 2 2
left_child=3 7 6 -1 8 16 12 30 -4 18 -7 35 -3 -12 25 -14 17 -5 -8 20 21 -13 -23 -24 -6 31 -11 -28 -20 -30 -2 -10 -33 34 -26 36 -9
right_child=1 2 4 5 24 10 9 11 14 26 13 19 15 -15 -16 -17 -18 -19 28 -21 -22 22 23 -25 33 -27 27 -29 29 -31 -32 32 -34 -35 -36 -37 -38
leaf_value=-0.00026359946369101906 -0.0005328157945866099 0.0013008996533514685 0.00020724677101362966 -0.0087043392190265158 0.0014693937104048342 -0.0017028295322382677 0.00181187833004794 -0.0025704855485179233 -0.00097228705386622741 0.0027913014059450757 -0.0084497252131430067 -0.00039546643030894844 0.00048178677467311661 -0.0039148841559809031 -0.0064824810196625199 -0.0025846008408210632 -0.0096768767055705369 -0.0040816224195922403 0.0010815753885213416 0.00033859701127345791 -0.004698064572498062 -0.0060286083927680355 0.00071411085429389334 -0.0031119971724957174 -0.0011895548529859495 -0.005267353159009793 0.00031013590976611971 0.0023005873624426161 -0.003229731976370115 0.00043929343482042483 0.0011898470415328429 -0.0052628478633315323 -0.0015504311583337382 0.0020889682256000903 0.0009507075222797254 -0.0019077190339584832 -0.0064667999279853089
leaf_weight=34.599999785423279 120.09999930858612 134.99999928474426 52.099999725818634 21.099999785423279 124.69999939203262 31.599999725818634 195.8999981880188 19.299999833106995 48.699999690055847 409.39999914169312 22.399999856948853 87.299999415874481 52.79999977350235 35.999999701976776 19.599999785423279 46.599999845027924 35.899999737739563 21.899999797344208 63.699999630451202 48.399999797344208 25.699999868869781 21.499999940395355 26.299999892711639 25.099999845027924 91.899999499320984 21.299999892711639 55.699999988079071 124.39999985694885 22.099999904632568 26.799999952316284 75.399999678134918 20.099999785423279 21.499999821186066 21.399999976158142 41.699999928474426 21.099999725818634 24.999999821186066
leaf_count=48 186 184 76 28 207 39 284 25 61 456 26 120 66 45 28 53 46 30 84 65 32 28 35 36 133 26 56 129 28 33 127 30 27 26 56 29 30
internal_value=2.91478e-05 0.000516898 0.00102442 -0.00498151 -0.000554497 -0.00594797 0.00166999 -0.00111821 -0.00226406 0.00201613 -0.00426739 -0.00193346 0.000343908 -0.00565481 -0.00324539 -0.000955828 -0.00786461 -0.00635068 0.00118066 -0.00139939 -0.00185188 -0.00139516 -0.00259221 -0.00115439 0.000565873 -0.00267662 0.00245333 0.00168502 8.24509e-05 -0.00121904 0.000131589 -0.00206528 -0.00334456 -0.000161046 -0.000521513 -0.00384658 -0.00476976
internal_weight=2294.1 2090.6 1595.4 203.5 463 168.9 1132.4 495.2 183.3 898 90 299.7 234.4 58.4 131.2 99.4 78.9 43 308.5 234.3 185.9 160.2 72.9 51.4 279.7 111.6 589.5 180.1 112.6 48.9 195.5 90.3 41.6 155 133.6 65.4 44.3
internal_count=3018 2756 2043 262 670 214 1373 713 248 1070 110 400 303 71 172 119 104 58 429 316 251 219 99 71 422 144 641 185 145 61 313 118 57 215 189 84 55
is_linear=0
shrinkage=0.022234


Tree=21
num_leaves=38
num_cat=0
split_feature=3 16 3 35 22 22 34 36 33 3 3 36 9 9 36 36 3 23 23 42 23 22 34 3 27 23 23 9 9 34 3 36 42 36 14 24 13
split_gain=11.0309 3.82584 3.63045 1.40494 1.16751 1.04834 0.981839 0.972507 0.903719 0.853741 0.753251 0.729347 0.69171 0.637423 0.563451 0.913524 0.580261 0.51497 0.513512 0.507561 0.48863 0.811742 0.545631 0.35728 0.353972 0.398402 0.311254 0.388426 0.306179 0.269891 0.249936 0.279619 0.227931 0.233465 0.211781 0.208272 0.454352
threshold=0.050042204535148509 0.049368289140434354 0.26957359188811597 0.19766616797254583 0.70614333804889029 -0.82950727313465522 0.094343886755336212 -0.093005081210693785 -0.0072267160956229993 0.18581385131027009 0.12465018167464371 0.05073905409792636 -1.0509517814447766 0.35548155248512242 -0.14703825222861169 0.13813018660867887 0.32758162069187957 -0.55036289752762479 0.75826574602258967 -0.0068311077870970996 -0.1664170973140022 0.56229546879505976 0.036895036038877255 0.61884351324521492 -0.022296253711224494 0.2739728291183261 -0.17477139526471999 -0.83334191642621636 1.117215564627996 0.22515647849693923 0.46106725040804569 -0.26317273037910943 -0.083090748146070384 -0.33698761495545354 0.29114223933028632 -0.52863750320011627 -0.86493732371919496
decision_type=2 2 2 2 2 2 2 2 2 2 2 2 2 2 2 2 2 2 2 2 2 2 2 2 2 2 2 2 2 2 2 2 2 2 2 2 2
left_child=5 14 3 4 18 -1 12 23 -8 29 13 -9 -7 19 30 28 24 -12 26 -6 22 -22 -14 32 25 -17 27 -3 -16 -5 35 -32 -4 -34 -29 -2 -37
right_child=1 2 7 9 10 6 8 11 -10 -11 17 -13 20 -15 15 16 -18 -19 -20 -21 21 -23 -24 -25 -26 -27 -28 34 -30 -31 31 -33 33 -35 -36 36 -38
leaf_value=-0.00083016918943760564 0.00091207335848841767 -0.0020947252793225108 9.5242867258163996e-07 -0.007575779809719259 -0.00103465075330184 -0.0080519945645508486 -0.010639856797571531 0.001929827249795934 -0.004526070344254382 -0.0025673954520466806 -0.0024743592101131393 0.00013694826542921451 0.00017885588195462078 -0.0072526751277456197 0.0018659773432621425 -0.0045539161973172102 0.0015603167968278066 0.0017843795700627039 0.0032753364865267726 -0.0053419210542477282 -0.0082084690095871448 -0.0030631141574415958 -0.0046417419799335592 0.0010162514726098067 0.0003345093929718445 -0.00019168832269461406 -0.0024099175242909571 -4.9834120128827832e-06 0.0030319566402894366 -0.0043696981868414121 0.0028752581994765337 -0.00019010182002157698 -0.00083959535074903317 -0.0030866997593715154 0.0026390082566836062 0.0023696238922269984 -0.0012089560759816756
leaf_weight=27.999999761581421 98.499999701976776 22.79999977350235 40.999999761581421 28.199999809265137 33.899999737739563 22.099999845027924 29.099999725818634 254.59999930858612 20.29999977350235 95.899999439716339 32.499999761581421 200.49999910593033 25.499999701976776 21.499999821186066 456.19999760389328 20.499999761581421 110.29999959468842 24.699999928474426 24.399999976158142 22.499999821186066 24.29999977350235 40.299999892711639 21.29999977350235 40.199999809265137 58.499999761581421 20.899999916553497 26.099999904632568 29.999999701976776 147.29999965429306 24.099999845027924 40.499999821186066 23.099999845027924 44.499999821186066 46.999999821186066 29.899999797344208 21.899999976158142 87.999999344348907
leaf_count=41 164 33 63 37 42 26 42 285 27 128 43 271 34 26 578 29 175 27 27 28 30 43 27 53 92 26 29 39 171 39 63 35 65 59 36 26 117
internal_value=1.36454e-05 0.000493914 -0.000466886 -0.00207636 -0.00111659 -0.00483677 -0.0054501 0.000600894 -0.00812818 -0.00381383 -0.00257289 0.00113996 -0.00445886 -0.00399545 0.00141808 0.00171092 0.000448595 -0.000635361 0.000360519 -0.00275328 -0.00374572 -0.00499905 -0.00201538 -0.000819654 -0.000778876 -0.002352 -0.000293283 0.000374821 0.00215059 -0.00609893 0.000541993 0.00176196 -0.00137668 -0.00199395 0.00131491 0.000169648 -0.000495774
internal_weight=2340.9 2130 1044.3 416.5 268.3 210.9 182.9 627.8 49.4 148.2 135.1 455.1 133.5 77.9 1085.7 813.7 210.2 57.2 133.2 56.4 111.4 64.6 46.8 172.7 99.9 41.4 108.8 82.7 603.5 52.3 272 63.6 132.5 91.5 59.9 208.4 109.9
internal_count=3076 2806 1330 534 330 270 229 796 69 204 166 556 160 96 1476 1071 322 70 164 70 134 73 61 240 147 55 137 108 749 76 405 98 187 124 75 307 143
is_linear=0
shrinkage=0.022234


Tree=22
num_leaves=38
num_cat=0
split_feature=3 25 3 3 24 20 3 20 23 40 28 36 3 36 37 23 36 36 35 35 3 42 24 20 36 10 42 22 23 6 36 6 33 13 30 10 29
split_gain=11.3867 3.00946 2.43866 1.48364 1.15269 1.75956 0.728461 0.726852 0.821735 0.71565 0.706262 0.670741 0.738882 0.69594 0.657381 0.566581 0.569119 0.636028 0.554398 0.442756 0.532104 0.485754 0.438976 0.40376 0.402678 0.391077 0.385644 0.36697 0.47827 0.341706 0.322206 0.313563 0.293252 0.288173 0.275808 0.265385 0.262815
threshold=0.053209969228044808 -0.043774057618091895 0.25262859452349129 0.0014151545129939002 0.14957910119417814 -0.46188851580396589 0.7510272344412634 0.89291984344767528 0.20559368461499677 1.1805153863324478 -0.13964779890236448 -0.35985779389699979 0.35564333077700777 0.088027322084715767 0.98666440784954268 0.79915924031238739 0.14339914860825834 -0.057173897703457592 0.13342404806221816 0.20238094222171307 0.078181162612635122 -0.0017992749351114997 0.28903205078184119 -0.26484959506650868 -0.60568678149370492 0.70633013621236429 -0.016452950005717896 -0.55181886739234132 0.56831004657685169 0.39707331201781415 -0.068738301366251336 0.39707331201781415 -0.27984111407669571 0.46642308591576381 -0.029759680182070397 1.3904546667408522 0.94693848133260905
decision_type=2 2 2 2 2 2 2 2 2 2 2 2 2 2 2 2 2 2 2 2 2 2 2 2 2 2 2 2 2 2 2 2 2 2 2 2 2
left_child=3 11 4 24 5 29 15 8 10 14 -5 12 22 23 19 16 17 -4 -11 20 -6 -22 -2 -13 26 -12 -1 -15 32 -3 -25 -19 -29 -7 -27 -20 -33
right_child=1 2 6 7 9 33 -8 -9 -10 18 25 13 -14 27 -16 -17 -18 31 35 -21 21 -23 -24 30 -26 34 -28 28 -30 -31 -32 36 -34 -35 -36 -37 -38
leaf_value=-0.0079414891649460407 -0.0005353436924625262 -0.0018253149918183802 -0.0006443130015396396 1.8639974349845407e-05 -0.0043080085937180004 2.1181587740036834e-06 0.0022583731778162996 -0.00064046925713076618 -0.0079198161175904665 0.0014938049892391516 -0.0065977846293772957 0.0011712004250837033 0.0021338069045627162 0.001372708142449658 -0.0059932581894565568 0.0016108052083323343 -0.0014224835385501335 0.0023402424195687298 -0.00036436439025241908 -0.0046114290466034574 0.00028516781562928835 -0.0033558779737709724 -0.0047953977511047859 0.0014063626171685029 -0.0089288880060468985 -0.0011430673953216888 -0.0039511337879639006 0.0027763645492751132 -0.0033168233734715497 -0.0060937434049798045 0.002799712811656523 -0.00039965405217697085 -0.00043613710958187712 0.00265709216747439 -0.004618877497041424 -0.0039399201602821196 0.0019797901364071255
