tree
version=v4
num_class=1
num_tree_per_iteration=1
label_index=0
max_feature_idx=37
objective=regression
feature_names=year_linear year_squared health_x_education decade SP.POP.65UP.TO SP.POP.80UP.FE SP.POP.80UP.MA.5Y SP.POP.1564.TO SP.POP.TOTL ER.FSH.AQUA.MT SP.POP.65UP.FE.IN_lag1 SG.LAW.INDX.MR SP.POP.80UP.MA_lag1 NY.GDP.MKTP.CN SP.POP.0014.MA.ZS NY.GDP.DEFL.ZS SG.LAW.INDX SP.POP.65UP.MA.IN_lag1 SP.POP.65UP.FE.IN NY.GDP.MKTP.KN SP.POP.TOTL.MA.IN NY.GNP.PCAP.CN SP.POP.80UP.FE_lag1 year_linear_ma3 year_linear_ma5 year_linear_accel year_squared_ma3 year_squared_ma5 year_squared_accel health_x_education_ma3 health_x_education_ma5 health_x_education_accel decade_ma3 decade_ma5 decade_accel SP.POP.65UP.TO_ma3 SP.POP.65UP.TO_ma5 SP.POP.65UP.TO_accel
feature_infos=[0.084745762711864403:0.98305084745762716] [0.0071818442976156003:0.96638896868715896] [-3.053725076939616:3.507134466887857] [1970:2020] [-1.7042201564259425:2.9546355051735289] [-2.0004274261634829:2.6957892827505718] [-1.9447169768856121:3.3390589378152629] [-3.5332415768482242:2.3192837955098131] [-3.2722935165086562:2.4960945708432951] [-2.207308301610976:5] [-1.7889505650362949:2.5426608730821285] [-3.5886419652149448:5] [-2.0251976151685884:2.8617392762779499] [-1.7381519233039733:5] [-2.9065720730264371:2.7882289259382853] [-2.3400194450392782:5] [-2.7042463324818118:5] [-2.0073722984114419:3.2564720944780987] [-1.642965247363934:2.9606518336837739] [-1.9862194670159508:3.6484513815596582] [-3.1462986117121772:2.5861824868261705] [-1.7542520995899025:5] [-2.0807288919592062:2.458967270523476] [0.084745762711864403:0.98305084745762716] [0.084745762711864306:0.97457627118644075] [-0.083333333333333398:-0.0003132832080199] [0.007373360145552:0.96658048453509515] [0.0077563918414248001:0.95015800057454758] [-0.21527777777780049:-0.00063765695567199999] [-2.1793554006492131:2.7767102010680524] [-2.0473366012989382:2.3718505029618311] [-2295.8666277307725:2296.4200067536221] [1966.6666666666667:2020] [1966:2020] [-0.0051020408163264001:0.0051020408163264001] [-1.7011114965583951:2.967533498127533] [-1.6946406550476951:2.7757101561094748] [-3280.5460691160802:3282.587620230609]
tree_sizes=951 987 993 989 990 988 985 987 989 988 986 992 992 989 989 991 993 983 993 987 990 989 990 990 996 992 994 996 992 994 998 989 990 994 984 993 991 993 995 995 995 1003 998 996 997 995 991 1006 1004 996 998 997 990 992 997 997 1005 995 992 997 999 995 1004 999 1003 1000 997 998 1002 996 1000 998 1005 994 999 1001 995 1000 999 1000 999 1003 997 1000 1000 1008 1005 997 1004 1008 1003 1002 993 991 1000 1000 993 1002 988 998 994 1004 997 994 999 1009 1004 1007 1006 1002 1007 1013 1001 1004 1000 1003 998 1000 995 1003 998 1004 1002 1009 1006 989 1000 1000 999 996 1008 1003 997 1005 1008 998 1005 1007 995 998 996 995 1010 1008 998 994 1006 1008 1000 1008 1005 1007 1007 1005 1008 1008 1003 1004 981 1000 996 992 999 1009 1000 1001 1004 895 903 998 995 1007 996 1010 1006 894 1012 1002 1002 1004 999 999 1012 1001 1007 999 900 1004 1007 906 898 999 1008 996 997 1009 1011 1009 1012 1001 1003 900 888 1004 1001 996 1012 1012 1009 1013 1004 1000 1014 1003 1006 998 897 1012 1006 1004 1003 790 999 1010 1007 1012 997 1004 1010 1010 1012 1015 1003 997 898 1001 1005 1010 998 696 1005 992 1007 1001 1003 1018 1011 1008 695 893 1012 1008 683 1002 1005 687 1007 1002 1013 695 686 999 904 1010 1000 1010 1013 692 899 1015 1012 796 888 1006 584 1018 1018 999 1009 698 696 1015 1005 1007 1004 1014 909 695 1009 911 1015 697 900 1005 997 687 1010 907 1005 694 891 898 905 688 1015 893 1009 1007 1006 1010 689 1003 1010 793 691 687 1012 694 689 682 1005 914 915 1008 998 1000 1004 1021 996 788 919 584 898 1022 1003 698 1013 1012 690 692 688 903 907 901 1021 807 698 893 895 1010 910 1015 899 900 688 1022 896 1008 908 1015 800 1005 1010 699 1007 693 908 1012 693 806 695 898 1019 901 1012 1005 800 793 1010 1020 697 894 1013 692 691 802 895 696 590 698 897 692 1018 694 912 908 1015 685 1011 889 796 901 690 1012 896 583 913 789 1026 1012 899 690 1013 905 906 999 904 1010 908 800 887 1013 694 1005 892 588 801 789 1010 697 1001 699 1009 912 878 910 902 897 797 903 698 995 910 902 1007 1011 1008 904 696 898 701 904 799 890 788 909 904 908 891 797 893 1011 902 668 906

Tree=0
num_leaves=8
num_cat=0
split_feature=2 2 2 2 2 0 2
split_gain=1432.01 192.845 55.7014 45.0228 32.7254 27.6935 22.5407
threshold=-1.0000000180025095e-35 0.72673135125916832 -0.24832567514483564 0.2365677982483865 1.2545780174632262 0.26271186440677968 -0.92494035320070656
decision_type=2 2 2 2 2 2 2
left_child=2 3 6 -2 -3 -4 -1
right_child=1 4 5 -5 -6 -7 -8
leaf_value=0.15250915378328739 0.17890206638015138 0.19229385698753196 0.1619637508797877 0.18559515678932575 0.20096330884268654 0.17016463624667558 0.16186117180026946
leaf_weight=67.499999463558197 364.79999780654907 365.99999934434891 133.29999870061874 640.19999772310257 139.09999942779541 333.99999743700027 516.69999611377716
leaf_count=82 460 389 223 744 155 429 703
internal_value=0.177533 0.187018 0.16391 0.183166 0.194682 0.167825 0.16078
internal_weight=2561.6 1510.1 1051.5 1005 505.1 467.3 584.2
internal_count=3185 1748 1437 1204 544 652 785
is_linear=0
shrinkage=1


Tree=1
num_leaves=8
num_cat=0
split_feature=2 2 2 2 2 2 0
split_gain=1403.38 189.672 68.3945 38.2622 35.9425 26.0293 17.991
threshold=0.014035763928251401 0.72673135125916832 -0.16362432856096387 0.29317326354004625 1.3942383490873702 -0.79777805144645375 0.19491525423728817
decision_type=2 2 2 2 2 2 2
left_child=2 3 5 -2 -3 -1 -4
right_child=1 4 6 -5 -6 -7 -8
leaf_value=-0.022419614596977538 0.0022528950895127154 0.015282940709693488 -0.014477690086470782 0.0083053098615628717 0.026643649740905936 -0.014642300855744935 -0.0062109800138967913
leaf_weight=119.6999990940094 442.49999755620956 444.09999912977219 76.699999272823334 531.79999816417694 75.399999737739563 594.6999951004982 296.29999768733978
leaf_count=146 556 476 129 614 84 832 385
internal_value=-5.11637e-05 0.00951317 -0.0131903 0.00555682 0.0169325 -0.0159459 -0.00791177
internal_weight=2581.2 1493.8 1087.4 974.3 519.5 714.4 373
internal_count=3222 1730 1492 1170 560 978 514
is_linear=0
shrinkage=0.0152032


Tree=2
num_leaves=8
num_cat=0
split_feature=2 2 2 2 2 2 1
split_gain=1417.01 197.221 54.3284 47.5451 34.4711 22.9575 21.3685
threshold=1.0000000180025095e-35 0.78120297914516634 -0.24832567514483564 0.28540600953203549 1.3942383490873702 -0.87876761484708343 0.052427463372594053
decision_type=2 2 2 2 2 2 2
left_child=2 3 5 -2 -3 -1 -4
right_child=1 4 6 -5 -6 -7 -8
leaf_value=-0.023512563568279563 0.001786265409585162 0.015373372731836647 -0.015205702438045811 0.0083032611578242512 0.026180924047764662 -0.015312338021695715 -0.0076983842101821277
leaf_weight=93.499999344348907 452.99999755620956 406.79999929666519 118.29999887943268 603.8999981880188 82.099999725818634 512.69999605417252 339.79999721050262
leaf_count=112 567 432 199 688 91 695 448
internal_value=-9.06512e-05 0.00920421 -0.0135909 0.00551032 0.017189 -0.0165777 -0.00963782
internal_weight=2610.1 1545.8 1064.3 1056.9 488.9 606.2 458.1
internal_count=3232 1778 1454 1255 523 807 647
is_linear=0
shrinkage=0.0152032


Tree=3
num_leaves=8
num_cat=0
split_feature=2 2 2 2 2 7 2
split_gain=1321.19 181.619 57.1844 36.2909 34.4612 22.3598 19.4251
threshold=1.0000000180025095e-35 0.71208150819165417 -0.25188667087681432 0.2365677982483865 1.332514250528712 -0.97855729170167083 -0.92494035320070656
decision_type=2 2 2 2 2 2 2
left_child=2 3 6 -2 -3 -4 -1
right_child=1 4 5 -5 -6 -7 -8
leaf_value=-0.023487302989947608 0.001350904013595952 0.014208034770920931 -0.015629967371566654 0.0073833981905910276 0.0238400341144561 -0.0073732623157674688 -0.015244968625959535
leaf_weight=76.399999439716339 361.79999786615372 444.29999911785126 96.299999058246613 635.89999788999557 106.59999972581863 358.29999703168869 498.79999601840973
leaf_count=91 462 476 161 730 115 484 680
internal_value=0.000190767 0.00906551 -0.0131546 0.00519615 0.0160725 -0.00912306 -0.0163403
internal_weight=2578.4 1548.6 1029.8 997.7 550.9 454.6 575.2
internal_count=3199 1783 1416 1192 591 645 771
is_linear=0
shrinkage=0.0152032


Tree=4
num_leaves=8
num_cat=0
split_feature=2 2 2 2 2 0 2
split_gain=1310.75 179.657 57.0176 41.2124 29.6792 26.6717 16.4371
threshold=1.0000000180025095e-35 0.79461006564466674 -0.24832567514483564 0.24011744988570419 1.3443198069409574 0.29661016949152547 -0.96367835727514717
decision_type=2 2 2 2 2 2 2
left_child=2 3 6 -2 -3 -4 -1
right_child=1 4 5 -5 -6 -7 -8
leaf_value=-0.023455348796329229 0.001514247409192711 0.01494457122501614 -0.014226351590901258 0.0077775853363704099 0.024436343379006333 -0.0065412485016221808 -0.01523724500855283
leaf_weight=63.0999995470047 376.69999772310257 360.99999922513962 154.99999862909317 683.99999785423279 96.699999690055847 320.59999752044678 532.49999570846558
leaf_count=76 476 389 264 784 106 408 721
internal_value=-9.55617e-05 0.00898925 -0.0129734 0.00555352 0.0169507 -0.00904656 -0.0161085
internal_weight=2589.6 1518.4 1071.2 1060.7 457.7 475.6 595.6
internal_count=3224 1755 1469 1260 495 672 797
is_linear=0
shrinkage=0.0152032


Tree=5
num_leaves=8
num_cat=0
split_feature=2 2 2 2 2 2 1
split_gain=1265.29 155.156 66.7002 37.2125 31.8045 25.6687 13.923
threshold=0.020853894405511504 0.72673135125916832 -0.16362432856096387 1.4460037318519021 0.31892704568944491 -0.86847243747576985 0.069089342143062324
decision_type=2 2 2 2 2 2 2
left_child=2 4 5 -3 -2 -1 -4
right_child=1 3 6 -5 -6 -7 -8
leaf_value=-0.022409677583806208 0.0023468867653079796 0.014156459250904139 -0.012161969420770864 0.026416026370748528 0.0079667444272145393 -0.014022419402722953 -0.0055525211887452099
leaf_weight=97.89999920129776 428.49999767541885 472.79999893903732 100.09999907016754 65.199999809265137 510.09999847412109 616.59999483823776 280.59999793767929
leaf_count=120 535 507 169 71 579 861 351
internal_value=-5.06525e-05 0.00913314 -0.012433 0.0156428 0.00540146 -0.0151721 -0.00729127
internal_weight=2571.8 1476.6 1095.2 538 938.6 714.5 380.7
internal_count=3193 1692 1501 578 1114 981 520
is_linear=0
shrinkage=0.0152032


Tree=6
num_leaves=8
num_cat=0
split_feature=2 2 2 2 2 0 2
split_gain=1217.04 149.878 63.5343 29.3835 28.6175 20.6209 20.1704
threshold=0.014035763928251401 0.71522525956264527 -0.25188667087681432 1.332514250528712 0.24011744988570419 0.26271186440677968 -0.9106658521705332
decision_type=2 2 2 2 2 2 2
left_child=2 4 6 -3 -2 -4 -1
right_child=1 3 5 -5 -6 -7 -8
leaf_value=-0.022385989165117966 0.0017771999297797264 0.013493801714538593 -0.013347879933447205 0.022480296406378799 0.007247904241871694 -0.006372080428815095 -0.01451104234987056
leaf_weight=88.699999272823334 353.79999780654907 441.19999915361404 135.29999881982803 104.09999960660934 589.6999979019165 356.29999709129333 500.59999603033066
leaf_count=108 451 473 231 115 685 458 681
internal_value=-5.03332e-05 0.00886455 -0.0123297 0.01521 0.00519682 -0.00829267 -0.0156969
internal_weight=2569.7 1488.8 1080.9 545.3 943.5 491.6 589.3
internal_count=3202 1724 1478 588 1136 689 789
is_linear=0
shrinkage=0.0152032


Tree=7
num_leaves=8
num_cat=0
split_feature=2 2 2 2 2 2 7
split_gain=1193.35 167.687 50.0269 37.758 27.9121 18.1229 15.6221
threshold=1.0000000180025095e-35 0.7652128695447179 -0.19640905631480121 0.39219860425023995 1.3942383490873702 -0.79777805144645375 -0.83234511404310296
decision_type=2 2 2 2 2 2 2
left_child=2 3 5 -2 -3 -1 -4
right_child=1 4 6 -5 -6 -7 -8
leaf_value=-0.020043520128992534 0.0026299553504368928 0.014209663116531315 -0.012808020805247317 0.0084217471156905373 0.023983764785523536 -0.013621371990481017 -0.006018757184332659
leaf_weight=124.59999895095825 606.89999687671661 420.79999911785126 109.49999904632568 455.69999879598618 80.599999666213989 556.49999570846558 276.6999979019165
leaf_count=156 750 448 187 508 91 774 351
internal_value=7.62003e-05 0.00853417 -0.0123176 0.0051141 0.0157815 -0.0147967 -0.0079446
internal_weight=2631.3 1564 1067.3 1062.6 501.4 681.1 386.2
internal_count=3265 1797 1468 1258 539 930 538
is_linear=0
shrinkage=0.0152032


Tree=8
num_leaves=8
num_cat=0
split_feature=2 2 2 2 2 7 2
split_gain=1164.25 163.094 51.5596 30.7813 30.2675 22.0559 19.2714
threshold=1.0000000180025095e-35 0.68788980222598073 -0.2651613446544388 1.3758388659906968 0.21260998915571785 -0.7949196907671664 -0.96367835727514717
decision_type=2 2 2 2 2 2 2
left_child=2 4 6 -3 -2 -4 -1
right_child=1 3 5 -5 -6 -7 -8
leaf_value=-0.022975962826159893 0.00087343272746879543 0.013328792721410099 -0.013808681158352765 0.023164873755304866 0.0065564473359349743 -0.0066466244971087633 -0.014265358583550682
leaf_weight=66.599999606609344 330.89999794960022 498.69999891519547 136.79999881982803 86.399999737739563 627.99999767541885 364.89999723434448 505.19999611377716
leaf_count=77 419 537 234 95 735 463 693
internal_value=1.22454e-06 0.00845595 -0.0121588 0.0147818 0.00459569 -0.0086002 -0.0152805
internal_weight=2617.5 1544 1073.5 585.1 958.9 501.7 571.8
internal_count=3253 1786 1467 632 1154 697 770
is_linear=0
shrinkage=0.0152032


Tree=9
num_leaves=8
num_cat=0
split_feature=2 2 2 2 2 2 0
split_gain=1079.02 162.548 50.7548 34.2787 26.4139 17.2811 16.8297
threshold=1.0000000180025095e-35 0.7351129056257597 -0.25188667087681432 0.20788681704348472 1.2545780174632262 -0.96367835727514717 0.29661016949152547
decision_type=2 2 2 2 2 2 2
left_child=2 3 5 -2 -3 -1 -4
right_child=1 4 6 -5 -6 -7 -8
leaf_value=-0.02254920645143433 0.0005641236734719216 0.012995479352291945 -0.012459486684431163 0.0066318876403635907 0.020540439157804902 -0.013944761176191978 -0.0061879980998702537
leaf_weight=60.5999995470047 316.2999981045723 383.69999927282333 142.29999870061874 674.09999775886536 149.19999939203262 503.19999599456787 325.79999738931656
leaf_count=73 399 411 241 778 165 683 416
internal_value=0.000206296 0.00833782 -0.0117972 0.00469439 0.0151085 -0.0148702 -0.00809522
internal_weight=2555.2 1523.3 1031.9 990.4 532.9 563.8 468.1
internal_count=3166 1753 1413 1177 576 756 657
is_linear=0
shrinkage=0.0152032


Tree=10
num_leaves=8
num_cat=0
split_feature=2 2 2 2 2 2 0
split_gain=1083.98 143.173 43.648 34.4826 28.266 19.0411 16.585
threshold=0.0073502953883825507 0.78120297914516634 -0.24832567514483564 0.30878523708386957 1.3443198069409574 -0.92494035320070656 0.26271186440677968
decision_type=2 2 2 2 2 2 2
left_child=2 3 5 -2 -3 -1 -4
right_child=1 4 6 -5 -6 -7 -8
leaf_value=-0.022065798976815709 0.0020255675941142017 0.013197400565067035 -0.012890150057103559 0.007527653918292884 0.022367475009247906 -0.013541102986389351 -0.0064573660238778589
leaf_weight=68.699999451637268 473.99999731779099 391.79999923706055 129.29999881982803 592.7999981045723 97.099999666213989 521.09999567270279 328.39999735355377
leaf_count=84 596 417 219 672 106 711 423
internal_value=0.000155698 0.00820605 -0.0118 0.00508329 0.0150194 -0.0145346 -0.00827536
internal_weight=2603.2 1555.7 1047.5 1066.8 488.9 589.8 457.7
internal_count=3228 1791 1437 1268 523 795 642
is_linear=0
shrinkage=0.0152032


Tree=11
num_leaves=8
num_cat=0
split_feature=2 2 2 2 2 0 2
split_gain=1063.45 147.673 37.7291 36.1287 23.4637 17.0342 14.5531
threshold=1.0000000180025095e-35 0.8008256677638822 -0.25918094121259244 0.32768877218041986 1.3600278948535289 0.29661016949152547 -1.0020606902943903
decision_type=2 2 2 2 2 2 2
left_child=2 3 6 -2 -3 -4 -1
right_child=1 4 5 -5 -6 -7 -8
leaf_value=-0.021990198638637642 0.0021010070408922746 0.01344218377584281 -0.012558437566890896 0.0075890342297376297 0.021858995283935711 -0.0065717226030633201 -0.013551944437827928
leaf_weight=51.999999642372131 532.69999730587006 354.19999927282333 165.89999842643738 578.69999831914902 97.899999618530273 326.59999752044678 532.89999586343765
leaf_count=61 662 379 279 653 110 412 722
internal_value=-6.91263e-05 0.00793937 -0.0116912 0.0049589 0.0152655 -0.00858905 -0.0143027
internal_weight=2640.9 1563.5 1077.4 1111.4 452.1 492.5 584.9
internal_count=3278 1804 1474 1315 489 691 783
is_linear=0
shrinkage=0.0152032


Tree=12
num_leaves=8
num_cat=0
split_feature=2 2 2 2 2 2 7
split_gain=1036.45 134.702 42.7867 32.399 26.8339 17.8066 10.4509
threshold=0.009966261850553302 0.79461006564466674 -0.16132919001241147 0.30878523708386957 1.3758388659906968 -0.79777805144645375 -0.98424860774053147
decision_type=2 2 2 2 2 2 2
left_child=2 3 5 -2 -3 -1 -4
right_child=1 4 6 -5 -6 -7 -8
leaf_value=-0.01893022366493164 0.0020884551052849564 0.013204952490038668 -0.012320267021436125 0.0074706194760515389 0.022659128423400194 -0.012466164827773867 -0.0056271789414434874
leaf_weight=117.59999912977219 462.59999740123749 377.29999899864197 67.499999344348907 586.59999823570251 85.199999690055847 614.89999496936798 270.69999784231186
leaf_count=144 581 409 113 660 95 851 355
internal_value=5.53715e-06 0.00811152 -0.0114388 0.00509791 0.0149473 -0.0135044 -0.00696402
internal_weight=2582.4 1511.7 1070.7 1049.2 462.5 732.5 338.2
internal_count=3208 1745 1463 1241 504 995 468
is_linear=0
shrinkage=0.0152032


Tree=13
num_leaves=8
num_cat=0
split_feature=2 2 2 2 2 2 20
split_gain=999.842 117.011 53.9063 29.3775 21.1614 20.2465 12.0251
threshold=0.038826488705179261 0.72673135125916832 -0.16132919001241147 1.4460037318519021 0.32768877218041986 -0.74892598439577218 -1.2147887322015622
decision_type=2 2 2 2 2 2 2
left_child=2 4 5 -3 -2 -1 -4
right_child=1 3 6 -5 -6 -7 -8
leaf_value=-0.018506271220987587 0.0025218671864512335 0.012606547843479268 -0.016082755147901591 0.022905635105250725 0.0071805989517708026 -0.012012120633990018 -0.0054166052432142661
leaf_weight=137.79999893903732 406.39999777078629 471.19999903440475 26.29999977350235 74.199999749660492 506.69999849796295 575.39999538660049 351.19999730587006
leaf_count=169 505 504 45 82 573 806 472
internal_value=0.000202234 0.00843614 -0.010808 0.0140083 0.00510747 -0.0132674 -0.0061606
internal_weight=2549.2 1458.5 1090.7 545.4 913.1 713.2 377.5
internal_count=3156 1664 1492 586 1078 975 517
is_linear=0
shrinkage=0.0152032


Tree=14
num_leaves=8
num_cat=0
split_feature=2 2 2 2 2 2 0
split_gain=982.01 146.103 39.5368 34.0723 26.7847 15.885 14.6076
threshold=1.0000000180025095e-35 0.8008256677638822 -0.24057812310184876 0.2770139875142017 1.6134827790353632 -0.80962205120875119 0.27966101694915263
decision_type=2 2 2 2 2 2 2
left_child=2 3 5 -2 -3 -1 -4
right_child=1 4 6 -5 -6 -7 -8
leaf_value=-0.018565199414518941 0.0013729996173186864 0.013448421113766011 -0.011867431201610719 0.0068252323251727868 0.025111761520290755 -0.012467741006493265 -0.0059025383580150748
leaf_weight=123.79999911785126 442.19999742507935 429.1999990940094 137.49999868869781 661.49999815225601 50.999999761581421 494.29999601840973 307.7999974489212
leaf_count=150 555 460 231 749 57 681 394
internal_value=9.99914e-05 0.00768723 -0.0112006 0.00464109 0.0146878 -0.0136896 -0.00774514
internal_weight=2647.3 1583.9 1063.4 1103.7 480.2 618.1 445.3
internal_count=3277 1821 1456 1304 517 831 625
is_linear=0
shrinkage=0.0152032


Tree=15
num_leaves=8
num_cat=0
split_feature=2 2 2 2 2 2 7
split_gain=926.075 126.686 43.5043 30.3243 25.3781 18.7744 11.4561
threshold=0.014035763928251401 0.79461006564466674 -0.16618958715330662 0.24011744988570419 1.6134827790353632 -0.7637514198591594 -1.0048071095599937
decision_type=2 2 2 2 2 2 2
left_child=2 3 5 -2 -3 -1 -4
right_child=1 4 6 -5 -6 -7 -8
leaf_value=-0.018165832306421985 0.0011781126956552847 0.012982445007943846 -0.012205436036994857 0.006609905714160768 0.024322831051603475 -0.011736195439347114 -0.005074711991053471
leaf_weight=127.29999893903732 365.39999783039093 417.49999910593033 63.59999942779541 679.89999788999557 51.299999833106995 605.29999494552612 289.99999785423279
leaf_count=159 460 449 107 782 56 841 378
internal_value=-2.75102e-05 0.00765703 -0.0107396 0.00471147 0.0142241 -0.0128539 -0.00635823
internal_weight=2600.3 1514.1 1086.2 1045.3 468.8 732.6 353.6
internal_count=3232 1747 1485 1242 505 1000 485
is_linear=0
shrinkage=0.0152032


Tree=16
num_leaves=8
num_cat=0
split_feature=2 2 2 2 2 7 2
split_gain=916.551 123.54 38.2657 29.7648 21.5779 16.4015 13.1736
threshold=1.0000000180025095e-35 0.61230614022271246 -0.25188667087681432 1.0961165740523875 0.15966901454287744 -0.92529200213483132 -0.92494035320070656
decision_type=2 2 2 2 2 2 2
left_child=2 4 6 -3 -2 -4 -1
right_child=1 3 5 -5 -6 -7 -8
leaf_value=-0.019390831916709282 0.00011446589270712989 0.010112617011784073 -0.013260905828435773 0.017114975437889285 0.0052651958716902186 -0.0062177711880407787 -0.012655471472969705
leaf_weight=77.09999942779541 260.89999848604202 392.79999929666519 96.899999141693115 218.69999921321869 673.99999725818634 363.99999707937241 530.79999583959579
leaf_count=92 333 421 165 241 796 486 723
internal_value=-0.000178412 0.007304 -0.0110047 0.0126175 0.00382816 -0.00769926 -0.0135103
internal_weight=2615.2 1546.4 1068.8 611.5 934.9 460.9 607.9
internal_count=3257 1791 1466 662 1129 651 815
is_linear=0
shrinkage=0.0152032


Tree=17
num_leaves=8
num_cat=0
split_feature=2 2 2 2 2 2 0
split_gain=879.31 115.739 46.794 33.0365 16.8621 16.4768 11.6857
threshold=0.014035763928251401 0.87641776927436543 -0.16132919001241147 0.39219860425023995 -1.0020606902943903 1.7468007605281359 0.16101694915254236
decision_type=2 2 2 2 2 2 2
left_child=2 3 4 -2 -1 -3 -4
right_child=1 5 6 -5 -6 -7 -8
leaf_value=-0.02068009152434299 0.002323703446688133 0.013662219150218381 -0.012295231965452671 0.0075750860932730368 -0.01202488618419807 0.025777026302506903 -0.0047460110442819736
leaf_weight=56.499999582767487 556.89999717473984 366.99999910593033 56.499999463558197 551.19999861717224 675.89999449253082 27.99999988079071 296.79999768733978
leaf_count=67 684 396 95 611 934 31 394
internal_value=-7.48439e-05 0.00745543 -0.0105005 0.00493619 -0.012693 0.0145218 -0.00595424
internal_weight=2588.8 1503.1 1085.7 1108.1 732.4 395 353.3
internal_count=3212 1722 1490 1295 1001 427 489
is_linear=0
shrinkage=0.0152032


Tree=18
num_leaves=8
num_cat=0
split_feature=2 2 2 2 2 0 2
split_gain=860.392 117.337 34.6038 33.0264 18.8636 14.7913 14.6325
threshold=1.0000000180025095e-35 0.60420698500026393 -0.19640905631480121 1.0759408730199309 0.15332689018548004 0.26271186440677968 -0.96367835727514717
decision_type=2 2 2 2 2 2 2
left_child=2 4 6 -3 -2 -4 -1
right_child=1 3 5 -5 -6 -7 -8
leaf_value=-0.019703329857528745 -1.4386341241834722e-05 0.0095414089375839214 -0.01154204209280368 0.016723548715009192 0.0049541256144649696 -0.0050655645228286743 -0.011936576817929432
leaf_weight=61.799999535083771 244.39999854564667 413.99999934434891 115.69999891519547 230.69999933242798 635.5999972820282 277.09999787807465 621.29999488592148
leaf_count=74 311 440 195 251 753 354 857
internal_value=-0.000161381 0.00718432 -0.0105716 0.012112 0.00357385 -0.00697408 -0.0126397
internal_weight=2600.6 1524.7 1075.9 644.7 880 392.8 683.1
internal_count=3235 1755 1480 691 1064 549 931
is_linear=0
shrinkage=0.0152032


Tree=19
num_leaves=8
num_cat=0
split_feature=2 2 2 2 2 0 2
split_gain=827.175 119.741 33.7316 33.5598 18.6001 16.6377 12.5343
threshold=1.0000000180025095e-35 0.60420698500026393 1.3942383490873702 -0.27854444771655185 0.15332689018548004 0.29661016949152547 -0.80962205120875119
decision_type=2 2 2 2 2 2 2
left_child=3 4 -3 6 -2 -5 -1
right_child=1 2 -4 5 -6 -7 -8
leaf_value=-0.01726994259854828 -0.0001722113854015127 0.010782731095844244 0.021444954167189594 -0.01128855743813992 0.0048135465102021654 -0.0055380777948983899 -0.011676142780413923
leaf_weight=118.59999918937683 235.39999860525131 583.99999868869781 77.79999977350235 176.29999834299088 650.5999972820282 342.9999971985817 427.99999678134918
leaf_count=142 300 628 85 297 763 442 578
internal_value=4.60409e-05 0.0071437 0.0120367 -0.0102602 0.00348851 -0.00749099 -0.0128905
internal_weight=2613.7 1547.8 661.8 1065.9 886 519.3 546.6
internal_count=3235 1776 713 1459 1063 739 720
is_linear=0
shrinkage=0.0152032


Tree=20
num_leaves=8
num_cat=0
split_feature=2 2 2 2 2 2 1
split_gain=793.259 107.433 37.3232 35.6576 15.5423 14.8803 9.06396
threshold=1.0000000180025095e-35 0.96148176222487003 0.39219860425023995 -0.16362432856096387 -0.77808257029102545 1.4460037318519021 0.031743751795461052
decision_type=2 2 2 2 2 2 2
left_child=3 2 -2 4 -1 -3 -5
right_child=1 5 -4 6 -6 -7 -8
leaf_value=-0.016746136647465871 0.0022317542394380439 0.013147146693808297 0.0075560753254380374 -0.011406448306337632 -0.010946186629557536 0.021079958140894941 -0.0048489839915921377
leaf_weight=131.99999892711639 578.49999707937241 259.39999932050705 642.59999841451645 59.299999415874481 565.89999514818192 69.499999701976776 276.09999781847
leaf_count=163 718 281 708 99 796 78 362
internal_value=0.000232861 0.00711164 0.00503394 -0.0100853 -0.0120437 0.0148245 -0.00600938
internal_weight=2583.3 1550 1221.1 1033.3 697.9 328.9 335.4
internal_count=3205 1785 1426 1420 959 359 461
is_linear=0
shrinkage=0.0152032


Tree=21
num_leaves=8
num_cat=0
split_feature=2 2 2 2 2 2 7
split_gain=769.193 91.3666 50.1839 29.6296 15.5326 15.1082 7.9111
threshold=0.043625342899480356 0.96148176222487003 -0.12296841510745248 0.39219860425023995 -0.85103172873930155 1.5455441739281897 -1.2283677323649751
decision_type=2 2 2 2 2 2 2
left_child=2 3 4 -2 -1 -3 -4
right_child=1 5 6 -5 -6 -7 -8
leaf_value=-0.017032457739327343 0.0027127426901053433 0.013313690111247178 -0.013725750661153084 0.0076094783816647244 -0.0105631745445847 0.022873487595193091 -0.0036825967296425068
leaf_weight=97.799999296665192 521.49999713897705 264.89999943971634 19.299999833106995 632.19999843835831 710.49999397993088 44.799999833106995 306.69999784231186
leaf_count=117 646 285 33 700 988 49 405
internal_value=8.13526e-05 0.00736501 -0.00931524 0.00539633 -0.0113463 0.0146977 -0.00427821
internal_weight=2597.7 1463.4 1134.3 1153.7 808.3 309.7 326
internal_count=3223 1680 1543 1346 1105 334 438
is_linear=0
shrinkage=0.0152032


Tree=22
num_leaves=8
num_cat=0
split_feature=2 2 2 2 2 2 7
split_gain=757.691 108.809 31.9205 25.4224 19.4969 14.8474 12.8081
threshold=1.0000000180025095e-35 0.65339577162299112 -0.24832567514483564 1.171367466460641 0.19311874149341013 -0.96367835727514717 -1.0169498511439807
decision_type=2 2 2 2 2 2 2
left_child=2 4 5 -3 -2 -1 -4
right_child=1 3 6 -5 -6 -7 -8
leaf_value=-0.019021493116258184 0.00021290427538652343 0.0097293121238999272 -0.012586371322131468 0.01660160531747016 0.0049327943118299645 -0.011474832689201814 -0.0058232000641851708
leaf_weight=68.299999535083771 300.19999819993973 459.69999921321869 78.299999237060547 170.89999938011169 621.19999760389328 522.49999594688416 376.69999700784683
leaf_count=81 380 491 130 188 724 704 509
internal_value=-1.37031e-05 0.00672613 -0.0100162 0.0115923 0.00339538 -0.0123478 -0.0069878
internal_weight=2597.8 1552 1045.8 630.6 921.4 590.8 455
internal_count=3207 1783 1424 679 1104 785 639
is_linear=0
shrinkage=0.0152032


Tree=23
num_leaves=8
num_cat=0
split_feature=2 2 2 2 2 0 2
split_gain=734.135 101.275 33.3319 23.6303 22.3354 13.6956 10.8017
threshold=1.0000000180025095e-35 0.72673135125916832 -0.24464727693330282 1.6134827790353632 0.2365677982483865 0.27966101694915263 -0.79777805144645375
decision_type=2 2 2 2 2 2 2
left_child=2 4 6 -3 -2 -4 -1
right_child=1 3 5 -5 -6 -7 -8
leaf_value=-0.015941789887548113 0.000886771173683726 0.011119618851973458 -0.010490431360937481 0.022386381753471529 0.0056364564907457424 -0.0049890718059646764 -0.01097084270005254
leaf_weight=128.69999903440475 368.09999793767929 474.09999883174896 151.69999861717224 47.399999797344208 605.69999802112579 338.39999747276306 477.29999619722366
leaf_count=157 464 510 257 53 698 434 666
internal_value=-0.000190672 0.00673735 -0.00964219 0.0121443 0.0038414 -0.00669259 -0.0120271
internal_weight=2591.4 1495.3 1096.1 521.5 973.8 490.1 606
internal_count=3239 1725 1514 563 1162 691 823
is_linear=0
shrinkage=0.0152032


Tree=24
num_leaves=8
num_cat=0
split_feature=29 29 30 29 30 18 7
split_gain=676.491 81.3604 36.3361 20.7544 15.3575 13.2488 2.87475
threshold=0.020291703262584903 0.6447559730500273 -0.078130515485250587 1.1419720553181043 -0.87469022484814085 -0.62357737136923186 -1.0912707621929729
decision_type=2 2 2 2 2 2 2
left_child=2 5 4 -3 -1 -2 -4
right_child=1 3 6 -5 -6 -7 -8
leaf_value=-0.017933730212817418 0.0085756873975782778 0.008977502238952724 -0.0086892141668526105 0.014973467132549319 -0.0099382348541831728 0.002959618385181191 -0.0032425483469168664
leaf_weight=59.799999535083771 111.09999930858612 435.9999994635582 25.099999725818634 192.69999945163727 799.29999345541 774.99999648332596 215.79999846220016
leaf_count=72 199 456 41 208 1111 882 275
internal_value=4.27545e-05 0.00663259 -0.00903175 0.0108158 -0.0104952 0.00366415 -0.00381145
internal_weight=2614.8 1514.8 1100 628.7 859.1 886.1 240.9
internal_count=3244 1745 1499 664 1183 1081 316
is_linear=0
shrinkage=0.0152032


Tree=25
num_leaves=8
num_cat=0
split_feature=2 2 2 2 2 2 20
split_gain=684.214 99.7235 35.4792 31.8704 15.3616 13.1338 11.6769
threshold=0.009966261850553302 0.96148176222487003 -0.21124591012814847 0.37361281916492511 1.7468007605281359 -1.0020606902943903 -0.67128295781990566
decision_type=2 2 2 2 2 2 2
left_child=2 3 5 -2 -3 -1 -4
right_child=1 4 6 -5 -6 -7 -8
leaf_value=-0.018168501276572185 0.0019873147670370034 0.013052407426922983 -0.0095858834545648943 0.0069561102532337531 0.023935969255216533 -0.010736162251443682 -0.0041683201336195977
leaf_weight=60.799999535083771 561.09999716281891 284.99999928474426 132.39999884366989 637.79999840259552 33.599999904632568 587.19999539852142 302.49999761581421
leaf_count=73 695 308 226 705 36 798 381
internal_value=5.25033e-05 0.00664045 -0.00917907 0.00463093 0.0142013 -0.011434 -0.00581841
internal_weight=2600.4 1517.5 1082.9 1198.9 318.6 648 434.9
internal_count=3222 1744 1478 1400 344 871 607
is_linear=0
shrinkage=0.0152032


Tree=26
num_leaves=8
num_cat=0
split_feature=29 29 29 29 29 30 0
split_gain=636.436 72.9661 35.3165 17.3829 15.0613 13.6143 6.40276
threshold=0.023932656158439956 0.79535440550041347 -0.13499026606308404 0.37734526328845169 1.3133940210981889 -0.86351745603422336 0.12711864406779658
decision_type=2 2 2 2 2 2 2
left_child=2 3 5 -2 -3 -1 -4
right_child=1 4 6 -5 -6 -7 -8
leaf_value=-0.017584196988364841 0.0024709451743142427 0.010324557626191597 -0.011154169649264219 0.0064188679001696914 0.017327479925723758 -0.0099718489516305818 -0.0039434305728871591
leaf_weight=58.999999463558197 542.0999972820282 348.49999934434891 31.499999701976776 492.1999985575676 89.399999737739563 702.19999432563782 301.79999762773514
leaf_count=73 674 369 53 553 96 971 401
internal_value=2.51413e-05 0.00655282 -0.00875486 0.00435 0.011755 -0.0105623 -0.00462593
internal_weight=2566.7 1472.2 1094.5 1034.3 437.9 761.2 333.3
internal_count=3190 1692 1498 1227 465 1044 454
is_linear=0
shrinkage=0.0152032


Tree=27
num_leaves=8
num_cat=0
split_feature=2 2 2 2 2 2 30
split_gain=636.397 75.0523 56.3763 22.5499 14.869 13.4423 6.43641
threshold=0.088124715651098015 0.98910692627024099 -0.13552254276044076 0.39641350019435084 -0.74892598439577218 1.7468007605281359 -0.0075593074675478992
decision_type=2 2 2 2 2 2 2
left_child=2 3 4 -2 -1 -3 -4
right_child=1 5 6 -5 -6 -7 -8
leaf_value=-0.014874903685046211 0.0026913802769739045 0.012854337553587083 -0.0050765616546213166 0.0071598461272413911 -0.0094427209665045655 0.022955587195448237 -0.0011704579904330541
leaf_weight=143.19999897480011 438.49999779462814 254.99999922513962 229.29999804496765 646.0999983549118 630.79999476671219 34.699999868869781 170.0999990105629
leaf_count=175 539 282 313 718 881 38 226
internal_value=0.000168983 0.00719026 -0.00805413 0.00535357 -0.0104482 0.0140654 -0.00341384
internal_weight=2547.7 1374.3 1173.4 1084.6 774 289.7 399.4
internal_count=3172 1577 1595 1257 1056 320 539
is_linear=0
shrinkage=0.0152032


Tree=28
num_leaves=8
num_cat=0
split_feature=2 2 2 2 2 2 7
split_gain=627.458 79.6562 55.7942 19.7239 13.9812 11.5325 9.0622
threshold=0.080149423875536377 0.96148176222487003 -0.13552254276044076 0.46115536594484891 -0.77808257029102545 1.6134827790353632 -1.1094368763264786
decision_type=2 2 2 2 2 2 2
left_child=2 3 4 -2 -1 -3 -4
right_child=1 5 6 -5 -6 -7 -8
leaf_value=-0.014768374270237179 0.0029495671855227063 0.012400480554315561 -0.010206507882029118 0.0070331549404019375 -0.009447668224983571 0.020923538311153369 -0.0026894503370658916
leaf_weight=138.29999893903732 566.29999721050262 279.79999923706055 41.299999594688416 529.29999893903732 661.89999467134476 42.399999856948853 365.79999750852585
leaf_count=169 690 305 69 573 919 46 473
internal_value=1.83827e-05 0.00687743 -0.0080363 0.00492271 -0.0103677 0.0135231 -0.00345288
internal_weight=2625.1 1417.8 1207.3 1095.6 800.2 322.2 407.1
internal_count=3244 1614 1630 1263 1088 351 542
is_linear=0
shrinkage=0.0152032


Tree=29
num_leaves=8
num_cat=0
split_feature=2 2 2 2 2 2 10
split_gain=630.33 75.9117 40.4982 15.7365 13.9263 11.4201 8.66091
threshold=0.053273676422908305 0.8008256677638822 -0.16132919001241147 0.33441631285401374 1.3942383490873702 -0.7637514198591594 -0.90616692544911459
decision_type=2 2 2 2 2 2 2
left_child=2 3 5 -2 -3 -1 -4
right_child=1 4 6 -5 -6 -7 -8
leaf_value=-0.014559920744046648 0.0019283664422332788 0.010416209065007405 -0.0090731940955377979 0.0057808703911178642 0.017491185584940925 -0.0097049977745605111 -0.003585187759998291
leaf_weight=138.39999890327454 419.39999783039093 393.29999905824661 83.199999213218689 590.69999825954437 77.099999785423279 595.29999494552612 333.09999758005142
leaf_count=170 521 424 140 662 84 836 425
internal_value=-2.75514e-05 0.00653144 -0.00847183 0.00418162 0.0115765 -0.0106213 -0.00468281
internal_weight=2630.5 1480.5 1150 1010.1 470.4 733.7 416.3
internal_count=3262 1691 1571 1183 508 1006 565
is_linear=0
shrinkage=0.0152032


Tree=30
num_leaves=8
num_cat=0
split_feature=2 2 2 2 2 2 7
split_gain=598.013 86.3788 23.6277 18.9141 18.3352 10.9302 7.41543
threshold=1.0000000180025095e-35 0.68788980222598073 -0.13552254276044076 1.6593285000070392 0.15332689018548004 -0.74892598439577218 -1.1094368763264786
decision_type=2 2 2 2 2 2 2
left_child=2 4 5 -3 -2 -1 -4
right_child=1 3 6 -5 -6 -7 -8
leaf_value=-0.014051923914353606 -0.00026373537605344589 0.010024183361395956 -0.010636490860932428 0.021039204088493888 0.0045451312329540137 -0.0093013962589737383 -0.0037274296559031495
leaf_weight=135.79999899864197 245.99999850988388 535.49999886751175 42.999999582767487 38.699999809265137 717.09999722242355 647.29999494552612 220.19999825954437
leaf_count=166 315 574 72 44 845 900 298
internal_value=6.51786e-05 0.00609962 -0.00880073 0.0107672 0.00331648 -0.0101256 -0.00485747
internal_weight=2583.6 1537.3 1046.3 574.2 963.1 783.1 263.2
internal_count=3214 1778 1436 618 1160 1066 370
is_linear=0
shrinkage=0.0152032


Tree=31
num_leaves=8
num_cat=0
split_feature=2 2 2 2 2 2 20
split_gain=607.133 85.9186 26.1525 25.2082 12.735 11.9519 8.69139
threshold=1.0000000180025095e-35 0.90651190198657983 0.41145049621709201 -0.20768480612319193 -0.7637514198591594 1.6134827790353632 -1.2457162027248678
decision_type=2 2 2 2 2 2 2
left_child=3 2 -2 4 -1 -3 -5
right_child=1 5 -4 6 -6 -7 -8
leaf_value=-0.014765241142293294 0.0019074045770724397 0.011335198223789884 0.0064351133013278976 -0.014500533055777923 -0.0095855037322588321 0.01945178322824281 -0.0053081373664567028
leaf_weight=140.09999889135361 624.39999681711197 330.19999933242798 559.1999985575676 25.399999737739563 511.59999567270279 48.199999868869781 383.19999700784683
leaf_count=174 772 352 619 42 709 52 527
internal_value=3.61034e-05 0.00606336 0.00404684 -0.00884274 -0.0106995 0.01237 -0.00588039
internal_weight=2622.3 1562 1183.6 1060.3 651.7 378.4 408.6
internal_count=3247 1795 1391 1452 883 404 569
is_linear=0
shrinkage=0.0152032


Tree=32
num_leaves=8
num_cat=0
split_feature=2 2 2 2 2 2 7
split_gain=560.834 76.144 40.4071 23.8795 10.8372 10.5363 7.22366
threshold=0.043625342899480356 0.97811295109805918 -0.16132919001241147 0.39219860425023995 1.6134827790353632 -0.83656644086821719 -1.1094368763264786
decision_type=2 2 2 2 2 2 2
left_child=2 3 5 -2 -3 -1 -4
right_child=1 4 6 -5 -6 -7 -8
leaf_value=-0.014381494017940505 0.0021286636150063877 0.011771260501290558 -0.0096813829839285642 0.0064880438152208142 0.01971319142285408 -0.0093076870391471042 -0.0034298664819851919
leaf_weight=112.59999912977219 530.89999729394913 265.19999933242798 48.399999558925629 641.99999845027924 46.899999856948853 602.29999494552612 369.49999737739563
leaf_count=136 652 287 82 709 51 840 487
internal_value=0.000145195 0.0062914 -0.00791164 0.00451511 0.0129658 -0.0101073 -0.00415471
internal_weight=2617.8 1485 1132.8 1172.9 312.1 714.9 417.9
internal_count=3244 1699 1545 1361 338 976 569
is_linear=0
shrinkage=0.0152032


Tree=33
num_leaves=8
num_cat=0
split_feature=2 2 2 2 2 1 2
split_gain=557.003 75.1114 26.2285 26.1471 13.3192 11.1195 9.56165
threshold=1.0000000180025095e-35 0.98910692627024099 0.37361281916492511 -0.21124591012814847 -1.6218867437219557 0.069089342143062324 1.7468007605281359
decision_type=2 2 2 2 2 2 2
left_child=3 2 -2 4 -1 -5 -3
right_child=1 6 -4 5 -6 -7 -8
leaf_value=-0.028261372809884704 0.0018183415621878917 0.011849626434560707 0.0062371063153497282 -0.0092053765665877692 -0.010010550614909111 -0.0037730521740419851 0.021410069691935173
leaf_weight=9.3999999761581403 560.89999711513519 277.49999928474426 696.19999825954437 124.19999891519547 636.79999476671219 292.89999759197235 26.599999904632568
leaf_count=10 699 301 765 212 870 376 29
internal_value=0.000126048 0.00590634 0.00426579 -0.0083606 -0.0102766 -0.00539145 0.012687
internal_weight=2624.5 1561.2 1257.1 1063.3 646.2 417.1 304.1
internal_count=3262 1794 1464 1468 880 588 330
is_linear=0
shrinkage=0.0152032


Tree=34
num_leaves=8
num_cat=0
split_feature=2 2 2 2 2 2 30
split_gain=523.577 65.9728 47.8347 14.9287 13.2159 12.7229 6.59643
threshold=0.080149423875536377 0.95648611582811127 -0.12296841510745248 0.4685100324586477 -1.3517964179251212 1.6593285000070392 -0.013183943773579397
decision_type=2 2 2 2 2 2 2
left_child=2 3 4 -2 -1 -3 -4
right_child=1 5 6 -5 -6 -7 -8
leaf_value=-0.023344596874003375 0.00289722008764655 0.011202053990007975 -0.0046394509994501232 0.0065292475585174339 -0.0090611625846732467 0.02037405589266332 -0.00075700809293946568
leaf_weight=15.299999892711638 551.89999741315842 311.49999922513962 232.09999817609787 498.09999889135361 774.89999371767044 39.49999988079071 179.69999891519547
leaf_count=18 670 337 319 542 1063 43 230
internal_value=0.00021266 0.0065285 -0.00714853 0.00462051 -0.00933815 0.0122352 -0.00294606
internal_weight=2603 1401 1202 1050 790.2 351 411.8
internal_count=3222 1592 1630 1212 1081 380 549
is_linear=0
shrinkage=0.0152032


Tree=35
num_leaves=8
num_cat=0
split_feature=2 2 2 2 0 2 2
split_gain=501.553 77.5392 20.0326 19.5107 19.5752 15.6652 10.4736
threshold=-0.015483622378676449 0.8008256677638822 0.15966901454287744 -0.55693112797828825 0.31355932203389836 1.4460037318519021 -1.6218867437219557
decision_type=2 2 2 2 2 2 2
left_child=3 2 -2 6 -5 -3 -1
right_child=1 5 -4 4 -6 -7 -8
leaf_value=-0.028508479285725755 -0.00034282503570007191 0.009624722677387329 0.0044059446046525721 -0.010429658249442501 -0.0052934158778038627 0.017953128176905784 -0.011234767138358644
leaf_weight=8.3999999761581403 272.39999848604202 382.1999990940094 832.29999721050262 258.99999755620956 509.29999577999115 60.599999785423279 262.89999812841415
leaf_count=9 349 412 960 436 658 67 329
internal_value=-9.6802e-05 0.00538969 0.00323467 -0.00826407 -0.00702532 0.0107653 -0.0117708
internal_weight=2587.1 1547.5 1104.7 1039.6 768.3 442.8 271.3
internal_count=3220 1788 1309 1432 1094 479 338
is_linear=0
shrinkage=0.0152032


Tree=36
num_leaves=8
num_cat=0
split_feature=2 2 2 2 2 0 0
split_gain=510.914 69.8472 24.2856 14.475 13.3995 12.2838 8.01515
threshold=0.014035763928251401 0.79461006564466674 -0.24832567514483564 0.37361281916492511 1.332514250528712 0.31355932203389836 0.21186440677966104
decision_type=2 2 2 2 2 2 2
left_child=2 3 6 -2 -3 -4 -1
right_child=1 4 5 -5 -6 -7 -8
leaf_value=-0.016215069999020275 0.0017626210978448631 0.0092741176914446898 -0.0085894420720859996 0.0053713819833083485 0.015554446236346216 -0.0036462413005745099 -0.0094319029598356665
leaf_weight=43.499999582767487 527.39999717473984 357.79999929666519 180.99999821186066 501.59999859333038 100.89999961853027 325.6999973654747 568.79999548196793
leaf_count=73 653 384 302 559 112 413 749
internal_value=-0.000115295 0.00572201 -0.00787623 0.00352209 0.0106563 -0.00541268 -0.00991435
internal_weight=2606.7 1487.7 1119 1029 458.7 506.7 612.3
internal_count=3245 1708 1537 1212 496 715 822
is_linear=0
shrinkage=0.0152032


Tree=37
num_leaves=8
num_cat=0
split_feature=2 2 2 2 2 2 7
split_gain=489.444 67.5137 25.9482 15.5195 13.1278 13.0648 4.80693
threshold=0.009966261850553302 0.67507573401819154 -0.13552254276044076 1.0961165740523875 0.19648304980991069 -1.3517964179251212 -1.0215904056717451
decision_type=2 2 2 2 2 2 2
left_child=2 4 5 -3 -2 -1 -4
right_child=1 3 6 -5 -6 -7 -8
leaf_value=-0.021491403936929884 0.00030217685576671539 0.007464066010735175 -0.0082565405073485778 0.012450126819855339 0.0041423498328074515 -0.0090307762228784179 -0.0030176641331614001
leaf_weight=19.99999988079071 301.99999833106995 369.79999941587448 49.299999535083771 237.29999929666519 646.99999755620956 763.69999366998672 229.3999981880188
leaf_count=23 383 393 83 258 753 1055 302
internal_value=2.28052e-05 0.00545402 -0.00793199 0.00941355 0.00292065 -0.0093492 -0.00394559
internal_weight=2618.5 1556.1 1062.4 607.1 949 783.7 278.7
internal_count=3250 1787 1463 651 1136 1078 385
is_linear=0
shrinkage=0.0152032


Tree=38
num_leaves=8
num_cat=0
split_feature=2 2 2 2 2 2 20
split_gain=478.035 55.8189 43.7426 14.7553 12.4087 9.53765 3.47155
threshold=0.077284714203164559 0.95648611582811127 -0.082282680097509733 0.39219860425023995 -1.3517964179251212 1.7468007605281359 -1.1881408113358474
decision_type=2 2 2 2 2 2 2
left_child=2 3 4 -2 -1 -3 -4
right_child=1 5 6 -5 -6 -7 -8
leaf_value=-0.021304893497722729 0.0023422880619554626 0.010571635294686042 -0.0090510306209466568 0.005927300296649507 -0.0084337142375974731 0.018587090302832149 -0.0016366576596284607
leaf_weight=17.699999868869781 463.89999771118164 294.09999924898148 15.399999856948851 621.29999852180481 872.09999281167984 38.99999988079071 289.09999799728394
leaf_count=21 569 319 26 690 1210 42 377
internal_value=9.8834e-05 0.00606659 -0.00698794 0.00439509 -0.00869013 0.0115111 -0.00201275
internal_weight=2612.6 1418.3 1194.3 1085.2 889.8 333.1 304.5
internal_count=3254 1620 1634 1259 1231 361 403
is_linear=0
shrinkage=0.0152032


Tree=39
num_leaves=8
num_cat=0
split_feature=2 2 2 2 2 1 1
split_gain=449.869 64.0752 23.1059 14.6052 12.9346 9.70133 7.59447
threshold=1.0000000180025095e-35 0.79461006564466674 -0.13552254276044076 0.2365677982483865 1.3942383490873702 0.031743751795461052 0.044958345303073806
decision_type=2 2 2 2 2 2 2
left_child=2 3 5 -2 -3 -1 -4
right_child=1 4 6 -5 -6 -7 -8
leaf_value=-0.014854342271839049 0.00074709076105193811 0.0089078791138172322 -0.00825057944179103 0.0045841272842093387 0.015681772742500735 -0.0083525854904348794 -0.0023802995973792678
leaf_weight=57.399999439716339 348.09999811649323 403.7999991774559 66.699999392032623 673.09999775886536 77.899999618530273 724.39999437332153 216.89999824762344
leaf_count=96 439 432 113 774 90 963 283
internal_value=7.55596e-05 0.005433 -0.00748157 0.00327651 0.010004 -0.00883038 -0.00376212
internal_weight=2568.3 1502.9 1065.4 1021.2 481.7 781.8 283.6
internal_count=3190 1735 1455 1213 522 1059 396
is_linear=0
shrinkage=0.0152032


Tree=40
num_leaves=8
num_cat=0
split_feature=2 2 2 0 2 2 2
split_gain=454.709 65.4938 21.0263 15.9929 15.0441 14.5867 7.84969
threshold=1.0000000180025095e-35 0.79461006564466674 -0.40650296076805431 0.33050847457627125 0.15332689018548004 1.4460037318519021 -1.3517964179251212
decision_type=2 2 2 2 2 2 2
left_child=2 4 6 -4 -2 -3 -1
right_child=1 5 3 -5 -6 -7 -8
leaf_value=-0.019797447838125218 -0.00020926585151659702 0.0087355141841451833 -0.0090200283705923374 -0.0041137769875754905 0.0041298518306540294 0.015945813635038802 -0.0097719915414672138
leaf_weight=18.99999988079071 236.39999848604202 419.1999990940094 238.99999767541885 430.89999663829803 841.89999675750732 76.899999797344208 391.39999735355377
leaf_count=22 307 450 400 551 979 83 502
internal_value=6.97923e-05 0.00528198 -0.007526 -0.00586468 0.00317826 0.00985386 -0.010237
internal_weight=2654.7 1574.4 1080.3 669.9 1078.3 496.1 410.4
internal_count=3294 1819 1475 951 1286 533 524
is_linear=0
shrinkage=0.0152032


Tree=41
num_leaves=8
num_cat=0
split_feature=2 2 2 36 2 2 7
split_gain=416.619 51.1485 25.7004 16.1258 13.2229 11.9874 3.2399
threshold=0.038826488705179261 0.67507573401819154 -0.092365848326823638 -0.58974071123224137 1.0759408730199309 -0.72821463433545941 -1.1601352082987721
decision_type=2 2 2 2 2 2 2
left_child=2 3 5 -2 -3 -1 -4
right_child=1 4 6 -5 -6 -7 -8
leaf_value=-0.012106312528172177 0.0084270150616758792 0.0069356900313056313 -0.0079452428572729938 0.0021331029272489781 0.011674894173836861 -0.0074420980079732291 -0.0021593402384012337
leaf_weight=154.29999887943268 107.49999916553497 353.09999942779541 24.899999737739563 757.59999704360962 222.09999930858612 737.99999380111694 225.59999853372574
leaf_count=190 187 374 41 842 243 1043 296
internal_value=-0.000186206 0.00525234 -0.00704084 0.00291559 0.00876621 -0.00824903 -0.00273581
internal_weight=2583.1 1440.3 1142.8 865.1 575.2 892.3 250.5
internal_count=3216 1646 1570 1029 617 1233 337
is_linear=0
shrinkage=0.0152032


Tree=42
num_leaves=8
num_cat=0
split_feature=2 2 2 2 0 2 7
split_gain=440.291 59.9433 21.2738 18.9026 11.3857 9.33682 3.65152
threshold=1.0000000180025095e-35 1.0045091119462948 0.39219860425023995 -0.087543476339562928 0.19491525423728817 1.7468007605281359 -1.1601352082987721
decision_type=2 2 2 2 2 2 2
left_child=3 2 -2 4 -1 -3 -5
right_child=1 5 -4 6 -6 -7 -8
leaf_value=-0.012972908144477947 0.0016543439511775215 0.01035725543020756 0.0056255904602759491 -0.0085190484658960019 -0.0076635400317872681 0.018535710350732135 -0.0021200492581230326
leaf_weight=105.69999897480011 592.99999678134918 254.49999928474426 658.19999837875366 23.699999749660492 814.19999361038208 37.099999845027924 161.09999895095825
leaf_count=177 741 276 728 39 1088 41 209
internal_value=-5.53762e-05 0.00519082 0.00374371 -0.00738241 -0.00827397 0.011399 -0.00294253
internal_weight=2647.5 1542.8 1251.2 1104.7 919.9 291.6 184.8
internal_count=3299 1786 1469 1513 1265 317 248
is_linear=0
shrinkage=0.0152032


Tree=43
num_leaves=8
num_cat=0
split_feature=2 2 2 0 0 2 30
split_gain=392.922 42.9516 38.491 13.1375 10.6915 9.6298 2.61922
threshold=0.091561213490986365 0.90106790701168238 -0.087543476339562928 0.41525423728813565 0.22881355932203387 1.7468007605281359 -0.013183943773579397
decision_type=2 2 2 2 2 2 2
left_child=2 3 4 -2 -1 -3 -4
right_child=1 5 6 -5 -6 -7 -8
leaf_value=-0.011850583984817566 0.0087225879936818924 0.0092496692793968046 -0.0033095380479667719 0.0033737716173314002 -0.0071451772955258381 0.01773788288179182 -0.00059606775153929763
leaf_weight=131.59999883174896 120.7999991774559 349.59999918937683 146.89999890327454 880.89999729394913 745.39999407529831 33.99999988079071 187.59999883174896
leaf_count=224 214 374 198 949 978 37 245
internal_value=0.000145769 0.00567634 -0.00617793 0.00401915 -0.00785164 0.0100029 -0.00178873
internal_weight=2596.8 1385.3 1211.5 1001.7 877 383.6 334.5
internal_count=3219 1574 1645 1163 1202 411 443
is_linear=0
shrinkage=0.0152032


Tree=44
num_leaves=8
num_cat=0
split_feature=2 2 2 2 2 17 30
split_gain=388.087 46.7168 35.0956 16.251 10.7631 8.13877 6.66843
threshold=0.083938276119209052 1.0045091119462948 -0.16362432856096387 0.41797825405498162 -0.92494035320070656 0.34228109335859219 -0.043649781604415287
decision_type=2 2 2 2 2 2 2
left_child=2 3 4 -2 -1 -3 -4
right_child=1 5 6 -5 -6 -7 -8
leaf_value=-0.013964952342608961 0.0019559972639875455 0.019531878411790791 -0.0048821578716673631 0.0056440399772903155 -0.0077324396235316645 0.010060503070171445 -0.0013333849677476042
leaf_weight=70.999999523162842 496.9999977350235 22.799999833106995 241.89999788999557 622.49999856948853 669.1999945640564 274.49999922513962 248.39999848604202
leaf_count=84 601 32 334 685 925 294 324
internal_value=5.24154e-06 0.00543019 -0.00624078 0.00400704 -0.00833072 0.010788 -0.00308494
internal_weight=2647.3 1416.8 1230.5 1119.5 740.2 297.3 490.3
internal_count=3279 1612 1667 1286 1009 326 658
is_linear=0
shrinkage=0.0152032


Tree=45
num_leaves=8
num_cat=0
split_feature=2 2 2 2 7 18 2
split_gain=380.644 57.0302 18.6515 16.9027 14.891 10.6453 8.1076
threshold=1.0000000180025095e-35 0.64261410560261256 -0.28956206258560285 1.171367466460641 -0.98424860774053147 -0.86450438908035532 -1.4628767455046006
decision_type=2 2 2 2 2 2 2
left_child=2 5 6 -3 -4 -2 -1
right_child=1 3 4 -5 -6 -7 -8
leaf_value=-0.021233547641217609 0.0090379039818718841 0.0067055290056067607 -0.0099671858028978887 0.012137543176448719 -0.0036830402385871707 0.0019811274870058775 -0.0086771763928830299
leaf_weight=12.199999928474424 52.499999761581421 431.59999930858612 109.49999892711639 191.39999938011169 429.19999653100967 848.99999624490738 527.79999601840973
leaf_count=14 97 461 182 208 586 989 697
internal_value=-5.26252e-05 0.00483746 -0.00696398 0.00837491 -0.00496103 0.00239246 -0.00896148
internal_weight=2603.2 1524.5 1078.7 623 538.7 901.5 540
internal_count=3234 1755 1479 669 768 1086 711
is_linear=0
shrinkage=0.0152032


Tree=46
num_leaves=8
num_cat=0
split_feature=2 2 2 2 19 2 2
split_gain=373.679 44.1133 34.5045 11.4602 11.3899 7.85323 5.88602
threshold=0.10660357139746431 0.96148176222487003 -0.16618958715330662 -1.6218867437219557 -0.41403835893004159 1.9941321796538067 -0.034586038269960095
decision_type=2 2 2 2 2 2 2
left_child=2 4 3 -1 -2 -3 -4
right_child=1 5 6 -5 -6 -7 -8
leaf_value=-0.024882667721166301 0.0072977620650284871 0.0097521091679152322 -0.0045936456353028871 -0.0079678881037158079 0.0032108852890328867 0.019651568006368046 -0.0013274383256000135
leaf_weight=9.3999999761581403 192.79999846220016 305.19999915361404 266.09999781847 712.5999943614006 868.59999799728394 19.799999952316284 245.59999847412109
leaf_count=10 292 332 374 987 922 21 318
internal_value=3.85057e-05 0.00545473 -0.00604784 -0.00818858 0.00395357 0.0103563 -0.00302663
internal_weight=2620.1 1386.4 1233.7 722 1061.4 325 511.7
internal_count=3256 1567 1689 997 1214 353 692
is_linear=0
shrinkage=0.0152032


Tree=47
num_leaves=8
num_cat=0
split_feature=30 30 30 30 20 0 7
split_gain=330.309 38.593 15.5814 12.8892 11.8907 8.28879 7.46285
threshold=-0.0075593074675478992 0.46913198893874702 1.1298626303108967 -0.23205949154754146 -0.54962284305692499 0.26271186440677968 -0.98424860774053147
decision_type=2 2 2 2 2 2 2
left_child=3 4 -3 5 -2 -1 -5
right_child=1 2 -4 6 -6 -7 -8
leaf_value=-0.012589552147925289 0.0057977692213146796 0.0055074318365737956 0.010671702476905277 -0.0088863614664696014 0.00098033670719100286 -0.0074896219589325732 -0.0038571342465724238
leaf_weight=86.799999117851257 145.29999905824661 648.79999846220016 170.79999959468842 84.299999296665192 641.89999675750732 496.09999632835388 360.59999716281891
leaf_count=144 252 704 182 145 731 641 480
internal_value=-3.0516e-05 0.00427474 0.00658405 -0.00676142 0.00186996 -0.00824963 -0.00481083
internal_weight=2634.6 1606.8 819.6 1027.8 787.2 582.9 444.9
internal_count=3279 1869 886 1410 983 785 625
is_linear=0
shrinkage=0.0152032


Tree=48
num_leaves=8
num_cat=0
split_feature=2 2 2 20 20 10 20
split_gain=345.449 40.8374 31.3064 11.3952 10.2722 8.85391 1.81807
threshold=0.088124715651098015 0.95648611582811127 -0.082282680097509733 -0.25945003261282934 -0.57574886470536446 0.56806575232633105 -1.1244346234462705
decision_type=2 2 2 2 2 2 2
left_child=2 3 4 -2 -1 -3 -4
right_child=1 5 6 -5 -6 -7 -8
leaf_value=-0.0098665955884688246 0.0070386733077315274 0.016076127552928473 -0.0059535846821163968 0.0030014679354243576 -0.0062916625088882553 0.0088753354594140639 -0.0013928453922623313
leaf_weight=262.09999758005142 198.59999889135361 46.099999725818634 21.79999977350235 871.79999738931656 642.59999483823776 280.69999939203262 286.49999815225601
leaf_count=432 293 60 36 939 812 296 369
internal_value=3.39987e-05 0.00518751 -0.00590182 0.00375084 -0.00732773 0.00989215 -0.00171643
internal_weight=2610.2 1397.2 1213 1070.4 904.7 326.8 308.3
internal_count=3237 1588 1649 1232 1244 356 405
is_linear=0
shrinkage=0.0152032


Tree=49
num_leaves=8
num_cat=0
split_feature=2 2 2 18 2 14 20
split_gain=333.982 39.9009 35.7581 11.7301 8.90666 5.89184 5.30304
threshold=0.12304265797821566 1.0620200691525195 -0.12296841510745248 -0.64093949482032675 -0.77808257029102545 -0.56644279904128958 -1.1774027302543917
decision_type=2 2 2 2 2 2 2
left_child=2 3 4 -2 -1 -3 -4
right_child=1 5 6 -5 -6 -7 -8
leaf_value=-0.011198488054202113 0.0096949343238317536 0.0097026478822277995 -0.0088254409406705835 0.0037155913123138786 -0.0067786751045017177 0.015359408504941222 -0.0017812855447185583
leaf_weight=125.49999916553497 82.199999451637268 187.99999940395355 26.199999809265137 992.59999716281891 667.69999444484711 55.399999797344208 441.39999717473984
leaf_count=150 146 203 46 1083 931 65 572
internal_value=8.1688e-05 0.00543244 -0.0055124 0.0041732 -0.0074784 0.0109916 -0.0021767
internal_weight=2579 1318.2 1260.8 1074.8 793.2 243.4 467.6
internal_count=3196 1497 1699 1229 1081 268 618
is_linear=0
shrinkage=0.0152032


Tree=50
num_leaves=8
num_cat=0
split_feature=29 29 29 0 29 36 29
split_gain=296.294 38.7065 13.5236 18.5611 11.7018 11.379 3.03972
threshold=-0.017660543135367447 0.57238769184376481 -0.69354008976590531 0.29661016949152547 1.301315645518647 -0.60906681156253673 -1.3262534503867782
decision_type=2 2 2 2 2 2 2
left_child=2 5 6 -4 -3 -2 -1
right_child=1 4 3 -5 -6 -7 -8
leaf_value=-0.017481505188312273 0.0063468311784314231 0.0060958696551488434 -0.0091826175797945688 -0.0042605892550192934 0.011860517532636398 0.0014531608798331579 -0.0099580334952472042
leaf_weight=13.899999916553496 127.2999991774559 578.79999881982803 246.09999769926071 633.49999529123306 94.899999678134918 803.2999963760376 128.19999891519547
leaf_count=16 227 622 415 812 104 912 163
internal_value=5.72172e-05 0.00413273 -0.00634193 -0.00563809 0.0069084 0.00212295 -0.0106963
internal_weight=2626 1604.3 1021.7 879.6 673.7 930.6 142.1
internal_count=3271 1865 1406 1227 726 1139 179
is_linear=0
shrinkage=0.0152032


Tree=51
num_leaves=8
num_cat=0
split_feature=2 2 2 0 2 0 2
split_gain=321.626 49.9384 16.2736 17.8915 12.8956 10.6408 6.75074
threshold=-0.015483622378676449 0.61976364825449504 -0.53644345644760849 0.33050847457627125 1.7468007605281359 0.24576271186440676 -1.3517964179251212
decision_type=2 2 2 2 2 2 2
left_child=2 5 6 -4 -3 -2 -1
right_child=1 4 3 -5 -6 -7 -8
leaf_value=-0.018311701465094341 0.0081727951040770925 0.0071612816081539016 -0.0084477759449917787 -0.003578821820517105 0.017166492263941603 0.0016357480462240992 -0.0090116812863616832
leaf_weight=19.399999856948853 61.799999713897705 595.49999874830246 278.69999724626541 467.39999628067017 31.399999856948853 844.89999634027481 273.69999808073044
leaf_count=23 114 640 465 596 35 978 347
internal_value=-6.13533e-05 0.0043634 -0.00659151 -0.00539804 0.00766296 0.00208168 -0.00962839
internal_weight=2572.8 1533.6 1039.2 746.1 626.9 906.7 293.1
internal_count=3198 1767 1431 1061 675 1092 370
is_linear=0
shrinkage=0.0152032


Tree=52
num_leaves=8
num_cat=0
split_feature=2 2 2 2 2 0 20
split_gain=315.904 33.6797 29.1899 12.9096 11.5546 5.01896 3.84078
threshold=0.088124715651098015 1.1085549765908829 -0.11705381326524804 0.53052013071761517 -0.96367835727514717 0.7881355932203391 -1.2457162027248678
decision_type=2 2 2 2 2 2 2
left_child=2 3 4 -2 -1 -3 -4
right_child=1 5 6 -5 -6 -7 -8
leaf_value=-0.013314976714133123 0.002474122774936036 0.016158815062105841 -0.0093460635764331165 0.0056736726630995157 -0.0066493889381971667 0.0094472859925993739 -0.0018230661403646278
leaf_weight=65.199999570846558 649.0999972820282 29.899999797344208 16.399999856948853 529.89999902248383 788.29999357461929 194.09999948740005 374.19999742507935
leaf_count=77 776 38 28 570 1080 207 497
internal_value=-5.92346e-06 0.00493964 -0.00558342 0.00391244 -0.00715898 0.0103447 -0.0021398
internal_weight=2647.1 1403 1244.1 1179 853.5 224 390.6
internal_count=3273 1591 1682 1346 1157 245 525
is_linear=0
shrinkage=0.0152032


Tree=53
num_leaves=8
num_cat=0
split_feature=2 2 2 2 4 20 2
split_gain=289.796 48.3078 13.2551 13.0127 13.4091 9.18601 4.95221
threshold=-0.018227462954606248 0.51370757026049263 1.171367466460641 -0.55080929502554443 -0.76729033418373704 -0.59704813888402242 -1.4628767455046006
decision_type=2 2 2 2 2 2 2
left_child=3 5 -3 6 -5 -2 -1
right_child=1 2 -4 4 -6 -7 -8
leaf_value=-0.018653379129526006 0.0051659230371061196 0.0056399566822696919 0.0103377366644853 -0.0087338993965333702 -0.0041271411154175999 0.00068851201121217676 -0.008865983594243702
leaf_weight=12.599999904632567 126.09999924898148 571.79999887943268 183.69999939203262 202.99999809265137 522.69999557733536 663.39999723434448 258.69999808073044
leaf_count=15 215 622 201 342 685 743 327
internal_value=-8.90684e-05 0.00403441 0.00678267 -0.00647935 -0.00541625 0.00140408 -0.00932178
internal_weight=2542 1545 755.5 997 725.7 789.5 271.3
internal_count=3150 1781 823 1369 1027 958 342
is_linear=0
shrinkage=0.0152032


Tree=54
num_leaves=8
num_cat=0
split_feature=2 2 2 35 2 2 30
split_gain=289.474 32.7094 27.3259 12.3 8.38803 7.13482 5.66214
threshold=0.088124715651098015 1.0045091119462948 -0.1999126229640075 -0.57412412595369833 -0.96367835727514717 1.9941321796538067 -0.028838582034215347
decision_type=2 2 2 2 2 2 2
left_child=2 3 4 -2 -1 -3 -4
right_child=1 5 6 -5 -6 -7 -8
leaf_value=-0.013055867668548146 0.0086772899073396283 0.0088949202540589793 -0.0042138761164964827 0.0031595752251699131 -0.0070026477675113061 0.018794125585053483 -0.0010525362667076566
leaf_weight=58.399999618530273 102.99999928474426 253.69999933242798 318.19999724626541 1009.2999968528748 579.29999530315399 18.099999964237213 223.09999859333038
leaf_count=69 181 276 445 1100 793 19 289
internal_value=0.000110969 0.00482664 -0.00542475 0.00367082 -0.00755753 0.00955538 -0.00291153
internal_weight=2563.1 1384.1 1179 1112.3 637.7 271.8 541.3
internal_count=3172 1576 1596 1281 862 295 734
is_linear=0
shrinkage=0.0152032


Tree=55
num_leaves=8
num_cat=0
split_feature=2 2 2 0 2 2 8
split_gain=279.807 31.2448 29.9181 10.5841 9.50999 7.43493 2.30779
threshold=0.12796143190387643 -0.092365848326823638 0.95648611582811127 0.31355932203389836 -0.74892598439577218 1.6134827790353632 -1.2873067609845885
decision_type=2 2 2 2 2 2 2
left_child=1 4 3 -2 -1 -4 -3
right_child=2 6 5 -5 -6 -7 -8
leaf_value=-0.010254798859592736 0.009358132812701727 -0.0085350153751845691 0.0081313168615564924 0.003189724891325939 -0.0060231578212295101 0.015254181609733495 -0.0013340274147442437
leaf_weight=148.39999884366989 69.199999511241913 10.599999904632567 274.29999935626984 920.09999686479568 718.89999401569366 38.799999833106995 372.69999760389328
leaf_count=180 122 18 295 1019 1009 43 489
internal_value=-1.34958e-05 -0.00514996 0.00491842 0.00362154 -0.00674761 0.00901508 -0.00153405
internal_weight=2553 1250.6 1302.4 989.3 867.3 313.1 383.3
internal_count=3175 1696 1479 1141 1189 338 507
is_linear=0
shrinkage=0.0152032


Tree=56
num_leaves=8
num_cat=0
split_feature=30 30 8 30 18 30 30
split_gain=251.591 28.6593 13.8115 12.3744 12.2249 8.32357 5.8365
threshold=0.0098757374210456522 0.62603247355065217 -0.54186291749033211 -0.50977224325955584 -0.6277366618139163 1.1870192773724983 -0.081665010953216238
decision_type=2 2 2 2 2 2 2
left_child=2 4 6 -4 -2 -3 -1
right_child=1 5 3 -5 -6 -7 -8
leaf_value=-0.0090881460763814828 0.006678814094098021 0.0054955605522257122 -0.0075292909425114431 -0.0031863436709110519 0.0016114607034884371 0.009753658657816142 -0.0038617213063324618
leaf_weight=288.09999722242355 126.2999991774559 454.89999914169312 217.49999845027924 502.59999614953995 858.39999634027481 138.79999971389771 59.899999439716339
leaf_count=473 225 481 263 624 971 147 101
internal_value=-2.94772e-06 0.00385299 -0.00570143 -0.00449856 0.00226175 0.00649162 -0.00818951
internal_weight=2646.5 1578.4 1068.1 720.1 984.7 593.7 348
internal_count=3285 1824 1461 887 1196 628 574
is_linear=0
shrinkage=0.0152032


Tree=57
num_leaves=8
num_cat=0
split_feature=2 2 2 0 2 2 2
split_gain=264.702 30.7657 29.441 11.0148 10.9266 5.77522 2.79308
threshold=0.1029771751963089 1.0466782253142901 -0.13552254276044076 0.44915254237288144 -1.4628767455046006 1.8475032931053976 -0.056051387868298393
decision_type=2 2 2 2 2 2 2
left_child=2 3 4 -2 -1 -3 -4
right_child=1 5 6 -5 -6 -7 -8
leaf_value=-0.020177783626723716 0.0074345187853488443 0.0084930696823432034 -0.0037386113466033712 0.0028738598319505812 -0.0066614301881776621 0.016036404398422091 -0.0011418554578527529
leaf_weight=14.099999964237211 140.19999897480011 234.69999927282333 142.19999879598618 971.29999738931656 779.79999357461929 26.199999928474426 294.8999981880188
leaf_count=15 238 257 201 1037 1066 28 387
internal_value=-3.8388e-05 0.00455275 -0.00515716 0.00344943 -0.00690191 0.00925188 -0.00198742
internal_weight=2603.4 1372.4 1231 1111.5 793.9 260.9 437.1
internal_count=3229 1560 1669 1275 1081 285 588
is_linear=0
shrinkage=0.0152032


Tree=58
num_leaves=8
num_cat=0
split_feature=2 2 2 1 2 2 20
split_gain=274.869 31.6977 27.6271 12.7472 8.59594 6.08895 3.91072
threshold=0.15332689018548004 -0.13209593626987731 1.0045091119462948 0.18687158862395856 -1.3517964179251212 1.9941321796538067 -1.3012596626091155
decision_type=2 2 2 2 2 2 2
left_child=1 4 3 -2 -1 -4 -3
right_child=2 6 5 -5 -6 -7 -8
leaf_value=-0.017605997497445038 0.0086631262059549321 -0.0098599302627659022 0.0083820404079854704 0.0031415291006389851 -0.0065695057331444434 0.016687363542620161 -0.0017352769453794065
leaf_weight=16.699999868869781 108.59999918937683 14.099999904632567 281.49999922513962 884.39999747276306 779.09999370574951 22.099999964237213 500.49999672174454
leaf_count=20 187 25 304 948 1071 23 657
internal_value=1.04826e-05 -0.00489993 0.00497342 0.00374574 -0.00680153 0.00898772 -0.00195855
internal_weight=2607 1310.4 1296.6 993 795.8 303.6 514.6
internal_count=3235 1773 1462 1135 1091 327 682
is_linear=0
shrinkage=0.0152032


Tree=59
num_leaves=8
num_cat=0
split_feature=2 2 2 0 0 14 20
split_gain=241.125 29.7126 26.8732 10.7662 7.97358 5.28159 4.00267
threshold=0.12796143190387643 -0.12192446527194843 1.0466782253142901 0.31355932203389836 0.19491525423728817 -0.56644279904128958 -1.2457162027248678
decision_type=2 2 2 2 2 2 2
left_child=1 4 3 -2 -1 -4 -3
right_child=2 6 5 -5 -6 -7 -8
leaf_value=-0.011475386794763001 0.0096383024563280687 -0.009328847301746478 0.0080166112131677923 0.0031512810976121303 -0.0060582925750445188 0.013633673598408903 -0.00138848146085542
leaf_weight=68.899999439716339 62.899999618530273 15.19999986886978 192.99999940395355 1003.9999967813492 729.59999400377274 48.699999809265137 439.09999698400497
leaf_count=119 113 26 208 1104 972 56 579
internal_value=7.30019e-06 -0.00475996 0.00457154 0.00353405 -0.00652614 0.00914979 -0.00165489
internal_weight=2561.4 1252.8 1308.6 1066.9 798.5 241.7 454.3
internal_count=3177 1696 1481 1217 1091 264 605
is_linear=0
shrinkage=0.0152032


Tree=60
num_leaves=8
num_cat=0
split_feature=2 2 2 0 20 2 30
split_gain=243.583 28.523 24.5287 9.02683 8.99536 7.62423 3.45582
threshold=0.12304265797821566 1.0045091119462948 -0.13552254276044076 0.31355932203389836 -0.49161391230744705 1.8475032931053976 -0.020350138656200199
decision_type=2 2 2 2 2 2 2
left_child=2 3 4 -2 -1 -3 -4
right_child=1 5 6 -5 -6 -7 -8
leaf_value=-0.0086984599977751806 0.0089776061937946825 0.0079097326696387464 -0.0033784163851764697 0.0030392363634683677 -0.0052477934972482076 0.015810064210442714 -0.000741682374555922
leaf_weight=258.89999771118164 62.899999558925629 253.09999936819077 214.79999822378159 1015.3999968767166 539.79999601840973 31.899999916553497 247.89999860525131
leaf_count=428 111 274 298 1112 664 34 323
internal_value=6.18554e-05 0.00451701 -0.00475293 0.00338595 -0.00636676 0.0087952 -0.00196647
internal_weight=2624.7 1363.3 1261.4 1078.3 798.7 285 462.7
internal_count=3244 1531 1713 1223 1092 308 621
is_linear=0
shrinkage=0.0152032


Tree=61
num_leaves=8
num_cat=0
split_feature=2 2 2 2 5 2 8
split_gain=226.723 29.8209 27.2783 10.0805 9.13925 7.58303 3.23264
threshold=0.12796143190387643 0.90651190198657983 -0.13552254276044076 -1.3517964179251212 -0.66942558201475644 1.6134827790353632 -1.122449635155178
decision_type=2 2 2 2 2 2 2
left_child=2 4 3 -1 -2 -3 -4
right_child=1 5 6 -5 -6 -7 -8
leaf_value=-0.016108824962319291 0.0079284949329274119 0.007247575552011885 -0.0059448074615889067 -0.0061146344760535133 0.0024753173981000463 0.013799425223927185 -0.0014528741467096659
leaf_weight=24.099999845027924 77.59999942779541 305.49999934434891 40.499999642372131 771.79999351501465 849.29999721050262 47.299999833106995 440.79999703168869
leaf_count=28 136 328 69 1061 936 52 573
internal_value=-0.000157991 0.00436462 -0.00468971 -0.00641768 0.00293222 0.00812694 -0.00183156
internal_weight=2556.9 1279.7 1277.2 795.9 926.9 352.8 481.3
internal_count=3183 1452 1731 1089 1072 380 642
is_linear=0
shrinkage=0.0152032


Tree=62
num_leaves=8
num_cat=0
split_feature=29 29 29 22 18 29 29
split_gain=212.578 24.7998 11.6776 15.4766 9.52859 8.21525 4.38069
threshold=0.028038385204487804 0.50356314367394372 -0.49209790045887858 -0.8044126064000402 -0.61810606532276779 1.0457031959226888 -1.3262534503867782
decision_type=2 2 2 2 2 2 2
left_child=2 4 6 -4 -2 -3 -1
right_child=1 5 3 -5 -6 -7 -8
leaf_value=-0.016958826484126419 0.0062014074291518277 0.0046952385826983896 -0.0075232462530423067 -0.002849371069755355 0.0011141609442212252 0.008152922744915473 -0.0073415208812867578
leaf_weight=11.499999940395353 98.299999356269836 550.29999881982803 223.79999774694443 612.09999543428421 636.39999711513519 223.89999938011169 255.09999811649323
leaf_count=13 175 595 372 794 726 241 322
internal_value=8.87995e-05 0.00379673 -0.00498564 -0.00410114 0.00179527 0.00569564 -0.00775764
internal_weight=2611.4 1508.9 1102.5 835.9 734.7 774.2 266.6
internal_count=3238 1737 1501 1166 901 836 335
is_linear=0
shrinkage=0.0152032


Tree=63
num_leaves=8
num_cat=0
split_feature=2 2 2 20 19 2 2
split_gain=219.186 26.0742 21.3047 11.0214 10.3681 7.58203 7.23582
threshold=0.088124715651098015 0.8008256677638822 -0.39932683266501545 -0.58147182308816592 -0.44745836966793179 -1.4628767455046006 1.8475032931053976
decision_type=2 2 2 2 2 2 2
left_child=2 4 5 -4 -2 -1 -3
right_child=1 6 3 -5 -6 -7 -8
leaf_value=-0.018208674632889849 0.0057576181305500273 0.0065810284917244702 -0.005741807630303874 -0.0019946801810030073 0.0017856036570836394 -0.0071479388308122024 0.014528703800913829
leaf_weight=14.899999916553496 192.79999852180481 430.19999903440475 278.7999974489212 520.79999601840973 718.49999821186066 401.19999706745148 28.299999892711639
leaf_count=17 301 460 471 653 767 522 31
internal_value=-5.53179e-05 0.00411473 -0.00475423 -0.00330163 0.00262632 -0.00754482 0.00707232
internal_weight=2585.5 1369.8 1215.7 799.6 911.3 416.1 458.5
internal_count=3222 1559 1663 1124 1068 539 491
is_linear=0
shrinkage=0.0152032


Tree=64
num_leaves=8
num_cat=0
split_feature=2 2 2 2 0 35 30
split_gain=223.644 26.4415 25.0852 10.8237 10.7498 7.78124 1.74149
threshold=0.15332689018548004 -0.061048654360523494 0.98910692627024099 -1.6218867437219557 0.43220338983050849 0.76831297424737133 -0.020350138656200199
decision_type=2 2 2 2 2 2 2
left_child=1 3 4 -1 -2 -4 -3
right_child=2 6 5 -5 -6 -7 -8
leaf_value=-0.021779936962047903 0.0077587812487041434 -0.0027392674672681331 0.013965737457306972 -0.0056224703141498486 0.0027887128648344749 0.0073139461833025146 -0.00036960737642799515
leaf_weight=9.6999999880790693 113.99999916553497 97.199999272823334 48.599999725818634 912.09999251365662 861.69999760389328 253.29999941587448 274.79999852180481
leaf_count=10 197 134 61 1265 922 268 350
internal_value=4.32486e-05 -0.00441209 0.00455534 -0.00579286 0.00336976 0.00838587 -0.000989684
internal_weight=2571.4 1293.8 1277.6 921.8 975.7 301.9 372
internal_count=3207 1759 1448 1275 1119 329 484
is_linear=0
shrinkage=0.0152032


Tree=65
num_leaves=8
num_cat=0
split_feature=2 2 2 7 22 5 2
split_gain=218.476 31.8289 18.6991 10.6964 10.1348 9.22535 5.07268
threshold=0.053273676422908305 0.68788980222598073 -0.32331343559971204 -0.49060544892212371 -0.7868776001561002 -0.029613163597699044 -1.3517964179251212
decision_type=2 2 2 2 2 2 2
left_child=2 3 6 -2 -4 -3 -1
right_child=1 5 4 -5 -6 -7 -8
leaf_value=-0.014778831602268732 0.0062058926973851819 0.016060005362599439 -0.0061519666333443787 0.0013939548657009066 -0.0020246890819968656 0.0062833086260466759 -0.0067591288441586845
leaf_weight=18.99999988079071 124.49999922513962 23.299999833106995 193.09999811649323 752.99999713897705 479.2999963760376 551.59999895095825 499.89999622106552
leaf_count=22 213 37 323 827 621 578 662
internal_value=-5.87715e-05 0.00389932 -0.00488464 0.00207706 -0.00321046 0.00668013 -0.00705343
internal_weight=2643.7 1452.4 1191.3 877.5 672.4 574.9 518.9
internal_count=3283 1655 1628 1040 944 615 684
is_linear=0
shrinkage=0.0152032


Tree=66
num_leaves=8
num_cat=0
split_feature=2 2 2 19 2 2 0
split_gain=219.589 27.0604 20.8262 11.0321 10.2296 7.38438 5.92882
threshold=0.077284714203164559 0.60420698500026393 -0.19640905631480121 -0.44745836966793179 1.3600278948535289 -1.3517964179251212 0.14406779661016947
decision_type=2 2 2 2 2 2 2
left_child=2 3 5 -2 -3 -1 -4
right_child=1 4 6 -5 -6 -7 -8
leaf_value=-0.015394794800903756 0.0051438692372652939 0.0054354397803680959 -0.0068858594556350855 0.00093884998487101196 0.010832796483598982 -0.0062307153528547397 -0.0018368237011793164
leaf_weight=20.99999988079071 193.49999856948853 578.69999885559082 61.299999415874481 567.29999834299088 94.599999666213989 685.99999463558197 441.09999668598175
leaf_count=24 296 620 103 612 105 931 587
internal_value=-4.96804e-05 0.00397408 -0.00482132 0.00200879 0.00619428 -0.00650339 -0.00245355
internal_weight=2643.5 1434.1 1209.4 760.8 673.3 707 502.4
internal_count=3278 1633 1645 908 725 955 690
is_linear=0
shrinkage=0.0152032


Tree=67
num_leaves=8
num_cat=0
split_feature=2 2 2 19 36 23 7
split_gain=202.975 24.4965 20.3058 9.82541 7.08131 7.01509 3.19007
threshold=0.15332689018548004 -0.13552254276044076 0.96148176222487003 -0.44745836966793179 0.56962881040720548 0.17796610169491528 -1.3603423392240852
decision_type=2 2 2 2 2 2 2
left_child=1 5 3 -2 -4 -1 -3
right_child=2 6 4 -5 -6 -7 -8
leaf_value=-0.011189574703014236 0.0064337799662714671 -0.0094504412319628833 0.013883304651613452 0.0024383773081540256 0.0067731048803134283 -0.0055807899603298539 -0.0014770388849771449
leaf_weight=55.599999487400055 173.49999862909317 11.899999856948851 36.799999833106995 794.3999981880188 276.49999934434891 731.19999408721924 486.29999661445618
leaf_count=94 262 19 48 843 293 980 648
internal_value=-3.75044e-05 -0.00430706 0.00424445 0.00315492 0.00760934 -0.00597757 -0.00166817
internal_weight=2566.2 1285 1281.2 967.9 313.3 786.8 498.2
internal_count=3187 1741 1446 1105 341 1074 667
is_linear=0
shrinkage=0.0152032


Tree=68
num_leaves=8
num_cat=0
split_feature=2 2 2 7 0 11 2
split_gain=191.581 25.4833 19.834 9.56651 8.89253 4.97387 0.836201
threshold=0.15720029505192581 -0.073423315542405984 1.1085549765908829 -0.26883006862298892 0.17796610169491528 0.4705423008327394 -0.018227462954606248
decision_type=2 2 2 2 2 2 2
left_child=1 4 3 -2 -1 -4 -3
right_child=2 6 5 -5 -6 -7 -8
leaf_value=-0.010413122636647289 0.0066528262749001484 -0.0019487178760406413 0.01325843668421932 0.0027359896143973415 -0.0049297532257439533 0.0073162066108042184 -0.00035986477481161639
leaf_weight=74.39999932050705 172.6999990940094 103.79999929666519 39.899999737739563 876.69999784231186 860.69999313354492 181.79999947547913 294.79999840259552
leaf_count=126 260 136 49 931 1155 195 374
internal_value=3.07915e-05 -0.00399427 0.00425434 0.00338091 -0.00536639 0.00838717 -0.000774467
internal_weight=2604.8 1333.7 1271.1 1049.4 935.1 221.7 398.6
internal_count=3226 1791 1435 1191 1281 244 510
is_linear=0
shrinkage=0.0152032


Tree=69
num_leaves=8
num_cat=0
split_feature=2 2 2 4 2 1 11
split_gain=188.09 24.003 18.8161 10.9554 9.80219 9.66704 0.565155
threshold=0.15332689018548004 -0.061048654360523494 0.68788980222598073 -0.606037315033507 -0.7637514198591594 0.38279230106291301 -1.0570926497691531
decision_type=2 2 2 2 2 2 2
left_child=1 4 3 -2 -1 -4 -3
right_child=2 6 5 -5 -6 -7 -8
leaf_value=-0.0090619307571578721 0.007752376925674688 0.0022448525924643925 0.013966636901292358 0.0018111947453121431 -0.0047191733087608781 0.0056683507411040904 -0.00088581634706585207
leaf_weight=140.89999890327454 80.699999451637268 13.799999892711638 34.699999690055847 649.899997651577 823.99999326467514 514.79999899864197 349.09999799728394
leaf_count=173 143 24 56 720 1148 540 445
internal_value=-9.09737e-05 -0.00410003 0.00406721 0.0024679 -0.00535368 0.00619299 -0.000765836
internal_weight=2607.9 1327.8 1280.1 730.6 964.9 549.5 362.9
internal_count=3249 1790 1459 863 1321 596 469
is_linear=0
shrinkage=0.0152032


Tree=70
num_leaves=8
num_cat=0
split_feature=2 2 2 20 15 0 30
split_gain=188.383 22.7511 21.1589 9.50098 8.63949 7.37066 1.2293
threshold=0.13111552457959449 0.7652128695447179 -0.087543476339562928 -0.19015520789120308 -0.20599519907937971 0.21186440677966104 -0.020350138656200199
decision_type=2 2 2 2 2 2 2
left_child=2 3 5 -2 -3 -1 -4
right_child=1 4 6 -5 -6 -7 -8
leaf_value=-0.0091800396593383383 0.005497970741592785 0.014861044287562124 -0.0023113701310602196 0.0015767693557764448 0.006049851833438675 -0.004947366043713897 -0.00044627305876796463
leaf_weight=108.79999899864197 183.89999890327454 27.199999749660492 125.69999903440475 641.59999793767929 492.99999904632568 767.9999937415123 234.99999868869781
leaf_count=184 278 43 170 694 517 1029 303
internal_value=8.339e-05 0.00402062 -0.00419781 0.00245072 0.00651122 -0.00547297 -0.00109717
internal_weight=2583.2 1345.7 1237.5 825.5 520.2 876.8 360.7
internal_count=3218 1532 1686 972 560 1213 473
is_linear=0
shrinkage=0.0152032


Tree=71
num_leaves=8
num_cat=0
split_feature=2 2 2 15 19 1 20
split_gain=185.649 24.0846 14.7534 10.2218 9.317 6.98855 4.33799
threshold=0.088124715651098015 0.68139086720770259 -0.16132919001241147 -0.20157966242031441 -0.51015233480559863 0.052427463372594053 -1.2457162027248678
decision_type=2 2 2 2 2 2 2
left_child=2 4 5 -3 -2 -1 -4
right_child=1 3 6 -5 -6 -7 -8
leaf_value=-0.0095852078956299765 0.0050567898360253001 0.013649358719532228 -0.0089840944207272445 0.0054931095872477187 0.0011200007027491949 -0.0051111858005415791 -0.0018909277039121282
leaf_weight=92.099999129772186 178.99999862909317 37.899999678134918 20.899999797344208 580.29999893903732 622.79999798536301 664.49999487400055 442.99999678134918
leaf_count=155 276 58 35 607 679 877 594
internal_value=1.02153e-06 0.0037385 -0.00434711 0.00599369 0.0019993 -0.00565625 -0.00221122
internal_weight=2640.5 1420 1220.5 618.2 801.8 756.6 463.9
internal_count=3281 1620 1661 665 955 1032 629
is_linear=0
shrinkage=0.0152032


Tree=72
num_leaves=8
num_cat=0
split_feature=29 29 29 20 21 14 29
split_gain=160.201 21.4071 11.9242 10.5469 7.67488 7.58594 4.30318
threshold=0.030672267992477454 0.52686202055761067 -0.70413920063399005 -0.46079235355068721 -0.19097099848543478 0.26606135891755955 -1.4799851715681567
decision_type=2 2 2 2 2 2 2
left_child=2 4 6 -4 -2 -3 -1
right_child=1 5 3 -5 -6 -7 -8
leaf_value=-0.017941360452594361 0.003049781618015964 0.0046453759037928229 -0.0057046553355669972 -0.002418324751830723 -5.5657647816114182e-06 0.009592477282562413 -0.0077306665713577551
leaf_weight=10.39999997615814 389.09999704360962 677.09999871253967 367.39999669790268 586.89999568462372 370.99999904632568 80.299999594688416 123.99999916553497
leaf_count=11 537 713 610 718 395 105 152
internal_value=0.000168389 0.00336119 -0.00428163 -0.0036839 0.00155804 0.00517032 -0.00852329
internal_weight=2606.2 1517.5 1088.7 954.3 760.1 757.4 134.4
internal_count=3241 1750 1491 1328 932 818 163
is_linear=0
shrinkage=0.0152032


Tree=73
num_leaves=8
num_cat=0
split_feature=2 2 2 19 15 20 2
split_gain=166.269 20.6314 19.2924 9.39183 8.10858 6.25136 5.29318
threshold=0.12304265797821566 -0.24832567514483564 0.80931084441479229 -0.44745836966793179 -0.20157966242031441 -1.2457162027248678 -1.2688118606210048
decision_type=2 2 2 2 2 2 2
left_child=1 6 3 -2 -4 -3 -1
right_child=2 5 4 -5 -6 -7 -8
leaf_value=-0.012742594832343272 0.0055810120508521409 -0.0085548247186745304 0.014541531007418887 0.00168456241951018 0.0058208884086567748 -0.0017315551242701123 -0.0056883850868809267
leaf_weight=25.799999833106995 179.49999850988388 32.699999690055847 26.199999749660492 705.49999809265137 431.59999907016754 621.5999955534935 561.99999564886093
leaf_count=30 273 55 40 756 455 830 753
internal_value=7.7948e-05 -0.00393102 0.00378653 0.00247524 0.00632071 -0.00207308 -0.00599859
internal_weight=2584.9 1242.1 1342.8 885 457.8 654.3 587.8
internal_count=3192 1668 1524 1029 495 885 783
is_linear=0
shrinkage=0.0152032


Tree=74
num_leaves=8
num_cat=0
split_feature=2 2 2 0 0 18 20
split_gain=162.745 22.8946 18.4278 8.70725 8.06319 5.65182 4.39194
threshold=0.15332689018548004 -0.16132919001241147 1.0759408730199309 0.44915254237288144 0.19491525423728817 0.70579867398766161 -1.1881408113358474
decision_type=2 2 2 2 2 2 2
left_child=1 4 3 -2 -1 -4 -3
right_child=2 6 5 -5 -6 -7 -8
leaf_value=-0.010933355345008179 0.0067085957313743538 -0.0066362333028655591 0.013841294340035996 0.0023905889589225125 -0.0051410222289261778 0.0067047230517829331 -0.0012254008592565142
leaf_weight=60.59999942779541 121.99999910593033 37.099999666213989 29.499999821186066 944.59999775886536 682.99999451637268 202.5999995470047 538.79999631643295
leaf_count=102 210 63 37 1001 917 214 708
internal_value=-9.04049e-05 -0.00385096 0.00373012 0.00288481 -0.00561352 0.00761324 -0.00157456
internal_weight=2618.2 1319.5 1298.7 1066.6 743.6 232.1 575.9
internal_count=3252 1790 1462 1211 1019 251 771
is_linear=0
shrinkage=0.0152032


Tree=75
num_leaves=8
num_cat=0
split_feature=2 2 2 4 2 11 11
split_gain=159.366 22.7369 17.915 8.96435 8.93808 5.23275 1.13822
threshold=0.15332689018548004 -0.056051387868298393 1.0759408730199309 -0.52547614260656528 -0.54386857153846968 0.53311158106289958 -1.0670138323932445
decision_type=2 2 2 2 2 2 2
left_child=1 4 3 -2 -1 -4 -3
right_child=2 6 5 -5 -6 -7 -8
leaf_value=-0.0071985160065342396 0.0074478189908751503 0.0040921299764008047 0.012301103501836726 0.0025171788309369366 -0.0039936366249463803 0.0065204966620260501 -0.00068503131814346503
leaf_weight=293.99999785423279 93.999999284744263 11.899999916553496 44.79999977350235 922.89999753236771 640.0999943614006 192.69999951124191 353.49999785423279
leaf_count=373 163 21 55 998 914 205 452
internal_value=-1.34507e-05 -0.00374489 0.00385188 0.00297329 -0.00500271 0.00761232 -0.00052853
internal_weight=2553.9 1299.5 1254.4 1016.9 934.1 237.5 365.4
internal_count=3181 1760 1421 1161 1287 260 473
is_linear=0
shrinkage=0.0152032


Tree=76
num_leaves=8
num_cat=0
split_feature=2 2 2 0 0 17 30
split_gain=155.612 21.2646 17.9971 9.54191 7.302 4.25243 1.78039
threshold=0.15332689018548004 -0.12296841510745248 1.0961165740523875 0.43220338983050849 0.16101694915254236 0.72101506137461635 -0.0075593074675478992
decision_type=2 2 2 2 2 2 2
left_child=1 4 3 -2 -1 -4 -3
right_child=2 6 5 -5 -6 -7 -8
leaf_value=-0.011047148526202321 0.0071540081574175242 -0.0022531327519924572 0.012212410240973555 0.0023819589347202942 -0.0049313953393563068 0.0066455893613596145 -0.0004047327378959294
leaf_weight=48.0999995470047 107.79999929666519 225.79999822378159 38.499999761581421 961.6999973654747 755.29999369382858 185.4999994635582 259.29999852180481
leaf_count=81 190 307 48 1028 1022 199 340
internal_value=-4.04923e-05 -0.00378018 0.00368448 0.00286327 -0.00529797 0.00760389 -0.00126581
internal_weight=2582 1288.5 1293.5 1069.5 803.4 224 485.1
internal_count=3215 1750 1465 1218 1103 247 647
is_linear=0
shrinkage=0.0152032


Tree=77
num_leaves=8
num_cat=0
split_feature=2 2 2 0 2 0 2
split_gain=146.953 27.5367 11.9229 10.8129 8.10359 6.40852 5.75766
threshold=-0.034586038269960095 0.58321642327838175 -0.71778233045876949 0.27966101694915263 1.332514250528712 0.26271186440677968 -1.6218867437219557
decision_type=2 2 2 2 2 2 2
left_child=2 5 6 -4 -3 -2 -1
right_child=1 4 3 -5 -6 -7 -8
leaf_value=-0.018849880473789393 0.005088567270423147 0.0045049769686938386 -0.0067186472064393278 -0.0028031151445592237 0.0091816767328411954 0.00073368293677868049 -0.0075018234797023398
leaf_weight=11.099999964237211 86.299999475479126 554.69999903440475 221.29999792575836 621.39999496936798 101.49999958276749 826.99999618530273 159.39999890327454
leaf_count=12 155 593 373 807 113 963 193
internal_value=-6.06455e-05 0.00285299 -0.00457435 -0.00383177 0.00522888 0.00114556 -0.00824259
internal_weight=2582.7 1569.5 1013.2 842.7 656.2 913.3 170.5
internal_count=3209 1824 1385 1180 706 1118 205
is_linear=0
shrinkage=0.0152032


Tree=78
num_leaves=8
num_cat=0
split_feature=2 2 2 19 13 7 2
split_gain=140.682 19.8126 15.7156 8.10142 7.83239 7.40858 4.52459
threshold=0.15332689018548004 -0.27854444771655185 0.8008256677638822 -0.41403835893004159 0.020774577114683102 -1.1094368763264786 -0.92494035320070656
decision_type=2 2 2 2 2 2 2
left_child=1 6 3 -2 -4 -3 -1
right_child=2 5 4 -5 -6 -7 -8
leaf_value=-0.0093679038008911298 0.0052639771249125434 -0.0063684933977247726 0.011423077265085639 0.0015496436126711231 0.0051424661687539302 -0.0014363327553567756 -0.005221632992709853
leaf_weight=70.199999511241913 171.99999874830246 78.599999308586121 51.999999701976776 646.19999825954437 398.2999991774559 679.19999492168427 468.8999964594841
leaf_count=83 258 133 68 693 419 903 635
internal_value=-1.27878e-05 -0.00353395 0.00358695 0.00233087 0.00586849 -0.00194835 -0.00576217
internal_weight=2565.4 1296.9 1268.5 818.2 450.3 757.8 539.1
internal_count=3192 1754 1438 951 487 1036 718
is_linear=0
shrinkage=0.0152032


Tree=79
num_leaves=8
num_cat=0
split_feature=2 2 2 18 8 17 17
split_gain=148.539 21.556 16.8992 8.24198 7.97755 5.78748 1.19445
threshold=0.17783442015191606 -0.059509855461806142 1.0045091119462948 -0.61362921257768532 -1.122449635155178 0.34228109335859219 -0.95858327404739618
decision_type=2 2 2 2 2 2 2
left_child=1 4 3 -2 -1 -4 -3
right_child=2 6 5 -5 -6 -7 -8
leaf_value=-0.0093702628527684365 0.0078337971857323132 0.0017296546966914126 0.013672492188584908 0.0023573497729187879 -0.0043443408931952239 0.0062292487289089477 -0.00086502761793508286
leaf_weight=79.699999213218689 68.299999594688416 46.29999965429306 26.699999809265137 920.19999742507935 886.39999276399612 261.89999932050705 354.49999779462814
leaf_count=127 123 81 37 997 1205 279 440
internal_value=-4.62984e-05 -0.00352955 0.00368161 0.00273608 -0.00475931 0.00691903 -0.00056445
internal_weight=2644 1366.9 1277.1 988.5 966.1 288.6 400.8
internal_count=3289 1853 1436 1120 1332 316 521
is_linear=0
shrinkage=0.0152032


Tree=80
num_leaves=8
num_cat=0
split_feature=29 29 29 20 29 0 30
split_gain=130.496 19.7552 8.82556 8.12502 7.27614 6.42455 3.98558
threshold=-0.013705419997422148 0.44659314068669675 1.5209374493920269 -0.47783508455139884 -0.49821789208076978 0.17796610169491528 -0.21843424144440732
decision_type=2 2 2 2 2 2 2
left_child=3 5 -3 6 -5 -2 -1
right_child=1 2 -4 4 -6 -7 -8
leaf_value=-0.0074853460054711439 0.006772034904876636 0.0040173422310643197 0.01132326004375207 -0.0052764598655193895 -0.0019527582533578336 0.00065108206668887348 -0.004310255002440381
leaf_weight=183.69999825954437 41.999999761581421 839.89999836683273 40.099999845027924 231.5999983549118 445.8999964594841 709.49999636411667 183.39999824762344
leaf_count=293 76 902 44 281 552 857 307
internal_value=0.000118059 0.00280454 0.00435064 -0.00407748 -0.00308945 0.00099362 -0.00590002
internal_weight=2676.1 1631.5 880 1044.6 677.5 751.5 367.1
internal_count=3312 1879 946 1433 833 933 600
is_linear=0
shrinkage=0.0152032


Tree=81
num_leaves=8
num_cat=0
split_feature=2 2 2 0 19 2 30
split_gain=134.527 19.5216 13.1543 9.84555 8.63552 3.56265 1.0037
threshold=0.19648304980991069 -0.090438108834073883 1.156475654132511 0.31355932203389836 -0.67438574297847365 1.9941321796538067 -0.013183943773579397
decision_type=2 2 2 2 2 2 2
left_child=1 4 3 -2 -1 -4 -3
right_child=2 6 5 -5 -6 -7 -8
leaf_value=-0.0067647083033257624 0.0088443803810539408 -0.0018036920588614047 0.0065856016687889868 0.0025529394516616158 -0.0035993825034083197 0.013438049358449422 -0.0003129261024687654
leaf_weight=300.19999706745148 60.999999701976776 158.79999881982803 161.89999938011169 1015.0999970436096 594.99999535083771 19.799999952316284 306.79999822378159
leaf_count=483 112 214 179 1109 751 21 388
internal_value=-3.48332e-05 -0.00334791 0.00354929 0.00290989 -0.00466123 0.00733418 -0.0008221
internal_weight=2618.6 1360.8 1257.8 1076.1 895.2 181.7 465.6
internal_count=3257 1836 1421 1221 1234 200 602
is_linear=0
shrinkage=0.0152032


Tree=82
num_leaves=8
num_cat=0
split_feature=2 2 2 2 20 20 2
split_gain=130.47 25.2585 10.606 9.28954 12.5924 6.2236 2.84929
threshold=-0.015483622378676449 0.51370757026049263 1.332514250528712 -0.71778233045876949 -0.5894416867255069 -0.50618113305289902 -1.4628767455046006
decision_type=2 2 2 2 2 2 2
left_child=3 5 -3 6 -5 -2 -1
right_child=1 2 -4 4 -6 -7 -8
leaf_value=-0.015107202777096873 0.0036968380864530873 0.0040014791251791106 0.0091950203083494397 -0.0061541734844191487 -0.0022867559135299784 0.00024313616468295802 -0.0070303592750306648
leaf_weight=10.899999916553496 147.29999905824661 646.99999868869781 105.89999955892563 296.79999721050262 566.49999558925629 666.79999697208405 152.69999891519547
leaf_count=13 250 701 118 496 717 748 188
internal_value=-3.48879e-05 0.0027252 0.00473243 -0.00424698 -0.00361675 0.00086845 -0.00757055
internal_weight=2593.9 1567 752.9 1026.9 863.3 814.1 163.6
internal_count=3231 1817 819 1414 1213 998 201
is_linear=0
shrinkage=0.0152032


Tree=83
num_leaves=8
num_cat=0
split_feature=2 2 2 19 15 2 7
split_gain=127.45 17.8382 14.8164 8.72774 8.27531 7.0437 1.02869
threshold=0.15332689018548004 -0.090438108834073883 0.79461006564466674 -0.48130100902071821 -0.20157966242031441 -0.69666497871954591 -1.2406902647599252
decision_type=2 2 2 2 2 2 2
left_child=1 5 3 -2 -4 -1 -3
right_child=2 6 4 -5 -6 -7 -8
leaf_value=-0.0072962211525336397 0.0054179434416095481 -0.0043823239591996065 0.013161391567773404 0.0014046214460045256 0.0049767889156482753 -0.0038394586510339711 -0.00056221991248854868
leaf_weight=167.49999886751175 153.99999868869781 16.99999988079071 30.499999701976776 673.3999981880188 461.39999890327454 737.59999376535416 411.89999747276306
leaf_count=204 238 30 46 723 489 1050 528
internal_value=4.42585e-05 -0.00326926 0.00339495 0.00215201 0.00548496 -0.00447955 -0.000714422
internal_weight=2653.3 1334 1319.3 827.4 491.9 905.1 428.9
internal_count=3308 1812 1496 961 535 1254 558
is_linear=0
shrinkage=0.0152032


Tree=84
num_leaves=8
num_cat=0
split_feature=2 2 2 15 20 14 20
split_gain=124.42 16.1191 13.0179 9.42597 5.99533 5.63866 3.38438
threshold=0.16901347310737863 -0.21124591012814847 1.0045091119462948 -0.45166916720561107 -0.44127122998803042 -0.4974926175395768 -1.0873565616496073
decision_type=2 2 2 2 2 2 2
left_child=1 4 3 -2 -1 -4 -3
right_child=2 6 5 -5 -6 -7 -8
leaf_value=-0.0071239654047344832 0.0060846158887594209 -0.0050714176616236213 0.0052815675013427972 0.0019615683993378162 -0.003987627794828804 0.010982806471552658 -0.001266411232724185
leaf_weight=207.69999808073044 150.3999987244606 59.499999463558197 224.69999951124191 871.49999803304672 441.19999670982361 48.999999821186066 596.79999566078186
leaf_count=337 231 101 237 929 537 59 786
internal_value=2.02587e-05 -0.00329263 0.00335796 0.00256872 -0.00499203 0.00630348 -0.00161189
internal_weight=2600.8 1305.2 1295.6 1021.9 648.9 273.7 656.3
internal_count=3217 1761 1456 1160 874 296 887
is_linear=0
shrinkage=0.0152032


Tree=85
num_leaves=8
num_cat=0
split_feature=2 2 2 19 20 2 30
split_gain=113.235 17.3298 14.4494 7.82723 6.25158 5.15747 1.01955
threshold=0.17783442015191606 -0.087543476339562928 1.1858334677644169 -0.40410174263990201 -0.63138177434426013 2.1304017268190054 -0.020350138656200199
decision_type=2 2 2 2 2 2 2
left_child=1 4 3 -2 -1 -4 -3
right_child=2 6 5 -5 -6 -7 -8
leaf_value=-0.0064298115826949094 0.0054626355154717646 -0.0017749512415987012 0.0064575942710956551 0.0019565703207940592 -0.0035876204006967919 0.015951609363427977 -0.00025292119020280194
leaf_weight=244.9999977350235 175.49999868869781 150.69999885559082 157.79999947547913 917.29999804496765 667.79999482631683 14.499999940395353 315.09999829530716
leaf_count=406 267 204 173 970 843 16 403
internal_value=-0.000118848 -0.00313311 0.00316558 0.00251994 -0.00435085 0.00725853 -0.000746067
internal_weight=2643.7 1378.6 1265.1 1092.8 912.8 172.3 465.8
internal_count=3282 1856 1426 1237 1249 189 607
is_linear=0
shrinkage=0.0152032


Tree=86
num_leaves=8
num_cat=0
split_feature=2 2 2 19 35 0 29
split_gain=112.464 18.0379 11.8667 8.47802 8.09658 7.65845 4.92611
threshold=0.053273676422908305 0.51370757026049263 -0.29387344324670645 -0.38606969619558423 -0.8899764163637025 0.56779661016949168 -1.3262534503867782
decision_type=2 2 2 2 2 2 2
left_child=2 3 6 -2 -4 -3 -1
right_child=1 5 4 -5 -6 -7 -8
leaf_value=-0.014491199677739302 0.0035420391219785174 0.0097698043486700494 -0.0058029818837056785 -0.00012534185315764482 -0.0014129751453108958 0.0039194158308384856 -0.0050709200218426237
leaf_weight=13.199999928474424 206.89999830722809 55.999999463558197 119.39999902248383 491.99999850988388 522.29999566078186 691.39999878406525 516.39999604225159
leaf_count=15 315 90 206 532 691 722 688
internal_value=-0.000119554 0.00271625 -0.00362144 0.000959854 -0.00223034 0.00435822 -0.00530635
internal_weight=2617.6 1446.3 1171.3 698.9 641.7 747.4 529.6
internal_count=3259 1659 1600 847 897 812 703
is_linear=0
shrinkage=0.0152032


Tree=87
num_leaves=8
num_cat=0
split_feature=2 2 2 19 22 2 2
split_gain=110.039 15.8328 14.9531 8.09505 6.61193 5.30475 3.55908
threshold=0.15332689018548004 -0.39485177210486294 1.2545780174632262 -0.44745836966793179 -0.7868776001561002 -1.4628767455046006 2.1304017268190054
decision_type=2 2 2 2 2 2 2
left_child=1 5 3 -2 -3 -1 -4
right_child=2 4 6 -5 -6 -7 -8
leaf_value=-0.014574805777007344 0.0054451120965254007 -0.0041952305667952551 0.0068460474230250899 0.0019788507746986098 -0.001191704148940964 -0.0052317942177126054 0.014794304996430519
leaf_weight=14.599999904632567 184.89999860525131 228.4999977350235 135.9999994635582 992.79999756813049 657.29999536275864 402.79999703168869 14.499999940395353
leaf_count=17 283 381 151 1057 841 518 16
internal_value=2.07382e-05 -0.00311778 0.00310043 0.00252334 -0.00196687 -0.00555941 0.00761407
internal_weight=2631.4 1303.2 1328.2 1177.7 885.8 417.4 150.5
internal_count=3264 1757 1507 1340 1222 535 167
is_linear=0
shrinkage=0.0152032


Tree=88
num_leaves=8
num_cat=0
split_feature=2 2 2 0 19 15 9
split_gain=109.33 14.321 13.7776 8.58214 8.12953 7.10026 0.650804
threshold=0.15332689018548004 -0.056051387868298393 0.60420698500026393 0.16101694915254236 -0.56362884471933994 -0.20157966242031441 -0.57641447116771249
decision_type=2 2 2 2 2 2 2
left_child=1 3 4 -1 -2 -4 -3
right_child=2 6 5 -5 -6 -7 -8
leaf_value=-0.009165843914106863 0.0049614862825792605 0.00056694013605712481 0.010561915589329353 -0.0036535468635859793 0.00068875062252633562 0.0042617357731541449 -0.00088013793662330324
leaf_weight=70.499999284744263 128.89999908208847 100.89999914169312 44.499999642372131 898.99999260902405 512.19999825954437 599.79999887943268 247.59999871253967
leaf_count=117 202 147 68 1220 561 628 306
internal_value=-2.76284e-05 -0.00310454 0.00312706 -0.00405474 0.00154836 0.0046974 -0.000460202
internal_weight=2603.4 1318 1285.4 969.5 641.1 644.3 348.5
internal_count=3249 1790 1459 1337 763 696 453
is_linear=0
shrinkage=0.0152032


Tree=89
num_leaves=8
num_cat=0
split_feature=2 2 2 0 17 2 30
split_gain=104.911 16.733 10.3696 7.83119 7.34219 3.08428 0.932379
threshold=0.23337742137415621 -0.082282680097509733 1.332514250528712 0.19491525423728817 -0.48174000712735671 2.1304017268190054 -0.0075593074675478992
decision_type=2 2 2 2 2 2 2
left_child=1 3 4 -1 -2 -4 -3
right_child=2 6 5 -5 -6 -7 -8
leaf_value=-0.0078481257249188932 0.0073693903363315303 -0.0015347261691434156 0.0067710848415586354 -0.0034737338925587766 0.0025540677703407896 0.014006219108042587 -0.00017435963077259972
leaf_weight=107.19999903440475 79.199999511241913 171.09999871253967 92.79999965429306 814.69999343156815 979.29999762773514 16.099999964237213 366.79999798536301
leaf_count=182 136 227 102 1100 1045 17 460
internal_value=-2.24072e-05 -0.00273937 0.00337478 -0.00398276 0.00291468 0.00784384 -0.000607705
internal_weight=2627.2 1459.8 1167.4 921.9 1058.5 108.9 537.9
internal_count=3269 1969 1300 1282 1181 119 687
is_linear=0
shrinkage=0.0152032


Tree=90
num_leaves=8
num_cat=0
split_feature=29 29 29 30 18 0 16
split_gain=94.2252 14.4488 6.98037 6.30291 5.68015 5.25809 5.15797
threshold=0.028038385204487804 0.49396748605145274 1.8165004736049724 -0.26476205105696021 -0.61810606532276779 0.11016949152542371 -0.38391619124907156
decision_type=2 2 2 2 2 2 2
left_child=3 4 -3 6 -2 -5 -1
right_child=1 2 -4 5 -6 -7 -8
leaf_value=-0.0063174971454451516 0.0043973632076460822 0.0038169999784487267 0.013115234232117965 -0.0080555579321452981 0.00047684442477851789 -0.0019435694202891017 -0.0032124998757568995
leaf_weight=226.9999977350235 99.199999392032623 708.39999860525131 19.199999928474426 34.599999666213989 617.09999698400497 556.69999557733536 273.19999843835831
leaf_count=347 178 763 21 58 710 764 322
internal_value=5.31777e-06 0.00255369 0.00406283 -0.0033655 0.00102027 -0.00230178 -0.00462228
internal_weight=2535.4 1443.9 727.6 1091.5 716.3 591.3 500.2
internal_count=3163 1672 784 1491 888 822 669
is_linear=0
shrinkage=0.0152032


Tree=91
num_leaves=8
num_cat=0
split_feature=30 30 30 0 18 30 15
split_gain=90.1248 10.9986 8.39728 8.34864 6.57618 6.44097 2.16917
threshold=0.012625178712474951 0.61945864863831945 -0.81088792782391039 0.31355932203389836 -0.65223378578929136 1.6748230663920618 0.59100011256779994
decision_type=2 2 2 2 2 2 2
left_child=2 4 6 -4 -2 -3 -1
right_child=1 5 3 -5 -6 -7 -8
leaf_value=-0.010297139306235981 0.0048289096849994497 0.0037482556440634712 -0.0052205654913451719 -0.0020918681677401739 0.0008741458891707842 0.012178067723403059 -0.0054045904948705915
leaf_weight=43.999999582767487 111.29999935626984 563.99999886751175 272.89999753236771 712.69999462366104 770.09999638795853 21.799999952316284 40.799999713897705
leaf_count=56 201 599 463 903 887 23 48
internal_value=2.56052e-07 0.00244762 -0.00335404 -0.00295851 0.00137392 0.00406254 -0.00794716
internal_weight=2537.6 1467.2 1070.4 985.6 881.4 585.8 84.8
internal_count=3180 1710 1470 1366 1088 622 104
is_linear=0
shrinkage=0.0152032


Tree=92
num_leaves=8
num_cat=0
split_feature=2 2 2 0 13 14 7
split_gain=97.8975 15.3489 10.9749 7.29984 5.49657 5.36168 3.06769
threshold=0.19648304980991069 -0.39485177210486294 0.96148176222487003 0.46610169491525427 -0.72207020293708202 -0.57994618480487403 0.6998639075819707
decision_type=2 2 2 2 2 2 2
left_child=1 6 3 -2 -3 -4 -1
right_child=2 4 5 -5 -6 -7 -8
leaf_value=-0.0063082344352480548 0.0059228914779623212 -0.0038092328690009112 0.0046061884467817798 0.0017687250082428171 -0.0011119543543369062 0.0098081730586000171 -0.0035029234836242073
leaf_weight=255.39999783039093 110.7999991774559 229.59999781847 266.4999994635582 837.99999809265137 732.19999480247498 55.499999761581421 140.29999929666519
leaf_count=357 188 362 280 886 960 68 158
internal_value=4.5146e-05 -0.00279364 0.00307787 0.0022542 -0.0017562 0.00550385 -0.00531443
internal_weight=2628.3 1357.5 1270.8 948.8 961.8 322 395.7
internal_count=3259 1837 1422 1074 1322 348 515
is_linear=0
shrinkage=0.0152032


Tree=93
num_leaves=8
num_cat=0
split_feature=2 2 2 0 0 7 2
split_gain=97.631 16.0835 10.7258 8.98556 4.52951 4.3569 2.52349
threshold=0.24011744988570419 -0.27241273807724281 1.3443198069409574 0.43220338983050849 0.21186440677966104 -1.2539206249555852 2.1304017268190054
decision_type=2 2 2 2 2 2 2
left_child=1 4 3 -2 -1 -3 -4
right_child=2 5 6 -5 -6 -7 -8
leaf_value=-0.0095274883945735359 0.0075414252277787247 -0.0062204475350265322 0.0068861607210444304 0.0023331281341351078 -0.0043157289731071647 -0.001156200005745848 0.013547530828195153
leaf_weight=41.699999630451202 82.799999535083771 41.299999594688416 82.699999690055847 1028.6999973654747 530.39999604225159 812.89999377727509 15.799999952316282
leaf_count=71 149 67 92 1095 695 1095 17
internal_value=-2.83524e-05 -0.00272324 0.00314799 0.00272142 -0.0046962 -0.00140145 0.00795811
internal_weight=2636.3 1426.3 1210 1111.5 572.1 854.2 98.5
internal_count=3281 1928 1353 1244 766 1162 109
is_linear=0
shrinkage=0.0152032


Tree=94
num_leaves=8
num_cat=0
split_feature=2 2 2 0 2 7 2
split_gain=90.3084 19.0872 7.96354 9.9028 6.65702 3.7897 2.90524
threshold=-0.038751729988471394 0.40232528394639699 -0.67140872554626951 0.22881355932203387 1.7468007605281359 -0.80696584241298019 -1.4628767455046006
decision_type=2 2 2 2 2 2 2
left_child=2 5 6 -4 -3 -2 -1
right_child=1 4 3 -5 -6 -7 -8
leaf_value=-0.013345786723495899 0.0031991224156036461 0.0033049159337395799 -0.0064139819397644468 -0.0021561705979528212 0.010671964900929332 -0.00020662573195499436 -0.0059604139244223428
leaf_weight=13.299999892711638 86.199999451637268 918.99999767541885 158.79999840259552 618.79999500513077 29.299999892711639 608.59999686479568 181.3999987244606
leaf_count=16 153 1005 264 831 32 718 220
internal_value=-4.27912e-05 0.00213028 -0.00371543 -0.00302613 0.00353289 0.000215421 -0.00646664
internal_weight=2615.4 1643.1 972.3 777.6 948.3 694.8 194.7
internal_count=3239 1908 1331 1095 1037 871 236
is_linear=0
shrinkage=0.0152032


Tree=95
num_leaves=8
num_cat=0
split_feature=29 29 29 29 0 12 16
split_gain=82.8686 15.7799 7.05261 6.39092 7.21507 4.30456 1.6533
threshold=-0.035682387631484187 0.39095038248759523 1.301315645518647 -0.86422045765564504 0.29661016949152547 -0.76477205706116569 1.1901699613939505
decision_type=2 2 2 2 2 2 2
left_child=3 5 -3 6 -5 -2 -1
right_child=1 2 -4 4 -6 -7 -8
leaf_value=-0.0095974679644708471 0.0032738281667496353 0.0029129252396009379 0.0069868572232774356 -0.0054161097319827484 -0.0023269686103026595 -6.0489528137388101e-05 -0.0048757219261180715
leaf_weight=45.79999965429306 104.39999920129776 817.99999821186066 111.79999971389771 238.69999778270721 655.4999948143959 625.49999660253525 27.999999761581421
leaf_count=56 178 891 120 403 843 743 34
internal_value=2.76306e-05 0.00208965 0.00340314 -0.00350749 -0.00315197 0.000415966 -0.00781059
internal_weight=2627.7 1659.7 929.8 968 894.2 729.9 73.8
internal_count=3268 1932 1011 1336 1246 921 90
is_linear=0
shrinkage=0.0152032


Tree=96
num_leaves=8
num_cat=0
split_feature=2 2 2 19 36 2 0
split_gain=88.1761 14.9595 11.4027 8.30107 4.9965 4.2176 2.88397
