tree
version=v4
num_class=1
num_tree_per_iteration=1
label_index=0
max_feature_idx=51
objective=regression
feature_names=SP.POP.TOTL SP.DYN.LE00.FE.IN SP.DYN.LE00.MA.IN SP.DYN.TO65.FE.ZS SP.DYN.TO65.MA.ZS SP.DYN.LE60.FE.IN SP.DYN.LE60.MA.IN SP.POP.65UP.MA.IN SP.POP.65UP.TO year_linear SP.DYN.CBRT.IN year_squared SP.POP.80UP.MA SP.POP.1564.FE.IN SP.POP.TOTL.MA.IN SP.POP.1564.TO SP.POP.80UP.FE SP.DYN.LE00.MA.IN_lag1 SP.DYN.LE00.FE.IN_lag1 SP.DYN.TO65.FE.ZS_lag1 SP.POP.1564.MA.IN SP.DYN.TO65.MA.ZS_lag1 SP.DYN.LE60.FE.IN_lag1 decade SP.POP.TOTL.FE.IN SP.DYN.LE60.MA.IN_lag1 SP.URB.TOTL SP.DYN.CDRT.IN SP.POP.TOTL_ma3 SP.POP.TOTL_ma5 SP.POP.TOTL_accel SP.DYN.LE00.FE.IN_ma3 SP.DYN.LE00.FE.IN_ma5 SP.DYN.LE00.FE.IN_accel SP.DYN.LE00.MA.IN_ma3 SP.DYN.LE00.MA.IN_ma5 SP.DYN.LE00.MA.IN_accel SP.DYN.TO65.FE.ZS_ma3 SP.DYN.TO65.FE.ZS_ma5 SP.DYN.TO65.FE.ZS_accel SP.DYN.TO65.MA.ZS_ma3 SP.DYN.TO65.MA.ZS_ma5 SP.DYN.TO65.MA.ZS_accel SP.DYN.LE60.FE.IN_ma3 SP.DYN.LE60.FE.IN_ma5 SP.DYN.LE60.FE.IN_accel SP.DYN.LE60.MA.IN_ma3 SP.DYN.LE60.MA.IN_ma5 SP.DYN.LE60.MA.IN_accel SP.POP.65UP.MA.IN_ma3 SP.POP.65UP.MA.IN_ma5 SP.POP.65UP.MA.IN_accel
feature_infos=[-3.2722935165086562:2.4960945708432951] [-3.9910654792042921:3.1045910635468359] [-4.1422590960413572:2.408762533225437] [-3.4767014900008202:2.8114094077420586] [-4.1032540704522731:2.540545632873052] [-5:3.743390196171728] [-5:3.4019423207822768] [-2.230577406785148:3.2564720944780987] [-2.1774592786290778:2.9546355051735289] [0.0338983050847457:0.98305084745762716] [-2.6551635657428894:2.8579825132507986] [0.0011490950876185001:0.96638896868715896] [-2.1230850719038776:2.8617392762779499] [-3.773911117296977:2.3147746837858869] [-3.1462986117121772:2.5861824868261705] [-3.5332415768482242:2.3192837955098131] [-2.223773946785029:2.6957892827505718] [-4.1422590960413572:2.2113715194559762] [-3.9910654792042921:2.644482027038773] [-3.4767014900008202:2.6384713701961542] [-2.6882791577572736:2.3551097863960324] [-4.1032540704522731:2.3970229600502369] [-5:3.3899614440812962] [1960:2020] [-3.2967791382482323:2.4145229339930343] [-5:3.4019423207822768] [-2.4650888603349075:3.1902068086469373] [-2.4627751918570162:5] [-2.9091739253426412:2.522098430653549] [-2.4941627974347478:2.3307492485369057] [-503.72412573208737:505.36424993563662] [-2.4679814227641459:2.8745365452928047] [-2.4864645331705311:2.208763897809594] [-1965.417301990316:1967.6670736653125] [-3.061578787828577:2.2677681280972379] [-2.5131777161728808:2.0551919490568271] [-33688.350261714324:33689.99999343355] [-2.500052133784072:2.724940388969106] [-2.5155810146101887:2.4406922307174201] [-111711.84002032124:111711.94974294248] [-3.2288766299227838:2.4687842964616444] [-2.3835557542859638:2.2430351743269958] [-193.05832408347896:194.68566669899599] [-2.4356238813099043:3.5666758201265121] [-2.3146697277808488:2.8033395985155192] [-496.85738953112747:496.85522884476921] [-2.5058008175840114:2.7123470002559258] [-2.1443807020508734:2.1854715407536758] [-584.15673711470083:585.1830561797907] [-2.2241917067003345:3.0748913021654745] [-2.2271755300202418:2.7495541588859278] [-396.6497932613305:398.65254599538071]
tree_sizes=952 992 1001 996 997 994 1002 999 997 997 1001 1004 1003 1002 1005 1011 1001 1008 1004 1007 1002 1009 1006 1002 1008 1007 1006 1004 1004 1006 1006 1011 1007 1012 1006 1002 1002 999 1006 1006 1006 1012 1005 1004 1015 1013

Tree=0
num_leaves=8
num_cat=0
split_feature=2 1 2 2 5 1 1
split_gain=165.955 19.5706 18.1582 2.66399 2.16602 1.93983 1.87426
threshold=1.0000000180025095e-35 0.70778840312290137 -0.68702081169481855 -1.127204840923911 0.98521051786374891 0.44092391702901773 -0.34459404156105
decision_type=2 2 2 2 2 2 2
left_child=2 5 3 -1 -3 -2 -4
right_child=1 4 6 -5 -6 -7 -8
leaf_value=0.60095066622737281 0.61460273924424114 0.62030982202662743 0.60778948145316314 0.60470315884955106 0.62294251975912474 0.61769201681436159 0.61112218317243761
leaf_weight=301.19999837875366 353.99999731779099 355.39999932050705 213.79999828338623 279.69999796152115 734.29999798536301 277.99999898672104 327.09999710321426
leaf_count=512 453 376 359 474 786 307 463
internal_value=0.614439 0.619837 0.606155 0.602757 0.622084 0.615962 0.609805
internal_weight=2843.5 1721.7 1121.8 580.9 1089.7 632 540.9
internal_count=3730 1922 1808 986 1162 760 822
is_linear=0
shrinkage=1


Tree=1
num_leaves=8
num_cat=0
split_feature=2 2 1 2 34 2 5
split_gain=154.854 18.6071 15.1479 2.66531 2.02704 1.87941 1.83519
threshold=0.051387952850551456 -0.63515229668609885 0.72405326942697268 -1.127204840923911 -0.31218265043767041 0.4323628905230455 0.9208977540914276
decision_type=2 2 2 2 2 2 2
left_child=1 3 5 -1 -3 -2 -4
right_child=2 4 6 -5 -6 -7 -8
leaf_value=-0.01314620401203071 0.00028543765359940006 -0.0060518399718982206 0.0053978640004334775 -0.0094733975413090615 -0.0026659307574450294 0.0034193320661084761 0.0080707208929581831
leaf_weight=283.39999848604202 296.9999977350235 242.1999979019165 263.5999995470047 325.29999762773514 307.399997651577 289.4999988079071 777.59999775886536
leaf_count=486 375 383 277 551 438 329 835
internal_value=-0.000114639 -0.00785014 0.00539009 -0.0111836 -0.00415813 0.00183238 0.00739409
internal_weight=2786 1158.3 1627.7 608.7 549.6 586.5 1041.2
internal_count=3674 1858 1816 1037 821 704 1112
is_linear=0
shrinkage=0.0276786


Tree=2
num_leaves=8
num_cat=0
split_feature=2 2 1 3 18 49 1
split_gain=144.348 17.7837 15.3607 2.55195 1.97264 1.73937 1.71307
threshold=0.04342882534774891 -0.64921101568962059 0.72405326942697268 -1.3124648730280546 0.32268518181590072 1.0185075004351385 -0.24170296438539016
decision_type=2 2 2 2 2 2 2
left_child=1 3 4 -1 -2 -4 -3
right_child=2 6 5 -5 -6 -7 -8
leaf_value=-0.013380962409177343 -8.2300984492738723e-05 -0.0056013962814513993 0.0059856625177452287 -0.0095621972401839263 0.0030479740982227188 0.0082259275273190227 -0.002583596614534913
leaf_weight=202.89999884366989 274.49999797344208 279.79999768733978 515.49999898672104 395.79999732971191 351.99999845027924 547.89999824762344 297.19999760389328
leaf_count=346 348 458 546 674 397 592 409
internal_value=-6.70272e-05 -0.00751472 0.00511451 -0.0108566 0.00167647 0.00713999 -0.00404706
internal_weight=2865.6 1175.7 1689.9 598.7 626.5 1063.4 577
internal_count=3770 1887 1883 1020 745 1138 867
is_linear=0
shrinkage=0.0276786


Tree=3
num_leaves=8
num_cat=0
split_feature=2 1 2 2 2 8 2
split_gain=136.157 19.2877 12.5092 2.46031 1.8347 1.6909 1.31522
threshold=-0.078312454243963533 0.73470326742213277 -0.8189800286886596 0.33892476890310003 -0.45546336658883463 1.0416624722395242 -1.2807894750280917
decision_type=2 2 2 2 2 2 2
left_child=2 3 6 -2 -4 -3 -1
right_child=1 5 4 -5 -6 -7 -8
leaf_value=-0.013011270986555391 -0.00044640002106300568 0.0058720543624421638 -0.0069816109067365982 0.0027164208505518314 -0.0037884249414695697 0.0080747077747075902 -0.010048719945792435
leaf_weight=199.69999921321869 357.3999969959259 522.5999990105629 244.99999797344208 398.49999833106995 315.29999750852585 546.29999822378159 270.79999804496765
leaf_count=344 465 551 402 454 478 591 459
internal_value=6.24035e-05 0.00460489 -0.00797902 0.00122101 -0.00518479 0.00699786 -0.0113064
internal_weight=2855.6 1824.8 1030.8 755.9 560.3 1068.9 470.5
internal_count=3744 2061 1683 919 880 1142 803
is_linear=0
shrinkage=0.0276786


Tree=4
num_leaves=8
num_cat=0
split_feature=35 1 35 1 2 5 2
split_gain=130.099 17.7564 11.953 2.13821 2.06513 1.90068 1.05051
threshold=-0.07274217142660365 0.70778840312290137 -0.83401060090402945 -0.34459404156105 0.29279548994557086 0.92876862348112532 -1.2660169169266287
decision_type=2 2 2 2 2 2 2
left_child=2 4 6 -4 -2 -3 -1
right_child=1 5 3 -5 -6 -7 -8
leaf_value=-0.012533734925357592 -0.00058809426942432004 0.0049055873705523877 -0.006606828352783041 -0.0032602000728732036 0.0024527961304382055 0.0075386682356544691 -0.0098697459942978828
leaf_weight=203.59999907016754 297.19999778270721 287.19999939203262 324.69999742507935 266.19999766349792 403.19999802112579 782.39999759197235 256.79999822378159
leaf_count=348 381 304 548 387 469 844 436
internal_value=7.66666e-06 0.00458837 -0.00770452 -0.00509925 0.00116247 0.00683171 -0.0110481
internal_weight=2821.3 1770 1051.3 590.9 700.4 1069.6 460.4
internal_count=3717 1998 1719 935 850 1148 784
is_linear=0
shrinkage=0.0276786


Tree=5
num_leaves=8
num_cat=0
split_feature=2 2 2 2 34 5 31
split_gain=124.181 15.3379 12.5625 2.19033 1.801 1.77402 1.30942
threshold=0.051387952850551456 -0.64921101568962059 0.66222898182879919 -1.127204840923911 -0.33246618108179687 1.0045739183669402 0.44951209052624835
decision_type=2 2 2 2 2 2 2
left_child=1 3 6 -1 -3 -4 -2
right_child=2 4 5 -5 -6 -7 -8
leaf_value=-0.011757393274339552 0.00023233034142474505 -0.0055790970444127017 0.0051167060705383464 -0.0083667349696673835 -0.0023705224650767812 0.007392603161708906 0.0029780359853104842
leaf_weight=287.49999850988388 301.29999756813049 220.69999808073044 410.39999896287918 296.79999792575836 341.29999732971191 728.09999811649323 238.29999905824661
leaf_count=487 382 352 444 503 475 777 264
internal_value=0.0001268 -0.00689529 0.00492356 -0.0100352 -0.00363062 0.00657225 0.00144493
internal_weight=2824.4 1146.3 1678.1 584.3 562 1138.5 539.6
internal_count=3684 1817 1867 990 827 1221 646
is_linear=0
shrinkage=0.0276786


Tree=6
num_leaves=8
num_cat=0
split_feature=2 2 1 2 35 9 1
split_gain=118.763 15.8359 10.5856 2.18176 1.81795 1.67253 1.17002
threshold=0.11675857366491697 -0.64921101568962059 0.70778840312290137 -1.1125080966432479 -0.17536138125610942 0.82203389830508489 0.32009650785631921
decision_type=2 2 2 2 2 2 2
left_child=1 3 6 -1 -3 -4 -2
right_child=2 4 5 -5 -6 -7 -8
leaf_value=-0.0114646272807052 -0.00017578099696574393 -0.0047088625229542618 0.005352597267704642 -0.0081384811269802435 -0.0016721587604612476 0.0075458393899275897 0.0025861763537202271
leaf_weight=294.19999843835831 171.59999859333038 372.59999692440033 527.89999920129776 310.89999771118164 253.99999803304672 537.99999809265137 372.69999825954437
leaf_count=501 228 581 552 522 346 586 422
internal_value=-9.27187e-05 -0.00656214 0.00485598 -0.00975581 -0.00347794 0.00645967 0.00171543
internal_weight=2841.9 1231.7 1610.2 605.1 626.6 1065.9 544.3
internal_count=3738 1950 1788 1023 927 1138 650
is_linear=0
shrinkage=0.0276786


Tree=7
num_leaves=8
num_cat=0
split_feature=2 2 1 34 1 34 8
split_gain=113.225 16.5458 9.32587 1.97055 1.92474 1.68651 1.21733
threshold=0.14944494463741001 -0.63515229668609885 0.82690819875390253 -0.20037908837690357 -1.0699088986578309 0.47875405595765064 1.1319169581669821
decision_type=2 2 2 2 2 2 2
left_child=1 4 5 -3 -1 -2 -4
right_child=2 3 6 -5 -6 -7 -8
leaf_value=-0.011235010350782813 0.00063317921857435218 -0.0046266229818378354 0.0055621895701230724 -0.0015922726890498832 -0.0080489187860022671 0.0034663333188070435 0.0074904166866691978
leaf_weight=284.99999845027924 275.49999815225601 349.59999710321426 505.59999912977219 308.79999762773514 296.59999799728394 387.19999885559082 498.19999825954437
leaf_count=503 333 542 531 418 491 425 542
internal_value=0.000124564 -0.00620858 0.0048369 -0.00320351 -0.00961035 0.00228855 0.00651926
internal_weight=2906.5 1240 1666.5 658.4 581.6 662.7 1003.8
internal_count=3785 1954 1831 960 994 758 1073
is_linear=0
shrinkage=0.0276786


Tree=8
num_leaves=8
num_cat=0
split_feature=2 2 2 35 5 1 3
split_gain=107.285 12.4634 12.0027 2.00934 1.76789 1.3363 1.11663
threshold=-0.015358043029807247 0.63179982066578055 -0.8189800286886596 -0.38949704048103023 0.92876862348112532 0.32009650785631921 -1.2642184355467683
decision_type=2 2 2 2 2 2 2
left_child=2 5 6 -4 -3 -2 -1
right_child=1 4 3 -5 -6 -7 -8
leaf_value=-0.011405285122853022 -0.00048192214899622608 0.0043901867133833965 -0.0058223004511760226 -0.0027033123874836613 0.006670833488802843 0.0021459340041716196 -0.0087257994599346141
leaf_weight=235.59999871253967 261.19999772310257 391.79999905824661 311.0999972820282 322.09999746084213 776.89999788999557 342.79999822378159 241.59999841451645
leaf_count=398 343 421 506 466 832 391 415
internal_value=1.21214e-05 0.00423787 -0.00673406 -0.00423578 0.0059063 0.00100953 -0.0100489
internal_weight=2883.1 1772.7 1110.4 633.2 1168.7 604 477.2
internal_count=3772 1987 1785 972 1253 734 813
is_linear=0
shrinkage=0.0276786


Tree=9
num_leaves=8
num_cat=0
split_feature=2 1 2 5 1 2 27
split_gain=97.9504 13.2606 8.1973 1.64989 1.62511 1.49348 1.04067
threshold=-0.078312454243963533 0.67490596476975384 -0.75275381584252077 0.92876862348112532 0.26115217134279894 -0.40003204956430483 1.0234084643851968
decision_type=2 2 2 2 2 2 2
left_child=2 4 6 -3 -2 -4 -1
right_child=1 3 5 -5 -6 -7 -8
leaf_value=-0.0081191016483296123 -0.00080537312872481701 0.004276087348498105 -0.0058418107903377928 0.006578832907844688 0.002006175646507341 -0.002913003665845351 -0.01065406025788589
leaf_weight=268.59999805688858 262.99999761581421 348.89999932050705 263.29999786615372 752.99999761581421 392.59999787807465 270.39999794960022 230.99999886751175
leaf_count=449 364 369 422 814 454 402 395
internal_value=1.92585e-05 0.00399526 -0.00674335 0.00584975 0.0008783 -0.00435801 -0.00929137
internal_weight=2790.8 1757.5 1033.3 1101.9 655.6 533.7 499.6
internal_count=3669 2001 1668 1183 818 824 844
is_linear=0
shrinkage=0.0276786


Tree=10
num_leaves=8
num_cat=0
split_feature=2 3 2 12 2 34 18
split_gain=93.9776 11.1001 10.0484 1.5556 1.50344 1.39549 1.2836
threshold=-0.015358043029807247 0.7108835488566535 -0.75275381584252077 1.0748282550856736 -0.42686691449295061 -1.1683208213714764 0.28560368463617708
decision_type=2 2 2 2 2 2 2
left_child=2 6 5 -3 -4 -1 -2
right_child=1 3 4 -5 -6 -7 -8
leaf_value=-0.01057421713048572 -0.0003355841778479448 0.0046154763759546288 -0.0055308914650211306 0.0067315162999417371 -0.0027139920128498502 -0.0076868285220340771 0.00217731533809942
leaf_weight=267.79999858140945 272.09999758005142 509.29999899864197 251.79999804496765 557.79999816417694 342.79999750852585 246.39999824762344 364.09999841451645
leaf_count=454 360 546 413 604 508 415 407
internal_value=-8.60643e-05 0.00399638 -0.00635736 0.00572163 -0.00390696 -0.00919078 0.00110257
internal_weight=2812.1 1703.3 1108.8 1067.1 594.6 514.2 636.2
internal_count=3707 1917 1790 1150 921 869 767
is_linear=0
shrinkage=0.0276786


Tree=11
num_leaves=8
num_cat=0
split_feature=1 2 1 35 34 50 17
split_gain=87.6738 12.7085 8.1145 1.68043 1.48749 1.28179 0.935124
threshold=0.16322696028265973 -0.64921101568962059 0.72405326942697268 -0.17536138125610942 -1.1194311750427024 1.004314791549022 0.34404002241640841
decision_type=2 2 2 2 2 2 2
left_child=1 4 6 -3 -1 -4 -2
right_child=2 3 5 -5 -6 -7 -8
leaf_value=-0.010014592688878608 0.00032199163316479478 -0.0041409391053895831 0.0046043600920516563 -0.0013047142670797813 -0.0072042426722450674 0.0065088273712415046 0.0025646835504684919
leaf_weight=272.99999850988388 261.79999822378159 362.59999686479568 512.89999902248383 286.49999743700027 306.39999800920486 573.79999804496765 312.39999854564667
leaf_count=469 315 571 542 398 526 623 356
internal_value=5.71376e-05 -0.00554891 0.00420371 -0.00288912 -0.00852856 0.00561001 0.00154218
internal_weight=2889.4 1228.5 1660.9 649.1 579.4 1086.7 574.2
internal_count=3800 1964 1836 969 995 1165 671
is_linear=0
shrinkage=0.0276786


Tree=12
num_leaves=8
num_cat=0
split_feature=2 2 18 2 5 1 34
split_gain=85.5441 10.3317 9.28925 1.82685 1.29313 1.06199 1.02896
threshold=0.04342882534774891 -0.61720895505537787 0.63488716679004098 -1.1125080966432479 0.90462961868017433 0.44092391702901773 -0.38121363087411769
decision_type=2 2 2 2 2 2 2
left_child=1 3 5 -1 -4 -2 -3
right_child=2 6 4 -5 -6 -7 -8
leaf_value=-0.0097944453163232754 0.0001005860836448431 -0.0047066434430794984 0.0038340593803705587 -0.0068007080039705755 0.006010354275662883 0.0024558243835752121 -0.0021456292543130047
leaf_weight=303.89999830722809 331.09999740123749 182.19999849796295 282.49999934434891 321.4999977350235 806.59999769926071 263.29999911785126 353.19999742507935
leaf_count=519 425 291 301 540 866 290 508
internal_value=-5.88734e-05 -0.00583952 0.00392698 -0.00825558 0.00544589 0.0011439 -0.00301723
internal_weight=2844.3 1160.8 1683.5 625.4 1089.1 594.4 535.4
internal_count=3740 1858 1882 1059 1167 715 799
is_linear=0
shrinkage=0.0276786


Tree=13
num_leaves=8
num_cat=0
split_feature=32 2 4 3 8 1 4
split_gain=78.9338 11.4282 6.84104 2.13384 1.39891 0.866561 0.637436
threshold=0.16192753102008708 -0.5051222667877332 0.65401591410937765 -1.2642184355467683 0.87655502523218398 -0.32372507113828225 0.44002570503951982
decision_type=2 2 2 2 2 2 2
left_child=1 3 6 -1 -4 -3 -2
right_child=2 5 4 -5 -6 -7 -8
leaf_value=-0.0099429259414976837 0.00052746567963690564 -0.0042167700615556867 0.0041226590042188682 -0.00662799214521477 0.0060978121902163021 -0.0016404640707144368 0.0025446538203740586
leaf_weight=221.89999884366989 298.29999822378159 133.69999891519547 487.19999891519547 451.79999673366547 630.19999802112579 397.09999656677246 200.79999899864197
leaf_count=383 350 227 523 759 680 556 227
internal_value=3.67068e-05 -0.00532689 0.00403328 -0.00771997 0.00523666 -0.00228946 0.00133906
internal_weight=2821 1204.5 1616.5 673.7 1117.4 530.8 499.1
internal_count=3705 1925 1780 1142 1203 783 577
is_linear=0
shrinkage=0.0276786


Tree=14
num_leaves=8
num_cat=0
split_feature=2 1 1 8 35 2 1
split_gain=77.7424 10.7027 6.86336 1.64412 1.11367 0.828756 0.766821
threshold=-0.078312454243963533 0.58455541715597636 -0.76301446280011609 0.87655502523218398 -0.38269723891502722 -1.0814174563563894 0.32904148993005999
decision_type=2 2 2 2 2 2 2
left_child=2 6 5 -3 -4 -1 -2
right_child=1 3 4 -5 -6 -7 -8
leaf_value=-0.0092873148733185577 -0.00042915363900395147 0.00375763470828801 -0.0050373869590605701 0.0057998524128143368 -0.002532285156799814 -0.0069612376439603992 0.0015516335169598588
leaf_weight=307.69999831914902 350.99999701976776 540.99999874830246 302.79999732971191 683.89999800920486 246.79999804496765 189.99999892711639 261.09999847412109
leaf_count=530 465 576 478 734 355 342 302
internal_value=-2.6647e-05 0.00340445 -0.00604488 0.00489791 -0.00391253 -0.00839947 0.000415789
internal_weight=2884.3 1837 1047.3 1224.9 549.6 497.7 612.1
internal_count=3782 2077 1705 1310 833 872 767
is_linear=0
shrinkage=0.0276786


Tree=15
num_leaves=8
num_cat=0
split_feature=35 1 3 22 35 27 18
split_gain=73.4878 10.7925 6.95089 1.6871 1.10377 0.795543 0.694188
threshold=-0.07274217142660365 0.62341586598229581 -0.71483917643680395 0.90872272110695185 -0.38269723891502722 1.0234084643851968 0.30374277245792453
decision_type=2 2 2 2 2 2 2
left_child=2 6 5 -3 -4 -1 -2
right_child=1 3 4 -5 -6 -7 -8
leaf_value=-0.0070932875683282206 -0.00040579589054029876 0.0035133525334212442 -0.0047710550534080364 0.0056837587947351888 -0.002186208648194523 -0.0092459198517949731 0.0014667957780205888
leaf_weight=272.99999833106995 358.59999698400497 432.39999902248383 279.69999754428864 751.09999793767929 231.19999808073044 254.29999876022339 262.79999870061874
leaf_count=459 471 462 450 804 348 441 299
internal_value=-3.50126e-05 0.00333995 -0.00590232 0.00489082 -0.00360139 -0.00813158 0.000386162
internal_weight=2843.1 1804.9 1038.2 1183.5 510.9 527.3 621.4
internal_count=3734 2036 1698 1266 798 900 770
is_linear=0
shrinkage=0.0276786


Tree=16
num_leaves=8
num_cat=0
split_feature=2 2 1 2 8 2 1
split_gain=69.3701 9.18578 6.48615 1.31805 1.15736 1.03427 0.582946
threshold=-0.070358110747877581 0.68033419784209948 -0.83709540376146063 -0.48368348024486246 0.87655502523218398 0.24412524687495366 -1.2794348967376259
decision_type=2 2 2 2 2 2 2
left_child=2 5 6 -4 -3 -2 -1
right_child=1 4 3 -5 -6 -7 -8
leaf_value=-0.0092031640882500442 -0.0005101833707216682 0.003837325888663918 -0.0051741159542505301 -0.0026274472629113886 0.0056213613630510589 0.0016692121540844249 -0.0071793646346702067
leaf_weight=210.99999874830246 274.09999781847 492.09999907016754 281.99999785423279 347.69999724626541 642.39999806880951 426.19999754428864 226.29999870061874
leaf_count=370 356 523 454 518 691 501 393
internal_value=4.53974e-05 0.00330889 -0.00556645 -0.00376799 0.00484756 0.000816192 -0.00815604
internal_weight=2901.8 1834.8 1067 629.7 1134.5 700.3 437.3
internal_count=3806 2071 1735 972 1214 857 763
is_linear=0
shrinkage=0.0276786


Tree=17
num_leaves=8
num_cat=0
split_feature=2 2 34 5 3 1 27
split_gain=63.6439 9.3443 6.40932 1.25857 0.986834 0.858062 0.567844
threshold=-0.078312454243963533 0.63179982066578055 -0.68966247541968195 0.98521051786374891 -1.2642184355467683 0.32009650785631921 0.41637225054062393
decision_type=2 2 2 2 2 2 2
left_child=2 5 4 -3 -1 -2 -4
right_child=1 3 6 -5 -6 -7 -8
leaf_value=-0.0088343321212261891 -0.00053447266716419393 0.0034661975501537687 -0.0025411082719543738 0.0053485130032682304 -0.0064744414884260722 0.0014853440979432303 -0.0047766229205849636
leaf_weight=229.29999887943268 318.49999737739563 435.39999896287918 363.2999969124794 726.09999787807465 333.29999762773514 326.09999847412109 114.49999916553497
leaf_count=394 419 469 561 782 561 369 179
internal_value=1.86203e-05 0.00315982 -0.00543437 0.00464294 -0.0074364 0.000487348 -0.00307691
internal_weight=2846.5 1806.1 1040.4 1161.5 562.6 644.6 477.8
internal_count=3734 2039 1695 1251 955 788 740
is_linear=0
shrinkage=0.0276786


Tree=18
num_leaves=8
num_cat=0
split_feature=1 17 2 1 17 4 27
split_gain=59.5488 7.70684 7.41324 1.04333 0.838474 0.824183 0.718259
threshold=0.031489162117482962 0.65049511696160034 -0.74477522685174657 -0.33653078941043074 0.23718634374462169 1.0320029444395622 0.99443113617904022
decision_type=2 2 2 2 2 2 2
left_child=2 4 6 -4 -2 -3 -1
right_child=1 5 3 -5 -6 -7 -8
leaf_value=-0.0064418642579547464 -0.00028012286132148028 0.003736838954951853 -0.0041617890707775287 -0.0018393981931246722 0.001699808691835538 0.0052814767869910949 -0.0085202925725264035
leaf_weight=255.29999828338623 290.59999823570251 462.69999891519547 279.89999783039093 314.99999713897705 375.69999814033508 618.69999825954437 254.6999985575676
leaf_count=429 355 491 470 458 431 665 438
internal_value=-1.83091e-06 0.00317787 -0.00503138 -0.00293213 0.000836289 0.00462061 -0.00748
internal_weight=2852.6 1747.7 1104.9 594.9 666.3 1081.4 510
internal_count=3737 1942 1795 928 786 1156 867
is_linear=0
shrinkage=0.0276786


Tree=19
num_leaves=8
num_cat=0
split_feature=2 1 2 5 32 2 34
split_gain=58.9627 8.15472 5.70778 1.44594 0.93069 0.809056 0.605146
threshold=-0.078312454243963533 0.59772123146886946 -0.79460006555254681 0.90462961868017433 -0.51917592794898715 -1.2660169169266287 0.25036016462351085
decision_type=2 2 2 2 2 2 2
left_child=2 6 5 -3 -4 -1 -2
right_child=1 3 4 -5 -6 -7 -8
leaf_value=-0.0086009115764759114 -0.00056188227004190386 0.0029387173195418803 -0.0048403775860663472 0.0049930408528256571 -0.0025149780670328729 -0.0063515146156886597 0.0011994049236649
leaf_weight=222.39999902248383 280.9999977350235 388.39999902248383 201.6999985575676 809.99999767541885 380.89999693632126 273.19999819993973 319.19999802112579
leaf_count=381 370 416 342 871 563 465 380
internal_value=-5.96998e-05 0.00300833 -0.00517761 0.00432727 -0.00332011 -0.00736108 0.000374813
internal_weight=2876.8 1798.6 1078.2 1198.4 582.6 495.6 600.2
internal_count=3788 2037 1751 1287 905 846 750
is_linear=0
shrinkage=0.0276786


Tree=20
num_leaves=8
num_cat=0
split_feature=2 1 3 5 2 3 18
split_gain=51.8774 8.2317 4.64071 1.30958 0.695703 0.657145 0.647086
threshold=-0.13834126052615953 0.60887858826339325 -0.77614145262589551 1.0196969839332612 -0.46561384186112703 -1.2642184355467683 0.30374277245792453
decision_type=2 2 2 2 2 2 2
left_child=2 6 5 -3 -4 -1 -2
right_child=1 3 4 -5 -6 -7 -8
leaf_value=-0.0081678833511043894 -0.00035646847236966045 0.0030916194978945987 -0.0043379348599159838 0.0049500928297220624 -0.0023123833703185023 -0.0060725479124018105 0.0014364354651742578
leaf_weight=229.3999987244606 415.29999655485153 504.19999873638153 253.79999792575836 685.49999809265137 266.19999802112579 229.6999985575676 245.29999870061874
leaf_count=393 554 538 410 735 402 394 282
internal_value=6.05018e-05 0.00278682 -0.00509167 0.0041625 -0.00330107 -0.00711968 0.000309299
internal_weight=2829.4 1850.3 979.1 1189.7 520 459.1 660.6
internal_count=3708 2109 1599 1273 812 787 836
is_linear=0
shrinkage=0.0276786


Tree=21
num_leaves=8
num_cat=0
split_feature=34 1 3 35 49 1 19
split_gain=50.6729 6.44672 5.47586 0.990612 0.880976 0.838059 0.771153
threshold=0.063134810589983117 -0.66554786548567002 0.771417143912141 -0.39650697485613995 1.0540417955290036 -1.1258718932861449 0.25088248642812921
decision_type=2 2 2 2 2 2 2
left_child=1 5 6 -3 -4 -1 -2
right_child=2 3 4 -5 -6 -7 -8
leaf_value=-0.0077242116693631369 -0.00027737556378362027 -0.0039314339586688533 0.003530167912980089 -0.0016213511971290796 0.0051510627480152562 -0.0055593840142121233 0.0017477238486186101
leaf_weight=268.29999846220016 206.39999848604202 226.49999797344208 518.79999899864197 382.19999700784683 509.09999829530716 280.29999834299088 476.89999800920486
leaf_count=472 260 354 549 542 552 484 533
internal_value=3.10824e-05 -0.00444223 0.00305643 -0.00248099 0.00433301 -0.00661824 0.00113602
internal_weight=2868.5 1157.3 1711.2 608.7 1027.9 548.6 683.3
internal_count=3746 1852 1894 896 1101 956 793
is_linear=0
shrinkage=0.0276786


Tree=22
num_leaves=8
num_cat=0
split_feature=1 2 2 4 1 27 27
split_gain=47.4319 6.00215 5.27255 1.37116 0.980444 0.609485 0.394724
threshold=0.031489162117482962 0.55944645747088007 -0.76461235008109252 0.99414126444814677 -0.32372507113828225 1.0234084643851968 -0.46497091196294665
decision_type=2 2 2 2 2 2 2
left_child=2 6 5 -3 -4 -1 -2
right_child=1 3 4 -5 -6 -7 -8
leaf_value=-0.0057195520984860814 0.0011531539151255835 0.0028385847484140689 -0.0038692075460569257 0.0047155195308565233 -0.0016399622794217783 -0.0076592381471730312 -0.0003996331491151486
leaf_weight=257.69999825954437 225.59999817609787 539.29999858140945 317.99999749660492 667.09999799728394 288.09999746084213 239.79999887943268 282.39999854564667
leaf_count=434 279 578 533 722 414 418 335
internal_value=-6.73274e-05 0.00281377 -0.00454298 0.0038765 -0.00280961 -0.00665463 0.000289958
internal_weight=2818 1714.4 1103.6 1206.4 606.1 497.5 508
internal_count=3713 1914 1799 1300 947 852 614
is_linear=0
shrinkage=0.0276786


Tree=23
num_leaves=8
num_cat=0
split_feature=1 4 2 9 1 2 2
split_gain=46.7326 6.92569 3.88349 1.49586 0.712247 0.506754 0.42327
threshold=-0.07362238548536279 0.56001702614421733 -0.87878906386239997 0.80508474576271205 -0.34459404156105 0.23142759914741892 -1.3225769889541514
decision_type=2 2 2 2 2 2 2
left_child=2 5 6 -3 -4 -2 -1
right_child=1 3 4 -5 -6 -7 -8
leaf_value=-0.0077551706370426465 -0.00053571154932701369 0.0028323807878632662 -0.004009562631191791 0.0047897881368929307 -0.0019834712002353336 0.0010320242453094009 -0.0060150675840272049
leaf_weight=182.59999918937683 310.49999761581421 579.39999860525131 375.19999718666077 618.39999794960022 205.8999981880188 321.49999809265137 259.79999822378159
leaf_count=307 397 625 634 670 311 374 441
internal_value=-4.31642e-05 0.00260608 -0.00477942 0.00384298 -0.00329171 0.000261802 -0.00673345
internal_weight=2853.3 1829.8 1023.5 1197.8 581.1 632 442.4
internal_count=3759 2066 1693 1295 945 771 748
is_linear=0
shrinkage=0.0276786


Tree=24
num_leaves=8
num_cat=0
split_feature=34 3 1 26 27 1 34
split_gain=45.1926 6.54422 3.86322 1.19208 0.786707 0.511896 0.454448
threshold=-0.10475041677992543 0.62326987790212629 -0.76301446280011609 0.87173914793724772 0.22566012756647358 0.32009650785631921 -1.1683208213714764
decision_type=2 2 2 2 2 2 2
left_child=2 5 6 -3 -4 -2 -1
right_child=1 3 4 -5 -6 -7 -8
leaf_value=-0.0072223689330678737 -0.00040711355241213157 0.0028288275841561812 -0.0021048009470196398 0.0045912473180552095 -0.0042215932352038313 0.001198551017812344 -0.0055350655682763795
leaf_weight=257.59999877214432 346.69999712705612 529.19999873638153 305.5999972820282 661.79999804496765 240.29999816417694 270.99999856948853 233.29999846220016
leaf_count=447 464 569 467 711 372 310 408
internal_value=-3.17795e-05 0.00260918 -0.00463892 0.00380818 -0.00303665 0.000297337 -0.0064206
internal_weight=2845.5 1808.7 1036.8 1191 545.9 617.7 490.9
internal_count=3748 2054 1694 1280 839 774 855
is_linear=0
shrinkage=0.0276786


Tree=25
num_leaves=8
num_cat=0
split_feature=2 2 18 34 1 26 4
split_gain=40.3747 6.22962 3.46917 0.983633 0.672542 0.557998 0.542787
threshold=0.16232970662332483 -0.63515229668609885 0.75679651415949523 -1.0709139989724952 -0.20669631937710523 1.0865309626658279 0.47390670291086501
decision_type=2 2 2 2 2 2 2
left_child=1 3 6 -1 -3 -4 -2
right_child=2 4 5 -5 -6 -7 -8
leaf_value=-0.0067961379148694049 0.00043636961004577495 -0.0027991858120084341 0.0033993272132969228 -0.0045673776853516332 -0.00098860978452586647 0.0047392948115299689 0.0020517128723301901
leaf_weight=306.39999824762344 269.19999819993973 278.49999755620956 533.39999896287918 300.69999778270721 360.79999721050262 430.29999846220016 390.59999865293503
leaf_count=521 320 452 563 509 480 469 438
internal_value=6.2488e-05 -0.00368431 0.002939 -0.00569231 -0.00177739 0.00399768 0.00139267
internal_weight=2869.9 1246.4 1623.5 607.1 639.3 963.7 659.8
internal_count=3752 1962 1790 1030 932 1032 758
is_linear=0
shrinkage=0.0276786


Tree=26
num_leaves=8
num_cat=0
split_feature=31 4 1 8 2 34 21
split_gain=38.9795 5.41672 3.97191 0.809383 0.677131 0.607845 0.444176
threshold=0.021452188340363252 0.65401591410937765 -0.62447725906674878 1.1877748207610981 -1.127204840923911 -0.38685784080888891 0.29320155148891652
decision_type=2 2 2 2 2 2 2
left_child=2 6 4 -3 -1 -4 -2
right_child=1 3 5 -5 -6 -7 -8
leaf_value=-0.0067182901789623857 -0.00020663776490393326 0.0030739932609180035 -0.0034942628337154848 0.004590563939421268 -0.0048208743490263445 -0.0015091341017744002 0.001273505238573896
leaf_weight=280.09999841451645 344.69999766349792 690.7999986410141 203.89999812841415 442.29999834299088 297.09999817609787 281.09999752044678 282.6999985575676
leaf_count=477 414 734 312 484 518 426 324
internal_value=-2.88188e-06 0.00252359 -0.00419026 0.00366601 -0.00574174 -0.00234376 0.000460307
internal_weight=2822.7 1760.5 1062.2 1133.1 577.2 485 627.4
internal_count=3689 1956 1733 1218 995 738 738
is_linear=0
shrinkage=0.0276786


Tree=27
num_leaves=8
num_cat=0
split_feature=1 2 2 2 8 34 18
split_gain=37.968 5.2928 3.64887 0.7116 0.659215 0.648878 0.33111
threshold=0.16322696028265973 -0.63515229668609885 0.69917910966075725 -1.0132843894242745 1.1319169581669821 -0.20037908837690357 0.50632409362029729
decision_type=2 2 2 2 2 2 2
left_child=1 3 6 -1 -4 -3 -2
right_child=2 5 4 -5 -6 -7 -8
leaf_value=-0.006387321317116116 0.00041704218572433398 -0.0027591485570389721 0.0030285425881999574 -0.0044566988316168451 0.0044022530003244098 -0.00093563659221078648 0.0019050047389716897
leaf_weight=357.39999794960022 385.59999740123749 330.19999718666077 613.99999910593033 247.79999822378159 474.5999983549118 273.19999778270721 162.9999994635582
leaf_count=601 464 511 641 419 516 383 178
internal_value=-4.70054e-05 -0.00376799 0.00269987 -0.00559691 0.00362748 -0.00193355 0.000859172
internal_weight=2845.8 1208.6 1637.2 605.2 1088.6 603.4 548.6
internal_count=3713 1914 1799 1020 1157 894 642
is_linear=0
shrinkage=0.0276786


Tree=28
num_leaves=8
num_cat=0
split_feature=1 2 4 8 1 2 4
split_gain=35.1002 4.61919 3.8035 0.789056 0.704708 0.439373 0.402581
threshold=0.11503258627687046 -0.77384078044002313 0.64603267276404319 1.1877748207610981 -0.32372507113828225 -1.2086069345064638 0.44002570503951982
decision_type=2 2 2 2 2 2 2
left_child=1 5 6 -4 -3 -1 -2
right_child=2 4 3 -5 -6 -7 -8
leaf_value=-0.0066093849709509961 0.00013030080430603198 -0.0031901303577126033 0.0029088329841396596 0.0044179254939694769 -0.0013840095196259177 -0.0049532999897024003 0.0016871441774559078
leaf_weight=229.89999890327454 360.69999784231186 300.39999759197235 712.09999841451645 423.29999846220016 368.59999692440033 263.79999798536301 196.59999895095825
leaf_count=394 426 504 762 462 521 441 225
internal_value=8.92114e-06 -0.00369378 0.00255228 0.00347149 -0.00219504 -0.0057246 0.000679533
internal_weight=2855.4 1162.7 1692.7 1135.4 669 493.7 557.3
internal_count=3735 1860 1875 1224 1025 835 651
is_linear=0
shrinkage=0.0276786


Tree=29
num_leaves=8
num_cat=0
split_feature=1 3 18 35 3 4 5
split_gain=33.6331 4.00094 3.73352 0.822801 0.594378 0.495152 0.40058
threshold=0.075178238326055261 -0.71483917643680395 0.75679651415949523 -0.46073485440076073 -1.3124648730280546 0.52357975301672799 1.0811053990066537
decision_type=2 2 2 2 2 2 2
left_child=1 4 5 -3 -1 -2 -4
right_child=2 3 6 -5 -6 -7 -8
leaf_value=-0.0066061639161996777 0.00031615140723309336 -0.0034993422596594752 0.0028336612487951853 -0.001407700815044454 -0.0047026841499358107 0.001804115587489701 0.0039990893684243821
leaf_weight=209.39999884366989 412.79999732971191 227.99999815225601 354.99999910593033 391.49999666213989 314.79999804496765 292.89999896287918 622.19999802112579
leaf_count=352 493 373 379 585 539 326 674
internal_value=-2.11041e-05 -0.0036835 0.00246787 -0.00217755 -0.00546317 0.000933746 0.00357574
internal_weight=2826.6 1143.7 1682.9 619.5 524.2 705.7 977.2
internal_count=3721 1849 1872 958 891 819 1053
is_linear=0
shrinkage=0.0276786


Tree=30
num_leaves=8
num_cat=0
split_feature=1 4 2 12 1 2 2
split_gain=30.8723 4.15834 3.77753 0.635662 0.525202 0.444325 0.430693
threshold=0.031489162117482962 0.69900503681396653 -0.77384078044002313 1.0910430154554007 0.37778233377420156 -0.31775351055432427 -1.2807894750280917
decision_type=2 2 2 2 2 2 2
left_child=2 4 6 -3 -2 -4 -1
right_child=1 3 5 -5 -6 -7 -8
leaf_value=-0.0063448535656542284 -0.00022100823119640888 0.0026620337558516749 -0.0028467474961337679 0.004022182376311116 0.0013046700054381789 -0.0013270413281887626 -0.0047105925026100313
leaf_weight=215.0999990105629 317.29999768733978 509.09999877214432 321.79999738931656 545.29999822378159 379.69999843835831 271.9999977350235 290.79999798536301
leaf_count=367 395 547 522 590 422 404 489
internal_value=-1.33049e-05 0.00226895 -0.00364806 0.00336549 0.000610131 -0.00215065 -0.00540556
internal_weight=2851.1 1751.4 1099.7 1054.4 697 593.8 505.9
internal_count=3736 1954 1782 1137 817 926 856
is_linear=0
shrinkage=0.0276786


Tree=31
num_leaves=8
num_cat=0
split_feature=1 1 17 2 27 43 40
split_gain=29.768 3.80476 3.50022 0.511039 0.493522 0.455373 0.329514
threshold=0.075178238326055261 -0.62447725906674878 0.65049511696160034 -1.3524282308955249 0.2892379327220132 0.91828588965148816 0.23282029583131197
decision_type=2 2 2 2 2 2 2
left_child=1 3 6 -1 -3 -4 -2
right_child=2 4 5 -5 -6 -7 -8
leaf_value=-0.0063589554233146267 -0.00015384165756907858 -0.0013111402951149489 0.0023469652280255098 -0.0045280556301298888 -0.0030870577852978526 0.0036295677156674882 0.0011599230793335525
leaf_weight=163.09999924898148 229.89999848604202 394.09999644756317 291.59999930858612 412.1999973654747 172.29999870061874 778.29999762773514 401.99999803304672
leaf_count=279 275 593 314 715 257 840 461
internal_value=-4.26295e-06 -0.00346181 0.00231533 -0.00504722 -0.00185142 0.00328002 0.000681948
internal_weight=2843.5 1141.7 1701.8 575.3 566.4 1069.9 631.9
internal_count=3734 1844 1890 994 850 1154 736
is_linear=0
shrinkage=0.0276786


Tree=32
num_leaves=8
num_cat=0
split_feature=2 18 3 27 35 5 27
split_gain=28.4726 3.90606 3.10937 0.773741 0.468985 0.416962 0.39023
threshold=-0.037212031018601294 0.72710967215965583 -0.78773338791622571 0.404733032140004 0.55529719418049917 0.92876862348112532 0.97550590331356435
decision_type=2 2 2 2 2 2 2
left_child=2 4 6 -4 -2 -3 -1
right_child=1 5 3 -5 -6 -7 -8
leaf_value=-0.0043236474947698405 0.00015070981404830292 0.002218945763720003 -0.001497502287481032 -0.0036349135095634991 0.0015930176525729067 0.0035647791383549253 -0.005902499233274106
leaf_weight=215.39999860525131 501.99999642372131 227.0999995470047 390.19999659061432 194.39999860525131 263.29999929666519 790.39999788999557 271.09999853372574
leaf_count=359 626 240 598 305 290 845 466
internal_value=-2.06227e-06 0.00214083 -0.00356881 -0.00220832 0.000646948 0.00326442 -0.00520356
internal_weight=2853.9 1782.8 1071.1 584.6 765.3 1017.5 486.5
internal_count=3729 2001 1728 903 916 1085 825
is_linear=0
shrinkage=0.0276786


Tree=33
num_leaves=8
num_cat=0
split_feature=1 4 2 9 31 17 6
split_gain=27.0244 4.50437 2.14199 0.755176 0.421496 0.382428 0.325419
threshold=-0.098917580272049735 0.60779711701445127 -0.90988003097262959 0.85593220338983056 -0.50385345054965558 0.25744306645130161 -1.3597058957736607
decision_type=2 2 2 2 2 2 2
left_child=2 5 6 -3 -4 -2 -1
right_child=1 3 4 -5 -6 -7 -8
leaf_value=-0.0064542720259063713 -0.00034754292068512948 0.0024214147635536905 -0.0034316740342583436 0.0038933780096721505 -0.0019469669355213159 0.00093462574017358466 -0.0047388870599630638
leaf_weight=116.29999941587448 424.99999684095383 713.49999868869781 272.49999821186066 426.79999840259552 316.89999705553055 306.89999824762344 313.1999979019165
leaf_count=193 534 757 475 467 480 355 531
internal_value=-8.94345e-05 0.00188471 -0.00371685 0.00297238 -0.00263344 0.0001901 -0.00520351
internal_weight=2891.1 1872.2 1018.9 1140.3 589.4 731.9 429.5
internal_count=3792 2113 1679 1224 955 889 724
is_linear=0
shrinkage=0.0276786


Tree=34
num_leaves=8
num_cat=0
split_feature=34 31 5 27 9 34 7
split_gain=24.4291 3.44851 2.95846 0.578721 0.455095 0.441451 0.433688
threshold=0.063134810589983117 -0.64197788006784873 0.7844837636507247 0.15146444658221195 0.093220338983050863 0.47197082883361158 1.0433414317637479
decision_type=2 2 2 2 2 2 2
left_child=1 4 5 -3 -1 -2 -4
right_child=2 3 6 -5 -6 -7 -8
leaf_value=-0.006047001312251608 8.8921916767248105e-05 -0.00089489340618939279 0.0025935253400757195 -0.0026503762815766017 -0.0041848392988763907 0.0014663298937760546 0.0037975985280446051
leaf_weight=130.59999936819077 325.39999771118164 357.19999676942825 444.89999908208847 240.89999806880951 437.89999723434448 394.19999885559082 472.89999824762344
leaf_count=240 399 527 472 353 743 432 517
internal_value=-8.4734e-06 -0.00306919 0.0021722 -0.00160199 -0.00461272 0.000843482 0.00321396
internal_weight=2804 1166.6 1637.4 598.1 568.5 719.6 917.8
internal_count=3683 1863 1820 880 983 831 989
is_linear=0
shrinkage=0.0276786


Tree=35
num_leaves=8
num_cat=0
split_feature=1 3 1 2 9 4 8
split_gain=23.9408 3.21666 2.43787 0.612629 0.455151 0.43149 0.406447
threshold=0.12591792822340983 -0.65336143060613638 0.81811709510521313 -0.30184906986509136 0.093220338983050863 0.41248447292052598 1.343402074774467
decision_type=2 2 2 2 2 2 2
left_child=1 4 5 -3 -1 -2 -4
right_child=2 3 6 -5 -6 -7 -8
leaf_value=-0.0059768985502995477 0.00018900523216696359 -0.0025292273259042838 0.0026677489010875927 -0.00079005987134853214 -0.0040950917516636562 0.001558065483338023 0.0038492457030813798
leaf_weight=129.79999947547913 303.09999799728394 298.89999741315842 583.69999897480011 322.69999724626541 408.79999732971191 421.79999846220016 361.19999837875366
leaf_count=242 362 470 612 467 682 471 402
internal_value=7.10702e-05 -0.00298303 0.00219311 -0.00162638 -0.0045487 0.000985636 0.00311943
internal_weight=2830 1160.2 1669.8 621.6 538.6 724.9 944.9
internal_count=3708 1861 1847 937 924 833 1014
is_linear=0
shrinkage=0.0276786


Tree=36
num_leaves=8
num_cat=0
split_feature=1 37 5 27 50 4 2
split_gain=22.274 3.10619 2.42672 0.643145 0.420617 0.364858 0.283921
threshold=0.11503258627687046 -0.77305670565406459 0.7844837636507247 0.2892379327220132 1.1142646023743052 0.44002570503951982 -1.4015690349486443
decision_type=2 2 2 2 2 2 2
left_child=1 6 5 -3 -4 -2 -1
right_child=2 3 4 -5 -6 -7 -8
leaf_value=-0.005688256865382226 0.00019299984482046772 -0.001111246473756542 0.0024459964749242833 -0.0029056911805637338 0.0036017449461924443 0.0014385963767231727 -0.0041823516699923298
leaf_weight=132.99999940395355 332.79999792575836 465.29999577999115 518.69999903440475 227.99999839067459 451.19999825954437 392.7999986410141 345.09999763965607
leaf_count=229 396 705 545 365 495 435 586
internal_value=5.01127e-05 -0.00288504 0.00207798 -0.0017014 0.00298368 0.000867308 -0.00460138
internal_weight=2866.9 1171.4 1695.5 693.3 969.9 725.6 478.1
internal_count=3756 1885 1871 1070 1040 831 815
is_linear=0
shrinkage=0.0276786


Tree=37
num_leaves=8
num_cat=0
split_feature=2 3 5 34 2 3 11
split_gain=21.5895 2.90731 2.16863 0.566923 0.456199 0.401643 0.374943
threshold=0.11675857366491697 -0.6737289663349334 0.7844837636507247 -0.3227412048140722 -1.2660169169266287 0.24011380649333589 0.79187015225509927
decision_type=2 2 2 2 2 2 2
left_child=1 4 5 -3 -1 -2 -4
right_child=2 3 6 -5 -6 -7 -8
leaf_value=-0.0052479950000966624 -0.00039984948084941267 -0.0024014028337083341 0.0026022993880477703 -0.00078382104692186546 -0.00360641021411024 0.0012707266220738406 0.0037910258389176549
leaf_weight=205.29999887943268 136.49999898672104 300.1999973654747 652.89999878406525 371.29999715089798 352.59999752044678 573.29999756813049 295.29999858140945
leaf_count=356 173 477 687 514 590 644 331
internal_value=4.55232e-05 -0.0027339 0.00210646 -0.001507 -0.00421057 0.00094946 0.00297254
internal_weight=2887.4 1229.4 1658 671.5 557.9 709.8 948.2
internal_count=3772 1937 1835 991 946 817 1018
is_linear=0
shrinkage=0.0276786


Tree=38
num_leaves=8
num_cat=0
split_feature=2 18 3 26 27 9 49
split_gain=19.8262 3.10808 1.94266 0.576444 0.537455 0.350993 0.238495
threshold=-0.10098169898824839 0.53789513717639281 -0.8654260926960391 0.87173914793724772 0.404733032140004 0.60169491525423735 -0.62735578941847236
decision_type=2 2 2 2 2 2 2
left_child=2 5 6 -3 -4 -2 -1
right_child=1 3 4 -5 -6 -7 -8
leaf_value=-0.004169093485786199 0.00066547014329334424 0.0019271423704300601 -0.0014394806198830248 0.0031510589979310204 -0.0031580043090873758 -0.00069574530804517064 -0.0057814228251935355
leaf_weight=328.8999981880188 424.09999603033066 546.79999870061874 385.89999669790268 639.89999812841415 218.29999840259552 220.59999942779541 89.499999523162842
leaf_count=597 572 586 599 687 352 235 119
internal_value=2.28577e-05 0.0017467 -0.0030644 0.00258713 -0.00206043 0.000199692 -0.00451411
internal_weight=2854 1831.4 1022.6 1186.7 604.2 644.7 418.4
internal_count=3747 2080 1667 1273 951 807 716
is_linear=0
shrinkage=0.0276786


Tree=39
num_leaves=8
num_cat=0
split_feature=1 3 4 2 26 2 9
split_gain=19.3385 2.55716 2.15431 0.526532 0.466174 0.413804 0.379246
threshold=0.16322696028265973 -0.69048785804999513 0.60779711701445127 -0.31775351055432427 0.86026734018661555 -1.2955554994886833 0.58474576271186451
decision_type=2 2 2 2 2 2 2
left_child=1 5 6 -3 -4 -1 -2
right_child=2 3 4 -5 -6 -7 -8
leaf_value=-0.0051491356600875029 0.0012216880786185683 -0.0023713540712514227 0.001979953590417602 -0.0008222645960910814 0.0030968416123242108 -0.003538349642621254 -0.00037191966684081495
leaf_weight=188.39999902248383 209.09999811649323 314.89999723434448 526.89999884366989 360.59999710321426 627.19999825954437 348.09999769926071 252.59999930858612
leaf_count=317 270 494 563 522 671 592 270
internal_value=-3.46619e-05 -0.0026775 0.00194772 -0.00154443 0.00258695 -0.00410408 0.00034982
internal_weight=2827.8 1212 1615.8 675.5 1154.1 536.5 461.7
internal_count=3699 1925 1774 1016 1234 909 540
is_linear=0
shrinkage=0.0276786


Tree=40
num_leaves=8
num_cat=0
split_feature=2 2 5 27 27 11 19
split_gain=17.2542 2.89193 1.87364 0.43359 0.403993 0.357354 0.328975
threshold=0.11675857366491697 -0.63515229668609885 0.7844837636507247 1.1342379427970328 0.22566012756647358 0.79187015225509927 0.32443126365531894
decision_type=2 2 2 2 2 2 2
left_child=1 3 6 -1 -3 -4 -2
right_child=2 4 5 -5 -6 -7 -8
leaf_value=-0.0033281870790180493 -5.7352917128911344e-05 -0.00072783074682339431 0.0022962612009610815 -0.0049017194921469011 -0.0022475149430767442 0.0034577510391151649 0.0012022530427343281
leaf_weight=387.59999734163284 235.19999831914902 444.29999607801437 628.09999883174896 205.29999887943268 191.8999987244606 299.89999848604202 489.29999840259552
leaf_count=653 295 648 661 353 285 338 536
internal_value=1.03741e-06 -0.00248237 0.00184816 -0.00387312 -0.00118625 0.00267165 0.000793341
internal_weight=2881.6 1229.1 1652.5 592.9 636.2 928 724.5
internal_count=3769 1939 1830 1006 933 999 831
is_linear=0
shrinkage=0.0276786


Tree=41
num_leaves=8
num_cat=0
split_feature=2 2 17 3 27 5 36
split_gain=17.5423 2.77781 1.37898 0.411634 0.377554 0.331226 0.235961
threshold=0.17259906095730024 -0.61720895505537787 0.65049511696160034 -1.2937430264863665 0.20663340324577731 0.7844837636507247 -0.19213190289826906
decision_type=2 2 2 2 2 2 2
left_child=1 3 6 -1 -3 -4 -2
right_child=2 4 5 -5 -6 -7 -8
leaf_value=-0.0047602836549116186 -0.00038373289280673015 -0.00072391265427453023 0.0014984588079190884 -0.003250288075753764 -0.0021557647241603603 0.0027304780102610877 0.001061178759996674
leaf_weight=210.29999893903732 110.39999938011169 447.69999593496323 206.89999943971634 404.49999731779099 205.99999874830246 871.69999760389328 401.29999768733978
leaf_count=356 131 653 225 686 300 934 468
internal_value=-3.63587e-06 -0.00243129 0.00193278 -0.00376687 -0.00117516 0.00249416 0.000749434
internal_weight=2858.8 1268.5 1590.3 614.8 653.7 1078.6 511.7
internal_count=3753 1995 1758 1042 953 1159 599
is_linear=0
shrinkage=0.0276786


Tree=42
num_leaves=8
num_cat=0
split_feature=2 3 2 26 18 26 9
split_gain=16.7574 3.08107 1.17336 0.571362 0.3262 0.256497 0.211713
threshold=-0.21409497439235536 0.65205492241900764 -0.94986377470595185 0.811101775641908 0.15810300251396089 -0.46110347299724036 0.076271186440677971
decision_type=2 2 2 2 2 2 2
left_child=2 4 6 -3 -2 -4 -1
right_child=1 3 5 -5 -6 -7 -8
leaf_value=-0.0052744314901550819 -0.00056694871446207908 0.0015870421867977655 -0.0017220032700041936 0.0028094548957259724 0.000576489888467706 -0.0029712836835939301 -0.0038003705870284939
leaf_weight=97.999999642372131 345.09999710321426 499.69999879598618 337.19999718666077 708.09999805688858 428.399997651577 200.99999850988388 314.49999785423279
leaf_count=184 483 539 576 757 495 287 509
internal_value=-1.92202e-05 0.00143025 -0.00303997 0.00230373 6.63387e-05 -0.00218861 -0.00415069
internal_weight=2932 1981.3 950.7 1207.8 773.5 538.2 412.5
internal_count=3830 2274 1556 1296 978 863 693
is_linear=0
shrinkage=0.0276786


Tree=43
num_leaves=8
num_cat=0
split_feature=1 3 2 12 9 31 9
split_gain=16.0186 2.60841 1.02978 0.441022 0.320327 0.299294 0.165985
threshold=-0.13506579148246914 0.62326987790212629 -1.0264790342423811 1.0910430154554007 0.6186440677966103 -0.52034998049559655 0.24576271186440676
decision_type=2 2 2 2 2 2 2
left_child=2 4 6 -3 -2 -4 -1
right_child=1 3 5 -5 -6 -7 -8
leaf_value=-0.0038533693993461522 0.00049568700796547873 0.0017655942689235782 -0.0028495236470914538 0.0028351510035622474 -0.00083519480238014338 -0.0016090518735819772 -0.0054195002914530863
leaf_weight=284.29999834299088 519.69999569654465 635.29999852180481 305.49999803304672 552.09999805688858 188.89999955892563 290.99999725818634 63.499999701976776
leaf_count=513 674 681 533 601 200 445 78
internal_value=2.92298e-06 0.00146985 -0.00294241 0.00226292 0.00014089 -0.0022444 -0.00413945
internal_weight=2840.3 1896 944.3 1187.4 708.6 596.5 347.8
internal_count=3725 2156 1569 1282 874 978 591
is_linear=0
shrinkage=0.0276786


Tree=44
num_leaves=8
num_cat=0
split_feature=34 17 31 26 5 31 27
split_gain=14.4547 2.39502 1.44948 0.382218 0.341651 0.339878 0.299833
threshold=-0.097771583041410273 0.65049511696160034 -0.75430380932232788 -0.59685630562080572 1.0045739183669402 0.44951209052624835 0.96350147488120086
decision_type=2 2 2 2 2 2 2
left_child=2 5 6 -4 -3 -2 -1
right_child=1 4 3 -5 -6 -7 -8
leaf_value=-0.002954254707167263 -0.00015210376457835948 0.0016488262136447444 -0.0006686121069745802 -0.0021963522520836646 0.0026925486852855348 0.0010286278808073375 -0.0043400359730279775
leaf_weight=217.29999870061874 468.89999639987946 364.99999910593033 199.59999853372574 337.79999715089798 703.49999797344208 310.39999890327454 266.39999860525131
leaf_count=377 601 396 350 476 756 341 464
internal_value=2.45449e-05 0.00148503 -0.00261835 -0.00162895 0.00233603 0.000318195 -0.00371755
internal_weight=2868.9 1847.8 1021.1 537.4 1068.5 779.3 483.7
internal_count=3761 2094 1667 826 1152 942 841
is_linear=0
shrinkage=0.0276786


Tree=45
num_leaves=8
num_cat=0
split_feature=1 2 17 3 5 13 27
split_gain=13.4359 1.91405 1.58495 0.499728 0.445648 0.34417 0.276925
threshold=0.11503258627687046 -0.45546336658883463 0.5385064110384471 -1.3586911983948495 1.0045739183669402 -0.38024182305262583 -0.19610033935573368
decision_type=2 2 2 2 2 2 2
left_child=1 3 6 -1 -4 -3 -2
right_child=2 5 4 -5 -6 -7 -8
leaf_value=-0.0044014553320320619 0.00064222915560068817 -1.5077035025917337e-05 0.0015150334628755316 -0.0027354594072949564 0.0025937750263201453 -0.0015225766403319954 -0.00088222713208311828
leaf_weight=190.59999895095825 342.89999753236771 191.69999837875366 509.59999853372574 499.59999650716782 691.6999979019165 293.89999741315842 124.39999961853027
leaf_count=322 414 321 552 847 746 392 139
internal_value=7.26696e-06 -0.00225888 0.00160414 -0.00319558 0.00213618 -0.000927475 0.000236392
internal_weight=2844.4 1175.8 1668.6 690.2 1201.3 485.6 467.3
internal_count=3733 1882 1851 1169 1298 713 553
is_linear=0
shrinkage=0.0276786


end of trees

feature_importances:
SP.DYN.LE00.MA.IN=87
SP.DYN.LE00.FE.IN=56
SP.DYN.TO65.FE.ZS=22
SP.DYN.LE60.FE.IN=19
SP.DYN.LE00.MA.IN_ma3=19
SP.DYN.CDRT.IN=18
SP.DYN.TO65.MA.ZS=15
SP.DYN.LE00.FE.IN_lag1=11
SP.DYN.LE00.MA.IN_ma5=11
year_linear=10
SP.POP.65UP.TO=9
SP.DYN.LE00.MA.IN_lag1=8
SP.URB.TOTL=7
SP.DYN.LE00.FE.IN_ma3=7
SP.POP.80UP.MA=3
SP.POP.65UP.MA.IN_ma3=3
year_squared=2
SP.DYN.TO65.FE.ZS_lag1=2
SP.DYN.LE00.FE.IN_ma5=2
SP.POP.65UP.MA.IN_ma5=2
SP.DYN.LE60.MA.IN=1
SP.POP.65UP.MA.IN=1
SP.POP.1564.FE.IN=1
SP.DYN.TO65.MA.ZS_lag1=1
SP.DYN.LE60.FE.IN_lag1=1
SP.DYN.LE00.MA.IN_accel=1
SP.DYN.TO65.FE.ZS_ma3=1
SP.DYN.TO65.MA.ZS_ma3=1
SP.DYN.LE60.FE.IN_ma3=1

parameters:
[boosting: gbdt]
[objective: regression]
[metric: rmse]
[tree_learner: serial]
[device_type: cpu]
[data_sample_strategy: bagging]
[data: ]
[valid: ]
[num_iterations: 1551]
[learning_rate: 0.0276786]
[num_leaves: 16]
[num_threads: -1]
[seed: 42]
[deterministic: 0]
[force_col_wise: 0]
[force_row_wise: 0]
[histogram_pool_size: -1]
[max_depth: 3]
[min_data_in_leaf: 96]
[min_sum_hessian_in_leaf: 0.00622328]
[bagging_fraction: 0.54796]
[pos_bagging_fraction: 1]
[neg_bagging_fraction: 1]
[bagging_freq: 1]
[bagging_seed: 400]
[bagging_by_query: 0]
[feature_fraction: 0.878678]
[feature_fraction_bynode: 1]
[feature_fraction_seed: 30056]
[extra_trees: 0]
[extra_seed: 12879]
[early_stopping_round: 0]
[early_stopping_min_delta: 0]
[first_metric_only: 0]
[max_delta_step: 0]
[lambda_l1: 2.71508e-05]
[lambda_l2: 0.00950012]
[linear_lambda: 0]
[min_gain_to_split: 0]
[drop_rate: 0.1]
[max_drop: 50]
[skip_drop: 0.5]
[xgboost_dart_mode: 0]
[uniform_drop: 0]
[drop_seed: 17869]
[top_rate: 0.2]
[other_rate: 0.1]
[min_data_per_group: 100]
[max_cat_threshold: 32]
[cat_l2: 10]
[cat_smooth: 10]
[max_cat_to_onehot: 4]
[top_k: 20]
[monotone_constraints: ]
[monotone_constraints_method: basic]
[monotone_penalty: 0]
[feature_contri: ]
[forcedsplits_filename: ]
[refit_decay_rate: 0.9]
[cegb_tradeoff: 1]
[cegb_penalty_split: 0]
[cegb_penalty_feature_lazy: ]
[cegb_penalty_feature_coupled: ]
[path_smooth: 0]
[interaction_constraints: ]
[verbosity: -1]
[saved_feature_importance_type: 0]
[use_quantized_grad: 0]
[num_grad_quant_bins: 4]
[quant_train_renew_leaf: 0]
[stochastic_rounding: 1]
[linear_tree: 0]
[max_bin: 325]
[max_bin_by_feature: ]
[min_data_in_bin: 7]
[bin_construct_sample_cnt: 200000]
[data_random_seed: 175]
[is_enable_sparse: 1]
[enable_bundle: 1]
[use_missing: 1]
[zero_as_missing: 0]
[feature_pre_filter: 1]
[pre_partition: 0]
[two_round: 0]
[header: 0]
[label_column: ]
[weight_column: ]
[group_column: ]
[ignore_column: ]
[categorical_feature: ]
[forcedbins_filename: ]
[precise_float_parser: 0]
[parser_config_file: ]
[objective_seed: 16083]
[num_class: 1]
[is_unbalance: 0]
[scale_pos_weight: 1]
[sigmoid: 1]
[boost_from_average: 1]
[reg_sqrt: 0]
[alpha: 0.9]
[fair_c: 1]
[poisson_max_delta_step: 0.7]
[tweedie_variance_power: 1.5]
[lambdarank_truncation_level: 30]
[lambdarank_norm: 1]
[label_gain: ]
[lambdarank_position_bias_regularization: 0]
[eval_at: ]
[multi_error_top_k: 1]
[auc_mu_weights: ]
[num_machines: 1]
[local_listen_port: 12400]
[time_out: 120]
[machine_list_filename: ]
[machines: ]
[gpu_platform_id: -1]
[gpu_device_id: -1]
[gpu_use_dp: 0]
[num_gpu: 1]

end of parameters

pandas_categorical:[]
