tree
version=v4
num_class=1
num_tree_per_iteration=1
label_index=0
max_feature_idx=39
objective=regression
feature_names=SP.DYN.CBRT.IN SP.DYN.TFRT.IN health_risk_compound ER.FSH.AQUA.MT SP.POP.0014.TO.ZS SP.ADO.TFRT SP.POP.65UP.TO SP.POP.DPND.YG SP.POP.1564.TO SP.DYN.CBRT.IN_lag1 SP.DYN.TFRT.IN_lag1 SP.POP.80UP.FE SH.DTH.MORT SH.DTH.MORT.MA gdp_x_technology NY.GDP.MKTP.KD IT.MLT.MAIN SH.DTH.MORT.FE NY.GDP.MKTP.CN EN.GHG.CO2.TR.MT.CE.AR5 SP.POP.0014.MA.ZS year_squared SP.DYN.CBRT.IN_ma3 SP.DYN.CBRT.IN_ma5 SP.DYN.CBRT.IN_accel SP.DYN.TFRT.IN_ma3 SP.DYN.TFRT.IN_ma5 SP.DYN.TFRT.IN_accel health_risk_compound_ma3 health_risk_compound_ma5 health_risk_compound_accel ER.FSH.AQUA.MT_ma3 ER.FSH.AQUA.MT_ma5 ER.FSH.AQUA.MT_accel SP.POP.0014.TO.ZS_ma3 SP.POP.0014.TO.ZS_ma5 SP.POP.0014.TO.ZS_accel SP.ADO.TFRT_ma3 SP.ADO.TFRT_ma5 SP.ADO.TFRT_accel
feature_infos=[-2.6551635657428894:2.507113995271347] [-3.193626513070984:2.4965925985620192] [0:1] [-2.207308301610976:5] [-3.00240816951312:2.6189825814523267] [-3.2189248379708091:2.5362835700200641] [-1.6175352270759429:2.9244719584996868] [-2.8341972974609528:2.795565606482632] [-3.5332415768482242:2.3192837955098131] [-2.5369076546482305:2.4997272163420994] [-3.0324705699350063:2.5661529575140927] [-2.0004274261634829:2.6957892827505718] [-3.2054997854275031:3.8828833834187217] [-3.473885596151586:3.8450463090538896] [-1.8533400775379096:2.3603902413944304] [-1.9862194670159536:3.7698967282442446] [-2.4420901957431762:3.8058731600381912] [-2.90950976254488:3.9216833503433648] [-1.7381519233039733:5] [-3.0971175332376251:3.3345067269609201] [-2.9065720730264371:2.6987581050839027] [0.0071818442976156003:0.96638896868715896] [-2.5807540915090281:2.274352821831521] [-2.4974170329904557:2.1657309408929359] [-176.00337837838455:178.00568181818798] [-3.1130485415029958:2.3431913870534609] [-3.0390039189810598:2.2537506806823684] [-380.12418725153071:384.50141442251078] [0.0001359249694168:1] [0.0001767024602419:1] [-169.10008024766208:169.09025448237205] [-1.9517512710368696:4.191433397535091] [-1.8034150431300424:3.7457753611164741] [-601.35098835046426:602.11306494202688] [-3.0005987131828675:2.2223696151620791] [-2.7581881099293639:1.9306013017639905] [-97.671297451693306:99.504079287503714] [-3.1917561914811441:2.434097019835114] [-3.1231837035095467:2.3044634689108312] [-3990.1980343069449:3992.3480991619008]
tree_sizes=2560 2756 2672 2819 2683 2795 2609 2594 2520 2718 2900 2889 2582 2688 2929 2563 3015 2824 2595 2772 2558 2817 2584 2482 2873 2641 2468 2881 2226 2129 2633 2719 2759 2712 2764 2597 2513 2515 2676 2550 2569 2457 2433 2473 2707 2763 2919 2695 2052 2246 2691 2497 2246 2625 2611 2636 2840 2361 2697 2320 2237 2349 2685 2438 2385 2791 2378 2537 2519 2336 2703 2336 2227 2270 2520 2428 2668 2298 2360 2373 2654 2585 2575 2338 2554 2171 2249 2140 2303 2510 2472 1883 2017 2199 2345 2608 2368 2398 2623 2782 2425 2338 2320 2232 2338 2343 2574 2124 2552 2261 2320 2281 2229 2502 2830 2224 2474 1974 2186 2622 2254 2476 1927 2242 2441 2324 2698 2062 2469 2639 1891 2141 2538 2591 2664 2337 1989 2350 2115 2361 2508 2204 2512 2462 2609 2394 2192 1968 2213 2121 2245 2267 2575 2507 2176 1722 1791 1625 2385 2657 2098 2285 2347 2012 2439 2142 2045 2067 2065 2312 2145 2272 2181 2144 2338 2400 2372 2201 2222 2604 2066 2405 2596 2585 2211 1692 2145 2213 2077 1744 2736 2706 2389 2685 2518 2315 2114 2028 2304 1863 2620 2602 2404 2509 2752 2599 1832 1916 2077 2495 1718 1387 2482 1605 2261 2368 2085 2232 1613 2780 1879 2553 2845 2186 2005 2515 1895 1538 1639 2680 2532 2080 1866 2009 1868 1969 2355 2887 2343 1906 2702 2362 1650 1876 2821 2204 2299 2275 2326 2106 2294 2179 1881 2760 2219 2309 1877 1682 1994 2502 2099 2059 2384 2900 1461 1830 2375 2085 1979 1686 1889 1834 1882 3043 1973 1687 2160 2151 1868 2568 2499 2342 2657 1842 2728 1747 1467 2684 1401 1808 2549 2029 1894 2621 2025 1702 1577 1376 2610 1767 2509 1841 1917 2122 1598 2445 1243

Tree=0
num_leaves=24
num_cat=0
split_feature=2 2 2 34 1 2 17 2 2 2 17 2 2 2 17 29 19 17 17 15 17 17 3
split_gain=87.5843 9.94959 9.568 4.56154 4.09458 1.98401 1.29683 1.11051 0.950928 0.844132 0.721397 0.64825 0.602694 0.573205 0.454543 0.369097 0.369075 0.299173 0.236733 0.216729 0.140385 0.0974884 0.0745609
threshold=0.44536376071025291 0.74536034372638793 0.16596961320140904 0.29383802199589865 0.14599268338155202 0.37477773749290511 -0.69042798789494009 0.04516193093724321 0.84290023993181207 0.66479536213061807 -0.24140279696816197 0.54146913144230002 0.35380528843280085 0.10449539233288087 -0.39639512865576543 0.16301916943297667 -1.3556561812407535 0.16700461286888713 0.25100983704571561 0.27332118120397392 0.083343365732718652 -0.25085849120078868 0.39183838940325727
decision_type=2 2 2 2 2 2 2 2 2 2 2 2 2 2 2 2 2 2 2 2 2 2 2
left_child=2 6 4 5 13 14 9 -6 -3 19 -7 17 16 -1 -4 -9 -5 -8 -14 -2 -15 -13 -11
right_child=1 8 3 12 7 10 11 15 -10 22 -12 21 18 20 -16 -17 -18 -19 -20 -21 -22 -23 -24
leaf_value=0.79454488560827774 0.8060959601925799 0.80836266404710289 0.79827536197363991 0.80604100484812802 0.79744530290873095 0.80190855839453834 0.80558915090250827 0.80243031265451625 0.80956697683207901 0.80720607997992078 0.80550786330464152 0.80709180730073748 0.80459349924006751 0.79651788983274485 0.80102210680079167 0.79863339142885892 0.80347642991582346 0.80712083610538798 0.80641256043767628 0.80408261730673691 0.80030548970438087 0.80793388878622274 0.80636345431381917
leaf_weight=69.499999403953552 36.49999988079071 344.99999868869781 74.099999725818634 31.399999618530273 32.79999965429306 60.299999713897705 98.499999046325684 98.699998915195465 990.49999779462814 51.099999845027924 37.699999749660492 139.09999918937683 31.699999690055847 33.299999833106995 77.999999344348907 17.499999821186066 156.1999985575676 69.799999356269836 53.799999415874481 96.199999809265137 27.199999690055847 192.29999846220016 44.799999833106995
leaf_count=89 40 390 81 50 54 68 128 159 1050 55 44 162 44 39 97 29 240 99 82 101 35 261 49
internal_value=0.806363 0.808334 0.801285 0.802765 0.798545 0.800975 0.806617 0.800749 0.809264 0.805508 0.803189 0.807144 0.804442 0.796098 0.799617 0.80177 0.803851 0.806285 0.805858 0.804559 0.798051 0.807611 0.806715
internal_weight=2866 2063.8 802.2 523.2 279 250.1 728.3 149 1335.5 228.6 98 499.7 273.1 130 152.1 116.2 187.6 168.3 85.5 132.7 60.5 331.4 95.9
internal_count=3446 2335 1111 706 405 290 895 242 1440 245 112 650 416 163 178 188 290 227 126 141 74 423 104
is_linear=0
shrinkage=1


Tree=1
num_leaves=25
num_cat=0
split_feature=2 2 2 35 1 2 2 2 2 18 2 7 2 29 19 14 11 2 15 35 29 14 14 27
split_gain=84.5061 9.59316 9.22603 4.43128 3.9395 1.90977 1.06328 0.91358 0.774825 0.628243 0.610681 0.590946 0.539043 0.350743 0.316135 0.217722 0.207811 0.204675 0.163817 0.133848 0.073758 0.0723677 0.107839 0.0554075
threshold=0.44536376071025291 0.74536034372638793 0.16596961320140904 0.29382183187250338 0.14599268338155202 0.37477773749290511 0.04516193093724321 0.84290023993181207 0.54146913144230002 1.0108171875254184 0.37477773749290511 0.041309621572810852 0.10449539233288087 0.16301916943297667 -1.3556561812407535 0.024523110168181754 0.77103787866882489 0.70110398015264896 -0.40342752863154258 -0.48507182346900829 0.39928105387150614 0.40949862085651439 -0.15722896692076832 -0.099165268886917637
decision_type=2 2 2 2 2 2 2 2 2 2 2 2 2 2 2 2 2 2 2 2 2 2 2 2
left_child=2 8 4 5 12 19 -6 21 11 15 14 18 -1 -8 -5 -10 -7 -11 -2 -4 -12 22 -3 -13
right_child=1 7 3 10 6 16 13 -9 9 17 20 23 -14 -15 -16 -17 -18 -19 -20 -21 -22 -23 -24 -25
leaf_value=-0.01160459250763143 0 0.00079485966409296104 -0.0079880572121053036 -0.00030930328579837734 -0.0087566877028684206 -0.0023259298570613026 -0.003861931672979462 0.0031455223412662466 0.0010720075119979575 -0.0015345773047914049 0.00034882649366622069 -0.00031215319226949266 -0.0081648093174847298 -0.007590109936911618 -0.0026701289725599036 0 -0.0049071583618774048 0.00016420996019785215 -0.0022197387520168643 -0.005735754443997816 -0.00077619268383443492 0.0010278373937415658 0.0023150388079339309 0.00043472780984143961
leaf_weight=69.499999403953552 22.199999809265137 39.699999749660492 56.29999977350235 32.099999606609344 32.79999965429306 71.79999965429306 98.699998915195465 990.49999779462814 379.69999748468399 49.699999809265137 26.499999761581421 41.899999499320984 60.499999523162842 17.499999821186066 177.19999831914902 60.699999988079071 27.199999809265137 25.699999868869781 68.099999725818634 95.099999308586121 36.999999582767487 63.399999856948853 241.89999908208847 80.299999237060547
leaf_count=89 28 46 62 51 54 81 159 1050 475 55 40 59 74 29 271 61 32 29 75 115 54 67 277 113
internal_value=0 0.00193541 -0.0049894 -0.00353499 -0.00768005 -0.00529729 -0.00551498 0.00284772 0.000248407 0.000637599 -0.00187979 -0.000648017 -0.0100827 -0.00451167 -0.00235705 0.000910359 -0.00313871 -0.000819535 -0.0017667 -0.00664104 -0.000145194 0.00196301 0.00213714 9.47137e-05
internal_weight=2866 2063.8 802.2 523.2 279 250.4 149 1335.5 728.3 515.8 272.8 212.5 130 116.2 209.3 440.4 99 75.4 90.3 151.4 63.5 345 281.6 122.2
internal_count=3446 2335 1111 706 405 290 242 1440 895 620 416 275 163 188 322 536 113 84 103 177 94 390 323 172
is_linear=0
shrinkage=0.0181051


Tree=2
num_leaves=24
num_cat=0
split_feature=28 28 34 28 28 28 28 17 28 13 17 30 11 28 34 13 13 32 28 30 0 11 28
split_gain=78.2071 10.6709 6.41334 4.31554 3.18312 1.19918 1.15341 1.14138 1.27937 0.867396 0.842687 0.376961 0.347472 0.319669 0.279239 0.227308 0.21842 0.196239 0.185196 0.167011 0.129975 0.0241004 0.0141965
threshold=0.42007156161352871 0.72170371670415412 0.29383802199589865 0.27027094492958359 0.08196495801954197 0.26156454868939899 0.83860674314575101 -0.18054679874098337 0.5842182159535535 0.019192756380621501 0.54376029640685697 -0.18912376287053831 -0.023079743953600549 0.04085897967703906 0.56949557989652833 0.39645001018118592 -0.91220708847913368 1.5435222134742956 0.13243951580669652 -0.18284780632992706 -1.0951628640817581 0.71412861470587219 0.89649949974991616
decision_type=2 2 2 2 2 2 2 2 2 2 2 2 2 2 2 2 2 2 2 2 2 2 2
left_child=2 7 3 10 13 19 16 8 14 21 18 -9 -11 -4 -2 -7 -3 -10 -1 -6 -13 -5 -8
right_child=1 6 4 9 5 15 22 11 17 12 -12 20 -14 -15 -16 -17 -18 -19 -20 -21 -22 -23 -24
leaf_value=-0.011417504193678183 -0.0020184213807901258 0.0010155110071322058 -0.0090170256627833296 -0.0048307522707926789 -0.0047445680355989285 -0.0022633362130813277 0.0025967610840751795 -0.00070960190571229859 0.00043104837529195892 -0.0041342596595355914 -0.0051629386772560773 0 -0.00044222430925813143 -0.0053350861616941305 0 -0.00060866359059910202 0.0021490097380193044 -0.00097156710299686289 -0.0086121140951092856 -0.0030821423611328545 0.0012499769650772285 -0.0071502757765433628 0.0032079782004877529
leaf_weight=54.999999642372131 157.2999991774559 120.49999970197678 31.999999701976776 69.999999761581421 74.599999368190765 72.699999332427979 239.6999990940094 34.79999965429306 228.39999908208847 20.599999725818634 25.499999701976776 16.799999952316284 26.599999904632568 42.699999451637268 22.899999797344208 79.399999141693115 287.19999867677689 34.999999761581421 83.499999463558197 129.7999986410141 244.29999762773514 34.199999809265137 732.49999886751175
leaf_count=66 182 128 50 76 120 103 267 51 253 28 36 18 29 66 30 128 335 41 97 201 341 39 761
internal_value=0 0.00177175 -0.0050424 -0.00703832 -0.0035587 -0.00279845 0.00271224 2.94264e-06 -0.000563962 -0.00469213 -0.00914172 0.00088748 -0.00227086 -0.00704965 -0.00174595 -0.00146698 0.00183915 0.000205737 -0.00980022 -0.00373905 0.00113962 -0.00569048 0.00306783
internal_weight=2866 2119.4 746.6 315.4 431.2 356.5 1379.9 739.5 443.6 151.4 164 295.9 47.2 74.7 180.2 152.1 407.7 263.4 138.5 204.4 261.1 104.2 972.2
internal_count=3446 2407 1039 371 668 552 1491 916 506 172 199 410 57 116 212 231 463 294 163 321 359 115 1028
is_linear=0
shrinkage=0.0181051


Tree=3
num_leaves=25
num_cat=0
split_feature=2 2 2 34 26 2 13 2 2 2 12 2 2 2 12 12 13 12 12 13 15 12 18 2
split_gain=78.7843 8.93784 8.63761 3.96208 3.88145 1.69955 1.31157 1.04642 0.843411 0.842285 0.666524 0.581814 0.547941 0.497929 0.460903 0.440239 0.36654 0.2513 0.219755 0.192694 0.186732 0.075968 0.0635375 0.0345626
threshold=0.44536376071025291 0.74536034372638793 0.16795489858181342 0.29383802199589865 0.12473732477469161 0.37477773749290511 -0.6968460595979814 0.04516193093724321 0.66479536213061807 0.83224058405080326 -0.22568981873206617 0.54146913144230002 0.35380528843280085 0.086883420274767614 0.068350897231843469 -0.37198835423729565 1.0423135645021115 0.16740752912383908 0.39445087114429028 -0.92066209877955607 0.27332118120397392 -0.23546069150372992 0.80004718646010209 0.89590511323389854
decision_type=2 2 2 2 2 2 2 2 2 2 2 2 2 2 2 2 2 2 2 2 2 2 2 2
left_child=2 6 4 5 13 15 8 -6 20 19 -7 17 16 -1 -15 -4 -5 -8 -14 -3 -2 -13 -10 -11
right_child=1 9 3 12 7 10 11 -9 22 23 -12 21 18 14 -16 -17 -18 -19 -20 -21 -22 -23 -24 -25
leaf_value=-0.011631780085744016 -0.00035946116057340727 0.00089952977975207968 -0.0076422256906544771 -0.002980824025183482 -0.0084623726707315269 -0.0042401812218127643 -0.00070330046640582143 -0.0043507594566937688 0.00071476204332719076 0.0025331424644473664 -0.00077116754501389709 0.00072571123617709674 -0.0015416841161727155 -0.0099293659189319435 -0.0056804811965514958 -0.0049333347340677451 -0.00093001442334114659 0.00070172858332557978 0.00016584689732287631 0.002158748153319576 -0.0023158461320317348 0.0015030779923682536 -4.5368293033591211e-05 0.0031523875533893495
leaf_weight=56.499999523162842 35.49999988079071 89.599999785423279 74.399999737739563 126.19999879598618 34.199999630451202 60.299999713897705 96.599999070167542 121.79999870061874 57.499999821186066 251.79999899864197 37.699999749660492 141.49999916553497 37.399999618530273 40.999999761581421 30.999999642372131 74.899999380111694 58.699999392032623 70.999999344348907 48.099999487400055 214.1999990940094 93.499999821186066 192.59999847412109 40.099999845027924 779.89999860525131
leaf_count=73 39 95 81 191 56 68 125 196 62 282 44 165 52 48 40 93 95 101 74 248 98 261 44 815
internal_value=-3.90854e-07 0.00186753 -0.00481873 -0.00338918 -0.00738403 -0.00506919 0.000238633 -0.0053179 -0.000883797 0.00274815 -0.00301032 0.000766036 -0.00181475 -0.00981251 -0.00824243 -0.00635194 -0.00238522 -4.69014e-05 -0.000461128 0.00182112 -0.00185696 0.00120454 0.000297379 0.00301119
internal_weight=2866 2063.8 802.2 517.7 284.5 247.3 728.3 156 226.6 1335.5 98 501.7 270.4 128.5 72 149.3 184.9 167.6 85.5 303.8 129 334.1 97.6 1031.7
internal_count=3446 2335 1111 698 413 286 895 252 243 1440 112 652 412 161 88 174 286 226 126 343 137 426 106 1097
is_linear=0
shrinkage=0.0181051


Tree=4
num_leaves=24
num_cat=0
split_feature=2 2 2 1 34 2 2 2 2 0 2 8 4 2 14 18 34 4 14 14 2 34 2
split_gain=76.0172 8.6198 8.35714 4.58635 2.86909 1.34007 1.0906 1.02753 0.808266 0.739847 0.72402 0.412076 0.408795 0.349173 0.331684 0.242288 0.114501 0.0722689 0.071447 0.0691679 0.0601923 0.0318664 0.0299729
threshold=0.44536376071025291 0.74536034372638793 0.22047361632729798 0.15869151426431119 0.39996009342555422 0.04516193093724321 0.10449539233288087 0.37477773749290511 0.83224058405080326 -1.4250372901758974 0.52323770146476456 0.35720725037972428 0.14548360857458037 0.34421563152134876 0.024523110168181754 0.51329208832361328 1.328403880618787 -0.099177013297405539 0.40949862085651439 -0.15722896692076832 0.17349902936066652 1.0940001444820553 0.89590511323389854
decision_type=2 2 2 2 2 2 2 2 2 2 2 2 2 2 2 2 2 2 2 2 2 2 2
left_child=2 9 3 6 7 -5 -1 17 18 -2 12 -8 -11 16 -12 -9 -6 -4 19 -3 -7 -15 -10
right_child=1 8 4 5 13 20 11 15 22 10 14 -13 -14 21 -16 -17 -18 -19 -20 -21 -22 -23 -24
leaf_value=-0.011024929863778976 -0.0019189962036950767 0.00073645591334365581 -0.0063832025388396692 -0.0083038215517382014 -0.0022127673707738882 -0.0041945305873210331 -0.0061233554421194977 -0.0020485836863833999 0.0024872795507877381 -0.0016784789400043998 0.00098175418127952399 -0.009474528140282483 4.1078953269766335e-05 -0.0005048884406947333 -9.0191134564589483e-05 -0.004576380558650354 0 -0.0043083414800783142 0.0007857477634479747 0.0021275773234846994 -0.0022166739950959659 1.3484711354561585e-05 0.0030953132724138156
leaf_weight=69.499999403953552 47.29999977350235 37.999999761581421 71.099999725818634 32.79999965429306 98.099999010562897 126.09999865293503 68.799999415874481 77.799999535083771 251.79999899864197 68.499999582767487 409.0999972820282 40.699999749660492 102.29999893903732 57.999999463558197 101.09999984502792 29.499999821186066 18.499999821186066 57.199999451637268 52.599999904632568 213.19999921321869 31.399999678134918 22.699999749660492 779.89999860525131
leaf_count=89 53 44 78 54 152 204 85 90 282 79 512 47 146 85 105 34 30 75 55 244 52 36 815
internal_value=-7.7253e-07 0.00183399 -0.0047338 -0.00675687 -0.00298427 -0.00468424 -0.00890305 -0.00435243 0.00269882 0.000234058 0.000398661 -0.00746262 -0.000588514 -0.00129853 0.000749239 -0.00283913 -0.00194874 -0.0055381 0.00178876 0.00195796 -0.00386533 -0.000231996 0.00295686
internal_weight=2866 2063.8 802.2 369.3 432.9 190.3 179 235.6 1335.5 728.3 681 109.5 170.8 197.3 510.2 107.3 116.6 128.3 303.8 251.2 157.5 80.7 1031.7
internal_count=3446 2335 1111 531 580 310 221 277 1440 895 842 132 225 303 617 124 182 153 343 288 256 121 1097
is_linear=0
shrinkage=0.0181051


Tree=5
num_leaves=25
num_cat=0
split_feature=2 2 2 35 2 26 2 2 2 35 18 21 8 2 2 34 8 18 2 14 29 14 2 29
split_gain=76.2465 10.3014 7.30053 5.40977 2.10279 1.93682 1.14353 0.875492 0.791043 0.698642 0.541567 0.355596 0.348437 0.317394 0.27207 0.20802 0.111816 0.111595 0.105455 0.0909589 0.0867981 0.0739631 0.0548656 0.0408357
threshold=0.41440955847051264 0.74780581094282106 0.096875884686208072 0.29382183187250338 0.3158322931185355 -0.014361540578114449 0.51275478311378053 0.83224058405080326 0.27283264861342332 0.27354607774025524 -0.29251627826922694 0.36210858948578001 0.51854274281151358 0.033266510803727709 0.68798444701448047 0.90033201814555641 0.82402127377518763 -0.48696870018764532 0.54146913144230002 0.40949862085651439 0.50671037568681754 -0.15722896692076832 0.89240202924407852 0.078800190171176523
decision_type=2 2 2 2 2 2 2 2 2 2 2 2 2 2 2 2 2 2 2 2 2 2 2 2
left_child=2 6 5 4 12 -1 9 19 11 17 18 -5 -4 -7 -12 -10 -6 -2 -8 21 -11 -3 -9 -15
right_child=1 7 3 8 16 13 10 22 15 20 14 -13 -14 23 -16 -17 -18 -19 -20 -21 -22 -23 -24 -25
leaf_value=-0.011532919079257133 -0.00020951063839012786 0.00055986250255443291 -0.0062409637905588506 -0.003574296089125116 -0.0030386157108415099 -0.0091988509755896904 0 0.0023839498069075805 -0.0019873164372357093 0.0001423641516892369 -0.00052033258600115188 -0.00014137837626308671 -0.0087882139873765135 -0.0039892270855338731 0.00062232023382477171 -0.00031233270019361215 -0.0053782552211653319 -0.0024595579740747595 0.0011414844457409278 0.00072891186593406453 -0.0012072219355829003 0.0020495451068423647 0.0030349755503470254 -0.0069155581498604448
leaf_weight=59.899999558925629 19.29999977350235 32.599999785423279 96.799999237060547 168.39999812841415 73.499999523162842 24.499999761581421 41.999999523162842 233.89999908208847 76.899999260902405 95.099999070167542 178.89999955892563 17.199999928474426 70.599999666213989 32.399999618530273 107.49999970197678 60.099999368190765 28.899999916553497 83.699999630451202 266.29999792575836 59.199999928474426 18.199999809265137 209.49999916553497 833.29999858140945 26.099999725818634
leaf_count=73 26 38 119 269 86 40 58 262 110 141 191 19 79 51 115 95 31 94 355 61 26 241 869 43
internal_value=-1.15822e-05 0.00168572 -0.00505649 -0.00413753 -0.00605675 -0.00879433 5.58714e-05 0.0026441 -0.00250064 -0.00105685 0.000477828 -0.00331142 -0.00737652 -0.00669435 -5.56307e-05 -0.00132738 -0.00379908 -0.00213751 0.00100666 0.00169696 0 0.00189131 0.0029019 -0.00547014
internal_weight=2914.8 2179.5 735.3 592.4 269.8 142.9 811 1368.5 322.6 216.3 594.7 185.6 167.4 83 286.4 137 102.4 103 308.3 301.3 113.3 242.1 1067.2 58.5
internal_count=3492 2477 1015 808 315 207 1006 1471 493 287 719 288 198 134 306 205 117 120 413 340 167 279 1131 94
is_linear=0
shrinkage=0.0181051


Tree=6
num_leaves=23
num_cat=0
split_feature=2 2 2 17 2 1 13 2 2 38 2 2 17 17 20 2 13 13 2 2 17 31
split_gain=73.5791 9.93687 7.03826 4.80432 1.86316 1.83959 1.50234 1.16896 1.02373 1.02329 0.886903 0.796735 0.477321 0.381197 0.34471 0.297616 0.187634 0.159821 0.155009 0.0496688 0.0308502 0.0128357
threshold=0.41440955847051264 0.74536034372638793 0.096875884686208072 0.14572114440627906 0.2912559949712572 0.15869151426431119 -0.65381996103720474 0.26587489860376295 0.56621058150986892 0.28879114400168682 0.83224058405080326 0.53790024637802436 0.029298900690343903 0.96298172225576251 0.094281722481485017 0.033266510803727709 0.76174161723620337 -0.92066209877955607 0.69194066308491198 0.89240202924407852 -0.13763320096268977 0.98255469985678789
decision_type=2 2 2 2 2 2 2 2 2 2 2 2 2 2 2 2 2 2 2 2 2 2
left_child=2 6 5 4 9 -1 8 13 21 -4 17 12 -8 -5 -6 -7 -9 -3 -10 -12 -13 -2
right_child=1 10 3 7 14 15 11 16 18 -11 19 20 -14 -15 -16 -17 -18 -19 -20 -21 -22 -23
leaf_value=-0.011116826369598445 -0.0020957878161728697 0.00079333349678728157 -0.0084342154808606309 -0.0044533994773676092 -0.0049892680158175494 -0.0089377912273038602 -0.0012499681667634619 -0.001719394055013487 -0.00074806799850125416 -0.0044625066158275354 0.0023407881837737071 0.00081399541051157067 0.00045072197320562222 -0.0023887743060561034 -0.0025349432859094415 -0.0051849131282867772 -0.00011777716871952684 0.0019556062819736475 0.00025782004500318073 0.0029800269287258326 0.0014541073609300994 -0.0039974693856472008
leaf_weight=65.199999511241913 52.299999833106995 89.199999809265137 102.39999938011169 84.499999105930328 82.899999678134918 22.999999761581421 91.299999237060547 62.399999260902405 106.69999974966049 43.899999678134918 233.89999908208847 167.09999907016754 122.4999988079071 98.69999897480011 53.699999511241913 54.699999392032623 63.899999439716339 222.49999904632568 74.999999761581421 833.29999858140945 160.69999867677689 24.99999988079071
leaf_count=82 57 94 120 127 91 37 114 91 113 58 262 199 179 153 72 88 96 257 81 869 224 28
internal_value=-1.17789e-05 0.00165551 -0.00496772 -0.00406481 -0.00579736 -0.008639 3.80968e-05 -0.00244804 -0.00108218 -0.00731253 0.00258715 0.000592763 -0.000227565 -0.00339705 -0.00409951 -0.0064278 -0.000990274 0.0016559 -0.000276428 0.00284953 0.00115909 -0.0028435
internal_weight=2914.8 2179.5 735.3 592.4 282.9 142.9 800.6 309.5 259 146.3 1378.9 541.6 213.8 183.2 136.6 77.7 126.3 311.7 181.7 1067.2 327.8 77.3
internal_count=3492 2477 1015 808 341 207 995 467 279 178 1482 716 293 280 163 125 187 351 194 1131 423 85
is_linear=0
shrinkage=0.0181051


Tree=7
num_leaves=23
num_cat=0
split_feature=28 28 35 28 28 17 28 13 28 28 28 13 14 13 31 28 13 17 14 8 28 17
split_gain=68.362 9.25769 5.34583 3.57139 2.43357 1.09192 0.951241 1.52585 0.905133 0.801377 0.677639 0.446943 0.27529 0.255803 0.206631 0.189034 0.14625 0.107995 0.0968037 0.034936 0.015876 0.00833664
threshold=0.42007156161352871 0.74626752189094614 0.29382183187250338 0.31737111554597502 0.091459357963603161 0.58438673883733394 0.58792093501314302 -0.18649288927827062 0.31343133613685953 0.8319419044956412 0.15114258131604447 -0.73892517031605975 -0.00303554626833095 0.025964770549215654 0.98255469985678789 0.026924563607850654 -0.92066209877955607 0.095267491647800753 1.0235815845017764 -0.94713375193198701 0.89649949974991616 -0.12450496658816444
decision_type=2 2 2 2 2 2 2 2 2 2 2 2 2 2 2 2 2 2 2 2 2 2
left_child=2 6 3 5 15 10 7 14 12 16 -1 18 -6 -5 -2 -4 -3 -9 -8 -10 -11 -13
right_child=1 9 4 13 8 -7 11 17 19 20 -12 21 -14 -15 -16 -17 -18 -19 -20 -21 -22 -23
leaf_value=-0.010429096983004735 -0.0014578658137996791 0.0008115364367557678 -0.0088050547767953204 -0.004681691352794142 -0.00070593692206634342 -0.0037938484807165484 -0.0001951622599524258 -5.9199461567940891e-05 0 0.0023643711919053663 -0.007356154465063886 0.00087203778549018937 -0.0034534373973103649 -0.0022750538596413394 -0.0036448216117895278 -0.0052630687392357474 0.0019418874033504778 0.00069098940675620102 0.00098784867005360217 -0.0011782566769464511 0.0029301696734509884 0.0015278839876229949
leaf_weight=67.899999618530273 142.59999918937683 89.499999821186066 20.699999809265137 74.399999737739563 22.799999833106995 26.099999725818634 151.5999995470047 68.699999332427979 18.999999761581421 261.19999897480011 110.79999935626984 160.09999912977219 225.79999762773514 44.899999618530273 25.99999988079071 57.099999308586121 221.39999902248383 150.29999852180481 26.599999904632568 77.699999332427979 771.69999891519547 97.899999260902405
leaf_count=79 168 94 32 81 27 37 163 90 30 292 127 188 362 55 29 88 255 217 29 113 799 137
internal_value=-1.19478e-05 0.00161244 -0.00473797 -0.00652178 -0.00334732 -0.00802114 8.83217e-05 -0.000549856 -0.00264394 0.00253916 -0.00858116 0.000678906 -0.00324271 -0.00386189 -0.00185595 -0.0063373 0.00164948 0.000408828 0 -0.000998542 0.00279702 0.00116065
internal_weight=2914.8 2167.6 747.2 324.1 423.1 204.8 823.8 387.6 345.3 1343.8 178.7 436.2 248.6 119.3 168.6 77.8 310.9 219 178.2 96.7 1032.9 258
internal_count=3492 2461 1031 379 652 243 1021 504 532 1440 206 517 389 136 197 120 349 307 192 143 1091 325
is_linear=0
shrinkage=0.0181051


Tree=8
num_leaves=22
num_cat=0
split_feature=30 30 14 30 30 20 30 30 30 26 30 14 14 30 26 32 19 14 21 22 35
split_gain=24.3893 14.6644 6.3157 1.96538 1.11846 1.09779 1.00357 0.879079 0.793268 0.725234 1.09664 0.371015 0.317973 0.245018 0.214302 0.152423 0.102783 0.140792 0.0528986 0.0458685 0.263284
threshold=-0.16995090612686367 0.073392345056394109 0.060351439325033306 -0.040073112222829839 0.0099303715299958028 -0.52581152801282927 0.17598005108166273 -0.017116685777049296 0.013021404929309503 -1.3146127487618331 -0.49031132235191616 -0.00055850622271299991 -1.5857784100388523e-06 0.36953325157695205 -0.89496594976891297 -0.53066284466495306 0.41683201272091575 -0.015748454175483397 0.052427463372594053 -0.90404613851947324 0.32941602347916715
decision_type=2 2 2 2 2 2 2 2 2 2 2 2 2 2 2 2 2 2 2 2 2
left_child=9 2 3 5 -5 -2 11 14 -9 -1 19 -3 13 -8 -4 -13 17 -12 -14 -11 -21
right_child=1 6 7 4 -6 -7 12 8 -10 10 16 15 18 -15 -16 -17 -18 -19 -20 20 -22
leaf_value=-0.0078016600466137669 -0.0032686244468150029 -0.0026184781833481262 1.204578059742079e-06 0.0011862483961867204 -0.00017736788108512841 -0.00039672956088067889 -0.0027491975719853268 0.0026428895775205677 0.00062614207063150834 -0.0020267453581453874 -0.0053083550802853294 -0.001390984583338817 -0.0035292178104245307 -0.0052929377695843712 0.0016118104194671671 0 -0.0011019038380253292 -0.0027686313350653992 -0.0020401737127043696 -0.0068315858564242877 -0.0044964206822207175
leaf_weight=25.799999833106995 56.29999977350235 46.599999785423279 76.999999761581421 573.29999727010727 282.19999802112579 250.49999803304672 45.599999666213989 786.59999918937683 84.499999701976776 11.499999940395353 19.899999916553497 33.899999558925629 46.999999463558197 59.699999511241913 57.199999928474426 53.699999511241913 25.199999868869781 125.49999868869781 95.999999165534973 55.999999582767487 100.79999905824661
leaf_count=30 62 52 83 669 362 337 54 807 92 13 22 50 76 72 59 70 30 181 142 69 160
internal_value=-1.20812e-05 0.000610694 0.0011907 0.000271748 0.000724451 -0.000957171 -0.00264936 0.00224297 0.00245903 -0.00439485 -0.00410523 -0.00126137 -0.00335823 -0.00428877 0.000764112 -0.000422371 -0.00293892 -0.00318676 -0.0026013 -0.00522654 -0.00539582
internal_weight=2914.8 2550.1 2167.6 1162.3 855.5 306.8 382.5 1005.3 871.1 364.7 338.9 134.2 248.3 105.3 134.2 87.6 170.6 145.4 143 168.3 156.8
internal_count=3492 2987 2471 1430 1031 399 516 1041 899 505 475 172 344 126 142 120 233 203 218 242 229
is_linear=0
shrinkage=0.0181051


Tree=9
num_leaves=24
num_cat=0
split_feature=2 2 2 17 26 2 13 2 7 2 2 2 17 17 7 2 13 13 2 29 30 2 32
split_gain=67.3008 8.96333 6.52915 4.48247 1.70303 1.70018 1.43167 1.07316 0.963901 0.938882 0.78247 0.735261 0.438437 0.360285 0.287317 0.27175 0.182785 0.15241 0.147013 0.0480859 0.0297896 0.0290738 0.0214541
threshold=0.41440955847051264 0.74536034372638793 0.096875884686208072 0.14572114440627906 -0.014361540578114449 0.2912559949712572 -0.65381996103720474 0.26587489860376295 0.35019009366191017 0.56621058150986892 0.83224058405080326 0.53790024637802436 0.029298900690343903 0.96298172225576251 0.18343362220993534 0.033266510803727709 0.76174161723620337 -0.79234377474351769 0.69194066308491198 0.078800190171176523 0.17598005108166273 0.89240202924407852 0.5719421462111226
decision_type=2 2 2 2 2 2 2 2 2 2 2 2 2 2 2 2 2 2 2 2 2 2 2
left_child=2 6 4 5 -1 8 9 13 -4 22 17 12 -8 -5 -7 -6 -9 -3 -11 -17 -13 -12 -2
right_child=1 10 3 7 15 14 11 16 -10 18 21 20 -14 -15 -16 19 -18 -19 -20 -21 -22 -23 -24
leaf_value=-0.010874521351249406 -0.0017080421279419028 0.00089291979041745246 -0.0079640517648006393 -0.0042544421640368178 -0.0086769148354742531 -0.0045536001955006162 -0.0011814660836331498 -0.0016314856542621007 -0.0038819381970605243 -0.00073294499711905846 0.0022385974782367399 0.0011955824701226109 0.00044944703590190776 -0.0022454701306974514 -0.0020394965224466762 -0.0036748716680521779 -6.0561048110707826e-05 0.0019524750968822079 0.00024363420914939396 -0.0065466715303448822 6.4873781197097096e-05 0.0028356630274047733 -0.0034961555127216923
leaf_weight=59.899999558925629 38.599999845027924 117.39999973773956 109.49999940395355 84.499999105930328 24.499999761581421 98.399999499320984 91.299999237060547 62.399999260902405 36.79999965429306 106.69999974966049 233.89999908208847 299.89999800920486 122.4999988079071 98.69999897480011 38.199999690055847 32.399999618530273 63.899999439716339 194.29999911785126 74.999999761581421 26.099999725818634 27.899999737739563 833.29999858140945 38.699999868869781
leaf_count=73 43 124 125 127 40 111 114 91 53 113 262 386 179 153 52 51 96 227 81 43 37 869 42
internal_value=-1.24364e-05 0.00158198 -0.00475238 -0.00388166 -0.00829021 -0.00555557 4.5134e-05 -0.00231848 -0.00700735 -0.00104795 0.00246684 0.000586798 -0.000199042 -0.00322808 -0.00392561 -0.00630157 -0.000917894 0.0015863 -0.000273403 -0.00513145 0.00113063 0.00271441 -0.00273593
internal_weight=2914.8 2179.5 735.3 592.4 142.9 282.9 800.6 309.5 146.3 259 1378.9 541.6 213.8 183.2 136.6 83 126.3 311.7 181.7 58.5 327.8 1067.2 77.3
internal_count=3492 2477 1015 808 207 341 995 467 178 279 1482 716 293 280 163 134 187 351 194 94 423 1131 85
is_linear=0
shrinkage=0.0181051


Tree=10
num_leaves=26
num_cat=0
split_feature=2 2 2 13 25 13 2 2 2 4 2 29 2 2 20 2 13 13 4 15 4 14 14 6 2
split_gain=66.8814 8.21759 6.63013 3.37887 3.18636 1.53137 1.20529 1.00657 0.813022 0.693653 0.664108 0.635306 0.574973 0.503546 0.425444 0.347853 0.327865 0.262545 0.206186 0.174041 0.0506477 0.0476247 0.0406703 0.0351676 0.00593282
threshold=0.42415305689708799 0.75001513972669354 0.15073698496607238 0.19484783609415104 -0.22366531455528527 -0.6968460595979814 0.033266510803727709 0.34421563152134876 0.64603757370020931 0.3401753053345114 0.54146913144230002 0.17100052188140263 0.87800104339642593 0.26587489860376295 1.2420998667032928 0.10927519751022867 0.20283288376766559 0.76174161723620337 0.37799721906390277 0.25940973183295407 -0.74313147789322054 0.40949862085651439 -0.15083195270357844 0.50271001603613208 0.81316042096379026
decision_type=2 2 2 2 2 2 2 2 2 2 2 2 2 2 2 2 2 2 2 2 2 2 2 2 2
left_child=2 5 4 7 15 8 -6 9 19 -4 16 -8 21 14 -5 -1 -7 -15 -9 -2 -10 22 -3 -12 -23
right_child=1 12 3 13 6 10 11 18 20 -11 23 -13 -14 17 -16 -17 -18 -19 -20 -21 -22 24 -24 -25 -26
leaf_value=-0.010886224407941002 -0.00062162438854095644 0.00096647906382507317 -0.0066279443567020006 -0.0033390601282452998 -0.0090009369789495718 -0.00075543908794368131 -0.0038572556386641333 -0.0036333641876931137 -0.00023379461631012726 -0.0034007266337900311 0.00099109730656020889 -0.0082055769076793943 0.0027598692564763331 -0.0016649996465391962 -0.00036215295586199228 -0.0070107488864987431 0.00071387377042909721 0 -0.00085472124173837283 -0.0026123188353598037 0.00059789117351365779 0.00047258609319127576 0.002121938299958364 0.0018857890094706856 0.0015485220168320777
leaf_weight=64.799999594688416 35.699999809265137 46.29999977350235 116.59999936819077 87.699999153614044 30.099999725818634 120.09999895095825 122.59999865293503 72.999999642372131 93.799999833106995 46.29999965429306 303.69999766349792 18.199999809265137 888.59999829530716 67.099999368190765 29.099999666213989 30.699999749660492 81.299999296665192 62.799999475479126 21.899999856948853 84.199999809265137 32.099999845027924 42.599999904632568 330.69999867677689 50.699999868869781 38.499999821186066
leaf_count=76 41 52 133 133 48 152 191 82 98 66 396 29 932 95 45 37 117 94 28 89 36 45 376 54 43
internal_value=-3.74216e-05 0.00160066 -0.00461563 -0.00335596 -0.00696266 0.000135695 -0.00534629 -0.0048293 -0.00103801 -0.00577365 0.000673212 -0.00449217 0.00246504 -0.00177476 -0.00268519 -0.00974779 -0.000111395 -0.0008772 -0.00310021 -0.00210513 0 0.00187075 0.00200724 0.00114803 0.00110981
internal_weight=2919.2 2148.3 770.9 504.5 266.4 801.6 170.9 257.8 245.8 162.9 555.8 140.8 1346.7 246.7 116.8 95.5 201.4 129.9 94.9 119.9 125.9 458.1 377 354.4 81.1
internal_count=3488 2431 1057 676 381 983 268 309 264 199 719 220 1448 367 178 113 269 189 110 130 134 516 428 450 88
is_linear=0
shrinkage=0.0181051


Tree=11
num_leaves=26
num_cat=0
split_feature=2 2 2 17 1 13 2 2 35 2 29 2 2 2 34 2 17 34 3 14 36 14 14 6 2
split_gain=64.5473 7.58423 6.69543 3.47369 3.13169 1.42262 1.20814 1.16562 0.737444 0.730835 0.600497 0.584124 0.549617 0.474762 0.326434 0.280132 0.259831 0.226455 0.154945 0.0896131 0.0555052 0.0431398 0.0369778 0.0326284 0.00448412
threshold=0.43090836500679347 0.75001513972669354 0.15073698496607238 0.37752758223481359 -0.22159685189371994 -0.6968460595979814 0.33841896633101404 0.033266510803727709 0.16013955591471973 0.66707743547639775 0.17100052188140263 0.54146913144230002 0.87800104339642593 0.26587489860376295 1.3169646636434169 0.10927519751022867 0.16700461286888713 0.42385630486488074 0.90130169944108596 -1.5857784100388523e-06 -0.027557246545042848 0.40949862085651439 -0.15083195270357844 0.50271001603613208 0.81316042096379026
decision_type=2 2 2 2 2 2 2 2 2 2 2 2 2 2 2 2 2 2 2 2 2 2 2 2 2
left_child=2 5 4 6 15 9 8 -6 -4 18 -9 16 21 14 -5 -1 -7 -8 -2 -15 -11 22 -3 -13 -23
right_child=1 12 3 13 7 11 17 10 -10 20 -12 23 -14 19 -16 -17 -18 -19 -20 -21 -22 24 -24 -25 -26
leaf_value=-0.010689128397659255 -0.0012051542768229714 0.00094898088413231726 -0.0065587971208560898 -0.0028120099773020629 -0.0088379746682985382 -0.00066015799453600734 -0.0034024739869609696 -0.0037856082562091821 -0.0037475174184268449 0.00088699345733695453 -0.0080864829293222119 0.00097315337344492043 0.0027099014924874907 0.00057880821152995056 0 -0.0069643378462956205 0.00069725602639948887 -0.00098736724277656172 -0.0028897143969124186 -0.00063798424387209631 0 0.0004640298993115622 0.0020835203630556712 0.0018516466591532994 0.0015204859193774709
leaf_weight=64.799999594688416 96.599999725818634 46.29999977350235 107.89999943971634 74.599999248981476 30.099999725818634 114.49999898672104 106.89999943971634 123.2999986410141 76.199999332427979 24.99999988079071 17.699999809265137 303.69999766349792 888.59999829530716 17.299999892711639 21.29999977350235 30.499999761581421 74.499999344348907 29.29999977350235 45.099999845027924 87.799999177455902 74.699999868869781 42.599999904632568 330.69999867677689 50.699999868869781 38.499999821186066
leaf_count=76 104 52 122 115 48 145 121 192 108 28 28 396 932 20 33 37 108 41 49 137 78 45 376 54 43
internal_value=-3.71396e-05 0.00159593 -0.00446921 -0.00323831 -0.00683938 0.00016713 -0.00442297 -0.00523923 -0.0054509 -0.000971909 -0.00439824 0.00069201 0.00242096 -0.00129949 -0.00224396 -0.00960466 -7.08312e-05 -0.00295822 -0.00181369 -0.000340116 0.00012162 0.00183809 0.00197139 0.00112777 0.00109201
internal_weight=2919.2 2131.5 787.7 521.3 266.4 784.8 320.3 171.1 184.1 241.4 141 543.4 1346.7 201 95.9 95.3 189 136.2 141.7 105.1 99.7 458.1 377 354.4 81.1
internal_count=3488 2410 1078 697 381 962 392 268 230 259 220 703 1448 305 148 113 253 162 153 157 106 516 428 450 88
is_linear=0
shrinkage=0.0181051


Tree=12
num_leaves=23
num_cat=0
split_feature=29 29 34 29 29 17 13 29 29 29 17 29 30 7 29 13 30 30 13 7 30 27
split_gain=56.0102 9.18261 4.44296 2.92184 1.83159 1.3956 1.35726 0.767386 0.636581 0.627363 0.607697 0.573542 0.444839 0.354535 0.345604 0.27187 0.136635 0.083474 0.0723674 0.0557292 0.0352116 0.00371832
threshold=0.41246599640597631 0.71715337014815062 0.28405272399608777 0.31698339960540611 0.089511197367752274 0.58438673883733394 -0.7032391845775271 0.84329779890352252 0.629860273577318 0.56116999330557571 -0.097529887949789493 0.15675708442546851 -0.17578193703097791 -0.11934390394429119 0.33671341497982504 -0.15543357728320356 -0.12570286032242392 -0.63596998516903891 -0.79431364965202744 -0.7991017175329862 -1.6290726618548237 -0.0048393898824564989
decision_type=2 2 2 2 2 2 2 2 2 2 2 2 2 2 2 2 2 2 2 2 2 2
left_child=2 6 3 5 17 11 8 18 13 10 -8 -1 20 -2 -14 -5 -11 -4 -3 -10 -6 -17
right_child=1 7 4 15 12 -7 9 -9 19 16 -12 -13 14 -15 -16 21 -18 -19 -20 -21 -22 -23
leaf_value=-0.0095347932731732771 -0.0028300337720152703 0.0011936230213827599 -0.0075065894188165684 -0.0044116176032883928 -0.0016091717803039356 -0.0026402521367734719 -0.0013002877674792033 0.0025975241726006945 -0.00053611457381531305 0 0.00041135945733548868 -0.0066975224769566617 -0.0022280697664336189 0 -0.0002427871455389524 -0.0027296946432840605 0.0011084063719026004 -0.0046363763716942433 0.0018968511156974811 0.00025576170647732783 -0.0037142939774253195 -0.00091239413059464151
leaf_weight=73.199999570846558 92.399999737739563 196.89999955892563 23.199999809265137 63.29999977350235 22.299999833106995 24.899999737739563 114.89999920129776 950.89999812841415 78.199999809265137 33.399999678134918 154.49999839067459 106.79999941587448 171.19999825954437 24.899999856948853 49.0999995470047 23.799999833106995 225.89999854564667 62.799999237060547 276.1999985575676 26.399999856948853 98.999999046325684 24.99999988079071
leaf_count=86 99 208 35 69 35 35 140 1001 83 43 224 122 264 29 74 28 281 96 325 30 153 28
internal_value=-3.67539e-05 0.00142719 -0.00432597 -0.00598516 -0.00307194 -0.00731819 -0.000180668 0.0022819 -0.00137756 0.00030228 -0.000280596 -0.00790833 -0.00242311 -0.00230612 -0.00183215 -0.00345712 0.000947411 -0.00552992 0.00162585 -0.000238209 -0.00341183 -0.00200886
internal_weight=2919.2 2174.6 744.6 317 427.6 204.9 750.6 1424 221.9 528.7 269.4 180 341.6 117.3 220.3 112.1 259.3 86 473.1 104.6 121.3 48.8
internal_count=3488 2463 1025 368 657 243 929 1534 241 688 364 208 526 128 338 125 324 131 533 113 188 56
is_linear=0
shrinkage=0.0181051


Tree=13
num_leaves=24
num_cat=0
split_feature=2 2 2 13 1 2 13 2 2 38 2 2 2 13 20 13 13 15 20 14 14 30 2
split_gain=60.2513 7.36644 6.05098 3.68295 1.85818 1.66177 1.38743 0.987467 0.735065 0.66294 0.594755 0.525443 0.507737 0.467405 0.423204 0.296544 0.247102 0.163055 0.0412604 0.0387404 0.0339421 0.0278885 0.00361536
threshold=0.42415305689708799 0.75001513972669354 0.096875884686208072 0.19484783609415104 0.032145504001596707 0.24905989146516874 -0.6968460595979814 0.26587489860376295 0.64603757370020931 0.28879114400168682 0.54146913144230002 0.033266510803727709 0.87800104339642593 1.0423135645021115 0.29984525455799577 0.20283288376766559 0.76174161723620337 0.25940973183295407 -0.70592805224745014 0.40949862085651439 -0.15083195270357844 -0.12570286032242392 0.79956726152480984
decision_type=2 2 2 2 2 2 2 2 2 2 2 2 2 2 2 2 2 2 2 2 2 2 2
left_child=2 6 4 5 -1 9 8 13 17 -4 15 -6 19 -5 -7 -8 -9 -2 -10 20 -3 -12 -21
right_child=1 12 3 7 11 14 10 16 18 -11 21 -13 -14 -15 -16 -17 -18 -19 -20 22 -22 -23 -24
leaf_value=-0.010076807008274772 -0.00055835517337112666 0.00090305421638844148 -0.0078467157305007803 -0.0039681493514244284 -0.0082855529267096325 -0.0043589284403031722 -0.00071253950826909455 -0.0015748208624022783 -0.00021529538887289114 -0.0042840246405212636 0.00027521839026429818 -0.0043116518378989279 0.0026151151036681139 -0.0018370119177843122 -0.0018578315694305677 0.0006849576658826996 0 -0.0024906941813116847 0.00052787635246874802 0.00029917527570788371 0.0020110897504855415 0.0011746393092261149 0.0013443232208967251
leaf_weight=68.199999511241913 35.699999809265137 46.29999977350235 82.499999523162842 97.799998939037323 25.699999749660492 124.99999940395355 120.09999895095825 67.099999368190765 92.799999833106995 42.199999690055847 44.099999606609344 61.299999296665192 888.59999829530716 90.999999105930328 47.29999965429306 81.299999296665192 62.799999475479126 84.199999809265137 33.099999845027924 32.899999916553497 330.69999867677689 310.29999792575836 48.199999809265137
leaf_count=83 41 52 97 148 42 140 152 95 97 55 57 97 932 141 65 117 94 89 37 35 376 393 53
internal_value=-3.66826e-05 0.0015179 -0.00438222 -0.00354556 -0.00763527 -0.00502239 0.000130148 -0.00213711 -0.000986217 -0.0067233 0.000642307 -0.00560344 0.00233633 -0.00299528 -0.00373185 -9.74852e-05 -0.000810883 -0.00200088 0 0.00177316 0.00190221 0.00109166 0.00104679
internal_weight=2919.2 2148.3 770.9 615.7 155.2 297 801.6 318.7 245.8 124.7 555.8 87 1346.7 188.8 172.3 201.4 129.9 119.9 125.9 458.1 377 354.4 81.1
internal_count=3488 2431 1057 835 222 357 983 478 264 152 719 139 1448 289 205 269 189 130 134 516 428 450 88
is_linear=0
shrinkage=0.0181051


Tree=14
num_leaves=26
num_cat=0
split_feature=2 2 2 12 1 12 2 2 35 2 2 2 2 7 35 12 2 28 7 7 28 14 12 14 2
split_gain=58.1411 6.79773 6.10347 3.07793 2.82372 1.24569 1.22591 1.05902 0.759417 0.645557 0.522437 0.485041 0.358843 0.264408 0.256682 0.249223 0.228755 0.222557 0.164629 0.0528038 0.0482465 0.034713 0.0316497 0.0306079 0.00265577
threshold=0.43090836500679347 0.75001513972669354 0.15073698496607238 0.46874887675665594 -0.22159685189371994 -0.72093908503913351 0.34934272376341413 0.033266510803727709 0.16013955591471973 0.66707743547639775 0.54146913144230002 0.87800104339642593 0.2912559949712572 1.2973173965765148 0.40223754339200296 0.19434610881452652 0.10927519751022867 0.15114258131604447 -0.48044659496665904 -0.7991017175329862 0.391470206232851 0.40949862085651439 -0.30415467638551402 -0.15083195270357844 0.81316042096379026
decision_type=2 2 2 2 2 2 2 2 2 2 2 2 2 2 2 2 2 2 2 2 2 2 2 2 2
left_child=2 5 4 6 16 9 8 -6 -4 18 15 21 13 -5 -8 -7 -1 -9 -2 -11 -14 23 -12 -3 -23
right_child=1 11 3 12 7 10 14 17 -10 19 22 -13 20 -15 -16 -17 -18 -19 -20 -21 -22 24 -24 -25 -26
leaf_value=-0.010168225610050961 -0.002093694613343593 0.00088670438355104692 -0.0061116100846701493 -0.0024492580773851852 -0.0084257738096267052 -0.00065482355428094158 -0.0030368017673394697 -0.0036862794857865015 -0.0034868796436804783 -1.854208993277672e-05 0.00065396618789913253 0.0025677680828299775 3.1299669621803312e-05 -8.4697420157257895e-05 -0.00059833835066389974 0.00066780702687200329 -0.0066182781802713144 -0.0068053116739871331 -0.00011808090279358992 0.00083806822874607457 -0.00078665620209927118 0.00042335716892311542 0.0012522187366145853 0.0019746787657832997 0.0014351390957124913
leaf_weight=64.799999594688416 106.89999979734421 46.29999977350235 118.59999942779541 75.399999260902405 30.099999725818634 116.19999897480011 93.799999475479126 122.2999986410141 89.599999248981476 67.299999892711639 146.99999916553497 888.59999829530716 55.399999439716339 31.29999965429306 29.999999761581421 74.499999344348907 30.499999761581421 18.699999809265137 28.999999821186066 26.299999892711639 27.199999809265137 42.599999904632568 217.59999829530716 330.69999867677689 38.499999821186066
leaf_count=76 112 52 133 117 48 147 107 190 128 70 169 932 85 49 42 108 37 30 34 29 36 45 293 376 43
internal_value=-3.62708e-05 0.00151346 -0.00424283 -0.00306605 -0.0065071 0.000160008 -0.00412901 -0.00498083 -0.0050313 -0.000944237 0.000634851 0.00229458 -0.00114762 -0.00185174 -0.00252874 -8.4339e-05 -0.00913971 -0.00417268 -0.00174758 0.000112585 -0.000113895 0.00174227 0.00103914 0.00186827 0.00103013
internal_weight=2919.2 2131.5 787.7 521.3 266.4 784.8 332 171.1 208.2 229.5 555.3 1346.7 189.3 106.7 123.8 190.7 95.3 141 135.9 93.6 82.6 458.1 364.6 377 81.1
internal_count=3488 2410 1078 697 381 962 410 268 261 245 717 1448 287 166 149 255 113 220 146 99 121 516 462 428 88
is_linear=0
shrinkage=0.0181051


Tree=15
num_leaves=23
num_cat=0
split_feature=29 29 4 29 12 29 29 8 29 29 13 13 5 4 8 7 0 38 7 29 34 7
split_gain=50.6303 8.00056 3.70511 2.59969 1.1348 1.17823 1.08275 0.971365 0.720242 0.499272 0.378808 0.17586 0.174755 0.172459 0.16236 0.117759 0.0962449 0.117773 0.0892527 0.0347447 0.0259622 0.0112686
threshold=0.41246599640597631 0.71715337014815062 0.3099473867836614 0.31698339960540611 -0.071486949836632577 0.55384171601711951 0.28183531470188655 0.43868788250809548 0.84329779890352252 0.056553996694050652 0.69811928403206147 -0.15543357728320356 -0.71912295081482625 0.5787557129799864 0.41221682564214573 1.5511093797082214 -1.0951628640817581 0.49552338932653334 0.72397651387198303 0.23037807090512899 0.91065864894776449 -0.52442812630289615
decision_type=2 2 2 2 2 2 2 2 2 2 2 2 2 2 2 2 2 2 2 2 2 2
left_child=2 4 3 7 5 13 9 10 -3 -4 -1 21 -7 -2 -13 -11 -6 -18 -8 -9 -20 -5
right_child=1 8 6 11 16 12 18 19 -10 15 -12 14 -14 -15 -16 -17 17 -19 20 -21 -22 -23
leaf_value=-0.0060382044926986971 -0.0020774458600087906 0.0015053712805165871 -0.0056754982012132155 -0.00528487739671575 -0.00012058718291678221 -0.00040438385270788235 -0.0020410000781413851 -0.0092274627050488323 0.0024527490663018427 -0.0032941246996828441 -0.0023658472170256582 -0.0032239214071394305 0.00042918798679415001 0 -0.0006041433309258371 -0.00086977497548096079 0.0012236934043599165 0.00021584753326426767 0 -0.0064504625266123966 -0.00091792655587966706 -0.0028169385288488937
leaf_weight=78.399999439716339 149.39999908208847 456.79999822378159 43.499999582767487 27.599999904632568 13.799999952316282 171.19999945163727 53.09999942779541 66.199999690055847 987.59999805688858 238.2999974489212 22.099999725818634 26.999999701976776 158.99999922513962 21.699999809265137 27.799999952316284 18.899999797344208 164.5999983549118 85.299999117851257 21.899999856948853 36.499999821186066 45.399999499320984 29.99999988079071
leaf_count=96 175 515 67 30 15 185 75 74 1040 368 30 35 184 29 29 31 225 132 34 41 73 33
internal_value=-9.07485e-08 0.00136696 -0.00411388 -0.00563366 -0.00011741 -0.000634833 -0.00295049 -0.00690329 0.00216024 -0.00355445 -0.0053327 -0.00324714 0 -0.00185419 -0.00208206 -0.00315585 0.000827333 0.000920717 -0.00135692 -0.00834037 -0.000664794 -0.00417755
internal_weight=2946.1 2209.4 736.7 315.6 765 501.3 421.1 203.2 1444.4 300.7 100.5 112.4 330.2 171.1 54.8 257.2 263.7 249.9 120.4 102.7 67.3 57.6
internal_count=3516 2500 1016 368 945 573 648 241 1555 466 126 127 369 204 64 399 372 357 182 115 107 63
is_linear=0
shrinkage=0.0181051


Tree=16
num_leaves=27
num_cat=0
split_feature=2 2 2 1 12 17 2 2 2 2 2 12 17 14 29 2 7 38 2 32 4 14 15 14 15 14
split_gain=53.1366 6.07522 5.40066 3.17475 2.35411 0.930305 0.850977 0.730982 0.656122 0.512235 0.49727 0.396291 0.325865 0.315291 0.295765 0.284368 0.206784 0.159921 0.144965 0.144918 0.0848781 0.0733813 0.0393243 0.0379223 0.0204885 0.00818452
threshold=0.44536376071025291 0.71457084628741196 0.19651583672127948 -0.031432409381777139 0.39445087114429028 -0.12450496658816444 0.83773725758074347 0.10927519751022867 0.04516193093724321 0.3158322931185355 0.60870451303824302 0.27701603041617734 -0.39639512865576543 -0.057879661068197544 0.18614440712087069 0.27283264861342332 0.59447448567205863 -0.85695946213254104 0.58425898034662127 -0.19556758159982487 1.2062225767644492 0.39810271972871225 -1.0555045180575 -0.17542748941499783 -0.89582931132740373 0.76525555577116999
decision_type=2 2 2 2 2 2 2 2 2 2 2 2 2 2 2 2 2 2 2 2 2 2 2 2 2 2
left_child=2 5 3 7 9 10 21 -1 -5 12 16 -9 -4 -11 -10 20 -2 -12 22 -17 -6 23 -7 -3 -20 -23
right_child=1 6 4 8 15 18 -8 11 14 13 17 -13 -14 -15 -16 19 -18 -19 24 -21 -22 25 -24 -25 -26 -27
leaf_value=-0.0094075889914957498 -0.0013871624478728811 0.00034400274171233092 -0.0061643554413861636 -0.0067355921066422292 -0.0025747006751288392 0 0.0024090146798619325 -0.0073861848894451933 -0.0030169735110003549 -0.0050704676986188047 -0.00046519036634542685 -0.0036643003074304857 -0.003481742345338882 -0.0023764318781384613 -0.0060368477673074742 -0.00062488817947938425 7.1353549090051021e-05 0.00051083204350341367 0.0001549232394121661 0.00093555299256569888 -0.00024699694002667724 1.4367326923243879e-05 0.00056350278518208321 0.001593753322141271 0.0016636693768552853 0.00086377726784261813
leaf_weight=71.599999487400055 170.79999911785126 30.29999977350235 50.399999797344208 33.79999965429306 36.399999618530273 17.799999892711639 1063.5999976396561 50.29999965429306 141.79999840259552 26.399999856948853 91.199999809265137 28.999999761581421 64.299999415874481 141.1999990940094 21.099999785423279 93.499999046325684 23.199999868869781 128.09999936819077 19.49999988079071 20.799999892711639 18.499999761581421 35.799999952316284 128.1999985575676 315.49999874830246 83.999999284744263 38.99999988079071
leaf_count=86 196 36 56 54 57 26 1127 59 225 30 96 35 85 175 35 142 29 145 29 27 28 37 183 362 114 42
internal_value=-7.80505e-07 0.00147914 -0.00398982 -0.00571203 -0.00264121 2.22533e-05 0.00212283 -0.00776597 -0.00408419 -0.00366539 -0.00048876 -0.00615442 -0.00474992 -0.00286198 -0.00347109 -0.000871818 -0.00115988 5.81706e-05 0.000909857 -0.000251199 -0.00197712 0.00137475 0.0004365 0.0015139 0.0014785 0.000594346
internal_weight=2946.1 2147 799.1 347.6 451.5 662.8 1484.2 150.9 196.7 282.3 413.3 79.3 114.7 167.6 162.9 169.2 194 219.3 249.5 114.3 54.9 420.6 146 345.8 103.5 74.8
internal_count=3516 2422 1094 494 600 818 1604 180 314 346 466 94 141 205 260 254 225 241 352 169 85 477 209 398 143 79
is_linear=0
shrinkage=0.0181051


Tree=17
num_leaves=26
num_cat=0
split_feature=28 28 35 28 28 8 17 28 28 12 12 28 29 30 34 30 30 11 19 28 15 14 14 7 19
split_gain=49.0851 6.70013 3.52471 2.63288 1.60423 1.0115 0.819117 0.953969 0.712768 0.376498 0.33622 0.295029 0.337458 0.288 0.239088 0.203345 0.172764 0.162117 0.11876 0.0742051 0.071316 0.0446182 0.0395895 0.034771 0.0179684
threshold=0.42007156161352871 0.72170371670415412 0.29862992266856209 0.28966052530167857 0.20029813579473557 0.43868788250809548 -0.08413441228615294 0.58792093501314302 0.83860674314575101 -0.14860643545448163 0.65843992272366092 0.04085897967703906 0.19832692359930548 -0.16995090612686367 0.56949557989652833 -0.13413844462133237 -0.067857508555364932 -0.043036633281561994 -0.023542344758130346 0.31343133613685953 -1.0813117269525925 -0.27182164174977091 0.40949862085651439 -0.54986462665238867 -0.67671677323403145
decision_type=2 2 2 2 2 2 2 2 2 2 2 2 2 2 2 2 2 2 2 2 2 2 2 2 2
left_child=2 6 3 5 11 10 7 14 21 23 -1 -4 -13 19 -2 24 -15 -11 -9 -6 -17 -3 -23 -5 -8
right_child=1 8 4 9 13 -7 15 18 -10 17 -12 12 -14 16 -16 20 -18 -19 -20 -21 -22 22 -24 -25 -26
leaf_value=-0.0060095420726246898 -0.001616570755277258 0 -0.0062507059894170644 -0.005333235729083916 -0.0034102767369080093 -0.0085196870506109735 0 0.0007256560108958647 0.0023578877285078473 -0.0033007530437796579 -0.002366395520983187 -0.0031924148414086174 -0.0065432235138559308 0 0 0 -0.0013593000973033246 -0.00078269283435320879 -5.8543770755488394e-06 -0.0010115453845477378 0.001158450270995698 0.0015533325683750869 0.00073313631331913974 -0.0031652026536982728 -0.00062796004004401183
leaf_weight=75.999999463558197 182.29999899864197 13.199999809265135 28.099999725818634 41.499999821186066 40.299999594688416 88.799999594688416 23.799999713897705 96.999999284744263 1037.6999979019165 24.999999701976776 20.999999761581421 173.49999809265137 17.999999821186066 28.899999797344208 28.099999785423279 23.899999856948853 114.49999874830246 34.99999988079071 189.5999995470047 20.899999797344208 193.7999981045723 306.9999988079071 77.699999749660492 43.099999845027924 17.399999797344208
leaf_count=92 211 18 42 46 62 99 38 119 1094 33 29 269 28 42 36 33 180 38 201 32 268 350 84 47 25
internal_value=-1.00778e-06 0.00136683 -0.00398706 -0.00542423 -0.00284351 -0.00690786 0 -0.000442878 0.00209327 -0.00344696 -0.00532655 -0.00395182 -0.00356093 -0.00160381 -0.00137542 0.000812751 -0.00103943 -0.00200281 0.000205943 -0.00275868 0.00104273 0.00137739 0.00141433 -0.00434995 -0.000153556
internal_weight=2946.1 2191.5 754.6 330.4 424.2 185.8 755.9 497 1435.6 144.6 97 219.6 191.5 204.6 210.4 258.9 143.4 60 286.6 61.2 217.7 397.9 384.7 84.6 41.2
internal_count=3516 2477 1039 384 655 220 931 567 1546 164 121 339 297 316 247 364 222 71 320 94 301 452 434 93 63
is_linear=0
shrinkage=0.0181051


Tree=18
num_leaves=23
num_cat=0
split_feature=2 2 2 8 13 2 13 2 29 2 7 2 2 2 13 13 34 34 32 13 36 2
split_gain=49.5732 5.64744 5.08262 3.06982 2.38732 1.03586 0.908076 0.783806 0.712739 0.531291 0.414629 0.395635 0.318779 0.307055 0.284676 0.247898 0.211345 0.198167 0.151208 0.0635021 0.0352376 0.00412143
threshold=0.44536376071025291 0.71457084628741196 0.17840408896581025 0.26375766501199205 0.19484783609415104 0.039843694203252657 -0.65381996103720474 0.83224058405080326 0.17867771310611066 0.3158322931185355 0.15410897590648318 0.27283264861342332 0.54424186724983181 0.66479536213061807 1.0423135645021115 0.025964770549215654 -0.090574417488911041 -0.69020703544837858 -0.19556758159982487 -0.11731156893485029 -0.013678823437311449 0.92697523331447129
decision_type=2 2 2 2 2 2 2 2 2 2 2 2 2 2 2 2 2 2 2 2 2 2
left_child=2 6 3 5 9 -1 13 -3 -7 10 -4 14 15 16 -6 -8 -2 -11 -13 -14 -15 -9
right_child=1 7 4 -5 11 8 12 21 -10 17 -12 18 19 20 -16 -17 -18 -19 -20 -21 -22 -23
leaf_value=-0.0075094985392278827 -0.0017357494213850783 0.0012961301258287798 -0.0058700351093587946 -0.0087865787970226213 -0.0033535991582285016 -0.0033254668193326981 -0.00089437779072171892 0.0020362635092436164 -0.0070147359105946173 -0.0042892380093178884 -0.0027526743559790931 -0.00085303557855004309 0.00045380670537599152 0.00044660838646253876 -0.00077967671089472631 0.00049654009184462388 0 -0.0022619578002153061 0.00044261412270390815 0.0012047642135042419 -0.00033084006104863554 0.0024702235690404546
leaf_weight=38.999999642372131 116.99999976158142 394.79999846220016 74.599999666213989 82.799999535083771 42.999999523162842 171.7999981045723 73.799999296665192 421.59999865293503 26.499999701976776 43.199999809265137 36.099999606609344 111.79999887943268 128.69999921321869 33.599999904632568 40.299999594688416 92.499999046325684 25.699999928474426 101.39999932050705 28.599999845027924 147.19999873638153 44.299999892711639 667.79999887943268
leaf_count=59 123 448 83 95 64 260 94 460 41 48 51 167 153 36 63 134 28 127 36 203 47 696
internal_value=-1.47866e-06 0.00142784 -0.00385456 -0.0056494 -0.00263371 -0.00451154 2.26069e-05 0.00204846 -0.00387021 -0.0038492 -0.00494609 -0.00120068 0.000510915 -0.000909734 -0.00223147 -5.90484e-05 -0.00140881 -0.00293854 -0.000516063 0.000891634 0 0.00231169
internal_weight=2946.1 2147 799.1 320.1 479 237.3 662.8 1484.2 198.3 255.3 110.7 223.7 442.2 220.6 83.3 166.3 142.7 144.6 140.4 275.9 77.9 1089.4
internal_count=3516 2422 1094 455 639 360 818 1604 301 309 134 330 584 234 127 228 151 175 203 356 83 1156
is_linear=0
shrinkage=0.0181051


Tree=19
num_leaves=25
num_cat=0
split_feature=2 2 2 8 13 2 13 2 2 12 30 7 2 2 13 30 14 35 7 14 12 14 36 14
split_gain=47.8381 5.44428 4.89516 2.95085 2.30118 0.992954 0.875853 0.754084 0.508151 0.44109 0.395905 0.394249 0.309797 0.295926 0.234023 0.21184 0.204535 0.204074 0.188051 0.0671156 0.061784 0.0366413 0.0339732 0.00922551
threshold=0.44536376071025291 0.71457084628741196 0.17840408896581025 0.26375766501199205 0.19484783609415104 0.039843694203252657 -0.65381996103720474 0.83773725758074347 0.3158322931185355 0.52255432468325169 -0.15589356709119312 0.15410897590648318 0.58425898034662127 0.66479536213061807 0.025964770549215654 0.046691217442392456 -0.057879661068197544 -0.10662709496591628 0.66302816660189634 0.39810271972871225 -0.13645200863219792 -0.17542748941499783 -0.013678823437311449 0.76525555577116999
decision_type=2 2 2 2 2 2 2 2 2 2 2 2 2 2 2 2 2 2 2 2 2 2 2 2
left_child=2 6 3 5 8 -1 13 19 11 -7 18 -4 14 17 -8 -12 -10 -2 -6 21 -14 -3 -15 -21
right_child=1 7 4 -5 10 9 12 -9 16 -11 15 -13 20 22 -16 -17 -18 -19 -20 23 -22 -23 -24 -25
leaf_value=-0.0073735385616221939 -0.0017043234959435779 0.00029400140581590546 -0.0057637576192480586 -0.0086274970377744221 -0.0042536868524621352 -0.005026681912264414 -0.00059005651778769146 0.0022819049017793903 -0.0048197401927364616 -0.0028728183291523192 -1.3365811984142967e-05 -0.0027028370195590757 0.00051814912960979076 0.00043852252095093295 0.00056377508322617397 -0.0014553298372460687 -0.0023825297658657367 0 -0.0013463544574229644 0 0.001393409745354136 0.001514596957521773 -0.00032485016410524036 0.00081011395408537104
leaf_weight=38.999999642372131 116.99999976158142 30.29999977350235 74.599999666213989 82.799999535083771 20.199999749660492 80.699999094009399 104.29999905824661 1063.5999976396561 25.699999868869781 117.59999871253967 100.39999920129776 36.099999606609344 105.19999939203262 33.599999904632568 127.09999871253967 64.89999932050705 118.8999992609024 25.699999928474426 38.199999570846558 35.799999952316284 105.59999912977219 315.49999874830246 44.299999892711639 38.99999988079071
leaf_count=59 123 36 83 95 28 117 132 1127 29 184 142 51 123 36 183 99 146 28 61 37 146 362 47 42
internal_value=-1.75447e-06 0.00140226 -0.00378686 -0.00554886 -0.00258797 -0.00443142 2.22535e-05 0.00201162 -0.00378169 -0.00380107 -0.00117977 -0.00485822 0.000502085 -0.000893095 0 -0.000641551 -0.00288663 -0.00138304 -0.00252758 0.00130377 0.00100526 0.0014373 0 0.00054932
internal_weight=2946.1 2147 799.1 320.1 479 237.3 662.8 1484.2 255.3 198.3 223.7 110.7 442.2 220.6 231.4 165.3 144.6 142.7 58.4 420.6 210.8 345.8 77.9 74.8
internal_count=3516 2422 1094 455 639 360 818 1604 309 301 330 134 584 234 315 241 175 151 89 477 269 398 83 79
is_linear=0
shrinkage=0.0181051


Tree=20
num_leaves=23
num_cat=0
split_feature=2 2 2 17 2 13 2 2 25 6 12 2 20 2 17 3 13 29 2 15 30 2
split_gain=46.9196 5.96653 4.10459 3.2311 1.21558 1.03617 1.02531 0.973218 0.911573 0.591824 0.407576 0.383233 0.368535 0.333975 0.300321 0.146044 0.131353 0.0820026 0.20418 0.0568305 0.0315531 0.0225371
threshold=0.41440955847051264 0.75001513972669354 0.075107432278918765 0.14572114440627906 0.26587489860376295 -0.53572517052761814 0.25496523334827431 0.59861192768092297 0.06270706197738396 -0.38633491064542841 1.0926627840941048 0.89028324154209304 0.44033998862642637 0.53373055077631848 0.13396781299114663 1.6817589464049481 0.86508143377526936 0.074846088372611613 0.039843694203252657 0.31648215918379796 0.17598005108166273 0.81316042096379026
decision_type=2 2 2 2 2 2 2 2 2 2 2 2 2 2 2 2 2 2 2 2 2 2
left_child=2 5 8 4 9 7 10 19 -1 -4 -5 21 -6 14 -7 -9 -8 18 -10 -2 -15 -3
right_child=1 11 3 6 12 13 16 15 17 -11 -12 -13 -14 20 -16 -17 -18 -19 -20 -21 -22 -23
leaf_value=-0.0091064582678958943 -0.0010329012835008943 0.0012638426959586597 -0.0029108207285875425 -0.0036868482413827857 -0.0039986953985659268 -0.00069870651049129832 -0.001229871071297345 0.00033871774804090276 -0.0059064238874650919 -0.006892185783928321 -0.0016673820849475961 0.0023355466269537658 -0.001196259573828217 0.0010494454659363741 0.00075830820994948333 -0.001066314928747797 0 -0.0072819759586460241 -0.0022397361558845045 -0.0023611515400506875 0 0.0018304422189868068
leaf_weight=54.399999558925629 56.199999749660492 212.09999930858612 25.199999749660492 111.89999878406525 125.89999932050705 91.399999022483826 73.699999213218689 176.39999949932098 20.199999809265137 101.39999938011169 81.499999225139618 884.79999828338623 30.399999797344208 314.29999774694443 93.599999129772186 26.299999892711639 61.499999463558197 18.79999977350235 24.599999725818634 72.999999761581421 23.899999737739563 309.59999871253967
leaf_count=68 63 239 38 168 144 120 111 189 33 117 130 928 42 406 135 29 89 30 39 79 33 346
internal_value=6.04318e-05 0.00135166 -0.00392859 -0.00330039 -0.00474652 0.000146063 -0.00202416 -0.000629597 -0.00709718 -0.0061807 -0.00288886 0.00207733 -0.00351924 0.000657716 0 0.000105823 -0.000711385 -0.0052173 -0.00412194 -0.00186276 0.000996456 0.00161975
internal_weight=2991.1 2261.6 729.5 611.5 282.9 855.1 328.6 331.9 118 126.6 193.4 1406.5 156.3 523.2 185 202.7 135.2 63.6 44.8 129.2 338.2 521.7
internal_count=3576 2567 1009 839 341 1054 498 360 170 155 298 1513 186 694 255 218 200 102 72 142 439 585
is_linear=0
shrinkage=0.0181051


Tree=21
num_leaves=25
num_cat=0
split_feature=2 2 2 17 1 13 2 2 4 2 2 2 2 13 2 17 1 36 31 26 33 15 2 12
split_gain=45.2916 5.16366 4.47288 2.37008 2.35635 0.991834 0.632297 0.589585 0.515405 0.497988 0.366661 0.353727 0.312266 0.314144 0.295888 0.321656 0.17097 0.120203 0.0980005 0.0536937 0.0532116 0.0419881 0.0199265 0.00564014
threshold=0.43090836500679347 0.75001513972669354 0.17349902936066652 0.37752758223481359 -0.05157106271214764 -0.65381996103720474 0.59861192768092297 0.039843694203252657 0.46822857310916949 0.35380528843280085 0.89028324154209304 0.10927519751022867 0.2912559949712572 0.99699270235677862 0.60167547976786218 0.12435406144805466 0.47295933642754123 -0.037396247841473294 -0.45766069043558844 -0.73082800578015639 0.0072916337202613511 0.31648215918379796 0.81316042096379026 -0.03356071115044449
decision_type=2 2 2 2 2 2 2 2 2 2 2 2 2 2 2 2 2 2 2 2 2 2 2 2
left_child=2 5 4 8 11 6 21 -6 9 -4 22 -1 13 -5 15 -7 -9 -8 -10 -16 -14 -2 -3 -13
right_child=1 10 3 12 7 14 17 16 18 -11 -12 23 20 -15 19 -17 -18 -19 -20 -21 -22 -23 -24 -25
leaf_value=-0.008587983332146356 -0.00076220259747981922 0.0012409606811401126 -0.0049244576936907343 -0.0029121071629164383 -0.0069367977656148152 -0.00029544417758102997 0.0007534568325696416 -0.00476698490728666 -0.0027770250101178239 -0.0027722813713264801 0.0022932612768645335 -0.0068614367096844252 -0.00036640742577717449 -0.0004088721795331439 0.0017648583439590978 0.0009085787172789983 -0.002785717000243315 -0.00030802840144745 -0.00067582150226569286 0.00085371159071116125 0.00062448650641065489 -0.0022497235646523734 0.001797301879998007 -0.0038608224793063067
leaf_weight=74.199999451637268 35.199999868869781 212.09999930858612 127.79999929666519 40.399999558925629 26.199999749660492 154.39999854564667 49.29999977350235 45.399999380111694 29.099999606609344 91.099999368190765 884.79999828338623 26.399999856948853 77.89999932050705 47.0999995470047 63.29999977350235 126.39999878406525 108.99999898672104 120.29999977350235 32.699999809265137 201.29999846220016 18.999999821186066 63.399999856948853 309.59999871253967 24.699999749660492
leaf_count=90 39 239 147 63 43 199 55 65 45 107 928 30 118 74 69 179 181 126 44 265 26 67 346 31
internal_value=5.87267e-05 0.00137501 -0.00371822 -0.00255789 -0.00544891 0.000212841 -0.000669754 -0.00399956 -0.00361802 -0.00407563 0.00203999 -0.00745606 -0.000888506 -0.00168186 0.00066566 0.000210016 -0.00343472 0 -0.00183117 0.00111044 -6.62791e-05 -0.00182269 0.00159078 -0.00561175
internal_weight=2991.1 2220.1 771 465.1 305.9 813.6 268.2 180.6 280.7 218.9 1406.5 125.3 184.4 87.5 545.4 280.8 154.4 169.6 61.8 264.6 96.9 98.6 521.7 51.1
internal_count=3576 2512 1064 624 440 999 287 289 343 254 1513 151 281 137 712 378 246 181 89 334 144 106 585 61
is_linear=0
shrinkage=0.0181051


Tree=22
num_leaves=23
num_cat=0
split_feature=2 2 2 17 2 13 2 2 26 11 12 2 35 2 17 31 13 28 2 2 17 2
split_gain=43.7249 5.54611 3.83186 3.02312 1.13305 0.970389 0.951825 0.908092 0.831886 0.53975 0.381608 0.350736 0.330419 0.313248 0.280624 0.156713 0.12124 0.063354 0.173162 0.0525725 0.0224103 0.0174417
threshold=0.41440955847051264 0.75001513972669354 0.075107432278918765 0.14572114440627906 0.26587489860376295 -0.53572517052761814 0.25496523334827431 0.59861192768092297 0.12473732477469161 -0.4814829611041414 1.0926627840941048 0.89028324154209304 0.37881051154557305 0.53373055077631848 0.13396781299114663 1.6204765404711183 0.86508143377526936 0.067804242325187308 0.039843694203252657 0.51275478311378053 -0.12450496658816444 0.81316042096379026
decision_type=2 2 2 2 2 2 2 2 2 2 2 2 2 2 2 2 2 2 2 2 2 2
left_child=2 5 8 4 9 7 10 19 -1 -4 -5 21 -6 14 -7 -9 -8 18 -10 -2 -15 -3
right_child=1 11 3 6 12 13 16 15 17 -11 -12 -13 -14 20 -16 -17 -18 -19 -20 -21 -22 -23
leaf_value=-0.0087346321861114778 -0.0023279907461783459 0.0012184929625861671 -0.0028642623804366013 -0.0035572398516613471 -0.003902541533885182 -0.00067601271008956867 -0.0011789458774057624 0.00035335035834266901 -0.0056186211456555994 -0.0066715394845575536 -0.0015946451258022139 0.0022517415646502491 -0.0013504540275720816 0.00063932225434664997 0.00073247142036547979 -0.0010343197489690618 0 -0.0069871869052703477 -0.0020867360651452365 -0.0010406843573281333 0.0012030649142059694 0.0017647615263540212
leaf_weight=56.0999995470047 68.299999594688416 212.09999930858612 25.899999737739563 111.89999878406525 121.19999939203262 91.399999022483826 73.699999213218689 172.99999952316284 19.699999809265137 100.69999939203262 81.499999225139618 884.79999828338623 35.099999725818634 161.39999902248383 93.599999129772186 29.699999868869781 61.499999463558197 18.29999977350235 23.899999737739563 60.899999916553497 176.79999846220016 309.59999871253967
leaf_count=71 79 239 39 168 137 120 111 185 32 116 130 928 49 196 135 33 89 29 38 63 243 346
internal_value=5.70426e-05 0.00130366 -0.00379367 -0.00318564 -0.00458524 0.000140844 -0.00194947 -0.000609295 -0.00685768 -0.00597365 -0.00278322 0.00200332 -0.00339504 0.000636307 0 9.94318e-05 -0.000680969 -0.00499091 -0.00391779 -0.00180058 0.000964352 0.00156233
internal_weight=2991.1 2261.6 729.5 611.5 282.9 855.1 328.6 331.9 118 126.6 193.4 1406.5 156.3 523.2 185 202.7 135.2 61.9 43.6 129.2 338.2 521.7
internal_count=3576 2567 1009 839 341 1054 498 360 170 155 298 1513 186 694 255 218 200 99 70 142 439 585
is_linear=0
shrinkage=0.0181051


Tree=23
num_leaves=22
num_cat=0
split_feature=2 2 2 12 2 2 12 10 2 1 12 2 20 2 12 29 2 31 14 2 30
split_gain=42.2038 5.34907 3.69597 2.81 1.07879 1.03846 0.931751 0.887154 0.88091 0.77816 0.358351 0.356369 0.312413 0.282683 0.248172 0.194715 0.183479 0.15256 0.152341 0.0577938 0.0250369
threshold=0.41440955847051264 0.74780581094282106 0.075107432278918765 0.27701603041617734 0.26587489860376295 0.25496523334827431 -0.52516637091460761 0.39389608206875909 0.59861192768092297 0.032145504001596707 1.0926627840941048 0.83224058405080326 0.44033998862642637 0.53373055077631848 0.20461788475023024 0.078800190171176523 0.039843694203252657 1.6204765404711183 -0.00015429665244059995 0.51275478311378053 0.17598005108166273
decision_type=2 2 2 2 2 2 2 2 2 2 2 2 2 2 2 2 2 2 2 2 2
left_child=2 6 9 4 7 10 8 -4 19 -1 -5 -3 -6 14 -8 16 -11 -10 -7 -2 -15
right_child=1 11 3 5 12 18 13 -9 17 15 -12 -13 -14 20 -16 -17 -18 -19 -20 -21 -22
leaf_value=-0.0086467708720271968 -0.0022738978716595492 0.001318167249602394 -0.0063684294664188368 -0.003516129306182812 -0.0037184339876344418 0.00093398129278855183 -0.00057229330091609768 -0.0017191082609597959 0.00034918599321663205 -0.005570775434258237 -0.0015657739400112094 0.002128722121716746 -0.0012753445858857734 0.0010001807119009404 0.00076242524243044503 -0.0074100227435207403 -0.00211349082429393 -0.0010155933453059453 -0.00074384670082207089 -0.00099887934505360509 0
leaf_weight=53.699999570846558 69.699999570846558 304.39999890327454 114.59999924898148 102.09999889135361 134.49999922513962 16.599999904632568 96.099998950958252 22.499999761581421 177.09999948740005 20.199999809265137 81.499999225139618 1110.8999973535538 35.799999713897705 302.09999781847 85.799999237060547 17.79999977350235 26.299999713897705 29.699999868869781 103.89999896287918 63.299999892711639 22.499999761581421
leaf_count=67 81 342 135 153 155 19 127 36 190 33 130 1181 50 392 124 28 42 33 161 66 31
internal_value=5.54198e-05 0.00128022 -0.00372766 -0.00312994 -0.00437559 -0.00183704 0.000128545 -0.00568022 -0.000589458 -0.00673824 -0.00270623 0.00196164 -0.00326508 0.000630486 8.97767e-07 -0.00498483 -0.00383592 0.000103589 -0.000427603 -0.00174418 0.000951702
internal_weight=2991.1 2261.6 729.5 611.5 307.4 304.1 846.3 137.1 339.8 118 183.6 1415.3 170.3 506.5 181.9 64.3 46.5 206.8 120.5 133 324.6
internal_count=3576 2567 1009 839 376 463 1044 171 370 170 283 1523 205 674 251 103 75 223 180 147 423
is_linear=0
shrinkage=0.0181051


Tree=24
num_leaves=26
num_cat=0
split_feature=14 32 26 14 13 12 17 7 8 15 11 15 34 7 32 19 32 24 26 36 7 14 14 26 22
split_gain=12.5307 1.57431 1.89208 0.863961 0.5715 0.562885 0.519569 0.504229 0.66313 0.502728 0.471431 0.438332 0.38029 0.311533 0.310895 0.291184 0.25796 0.175154 0.174761 0.155057 0.146949 0.143556 0.136695 0.0353166 0.000691201
threshold=4.3706911057005592e-05 -0.19556758159982487 -1.2578568523318998 0.20598343533622723 0.10172835268800036 -0.8846089316880249 -1.270835296095149 0.5432224543837475 -0.0044639054958869996 0.53599033429646648 0.55637356695055395 -0.96854504008743936 -0.93208077682268764 0.5348856351506307 1.9304328255469987 1.4221266749552981 -0.017582712644563597 0.0071184163299422001 -0.9422954484334769 -0.0093421996045128484 -1.1556943414291656 -0.17542748941499783 0.029923419191116053 0.24463399325113691 -1.3046511079600107
decision_type=2 2 2 2 2 2 2 2 2 2 2 2 2 2 2 2 2 2 2 2 2 2 2 2 2
left_child=1 4 5 9 7 15 14 8 -1 16 11 -6 21 -14 -5 -3 22 20 24 -19 -11 -4 -2 -9 -8
right_child=3 2 12 6 10 -7 18 23 -10 17 -12 -13 13 -15 -16 -17 -18 19 -20 -21 -22 -23 -24 -25 -26
leaf_value=0.00013537888401753389 0 -0.001767087013501985 0 0.001107509114759205 -0.0027491823375241512 -0.00048841317145356525 0.0016641510642283678 -0.0031665640985973856 -0.0013433158906734528 -0.0017724884127951314 -0.0050096615197199853 -0.0013748960001689608 -0.00031336438286960473 0.00096238031877184593 -0.0013336752672762819 -0.0048181903228234372 0.0017724956223570468 0.0014513563524709632 0.0020455726636115059 0 -3.673979890932837e-05 0.0016446379264544618 0.0012371041381749853 -0.0014602730706332839 0.0010440452986938318
leaf_weight=170.89999830722809 63.499999582767487 34.399999856948853 31.199999928474426 44.499999940395355 130.89999884366989 41.099999725818634 123.6999996304512 34.299999535083771 205.19999885559082 25.099999845027924 19.199999809265137 348.9999960064888 432.09999781847 71.29999965429306 26.699999868869781 36.799999713897705 128.09999972581863 36.799999952316284 551.09999960660934 35.199999928474426 83.399999856948853 62.099999845027924 39.699999749660492 46.799999535083771 167.99999952316284
leaf_count=235 74 38 33 46 214 48 133 49 237 29 24 535 494 88 30 44 135 38 561 37 87 66 46 75 180
internal_value=5.38366e-05 -0.000988193 -0.000322991 0.00137044 -0.00147065 -0.00248159 0.00168792 -0.000961772 -0.000644129 0.000640874 -0.00191626 -0.00177112 6.60739e-05 -0.000112299 4.80278e-05 -0.0034881 0.0012014 -2.05904e-05 0.00181429 0.000608849 -0.000532803 0.0011384 0.000393135 -0.00230838 0.00134217
internal_weight=2991.1 1665.3 709 1325.8 956.3 112.3 914 457.2 376.1 411.8 499.1 479.9 596.7 503.4 71.2 71.2 231.3 180.5 842.8 72 108.5 93.3 103.2 81.1 291.7
internal_count=3576 2180 811 1396 1369 130 950 596 472 446 773 749 681 582 76 82 255 191 874 75 116 99 120 124 313
is_linear=0
shrinkage=0.0181051


Tree=25
num_leaves=24
num_cat=0
split_feature=2 2 2 25 34 12 12 2 16 2 2 12 2 2 29 12 2 29 12 15 15 30 2
split_gain=37.703 4.82617 4.5461 2.08982 1.97698 1.04469 0.728598 0.630189 0.551575 0.51341 0.430073 0.401959 0.400739 0.279874 0.262176 0.239851 0.207166 0.183095 0.164306 0.109424 0.0820452 0.0637153 0.0297748
threshold=0.43090836500679347 0.71457084628741196 0.16596961320140904 0.21830587422268338 0.39996009342555422 -0.65319070981007032 -0.15434225779137886 0.051910116898969405 1.0614068231153759 0.84290023993181207 0.56621058150986892 0.41605787493782492 0.34934272376341413 0.2771614143378725 0.16301916943297667 1.3314434238435484 0.54146913144230002 0.54154346119838259 0.38036882173358999 0.31648215918379796 1.1348934034500726 0.16256873528779089 0.086883420274767614
decision_type=2 2 2 2 2 2 2 2 2 2 2 2 2 2 2 2 2 2 2 2 2 2 2
left_child=2 5 3 11 6 10 12 -5 -8 -3 19 -1 -4 15 -9 -6 17 -7 -15 -2 -12 -18 -13
right_child=1 9 4 7 13 16 8 14 -10 -11 20 22 -14 18 -16 -17 21 -19 -20 -21 -22 -23 -24
leaf_value=-0.007843346193842228 -0.00072998959034771234 0.0012555761590933873 -0.0054568300124251921 -0.0063508373972962452 -0.0022997645192364032 0.00022145526033559522 -0.0030000271398754491 -0.0021906943142203025 -2.4700761171145076e-05 0.0020640550086185364 0 -0.0062495159992121433 -0.0029889903719666011 -0.0011936051204092803 -0.0052396374532963893 0 0.00088862890595376668 -0.0015253250369430893 4.4252828207505976e-05 -0.0027122389814421481 -0.0010493247538803103 0 -0.0030852966133607415
leaf_weight=95.999999344348907 31.599999845027924 453.89999812841415 76.499999701976776 27.699999690055847 71.599999308586121 170.59999841451645 86.099999129772186 91.199999034404755 36.099999845027924 1024.6999976038933 99.599999785423279 19.599999785423279 68.499999701976776 48.599999606609344 18.399999856948853 21.399999797344208 242.09999811649323 22.199999809265137 77.799999237060547 52.399999856948853 37.699999868869781 23.79999977350235 22.799999713897705
leaf_count=115 36 517 85 45 108 232 112 147 40 1089 105 29 76 69 32 36 315 30 124 56 41 32 30
internal_value=1.63224e-05 0.0012422 -0.00344153 -0.00532896 -0.00235106 -5.19576e-06 -0.00341375 -0.00358799 -0.00220499 0.0018228 -0.00104157 -0.006982 -0.00436172 -0.00101011 -0.00279614 -0.00179625 0.000472444 0 -0.000350562 -0.00208863 -0.000326282 0.000800271 -0.00478989
internal_weight=2920.9 2158.6 762.3 275.7 486.6 680 267.2 137.3 122.2 1478.6 221.3 138.4 145 219.4 109.6 93 458.7 192.8 126.4 84 137.3 265.9 42.4
internal_count=3501 2453 1048 398 650 847 313 224 152 1606 238 174 161 337 179 144 609 262 193 92 146 347 59
is_linear=0
shrinkage=0.0181051


Tree=26
num_leaves=22
num_cat=0
split_feature=29 29 35 29 29 13 13 29 29 29 13 21 30 0 13 1 38 13 7 13 30
split_gain=32.8995 5.5835 3.05175 1.7828 0.988227 0.688654 0.674822 0.723065 0.607495 0.3683 0.343728 0.447405 0.255592 0.162244 0.146165 0.131786 0.137427 0.0679095 0.0371283 0.0141317 0.00246857
threshold=0.41246599640597631 0.72218784583335005 0.29862992266856209 0.25965884964632963 0.33457370085432814 -0.24242822907265218 -0.045294537229888639 0.56751905946802539 0.056553996694050652 0.82516262831313314 -0.15543357728320356 0.32246480896294166 -0.16995090612686367 -0.97212271836630892 -0.65098678755525674 -1.3002809550067009 0.49552338932653334 -0.79234377474351769 0.5432224543837475 0.76174161723620337 -0.066268201517684838
decision_type=2 2 2 2 2 2 2 2 2 2 2 2 2 2 2 2 2 2 2 2 2
left_child=2 6 3 5 8 -1 7 13 -4 17 -5 -12 -10 -2 -9 -8 -17 -3 -6 -7 -20
right_child=1 9 4 10 18 19 15 14 12 -11 11 -13 -14 -15 -16 16 -18 -19 20 -21 -22
leaf_value=-0.0076125840918409241 -0.00026046730263314875 0.00081306243690018902 -0.0051782581441605453 -0.004020294358398859 -0.00079549413034272218 -0.0051491911351352684 -0.00091880761613049699 -0.00030469803772709006 -0.0031456120096098076 0.0019911313783520365 -0.003766361994370387 -0.00037150570775826806 -0.001777847589481575 -0.0017062628510290611 0.0004976681080109648 0.0010012920711309152 0 0.0015179097513635623 0.00020114451494232139 -0.0026491571370849329 0
leaf_weight=75.699999630451202 52.799999833106995 165.29999965429306 34.79999965429306 94.599999666213989 22.399999737739563 60.899999499320984 12.099999964237211 169.29999941587448 112.49999898672104 1033.5999975800514 26.599999725818634 39.799999833106995 186.09999811649323 143.99999892711639 130.09999918937683 175.0999983549118 86.099999070167542 227.69999885559082 19.999999821186066 21.199999749660492 30.199999690055847
leaf_count=86 57 174 55 103 32 78 13 184 176 1098 34 44 286 177 157 238 133 270 29 28 49
internal_value=1.52022e-05 0.00112257 -0.00332591 -0.0046819 -0.00223589 -0.00612505 -0.000107911 -0.000517027 -0.00265583 0.00179348 -0.00320374 -0.00188595 -0.00232751 -0.00137048 9.70557e-06 0.000597351 0.000706849 0.00124754 -0.000166165 -0.00462855 0
internal_weight=2920.9 2196.1 724.8 318.8 406 157.8 769.5 496.2 333.4 1426.6 161 66.4 298.6 196.8 299.4 273.3 261.2 393 72.6 82.1 50.2
internal_count=3501 2501 1000 373 627 192 959 575 517 1542 181 78 462 234 341 384 371 444 110 106 78
is_linear=0
shrinkage=0.0181051


Tree=27
num_leaves=26
num_cat=0
split_feature=28 29 34 28 28 13 17 28 28 12 14 28 28 17 35 18 15 29 13 15 25 39 17 13 29
split_gain=33.4034 4.82009 2.88308 1.93151 1.41429 0.682855 0.602096 0.58656 0.422339 0.408993 0.444908 0.382981 0.328161 0.316779 0.280714 0.241001 0.201722 0.137871 0.109135 0.108854 0.0559927 0.0205228 0.00980747 0.00959707 0.00888709
threshold=0.42007156161352871 0.72218784583335005 0.30125819820549926 0.2577285788915693 0.20029813579473557 -0.65381996103720474 0.61564451148633159 0.60278906771574692 0.82699890487203642 -0.13645200863219792 -0.00047195577204199997 0.045255164923727255 0.52774092958146224 0.095267491647800753 1.1061488167560787 -0.31658576113775844 0.31648215918379796 0.17441472076704967 -0.80784209833636822 -0.1302035374729458 -1.2495247418125164 -0.030673751690573198 -0.96013157879067779 -0.24242822907265218 0.30791826900504721
decision_type=2 2 2 2 2 2 2 2 2 2 2 2 2 2 2 2 2 2 2 2 2 2 2 2 2
left_child=2 5 3 6 11 7 23 16 18 19 -11 -4 13 -7 15 -6 -2 -13 22 -5 -14 -9 -3 -1 -16
right_child=1 8 4 9 14 12 -8 21 -10 10 -12 17 20 -15 24 -17 -18 -19 -20 -21 -22 -23 -24 -25 -26
leaf_value=-0.0074732493161214861 -0.00051445688447604996 0.00081135922179559512 -0.0057877742137116047 -0.0020366617142225795 -0.0018231727911060041 -0.00092708777226228097 -0.0027650990563574704 0.00026315592525279387 0.0019638289748101345 0 -0.0030234409603639174 -0.0024648162658378998 0 0.00048419219919786739 -0.00012367233969784076 0 -0.0024479465555799981 -0.004350217747647123 0.0014445784321182021 -0.0045099090998886766 0.00081122737256852549 -0.00018374783427761113 0.00013141719072913907 -0.0053952603921762383 0.00037910561989893792
leaf_weight=77.699999630451202 45.299999833106995 83.699999749660492 27.599999725818634 25.599999904632568 134.39999866485596 99.599999070167542 24.899999737739563 53.799999833106995 1049.1999976038933 28.799999833106995 38.699999690055847 136.09999853372574 19.499999940395355 101.0999990105629 32.599999666213989 25.899999856948853 67.499999821186066 37.599999666213989 239.79999881982803 73.499999701976776 283.09999769926071 88.899999678134918 53.899999916553497 55.299999535083771 16.799999833106995
leaf_count=88 50 90 43 28 208 128 34 58 1113 33 47 215 21 146 53 34 72 56 283 81 372 97 56 69 26
internal_value=1.43597e-05 0.00114107 -0.00331951 -0.00462634 -0.00226277 -1.14229e-05 -0.00613295 -0.000786592 0.00176126 -0.00313684 -0.0017551 -0.00337449 0.000361715 -0.000165076 -0.00114667 -0.00151462 -0.00176238 -0.00293198 0.00117095 -0.0039745 0.000745001 0 0.000619547 -0.00668636 0
internal_weight=2920.9 2185.4 735.5 324.5 411 758.8 157.9 255.5 1426.6 166.6 67.5 201.3 503.3 200.7 209.7 160.3 112.8 173.7 377.4 99.1 302.6 142.7 137.6 133 49.4
internal_count=3501 2486 1015 380 635 944 191 277 1542 189 80 314 667 274 321 242 122 271 429 109 393 155 146 157 79
is_linear=0
shrinkage=0.0181051


Tree=28
num_leaves=20
num_cat=0
split_feature=2 2 2 1 7 0 2 2 2 7 7 2 2 2 2 4 6 7 28
split_gain=34.0355 4.33206 4.20025 1.92415 1.87487 0.730782 0.602324 0.570734 0.456164 0.282727 0.26966 0.254024 0.187808 0.159522 0.153499 0.145797 0.084765 0.0808903 0.00771535
threshold=0.43090836500679347 0.71457084628741196 0.16596961320140904 0.22194846425734047 0.42095340943149856 -1.4250372901758974 0.34934272376341413 0.051910116898969405 0.84290023993181207 -0.48875554734471932 -0.020646898163071446 0.56195284676931623 0.2771614143378725 0.086883420274767614 0.51932952012625233 1.3119857893300015 0.26621066713008035 0.83148063907245007 0.15457380311643446
decision_type=2 2 2 2 2 2 2 2 2 2 2 2 2 2 2 2 2 2 2
left_child=2 5 3 13 6 -2 10 -5 -3 11 -4 -7 15 -1 -11 -6 -8 -14 -9
right_child=1 8 4 7 12 9 16 18 -10 14 -12 -13 17 -15 -16 -17 -18 -19 -20
leaf_value=-0.0078222313947759921 -0.0021998455182747814 0.0011902732401086438 -0.0046320284080347352 -0.0061113001596048346 -0.0019450729672399357 -0.0013590155587338132 -0.0012150603163678573 -0.0022046614970554121 0.0019569793179704141 0 -0.0025779787990682416 0 -0.00078985733494322586 -0.0055012726314467922 0.00065661423068973242 0 -0.002721981023680074 8.9599731493187536e-05 -0.004050547821654045
leaf_weight=65.199999451637268 46.799999713897705 453.89999812841415 106.29999947547913 26.299999713897705 59.699999451637268 62.399999856948853 64.899999439716339 89.099999070167542 1024.6999976038933 151.39999854564667 63.799999415874481 131.59999978542328 48.799999535083771 75.099999368190765 287.79999756813049 22.999999761581421 55.299999833106995 64.799999415874481 19.999999821186066
leaf_count=84 54 517 122 43 95 66 79 144 1089 210 82 137 72 93 380 36 60 104 34
internal_value=1.35698e-05 0.00117848 -0.00327163 -0.00508652 -0.00222227 -2.53619e-06 -0.00315883 -0.00338763 0.00172855 0.000143672 -0.0039219 -0.000406014 -0.000784983 -0.00665297 0.000409825 -0.00146739 -0.00199367 -0.000197919 -0.00263705
internal_weight=2920.9 2158.6 762.3 275.7 486.6 680 290.3 135.4 1478.6 633.2 170.1 194 196.3 140.3 439.2 82.7 120.2 113.6 109.1
internal_count=3501 2453 1048 398 650 847 343 221 1606 793 204 203 307 177 590 131 139 176 178
is_linear=0
shrinkage=0.0181051


Tree=29
num_leaves=19
num_cat=0
split_feature=30 30 30 30 13 7 26 22 30 21 3 18 30 33 11 16 11 5
split_gain=12.8275 7.93551 2.52783 1.24555 0.723682 0.517036 0.483755 0.396437 0.305308 0.297929 0.283419 0.242582 0.234993 0.177767 0.280731 0.106962 0.104039 0.0804777
threshold=-0.16995090612686367 0.027843671968608354 -0.035528035201822898 0.16256873528779089 -0.18649288927827062 -0.57073101095665291 -0.98931554326189175 -0.86519473946869008 -0.51096191392986312 0.38279230106291301 -0.18385851475073148 1.0000000180025095e-35 0.0090474161772311022 -0.46073620163713452 -0.4979184827219133 0.93307865667305256 1.5603264042873408 0.41178104232639129
decision_type=2 2 2 2 2 2 2 2 2 2 2 2 2 2 2 2 2 2
left_child=6 2 5 9 12 11 -1 -8 -9 10 -3 -2 -4 -5 -15 -7 -11 -6
right_child=1 3 4 13 17 15 7 8 -10 16 -12 -13 -14 14 -16 -17 -18 -19
leaf_value=-0.0054092797024803806 0 -0.0007103930608036885 0.0015637793074826877 -0.00034022371916697793 0.00049694377304661296 0 0 -0.003809448767419346 -0.0023221019445284308 -0.0016432535217229339 0.00064465522110336516 -0.0017876839093455884 0.00070524517966093312 -0.0015548761912538886 -0.0031476221414021063 0.00095740602035073721 0 -0.00022073301386182315
leaf_weight=40.999999761581421 31.199999928474426 126.09999859333038 1234.3999973535538 24.599999845027924 156.89999890327454 223.39999806880951 13.599999904632567 138.69999879598618 155.99999856948853 91.29999977350235 79.599999606609344 87.29999965429306 164.69999921321869 97.199998915195465 134.99999886751175 41.99999988079071 24.899999797344208 52.999999523162842
leaf_count=47 33 184 1303 29 198 310 16 205 217 97 93 96 186 157 168 45 30 87
internal_value=1.26377e-05 0.000458326 0.00100329 -0.00140069 0.00131946 -0.000295105 -0.00323922 -0.00291737 -0.00305692 -0.000606957 -0.000136172 -0.00129744 0.00147004 -0.0023557 -0.00252506 0.000113793 -0.00135209 0.000266871
internal_weight=2920.9 2571.6 1992.9 578.7 1609 383.9 349.3 308.3 294.7 321.9 205.7 118.5 1399.1 256.8 232.2 265.4 116.2 209.9
internal_count=3501 3016 2258 758 1774 484 485 438 422 404 277 129 1489 354 325 355 127 285
is_linear=0
shrinkage=0.0181051


Tree=30
num_leaves=23
num_cat=0
split_feature=2 2 2 34 1 2 12 12 2 17 2 2 2 17 2 17 2 4 12 14 10 14
split_gain=32.552 4.50745 3.17916 1.90891 1.67861 0.771689 0.470957 0.389736 0.372164 0.292389 0.288908 0.266089 0.229911 0.381444 0.159584 0.144822 0.112798 0.104667 0.100794 0.071784 0.0538355 0.0201249
threshold=0.48346985301700302 0.16596961320140904 0.74536034372638793 0.43031881806404371 -0.05157106271214764 0.32839489190374532 -0.69662318019166847 -0.28135032976373214 0.039843694203252657 -0.39131587633954984 0.56621058150986892 0.81814124382931719 0.31173251074761227 0.84935715543727552 0.59016671784558794 -0.067806274427808885 0.10927519751022867 -0.46369036953231929 0.36371213754407083 0.40949862085651439 -0.674109597953643 -0.15722896692076832
decision_type=2 2 2 2 2 2 2 2 2 2 2 2 2 2 2 2 2 2 2 2 2 2
left_child=1 4 6 5 16 9 10 -7 -6 -3 -2 19 13 -5 15 -8 -1 -12 -14 21 -16 -4
right_child=2 3 11 12 8 7 14 -9 -10 -11 17 -13 18 -15 20 -17 -18 -19 -20 -21 -22 -23
leaf_value=-0.0075512700612222188 -0.0016558437823860166 -0.0053585634030044547 0.00017731436772382408 -0.0024279713873028722 -0.0058037493126724569 -0.0028457318758231573 -0.00044548649876174261 -0.00098343379498531101 -0.0029862665912350982 -0.0030421390726401054 -0.00028590583727174427 0.0018767801621304453 -0.00080780298471397425 -0.00018886610955364032 0.0014437083805416435 0.00052079423802256042 -0.0050681580025787494 0.00090403332601549525 0.00018578478730857297 0.00014627711916121279 0.00060447193670732182 0.0013600509467750208
leaf_weight=68.999999463558197 50.799999833106995 54.79999977350235 26.099999845027924 56.999999463558197 29.799999713897705 110.99999952316284 76.699999332427979 87.599999308586121 136.69999849796295 83.799999296665192 141.49999970197678 1109.8999974131584 49.299999475479126 64.199999272823334 65.099999725818634 127.69999867677689 46.899999618530273 27.99999988079071 77.599999189376831 44.599999904632568 201.29999846220016 184.49999934434891
leaf_count=84 55 61 30 88 49 123 97 108 216 107 149 1181 73 100 73 179 57 31 121 47 259 211
internal_value=-4.65282e-06 -0.00294888 0.0012328 -0.00201232 -0.00485367 -0.00291036 0.000215226 -0.00207593 -0.00355213 -0.00403201 -0.000450566 0.00174045 -0.000750435 -0.00132653 0.000548551 0.000108029 -0.00663495 -2.88334e-05 -0.000119404 0.00110734 0.000848052 0.00126217
internal_weight=2923.9 867.7 2056.2 585.3 282.4 337.2 691.1 198.6 166.5 138.6 220.3 1365.1 248.1 121.2 470.8 204.4 115.9 169.5 126.9 255.2 266.4 210.6
internal_count=3499 1187 2312 781 406 399 843 231 265 168 235 1469 382 188 608 276 141 180 194 288 332 241
is_linear=0
shrinkage=0.0181051


Tree=31
num_leaves=24
num_cat=0
split_feature=2 2 2 4 1 2 13 13 28 2 17 2 2 13 2 2 13 2 14 10 26 17 14
split_gain=31.4189 4.34357 3.06541 1.8384 1.61351 0.720775 0.491919 0.420756 0.365552 0.566175 0.321644 0.253198 0.238994 0.368463 0.238045 0.176144 0.159537 0.101369 0.0681475 0.0618269 0.0617293 0.0532562 0.0179983
threshold=0.48346985301700302 0.16596961320140904 0.74536034372638793 0.48096828704391997 -0.05157106271214764 0.32839489190374532 -0.73892517031605975 -0.27898681847939844 0.16778700923029982 0.08105724035726701 -0.39131587633954984 0.81814124382931719 0.31173251074761227 1.1018097603536026 0.56621058150986892 0.59016671784558794 0.025964770549215654 0.10927519751022867 0.40949862085651439 -0.674109597953643 -1.2269771574252275 0.32911582176945336 -0.15722896692076832
decision_type=2 2 2 2 2 2 2 2 2 2 2 2 2 2 2 2 2 2 2 2 2 2 2
left_child=1 4 6 5 17 10 14 -7 9 -6 -3 18 13 -5 -2 16 -8 -1 22 -17 -16 -14 -4
right_child=2 3 11 12 8 7 15 -9 -10 -11 -12 -13 21 -15 20 19 -18 -19 -20 -21 -22 -23 -24
leaf_value=-0.0074145536975113099 -0.0016375406275981115 -0.0052356159673758243 0.00017410408131471249 -0.0020611901602698968 -0.0043341467038326073 -0.0028357047999396606 -0.00039191624363871561 -0.00096552868131732244 -0.0062680390623449204 -0.0017270140739435275 -0.0029151876223470195 0.0018428008595515201 -0.00058887405016809968 0 -0.00071635649823867235 0.0014251193256855403 0.00058758202883313349 -0.0049763986850547559 0.00014362875863669771 0.00058806424977332985 4.0777682809081052e-05 0.00017544112263744068 0.0013354270870712332
leaf_weight=68.999999463558197 48.099999845027924 55.79999977350235 26.099999845027924 72.499999284744263 68.599999248981476 110.79999953508377 97.099999129772186 94.999999225139618 20.699999809265137 77.199999153614044 88.599999248981476 1109.8999974131584 43.799999535083771 43.599999487400055 41.799999833106995 71.899999678134918 112.69999885559082 46.899999618530273 44.599999904632568 202.99999845027924 116.49999982118607 75.199999213218689 184.49999934434891
leaf_count=84 52 62 30 115 110 123 123 118 33 122 113 1181 65 67 46 81 159 57 47 261 121 118 211
internal_value=-4.82261e-06 -0.00289742 0.00121084 -0.00197747 -0.00476777 -0.00281874 0.000211329 -0.00202224 -0.00348894 -0.00302403 -0.00388289 0.00170935 -0.000680724 -0.00126993 -0.000503677 0.000536959 8.53671e-05 -0.00651642 0.00108874 0.000844302 -9.43635e-05 -1.96986e-05 0.0012402
internal_weight=2923.9 867.7 2056.2 585.3 282.4 350.2 691.1 205.8 166.5 145.8 144.4 1365.1 235.1 116.1 206.4 484.7 209.8 115.9 255.2 274.9 158.3 119 210.6
internal_count=3499 1187 2312 781 406 416 843 241 265 232 175 1469 365 182 219 624 282 141 288 342 167 183 241
is_linear=0
shrinkage=0.0181051


Tree=32
num_leaves=25
num_cat=0
split_feature=29 29 35 29 29 17 13 29 30 13 18 29 25 29 29 18 13 30 32 18 0 13 30 29
split_gain=27.096 4.70414 2.1216 1.07163 0.94298 0.707206 0.546296 0.493576 0.391032 0.284138 0.315373 0.256255 0.365092 0.244896 0.242126 0.230511 0.199929 0.0743776 0.0555927 0.0470879 0.0465039 0.0428367 0.0590492 0.0281497
threshold=0.41246599640597631 0.73356173272731562 0.28319916994352662 0.25965884964632963 0.082533061006109715 0.58438673883733394 -0.73892517031605975 0.58928222411762776 -0.14075892088506434 0.019192756380621501 -0.28355712920862336 0.33671341497982504 1.4433766416707454 0.59352893931882711 0.87834256693329971 -0.52010023210135847 -0.96840529238889528 -0.37660355069122081 1.6194827219045596 -0.66665703518945452 0.21813905006161069 -0.87332466180487034 -0.025785393987204648 0.16724752308996652
decision_type=2 2 2 2 2 2 2 2 2 2 2 2 2 2 2 2 2 2 2 2 2 2 2 2
left_child=2 6 3 5 15 23 7 16 17 -5 -11 12 -6 -10 21 19 -2 -8 -9 -4 -13 22 -3 -1
right_child=1 14 4 9 11 -7 8 18 13 10 -12 20 -14 -15 -16 -17 -18 -19 -20 -21 -22 -23 -24 -25
leaf_value=-0.0067819937442553596 -0.0007013638322972476 0 -0.0036344695240636063 -0.0036479369991903911 -0.0021442749655386072 -0.0018923865473704704 -0.0014966080314394177 0 2.8003362838230113e-05 -0.003276741339323451 -7.5235142229069336e-05 0 0 0.00088686946129275192 0.0018769107692220453 -0.0054903616273431297 -0.0028268929770021256 -0.00016833076248598145 -0.00080527020127880771 -0.0010144358473593285 -0.00081754459244587981 0.0014652650187094835 0.0010378345589809911 -0.0048032648571901919
leaf_weight=69.599999487400055 45.699999809265137 28.699999868869781 18.299999833106995 97.499999582767487 255.99999731779099 24.999999761581421 38.699999630451202 119.69999974966049 272.59999746084213 21.699999749660492 32.399999856948853 22.79999977350235 22.899999737739563 215.7999986410141 799.99999868869781 35.499999642372131 45.299999892711639 55.299999475479126 30.399999856948853 19.599999725818634 40.999999582767487 383.49999839067459 162.5999995470047 63.29999965429306
leaf_count=84 51 32 31 108 394 34 55 126 366 29 36 30 37 266 833 51 48 72 34 30 67 439 174 72
internal_value=-4.97697e-06 0.000992839 -0.00304212 -0.00421286 -0.00214667 -0.00534449 -7.74564e-05 -0.00081119 0.000208683 -0.00296654 -0.00154896 -0.00169583 -0.00194712 0.000428492 0.0016414 -0.00411189 -0.00187216 -0.000824286 -9.96414e-05 -0.00255012 -0.00043657 0.00129578 0.0009024 -0.0059167
internal_weight=2923.9 2198.3 725.6 309.5 416.1 157.9 823.5 241.1 582.4 151.6 54.1 342.7 278.9 488.4 1374.8 73.4 91 94 150.1 37.9 63.8 574.8 191.3 132.9
internal_count=3499 2496 1003 363 640 190 1018 259 759 173 65 528 431 632 1478 112 99 127 160 61 97 645 206 156
is_linear=0
shrinkage=0.0181051


Tree=33
num_leaves=24
num_cat=0
split_feature=2 2 2 34 1 2 13 13 28 2 16 2 2 2 13 2 13 12 2 18 14 10 14
split_gain=29.348 4.08946 2.84587 1.7431 1.49645 0.683632 0.461504 0.362461 0.353906 0.532536 0.255606 0.233766 0.219946 0.206864 0.369231 0.163378 0.15331 0.0933294 0.0889091 0.0819324 0.064576 0.0585893 0.0160284
threshold=0.48346985301700302 0.16596961320140904 0.74536034372638793 0.43031881806404371 -0.05157106271214764 0.32839489190374532 -0.73892517031605975 -0.27898681847939844 0.16778700923029982 0.08105724035726701 0.8027048600496417 0.81814124382931719 0.56621058150986892 0.31173251074761227 1.1018097603536026 0.59016671784558794 0.025964770549215654 0.36371213754407083 0.10927519751022867 0.62264031150447297 0.40949862085651439 -0.674109597953643 -0.15722896692076832
decision_type=2 2 2 2 2 2 2 2 2 2 2 2 2 2 2 2 2 2 2 2 2 2 2
left_child=1 4 6 5 18 10 12 -7 9 -6 -3 20 -2 14 -5 16 -8 -15 -1 -14 22 -17 -4
right_child=2 3 11 13 8 7 15 -9 -10 -11 -12 -13 19 17 -16 21 -18 -19 -20 -21 -22 -23 -24
leaf_value=-0.0071778904285364088 -0.0015766281587144423 -0.004263596522641089 0.00015608434885318423 -0.0020140284313507639 -0.0041940118808033687 -0.0027277709033487647 -0.00038234527521480903 -0.00092986129314952877 -0.006113183030036223 -0.0016571904472058492 -0.0014688889974577859 0.0017786496894157254 0.00024998423626916122 -0.00076507278485803717 0 0.001385136476783421 0.00057720261850517716 0.00019462935512403433 -0.0048023731679352555 -0.00053481409767777493 0.00012462014845818917 0.00056633571186808743 0.0012879487735153112
leaf_weight=68.999999463558197 48.099999845027924 113.2999991774559 26.099999845027924 76.199999272823334 68.599999248981476 109.5999995470047 97.099999129772186 88.999999284744263 20.699999809265137 77.199999153614044 25.299999892711639 1109.8999974131584 76.699999868869781 49.299999475479126 44.999999463558197 71.899999678134918 112.69999885559082 77.599999189376831 46.899999618530273 81.599999785423279 44.599999904632568 202.99999845027924 184.49999934434891
leaf_count=84 52 140 30 119 110 121 123 110 33 122 28 1181 80 73 69 81 159 121 57 87 47 261 211
internal_value=-5.36742e-06 -0.00280112 0.00116943 -0.00190767 -0.00461656 -0.00276606 0.000205729 -0.0019737 -0.00337957 -0.00292113 -0.00382745 0.0016498 -0.000485964 -0.000699668 -0.00124565 0.000521432 8.42212e-05 -9.73955e-05 -0.00630511 -8.97767e-05 0.00104925 0.000817799 0.00119637
internal_weight=2923.9 867.7 2056.2 585.3 282.4 337.2 691.1 198.6 166.5 145.8 138.6 1365.1 206.4 248.1 121.2 484.7 209.8 126.9 115.9 158.3 255.2 274.9 210.6
internal_count=3499 1187 2312 781 406 399 843 231 265 232 168 1469 219 382 188 624 282 194 141 167 288 342 241
is_linear=0
shrinkage=0.0181051


Tree=34
num_leaves=25
num_cat=0
split_feature=28 28 28 7 4 12 28 13 28 13 16 28 13 12 29 38 30 4 12 28 28 20 31 31
split_gain=26.3774 2.90863 2.56661 1.97411 1.05559 0.605946 0.564526 0.483637 0.449799 0.387198 0.36851 0.336984 0.218894 0.185826 0.107658 0.106353 0.0892856 0.0632934 0.0472827 0.0471716 0.0423045 0.0250105 0.0203533 0.00791139
threshold=0.49672139652942177 0.31343133613685953 0.79054062831532346 0.28611478578244076 0.42732930479170467 0.99777868596366404 0.077375205267190716 1.2698581766699191 0.19042430026036719 -0.28118796402754093 0.20164307704373782 0.57003097407497894 -0.6968460595979814 -0.071486949836632577 0.73356173272731562 0.8020960952100552 -0.12570286032242392 0.95753849392790502 0.34745714050122473 0.4163257870631652 0.92603908236963994 0.42052951412704936 -0.078359198209481742 1.2016493427724686
decision_type=2 2 2 2 2 2 2 2 2 2 2 2 2 2 2 2 2 2 2 2 2 2 2 2
left_child=1 3 11 5 9 8 17 -8 -1 23 -11 13 14 21 -13 18 -14 -5 -6 -17 -4 -2 -15 -3
right_child=2 4 20 6 15 -7 7 -9 -10 10 -12 12 16 22 -16 19 -18 -19 -20 -21 -22 -23 -24 -25
leaf_value=-0.0062718632667775861 -0.00097881408211527264 -0.0024389698115878287 0.0014669955629358392 -0.004992044823312395 -3.3385789161490976e-05 -0.0014401663109764359 -0.0024240053304193706 -0.0002755302775153157 -0.0039652208902822639 -0.0022943297016618817 -2.8355066047594191e-05 -0.00010389328907933159 0 0.00047600326907126545 0.00062318828130772971 -0.0011454247287262206 0.00095955962897440903 -0.0025254860783586052 0.00062690927283554543 0 0.0018714544368203328 0 0 -0.0041989586991006949
leaf_weight=98.699999272823334 81.299999594688416 93.599999606609344 562.79999804496765 38.699999630451202 48.499999463558197 23.499999761581421 185.09999805688858 55.999999344348907 92.299999475479126 52.899999380111694 59.799999713897705 170.49999958276749 47.299999594688416 55.099999308586121 95.899999678134918 36.79999965429306 324.09999799728394 29.899999618530273 48.099999487400055 20.29999977350235 623.99999916553497 22.999999821186066 30.699999809265137 24.99999988079071
leaf_count=121 92 104 622 58 71 33 284 90 107 73 67 181 60 84 104 59 400 47 71 31 645 30 37 28
internal_value=-5.50881e-06 -0.00256883 0.00114618 -0.00345902 -0.00133014 -0.00484559 -0.00246556 -0.00196752 -0.00521088 -0.0021059 -0.00118297 0.000356675 0.000561646 -0.000277068 0.000119349 -9.59934e-05 0.000851286 -0.00406647 0.000189231 -0.000758131 0.00168829 -0.000817436 0.000260285 -0.00289644
internal_weight=2923.9 909.2 2014.7 524.2 385 214.5 309.7 241.1 191 231.3 112.7 827.9 637.8 190.1 266.4 153.7 371.4 68.6 96.6 57.1 1186.8 104.3 85.8 118.6
internal_count=3499 1244 2255 740 504 261 479 374 228 272 140 988 745 243 285 232 460 105 142 90 1267 122 121 132
is_linear=0
shrinkage=0.0181051


Tree=35
num_leaves=23
num_cat=0
split_feature=2 2 2 34 10 12 2 2 29 12 2 30 12 2 30 31 9 1 12 12 2 2
split_gain=29.057 3.49811 3.2184 1.93103 0.927267 0.770316 0.742008 0.672555 0.5322 0.44168 0.331716 0.328941 0.154494 0.151699 0.144836 0.14387 0.106261 0.10496 0.0802664 0.0774167 0.0666289 0.0257318
threshold=0.43090836500679347 0.092593749373691317 0.71655763320362897 -0.26697662400679373 -0.023318740141601697 -0.69313007589426057 0.26587489860376295 0.25496523334827431 0.24680129194237352 0.41605787493782492 0.81316042096379026 -0.37660355069122081 -0.054046753594662794 0.59496859892119047 0.14382612409616943 1.1411172145848627 -0.99848533577260279 -1.0447222952584374 -0.71486202146781108 -0.25595408424562843 0.63673976504690544 0.92697523331447129
decision_type=2 2 2 2 2 2 2 2 2 2 2 2 2 2 2 2 2 2 2 2 2 2
left_child=1 4 5 6 -1 15 -3 8 -5 -9 18 -6 13 -7 -13 16 -2 -14 -4 -8 -17 -12
right_child=2 3 10 7 11 12 19 9 -10 -11 21 14 17 -15 -16 20 -18 -19 -20 -21 -22 -23
leaf_value=-0.0075164772591413808 0 -0.0057862111350821879 0.00047947574657741457 -0.002012510134582019 -0.0057692483266638776 -0.00036432488104315403 -0.0034283066082135259 -0.001735218622935422 -0.0047048396877223918 -3.7722150540066628e-05 0.001467592928698857 -0.0012779943656975991 -0.00020051355130756669 0.00053424923431220895 -0.0041050085399915023 -0.0024091087112607943 -0.00087582093555130724 0.00087332245159487786 0.0012395495045095747 -0.0014371261322462998 -0.00043271530402123041 0.001863653212469135
leaf_weight=60.999999582767487 63.499999821186066 66.29999965429306 133.59999966621399 197.49999815225601 35.499999701976776 113.09999918937683 69.599999785423279 123.19999897480011 36.799999594688416 106.59999895095825 480.29999840259552 28.199999630451202 17.099999964237213 125.09999930858612 23.29999977350235 31.99999988079071 90.799999833106995 236.79999762773514 193.89999902248383 30.599999904632568 25.299999892711639 648.99999892711639
leaf_count=73 68 75 142 295 58 139 75 163 54 165 527 44 18 145 38 35 95 341 232 33 28 676
internal_value=-1.88672e-05 -0.00302104 0.00105831 -0.00240431 -0.00557951 3.78657e-05 -0.00412447 -0.00176508 -0.00247915 -0.000992409 0.00154419 -0.00410352 0.000444519 6.45425e-05 -0.00275615 -0.000859388 -0.000475024 0.000760609 0.0009608 -0.00292257 -0.00171544 0.00170429
